-0.013569254742702572,0.0425083631651828,0.07950046424781876,-0.04032795327723356,-0.0656575191402696,0.03253755334565231,-0.031850551278292186,0.06863161547204943,0.04768567457978963,0.0872139617423504,-0.05678977101881602,-0.03850227406289675,-0.0033946190631965792,0.03654516890566352,-0.04069234632046451,0.03422058581839256,0.043380628340704656,-0.007945618213896026,0.024662786438259712,0.0817151613347368,0.0031101658891644042,0.09313259939696984,0.06473803864707965,0.02460894689713403,-0.05040786498761949,0.056714461520041004,-0.02126028602371686,-0.05714794174698775,-0.03531134371522927,-0.010379001786334607,-0.04881212018250237,-0.08362557544841376,0.04906245261370932,0.05900203045484475,-0.08601328930005799,0.011577924997581701,0.009403257563926947,-0.06708110224875655,0.012857995365132232,-0.045707219642337316,0.04718497753645932,-0.0035827340992199107,-0.0482681239133302,0.06722873397443876,-0.061824326184226584,0.0889873910170941,-0.03299128723180785,-0.003725764900472138,0.07983579838359874,-0.004768236153344243,0.009349455728433808,-0.0785977042870845,-0.03123966832022878,-0.038708899807655954,0.07313835357699353,-0.038943673357975814,-0.08125911432393124,-0.0926807341484922,0.047989002985917975,-0.04134171998917536,0.054358950376866645,-0.02970106742375175,0.03222913963517298,0.04466223827534352,0.007757890373331041,-0.009181251651665008,0.02932340459325852,0.06880327805047898,0.03017371705026011,0.0963480091395298,0.0032513551444643437,0.05502176129366049,0.09085690239400597,-0.04694123640871727,0.08484427149602551,-0.008729567434937201,-0.06993701485898197,-0.04512935816193514,0.015710741897577006,-0.06326679881685679,-0.02943288025872815,-0.08461940089056529,0.028312404074848484,0.05624598540423267,0.08550205623325365,-0.038958868803052236,-0.014408008063631001,-0.04203693570067175,-0.08287752195702966,-0.02395410090827671,0.03464064334238956,0.003215674499613122,0.0223681742404432,-0.05551899524686807,0.0028388678318234774,0.07228997429783225,-0.01826080511618783,0.059083389728684814,0.038267774753933496,0.0005436997038709937,0.05332586856119376,0.09802150981214533,0.032681369567974475,0.024359320929210043,0.07323807279809563,0.005309284173306757,0.07744679877573725,-0.00018387734390687912,-0.04499124701431655,0.001049659720192742,0.05025028476137453,0.00244247266285935,0.03752543968696921,-0.05459456630447917,-0.07433601167919056,0.012299236000908563,-0.03666850525731391,-0.056324909497305405,0.01667573037359598,-0.06894484924803324,-0.0932168778729818,0.04443510823185746,-0.06778243714268438,-0.06457568157949956,0.03924403756464678,0.10599231162334716,0.09601854084446751,-0.04471107346590171,-0.06421780679253902,-0.028207272186069672,0.02258974042795476,0.1145971317300616,0.01794692082316105,-0.013521474051984743,-0.021722713868236737,0.006611664707874624,-0.04590177630461853,-0.04122409257779698,-0.020333236679380685,0.04616142957320765,-0.057143964343836826,-0.07815042350661376,-0.04163209260732409,0.009844477780011227,0.04726077852782928,-0.055935584143311526,-0.016418112857260258,-0.07668865394812623,-0.05075477015752424,0.021948797681517307,0.06106263489090597,0.0752700809283356,0.12271400947436284,0.06473239281674818,-0.01800423379296166,-0.03341955622434205,0.021167542790725996,-0.12536040295204176,-0.058514204657141605,0.04195970224763297,0.06725612500717627,0.11855129991039506,0.10352253771728821,0.059866920244820855,0.0550858413761775,-0.04218598163603914,0.0406204787018441,-0.04545741690047342,0.08278872544826602,-0.07829213865479204,0.05090558472049713,0.06487687626813211,0.025442612890211356,-0.07602594668354976,-0.18268635057013918,-0.08078211077618314,-0.09460580669199148,-0.05880476200184291,0.019323925481918636,0.16302343156450536,-0.03549801049317641,0.06871032135920034,0.017432221108278356,0.17036150789946644,0.15148941315872783,0.09908192528397247,0.05894909815869568,0.10437950969362403,0.1669948165924342,0.07047311535640977,-0.014001985524707565,0.00311434739369333,0.09265628262419658,-0.0177211298849674,0.00015871972756123135,-0.0786610578277784,0.013419536319359333,0.04798630506948244,-0.0013655678785598163,0.015225292391393122,0.019059935704153673,-0.16112921821431003,-0.05461142288757092,-0.06203611910556749,0.08195667092307991,0.055068698061978234,-0.011500265088430127,-0.009536959822414273,-0.09067276868648111,0.056306449303203394,0.17234109328672137,0.2271174162805299,0.0762541806651799,-0.05831037678069514,-0.07843763495180021,0.033780180349419146,0.18301937393761772,0.06496928095546155,0.012842020800236022,0.04955801133088627,0.051588862684688166,-0.015856379636688116,0.0602620199908419,-0.046933214039578286,-0.02926912429599483,-0.08122596629813877,0.017938731167739287,0.013339119863503947,-0.11051252569396322,-0.05124508453120656,0.07006927597674766,-0.008342970306138862,0.04921163677386647,-0.05004058812489363,0.10290276046316085,-0.04880779649555592,-0.05543102990385613,-0.08925481734435133,0.0159749766292941,-0.06776766125866933,-0.018281908475929618,-0.12356619215832802,-0.133930382159846,-0.09969532641729628,0.05679787760896747,-0.06331409552507403,-0.052967101895328196,0.039303347023660416,-0.15501813266634962,-0.12598471825975338,-0.1093443165936448,0.022794477449630594,-0.06832875034432852,-0.07088439333205218,-0.04799710758143285,-0.07982615530326781,-0.06631203346755613,-0.063993765167043,0.0931118966816044,0.05593109321164907,-0.055537039840869294,-0.05122235326330876,0.06420745084339002,-0.008219289083201022,0.04295592853429529,0.09515191433641823,-0.09969830904155635,0.005316055087980184,0.052859186447618015,-0.008234576660858285,-0.030108643652595104,-0.049809770457887155,-0.12200994348850776,-0.029679590462955506,-0.1222371048660823,-0.10603568381827276,-0.08879179374001178,-0.05804345089726516,-0.05318243273897833,0.07103234543127986,0.015946642649930093,-0.0014158109192292908,0.00979996885978419,0.04459788127511532,-0.07211487376444405,0.0407388414365904,-0.1577530732049762,0.01703311310914146,0.07703393425896465,0.1256739097191774,0.061184562223943945,0.0009475246671963513,0.0032949020261513707,-0.009944835583958615,-0.0670691937144309,-0.004869022047204309,0.07693594292199982,0.03062439220562607,-0.04911950027322803,-0.036659509391959416,-0.03203754995165782,-0.033117812338362494,-0.07919091344875773,-0.1330724015246303,-0.014675300715043341,-0.06642317100854131,-0.07135171762255994,-0.05524237744438163,0.005179281745584601,-0.03893527345082617,0.04022119347349965,0.06642299660132074,0.11914088936585525,-0.008355546970431308,0.016868775622855655,0.034647318998232556,-0.006108581503400375,0.061577022567447855,-0.02521996586737422,-0.020811319448338986,-0.05739574879282568,-0.17563430009955427,-0.04132022165072436,-0.022779960033988595,0.1772464723058518,-0.01235720268937493,0.06421671198746534,0.15403319715074248,-0.021471274160209858,0.012616434259786003,-0.013646986795980627,0.01065117206637192,0.0018711378523270752,-0.10341179443933998,-0.012168012223864072,0.03084871017446967,-0.024299946705237142,-0.04015199101652252,-0.007290848836785504,-0.004946968833685112,-0.004135313163365515,0.028687122557772272,0.01344765786499975,-0.04474565623708847,0.1004242823854994,0.09932360718692392,0.016762311275719515,0.016369917563739077,0.06343610194029382,-0.16365739982124367,-0.000526209725529328,0.13440124977964757,0.06522388861149778,0.008879058956154526,0.09643286373010082,0.1345793020610965,0.01433577825034792,0.05586207379937538,0.12832860779232258,-0.05541073984641937,-0.03641278236634095,-0.08900812712961091,-0.028871962351232648,0.0020552364953107362,0.06887597103915248,0.0592133272570388,0.06531805408218819,-0.06654511625469592,-0.10009406424153054,0.025833852503249252,0.09733202390392579,0.1753694052962793,0.1352024355472759,0.021729466194122322,0.17051291377043162,0.15200891780564357,-0.017714641041015285,-0.15572897964998345,0.04566632233775951,0.06878541156861119,0.09192456390103232,0.06094703107479318,0.12058064240240232,0.08363329595012842,0.020161771838780262,0.05139849292446937,0.03275195329398695,0.0759055091275366,-0.07866293882409074,-0.06113745714295666,0.02469318801764441,0.012825828972603152,0.014332522743962794,0.029183894718718163,0.004394192797036913,0.03507318786340868,-0.015107927849003834,0.058472115383684964,0.08678454336419807,0.28841494857820604,0.10821374703593782,-0.012029480967999592,0.08306860258709886,-0.11430373950161615,-0.09555664478736532,-0.024701777893889203,0.2532693864231269,0.19000489551412944,0.07202430383139212,0.08005221665967482,0.1636050685592119,-0.09022570680362534,-0.06689372424186571,-0.038215188641740845,0.06731303760464913,0.004101306864260172,-0.032130373820600126,0.026537025408844783,0.06413574297585792,-0.06698320767603698,0.02851809246852745,-0.07257854078691374,-0.02853774016457141,-0.055379801386782015,0.02594789272468124,0.0498041016028532,0.21274744371230608,0.10641857443688114,0.09066094866144438,0.11629011666545731,0.07839014287943921,-0.011480311899450061,0.0866433100071131,0.07952408544924296,0.24750671810510266,-0.0628166193686756,0.05774719926810538,0.30063048245370616,-0.09086845150725817,-0.049454511845504256,0.04448594524980635,-0.018170459442284525,0.06067174949387379,-0.09086015397378129,0.01920567120162072,-0.03997528163895263,-0.0801550041434404,-0.0032121823617823763,-0.002182003024481642,0.08092111019494429,0.024759842675643153,-0.0023805721000768514,0.024036292809415973,0.025738738418876903,0.22631247316571795,0.16595490663172457,0.17195557856670962,0.1269566852209108,0.15671174934686474,0.09597604488787514,0.16770532947809264,0.24401978303248045,0.20140948612820087,0.16130675337295622,0.10053387632933095,0.01461578312672978,0.028970053600688394,0.0021934853170038657,0.017620448360305362,0.0029124918658633933,-0.14767879527740566,-0.023684968525646652,0.06268215543094106,0.017219299004899845,-0.080111413931478,-0.04511546681920961,-0.02502936344489779,-0.05645407057449423,-0.06241102403068095,-0.10651546219997762,-0.05737959516321445,0.10715878948010822,0.027373467333754183,0.03838894189174288,0.11842234792568586,0.0898133439218698,0.10062556104442744,0.07610232127479477,0.1390740294784979,0.27319626339070063,0.09886079785938376,0.16695311868987112,0.15040676280528817,0.04574233401271444,-0.06478913540859382,-0.0786681639275083,0.019508227290029063,-0.020459038957186055,-0.12947238538244552,-0.013255711492055417,-0.09742060424757056,0.04528933228767566,0.011159602963798325,0.04881661820820431,-0.011043562472692553,0.04666489938288076,-0.05887687601707295,-0.07069562659959587,-0.04709272210602888,0.0200120813333675,-0.014565170254884994,-0.040749286534541136,0.030297628683137144,0.05219543728030052,0.09596927674467313,0.020804819501553266,0.1984433307627519,0.3185076224084118,0.35384829238713184,0.16245087849048695,-0.043313229472459566,-0.1064009739581529,-0.09215182755419375,-0.009711509682768649,0.056705313969342794,0.0017103177576778135,-0.028905475917396787,-0.140183901710852,-0.00561770842616746,-0.028373654557798816,-0.02820893714941896,-0.03623989064266467,-0.0260024099087321,-0.0912356674695317,0.02708603509630186,-0.05102622286813243,-0.05292293695364743,-0.041516006636110644,-0.08844408977172082,-0.08279748751419896,0.018100295050328064,-0.08100265262251348,-0.043308965673477785,0.07667850744967768,0.02363395383890467,0.18073907409752657,0.2608421617441948,0.0021346607547380854,-0.11389898029737827,-0.05014187078073738,-0.12246316872767196,-0.027509406911666676,-0.1270658120675948,0.01711362621758439,0.08546725892798815,-0.03344311071442551,-0.011738129583217388,0.08630995981402051,-0.027659024885089267,0.007685228094961177,-0.04340093229748066,-0.04834786360454408,-0.0561260090508862,-0.02848900056118095,-0.07287414361012515,-0.09090702709790184,-0.030863800829170722,-0.047295456295717055,-0.030478788866453662,-0.12676412561627567,-0.03626168345908599,0.038174989051639636,-0.03630585993554474,0.029790801515407143,0.04403613411627867,0.05119252250165254,0.007472657579456462,0.06906336315461012,0.0923032977597643,-0.015950621661034125,0.0643926103794841,0.026533316914982515,0.05656600669619585,-0.02363645345492083,-0.05642575694086549,0.03936586528696434,-0.0012980623051964686,-0.07976829773399273,-0.05484759764666962,0.05012977235445742,0.03147936827940578,0.03188104906778089,0.014827253928390498,0.01594222963586402,-0.05695925584851371,-0.04328859325356381,0.06506610026859758,0.008843276543473833,0.17915441732206036,-0.04174975250376477,-0.127939209976291,-0.005106362445531437,-0.06976889376091258,-0.06649756156813275,-0.009603204947205221,0.07218449469465935,0.03324852882319562,0.13051865305399454,0.07524947466942862,0.05472305363681049,-0.0107506772841459,-0.024502874415289904,0.011262959272095219,0.060630890156750376,0.02612575318754784,-0.017739345306080068,0.0611734024966286,-0.08257285901910055,0.050518175533697016,0.057130489140559806,-0.10650042388092873,-0.04678760175805127,-0.03705018934724558,-0.06355710314528804,-0.013336119995485046,0.013501272847427952,0.04846157107928962,-0.02824332277964373,-0.16654772305556306,-0.1046890400790139,0.04261885467411252,-0.023405994622340113,-0.01955615225365061,0.054824135004910096,0.17682588447214795,0.13068716721047985,0.02085596508377601,0.009164339620528348,0.06271851529949118,0.09751655418058502,0.0638342355937472,0.08102470860105786,0.05887067977135128,0.03031985171507873,-0.025167610065978327,-0.03120475649887306,-0.03133695344064733,0.08536768402712097,-0.046722814368752474,0.017039895376723204,-0.09129125377871242,-0.07355872097595588,-0.14715366594343945,-0.046687636166273194,0.07583956562844209,-0.048577341320692136,-0.0910341266392184,-0.11968666497975743,0.03214829019887677,0.14193246899232692,0.0654251295154013,-0.005460209724085194,0.08063839932903724,0.09387630025564556,0.10373622564891571,0.088610738088067,0.09559709984898913,0.023215618944557207,0.027498973965519778,0.007061450221618875,0.0486215909037716,-0.07927428727934116,0.04682375080217783,0.03984764494560427,0.02285032804615071,-0.03815415155251205,0.07252081600610245,-0.035009629853223895,0.00128576446451502,-0.012738030499368483,-0.062437090242664715,0.029580752997623107,0.017413499794227814,-0.04376443965444228,-0.09406756177134742,-0.08327230277882197,-0.23019960300840914,0.004019432649789487,0.07580487474063809,0.06677887622527642,-0.010003120411485893,0.03808373171798182,0.18522691241238595,0.059782235563139344,0.02040203795756311,0.07513427848547534,-0.049933518662429656,-0.023316910538988996,0.07459606267945751,0.0010600946694708103,0.08374288352716631,-0.05847664649732936,0.023167499778793402,0.08311489623064065,-0.08315099938674222,0.026929154551166585,-0.07628292876866126,-0.11190705758364114,-0.12154004231974114,-0.11768822911836913,-0.04616563392177423,-0.0932366652210345,-0.10655671880992724,-0.0647560033038987,-0.05322728808395494,0.07178872095812738,0.08448754086548642,-0.04170460890877232,-0.0023020251167308555,0.02091173244675255,-0.006191352278816799,0.0066614059113455975,-0.04942327799636374,0.04925094339790754,-0.07494295692437886,-0.030087503157412498,0.04800299383729111,-0.06983725872796896,-0.027949060859203203,-0.05850498997105416,0.03114631383713565,0.03340866496802863,0.06928989687520848,-0.03288840033454615,-0.08571209795522151,0.04874754892268272,0.027237046844455277,-0.05366361495807079,-0.06701623678041214,-0.12028288833401801,-0.047014309911787185,-0.10436052013124288,-0.0885587536320367,0.015564126113764856,-0.04377814476692081,-0.005670071588575006,-0.1015569399462158,-0.08343187636876447,-0.020222370215337685,0.057659687876186146,-0.030170908452404412,-0.017857337371688018,-0.08305499996774009,0.007081814307913242,0.01878252858013171,-0.06717828377310499,-0.08232489588995875,-0.06592201272252732,0.06535019520614693,0.00507539997226873,0.0036298670676449536,0.06892949464061192,0.036969666994744486,0.006195575724021895,0.044237875997589084,0.07633107865201297,-0.07097044974447117,0.044033915413774695,0.0742110266511835,0.047987750017848295,0.07877858707160916,0.07909366035835377,-0.08006926355565121,-0.0441402479431656,0.009424734820747493,0.07788855772602933,-0.04774838347109463,0.016014000944571373,0.012584659405180245,0.07907724470882896,0.048960010852407566,0.04589198545036146,0.05745131981313351,0.053308530408584666
0.01875973614293812,0.007318180524825603,-0.08614831076478237,-0.05837884026616801,-0.0012898758502371593,-0.04186950490728589,0.00671793469444231,0.08172612113703331,-0.043939146690494556,0.021540735784604532,0.004338632408782822,-0.022569688208659264,-0.001367676060618309,0.011597860098923865,-0.004243967464863646,-0.007339445973077569,-0.017570584487188266,-0.04791456776580773,0.06298861763097137,0.0022620505346185047,0.06239088176018408,0.06750009050478221,-0.033134213641953805,0.04954329897448032,0.04812719463776819,-0.01231360264609456,0.06930990641617592,0.005641859557958986,-0.06488012565795138,-0.02264030649777748,0.056150360215953925,0.03168688163630861,-0.06626656336230537,-0.05289615897649639,0.07213835521270333,0.048194730237688915,-0.01636209602584518,0.06744333654907056,0.07695458110936441,-0.011785179081741476,-0.011769927465800384,0.0829793759780802,0.009118978297970792,0.07329185817937707,-0.006415660197699716,0.028607164224797865,0.05670287615714924,-0.03987441217629452,0.078235600793383,-0.07565225708532543,-0.0010181182608372205,-0.0644020156019876,-0.045334329399032335,0.04987369547994034,-0.011741521600280911,0.08349402877675173,-0.07264648690266484,0.07319239351498431,-0.04776557841791994,0.03931050615044625,-0.005569174057957346,0.03741631163987576,0.07187103214225936,-0.0147318263678164,-0.03673409708323886,0.004350919554097003,-0.026452945377660724,0.030717034383665964,-0.06150950703241135,-0.004826227863690577,0.032964138876014216,-0.0526233697844329,-0.06426786314776362,0.07916137583265177,0.06937312165623948,0.0711381664809863,0.0655282527919974,-0.027735767931939135,-0.03026512140945099,-0.04886318011696035,0.040522287839074383,-0.08306815655987139,-0.040853670121800634,0.0467291648116609,0.08061268104434827,-0.07916021506894476,0.06792865225579066,0.051511762053984896,0.05318959896634097,-0.06807134467667883,-0.005789684087204978,-0.04644840878112285,-0.03999340929655956,0.12576898002973141,0.043406371549234164,0.15434435723887865,0.01247887613243862,0.09123403722420645,-4.8397328353264864e-05,0.08465282812658059,0.09900696092974462,0.11593569060078493,0.0702568537531348,0.12241976156117168,0.0156344135184487,0.11130493948517668,0.011313129805366355,0.08160005572481671,0.034515663798324034,0.00719123649865505,0.02042135768387343,-0.017414354276219197,-0.021988999861495558,0.017155521141926776,-0.054502305917728235,-0.07255927824605511,0.07389349619156663,0.061573081895474606,0.05841868758071379,0.005184124935368958,0.06816695153057033,0.013355752431341144,0.10365907117359115,0.1433347776255012,-0.08943244949023184,-0.12255790784809883,-0.08404405246358558,0.06524204273467038,-0.01830894891180525,0.13808142065545234,0.15968099758695467,0.16515876123777454,0.14275714993869204,0.11047634397387113,0.02160645658053366,0.023315852542771957,-0.058073298802936164,0.04768362858240342,-0.023312522355083062,0.08412885364957651,0.027531903782392873,-0.07790179711140204,0.05745445277875057,0.048433935783580746,-0.010536999239522352,0.04660127786075653,-0.016258402422783945,-0.0027093003760822873,0.055026401434544715,0.11270044404415348,0.02700170500584622,0.04721761056728366,-0.033411837739374894,-0.08050376650625343,-0.10240855758312775,0.023967319613145577,-0.12130947591938387,-0.050588471683389494,-0.06751546209167507,0.06271625772561505,0.09763453967657323,-0.009350712002724179,0.011552140388437203,-0.017489890936443823,-0.06377383021344969,0.05833091576346372,-0.012565965927012118,0.0028607163755461976,0.0024293390275156907,-0.06845088595140776,-0.0786041507117316,-0.028627901978803133,-0.03628353044318607,0.015958583888378383,0.07760423497830236,0.04240854892107301,0.09433236946017261,0.10009780448779382,-0.01534494040301063,0.0016190009640196497,-0.10642234296234278,-0.06646205914037284,-0.07136291425883254,0.0177509023700472,-0.15550275204117375,-0.009000932693216274,0.04178802472682837,0.0605597898938791,-0.06624471020479072,0.04682854353929974,-0.001518741882514487,0.028572318446595985,0.012940961201993213,0.08860288844539185,-0.03659322420359106,-0.08106817615734976,-0.06355731808461426,-0.051318930218229065,0.010843828720653878,-0.010969662739184297,-0.050240830102492355,-0.08601453676028029,0.048909035845860864,0.14622596409816702,0.1390510677883013,0.1727869328535681,0.0671394378989161,0.04029484805716802,0.08514926171922511,-0.019972693584899313,0.09283558234478446,-0.0026222235158519184,0.08943265147325355,0.0930048096938757,0.10097891543172934,-0.02830129261099671,0.0102592357475567,0.03693618902034585,0.001719880777982089,-0.07174789241901913,-0.03149692648637307,-0.06359979350618457,0.04500646407046307,-0.03096137409998877,0.036259313704667735,-0.037040339394817955,-0.05705860794838041,-0.017787607324862956,0.00048542802959041577,-0.04989925944656004,-0.029684304505997704,0.02263863392403266,0.015876389732633747,0.22034035547248293,0.19940639407758967,0.23367002687516603,0.15836833921149376,0.19101974787441256,0.1382432495694881,0.09677355009850211,0.12791664970472316,0.012076627283346112,0.061332618621195475,-0.10471542548065506,-0.005645601954971131,0.002887820989153695,-0.01882936806596522,0.06229418392004083,-0.02364096079710713,-0.04402434489242992,0.05827594461890296,-0.07228559052407292,-0.008072922953534114,-0.0714173826035894,-0.05818422773187803,-0.01646491557361402,0.030988832682720915,-0.00995155590656964,0.1221506018858561,0.12693696163026746,0.14371980647626456,0.11869262028405543,0.15277358909748126,0.13658046661720927,0.16296345682334512,0.2340382264138695,0.1688975326386024,0.22946558927757346,0.055341840522526525,-0.12737566677965523,-0.07007983486572891,-0.10051786235949078,-0.005719779772603539,-0.03591024299344398,-0.07205229448109718,-0.09151511177242656,0.07173149582518588,-0.025999502587027108,-0.018121643078345247,0.07031182799369112,-0.0209413453090964,0.0360416707406488,0.04759088859998621,-0.041141918590051056,0.06962401297559753,0.042720973993625296,0.01319026330112809,-0.0168008719040691,0.12823622801232162,0.18786388159708461,0.12432309007906893,0.15979526530387833,0.18105081702106282,0.21062821279033592,0.13300509759211834,0.047664868678055444,0.12670311314580704,-0.05789371240957993,0.014689899095346258,-0.0863636041336414,-0.0243629282244921,-0.03302881478495036,0.0384930084650853,0.09641521172035869,-0.0011597572300358215,0.07153798062514673,-0.07391278278761933,-0.05875273152745583,-0.007278112094349051,-0.03041892740708894,-0.07424993701551846,0.08295053132654692,0.0025448585292095443,-0.01145415552544892,-0.04132947600569203,0.03558260916621192,0.08157041297906598,0.1260741877324609,0.027984144028970412,0.0793110914921906,0.04156925150573072,0.11253878766566644,-0.043743522204276644,-0.07399546857104723,0.07279544823635323,0.024333533467880166,-0.04745971275338487,-0.15351255406698341,-0.19118871343658006,-0.0775196700336598,0.03550805967769456,0.13320217549811886,0.029844347105816394,0.058108124081083685,-0.0432708449152819,-0.02774252474731308,0.06528740964580808,-0.007077756176988468,0.09206171570335726,-0.037351780300233305,-0.04677154954545532,-0.07311606347307212,0.006978971241879947,0.07286178332233396,0.07743661637077702,-0.051899777201198066,-0.033214132846369426,0.02099942670013667,-0.13256919918438273,-0.19312687448202592,-0.1756989821981082,-0.2480693062060116,-0.011204013630591455,-0.09689185558696359,-0.07777548425834042,-0.08231918213345224,-0.14687228520686504,-0.08596838379795219,0.03239091142886296,-0.05882989783330205,0.1016186347932135,-0.05297132392523341,0.06654537696102847,-0.04453228488980237,0.06936269793635713,-0.049871362047286476,-0.04698908683784989,-0.0027767281832942834,-0.006523771816154584,0.060603315111739726,0.03296851832095397,0.0249193444447978,-0.04130315764074218,-0.09861248133066318,-0.2050978894813827,-0.13099865497950497,-0.1944169714719773,-0.2117949686448156,-0.28443345990026253,-0.02081344359007921,-0.01355004680471174,-0.0427743613635836,-0.01271544526377778,-0.07192850379510751,-0.1711448848073249,-0.10981041980820008,0.04304975310893703,-0.025218045574178085,0.07031205305373121,-0.03359130600694981,-0.024397841518706363,-0.04352727781100425,-0.0032120614640246377,-0.06332254671966597,-0.0019296347104491905,-0.0805655383609862,-0.09484318272269582,0.0004839230595374846,-0.05920031858291713,-0.07127302498860223,-0.04541249450383212,-0.044887629044252246,-0.09799614688040813,-0.11074033987056951,-0.14398073691060362,-0.053611715374766326,-0.07636859309547261,-0.07333712968877543,0.013616465239586087,-0.01087726521933253,0.013737094539225128,-0.05778340581214284,0.027284442060438903,-0.01446400548094916,0.10855399514776493,0.05547648343651207,-0.06595733124380362,-0.04996220166724633,0.06121774567791303,5.954584929307017e-05,-0.03351927040942766,0.060905465188455354,0.08611735145638975,0.04709413171264103,-0.1155383472580212,-0.12239091941754839,0.011003215450990813,-0.02090628706490528,-0.06284847260919788,0.0044529284976677925,0.0978789973744154,0.03251820734417641,-0.08642397931417782,-0.08646077595736677,0.016058563995590452,-0.026712019935024502,0.05656463674346997,-0.1096170349452508,-0.04902135428841581,0.025711160161711703,0.09912032227952404,0.01918598770250924,-0.02934226962217051,0.046319278133064024,-0.0013527018123437424,-0.019306985754250612,-0.05092303698944189,0.036289606330375104,0.07261498429299727,-0.06866520941554258,-0.05130752988956104,-0.05627603499945969,0.06591789217628301,-0.04324258349729737,0.0115565553207709,-0.031525645522453176,-0.08957071036519011,0.08001322394400166,-0.00933265502573004,-0.14212358366402195,0.01318205180093558,-0.013482305616146373,0.012254244801153264,-0.0171727627190984,0.04560464230095345,-0.01429017427160198,0.03186628428963853,-0.03997231768688711,0.012932891539824772,0.004812501625493082,0.08490542541265599,0.07245619984779046,0.0015444997918797056,0.08895467708954982,-0.06597608898247391,-0.08470512075427553,-0.012559134938883724,0.027298095019252906,0.018156383700398553,0.06916591597803441,0.07367962200559128,-0.0574375319095497,-0.08868279921329844,0.00107476113239432,0.010205039972147556,0.03743540923896776,-0.04060072646178491,-0.00031875836388319174,-0.013330093943223403,0.05998833615585909,-0.0003507204719058294,-0.13694265394502073,0.01834962266248972,-0.051150262238857276,0.04836584234674119,0.10306412717213582,-0.007154362032143579,0.05519202151028753,0.02652218885459215,-0.016573217018344858,0.04579267106255841,-0.06883780569879941,0.0339531546099434,0.047944273441806975,-0.05485029037285105,-0.03564103026527319,-0.03329641332017844,0.01682847252687547,-0.032608537674286224,-0.08498242267020202,-0.08879728098791344,-0.057705507303710095,-0.08522118974692039,-0.11640082135499967,-0.1441181019016504,0.10573252612888433,0.08754289884867175,0.10101277586898022,0.030409404590966367,-0.034412627148925755,-0.0351939455428091,0.0730188372205723,0.13647163303088483,-0.04503927440665002,0.013797195088034417,0.08760444692613732,0.16341225312430113,0.016848307524339957,-0.04668773694191838,0.0049966175849782924,-0.07254153036294156,-0.016042173494413954,0.0735134986515304,-0.07096834057586114,0.07885940971779207,-0.048910564683880484,-0.0012755609534631622,-0.006298118719836507,0.032079995897780524,-0.07082793723653809,-0.035835336016577075,0.11130532750709507,-0.07294034775472959,0.040607472720812526,0.004151894726006024,0.08604637697529238,0.05538394350262904,0.02062358110590999,0.012836221796814339,0.06317366811505694,0.04521451637882672,-0.07262403620493742,0.08475255677810475,0.07229498553008835,0.1206510871494576,-0.02524295810773059,-0.02762601561144032,0.04716766167571868,0.03749583558800044,-0.05149832832614331,-0.04111879671461865,-0.0009737563565688732,-0.07053262049765027,-0.04020540758144096,-0.005385975986817191,0.005507101935219186,0.016521977861997463,-0.037907474012991486,0.0387089899221838,0.05593358099456357,-0.06957381441878958,0.030993874915539125,0.08310249860615605,0.07280465304873478,0.022961963208909215,0.16315674571835048,0.07473998575160505,0.017524788187350468,-0.01566986845379232,0.054316495637013566,0.03026373382349934,0.09296506355151407,0.012298382556985132,0.05811125203764106,0.04983990909472479,0.03434377213241419,-0.0596164373834458,-0.016316566884143336,-0.005232945818784142,0.025997589129777617,0.06249205794110425,-0.07324742362490064,-0.09936641125608993,-0.10351857582047698,-0.047315945817338105,-0.0998854217326773,-0.036616100697368134,0.10928720481434265,0.08759512086861958,0.0621957387025855,0.007383151281443054,0.109151767703533,0.12337872583626955,0.12099464774875246,0.052377489379357545,0.09332707170058742,0.014056996604930523,-0.08164717690009776,0.01809112224388998,0.15818591007550786,0.0027983197023460906,0.027451149374531678,-0.07642747570127371,0.0006633210293103203,-0.023469545757440483,0.0710603836028,0.021875917952923343,-0.05874885634370283,-0.03780390400353236,-0.04198159351658976,0.011456169955499858,0.022212213222917488,-0.042627425429336625,0.06253554608294074,0.022827610174003126,0.029555987703366916,0.09760841780314615,0.03765189316587701,0.024368652038175394,0.005911374740042461,0.1425075426815904,0.13968286632586177,0.028988860355819993,0.02774154333497165,0.09799065723874893,-0.11315532275309885,-0.02281990547885183,0.06216229810971446,-0.007914702123080925,-0.07839817596251966,-0.03403062695934439,0.01309224061992348,-0.07249537880634935,0.06622358969114556,0.07174007081953399,0.05613774059930884,-0.010486073230268239,0.014345350261066796,-0.042528590403470214,-0.012815023312288452,-0.009189124238841957,0.0012705881309462996,0.05162787970711829,0.04086949590127989,0.10244866100350056,-0.07674080234174695,0.04051763533012344,0.04821118473810884,-0.08248893886073519,-0.018784788846705577,-0.127409305225649,0.09662931885683235,0.05579345147029865,0.012383385184043678,0.021802220447805273,0.010754233300376066,0.06314945868028074,-0.02109679808950978,-0.028096556008021405,-0.08086437691296469,-0.06257414528767624,0.05505713524141991,-0.043205030276894235,0.016474542130258066,0.06718836871175156,0.03433668781470948,-0.06715849812383383,-0.006245932844335221,-0.004402480547591674,0.11970984600308283,0.09196086794862207,-0.03376286359320007,0.025215367092844245,0.1354581746922788,0.12382549844645406,0.03879253242637602,-0.08397378063053192,-0.06869662949071001,0.003953964644891931,0.062331966084512115,-0.05653700973169329,-0.12346599794077436,0.029016789601228617,0.03555185146074354,-0.02444200265973106,-0.09280116770769999,-0.04669010238991831,0.007681085037351714,-0.07778770465776334,-0.014616858484272353,0.06888677250603742,0.014777986138408833,0.02426463476414177,-0.05795789102162595,0.05084266871823103,0.06421232631813309,0.09086334112562902,0.0418249306951399,0.0951345220718173,0.12863980378701426,-0.005739391048781748,0.20910538066231976,0.15989227683472387,0.03186299348827415,0.06112163642765995,0.03283861539929797,0.04754389679329055,0.13534479247263734,0.08554670586209706,0.04391522521508202,-0.07022000022539762,-0.006849538998123563,0.007388609843735038,-0.0688870145243582,-0.08111269175988636,0.03106059937117677,-0.04005372750703727,-0.06940607714545652,-0.074175412851192,-0.07427861404928038,-0.06499442876752312,-0.03671349900627054,-0.033256888402455796,0.040332558582383556,0.09020600764450505,0.05781179694682411,-0.05898490110232983,-0.04337984357008904,0.08250329787381036,0.01291556798514538,0.005853204066972392,-0.03767086404552873,0.06838981455187494,0.1806723781810409,0.1118027005518464,0.11960966547073744,0.11220413621674344,-0.0350489601969078,0.05578193889169609,-0.01839407352774067,-0.008884244692736389,-0.006317590837125138,0.06493781526342275,-0.008562982138893267,-0.04232680816320229,-0.05156487026387195,-0.06239287284243623,-0.07674092339342588,-0.011592277364755182,0.05654124835948469,-0.013587728251463657,-0.08036522411132312,-0.06049868990164912,-0.07278258027690832,-0.07672926443230492,-0.0678775253081744,0.034326632668536396,0.005109922754009348,-0.0773354515200962,-0.07738258433024123,-0.03481349752584095,0.07312605207250154,-0.060666439309262285,0.04349190442269813,-0.056961481984374264,0.018055766601230847,-0.07580110732468825,0.07653834561791899,-0.04469975001265484,-0.007269438187074422,0.008488883603897502,0.056221343561598504,0.029346504951432956,0.04567540385035171
0.05736478797778521,0.010631712845477417,-0.06889140583436777,-0.0030342808525461833,-0.03408808539415008,0.05509464085632724,0.06101574715325252,0.05161956924111804,-0.07063799412393776,-0.008390957644823,-0.06683318758682616,-0.008539449126630426,0.032630900056498435,-0.03802397157687557,0.044689249011554764,0.07375769353529633,0.05314703260033958,-0.04722722809248212,0.06421386507869362,0.042477752467171996,0.08157226378668522,-0.07131407869651493,-0.0423775097736956,-0.018486573243088923,-0.029720918404949417,-0.07645886125254836,0.01065751255196788,-0.03256119517898622,-0.08846688708302154,0.034431929296066754,0.05247799742829635,0.05538578762596219,-0.07582054056855861,-0.026551057980107227,0.026829800543280956,-0.04751103536415515,0.009797905677802293,0.07665286545608822,0.07692704874384693,-0.01700559820650239,0.050644464155025784,0.02379446523481682,0.08012295296589418,-0.05989228918130505,-0.023786020610187697,-0.07229247624202123,0.003987863057577452,-0.07244322693100813,0.057909453695849676,-0.08475408347746752,0.0010323529390050088,0.010167939793784967,0.04129795266585243,0.03900321399355443,0.02641555298854727,0.002166705914581626,-0.08420317110527285,-0.07771192966538379,-0.01213245143960114,0.06453923621173079,0.0806442252144859,0.013749065471773337,-0.08454520988708403,0.031891862178285456,-0.005186349917917192,0.08642258017009287,-0.028938591483658193,-0.02682128690135385,0.014883779695524544,0.07692104836244533,0.028954887046989338,0.02800487970439983,-0.04513413326535531,-0.045871562516624706,-0.015276295278618558,-0.06818120422364891,0.0006505541940595867,-0.022087858891113914,0.03006705578693904,0.08350843502354818,-0.04263819095804718,0.00791210407338133,-0.030039301104916986,-0.02298128139395105,-0.0047537929803903685,0.025090981177169926,-0.009777173492622549,-0.03481202630242477,0.06379282637624926,-0.006297111447423386,-0.018964625303745705,-0.016042880314577245,-0.027220560360934353,-0.038064258124587656,0.09120179336154353,0.10522902082640395,-0.04645733878753418,-0.002878960314854216,0.07717304682254315,0.035752377689743056,0.011381972643528457,-0.010539551284600185,-0.009979562941049904,-0.08061889500607199,0.022526494814249946,-0.023562168087556276,-0.07406453288172361,0.07529887853705794,0.0774804382086839,0.05272175972031029,0.08467401872719824,0.006772395234493789,-0.03170892048082411,-0.010125494006906528,-0.0328370171022217,0.010428347518728927,-0.07883645971883198,-0.03337034822972008,-0.007416022704743459,0.07232628941687676,-0.08779993036057337,0.04013493476962458,-0.07018844857480515,-0.030605835406839404,-0.04680116511540682,0.10757824766203725,0.037096753951783176,0.11767726094649236,-0.042287864972966785,0.07651686303037519,0.06266981040723116,0.06633522231163347,0.12570415658796952,0.030909934863465237,0.08479287934814457,-0.020499502697504928,-0.07987673573678648,0.06971068022992134,-0.06014209211225046,-0.0011864278550993842,-0.0003215982682317419,0.01910336975919353,-0.04072206322339106,-0.05942833139877898,0.024875342726939923,-0.0419003659731399,-0.061267983415251304,-0.09745793177312594,-0.07421545870432703,0.05473623435483112,-0.023577401390708082,0.15287639943196574,-0.025271324196891872,0.05980178447254893,-0.06458412800197193,0.1378888601187839,0.039139165838445324,0.1225873278653846,0.06471832218496595,0.09942939824045174,0.07342052180349219,0.08624001525100329,-0.013133550293486722,-0.07308370903600987,-0.01266315229692472,0.0412995056576971,-0.013952398699843622,0.04569481545466332,-0.03705781749289901,-0.035996476974358385,0.04620176651840302,-0.0796123475167986,-0.04228059862409019,-0.003950950596857834,-0.08335123101497133,-0.006057039348158692,0.13830764324585032,0.07508705928881962,0.10688060282252121,0.15695707500835057,0.07894687747777845,0.07238415574738488,-0.09020599701371189,-0.07603863269750599,0.08413021702949881,0.11953373367121464,-0.011439468672277325,-0.04028235376004484,0.008997000304038882,-0.018179211723867248,0.03432165617578511,0.09347243674584661,-0.03910329207431416,0.008826470247066204,-0.02954332598521846,0.01692257018914149,0.007167919695060704,-0.035561205862955275,-0.0034905247906415423,0.07842823426288385,-0.028631801280487545,-0.03138304173482718,-0.012524536639006708,0.022168794196309,0.05388036795337138,0.06613729080430394,-0.005048732930271886,0.005531807057048955,-0.03852307595179972,-0.06953532316550293,-0.09085290353904363,-0.05347424765766607,-0.09678953128901922,0.04800159717657048,-0.09939065643668132,-0.028520857330723577,0.017021063670385788,0.04036656065278077,0.12581073252649405,-0.013092453697065081,-0.06309795556631657,0.062178242353356325,-0.05920254104773308,-0.013254325181553964,0.04567381017905658,-0.03652618786010752,0.01889488360746005,-0.014495320122812433,-0.1046216308843413,-0.06099286106929019,0.026955760087118436,0.013324835230986994,0.0293156111879703,0.14245807314700515,-0.007206173195219322,0.007876073657862743,0.07018616767523102,-0.09323433150807431,-0.14746560705116873,-0.05229343425971217,0.031082553408383135,-0.02372616640145491,-0.004011982324393997,0.08826065174981729,0.04179202199746644,-0.03917572068675278,-0.01668115444270689,-0.0348027713526925,-0.027588465442006736,0.058926633413453576,-0.022049291300114973,0.031365600705497404,0.01157992473067468,-0.06844777563101868,-0.004090797395458691,0.03052131765078217,-0.07428304629626103,-0.07054015330961246,0.0018625983799029765,0.000966404326550205,0.11631483754964844,0.04653469216385335,-0.03927188173417553,0.01986803101275595,0.0807928140022464,0.02516729793267031,0.018784153893454714,0.050242994711484766,-0.1120858720868526,-0.044492089922275296,-0.060849588708791556,-0.12263150657212683,-0.03228692359826762,0.0270528968860838,0.025784018510599704,0.06783895520416983,0.05325092080488215,0.031071572692382508,-0.04127952721397454,-0.03932317409070189,-0.054226583322908035,-0.07648438704863146,0.025942261999066508,-0.07707410746559445,0.05741427994792882,0.01879643682743933,-0.02609515200060209,0.00026910776976098427,0.02411528699356752,-0.026167152000475983,0.18402889683065013,0.26697109243756445,0.0664566184108508,0.09054142734767205,-0.07504135073161033,-0.1540916912339422,-0.01821787579712876,0.008656857864893777,-0.07085145348136708,-0.009551395797839354,0.05345953122471612,-0.006285286415347722,0.09216417653085286,-0.061432089496714214,-0.015197390254822748,0.05435622664182437,-0.030969420901981112,0.0650574221389515,-0.053263749202290656,0.041916640827065456,-0.02345092438596667,-0.026146623754304963,-0.07585596045078608,-0.03856700134167731,0.059088557369280106,0.008308496314806438,0.004394340997684339,0.04515275642473953,0.2057177666520982,0.08894706514181279,0.08067141042219465,0.018272459086246615,-0.17466434003652265,-0.23658298727463642,-0.03881357641310296,-0.0058289642776986495,-0.06415308667507306,0.033669160998375684,-0.08114390711022267,0.007822583279480164,0.08520814311339618,-0.00027846827178803287,-0.07447972652310283,0.04804715230614047,-0.03287798979875883,-0.0521691925709122,-0.05034128402653462,0.03217953390983669,0.06596021897595052,-0.01560189564156918,-0.054165198993949615,-0.021027979228727556,-0.034860796850996766,0.0014811364852439716,0.03325175050982744,0.08258170275836751,0.06972427605472141,0.048753009324936813,0.039831431056799795,0.033626923542480175,-0.1805500459439954,-0.1735649816202497,-0.08582432708229157,-0.0063241077910229666,0.0075337935233898345,-0.02500792029370655,-0.09650856070486209,-0.0245677838329016,0.06057302009368726,0.11125058011644143,0.015166454559992158,0.011018363280291711,0.033070232792481,0.03561079919182902,0.011480104425694016,0.003170211343775762,-0.021904913292781897,0.06490955709115982,0.03590857276668382,-0.04893847663173412,0.060464823636192516,0.05142024067573598,0.0832467515734438,-0.014320538132495108,0.1526049710851504,0.04704729466346947,0.06623090679314374,0.007175338291247305,-0.1528873469929812,-0.11801158326075997,-0.045456132990722514,-0.02093598012919769,0.03654388603093138,-0.0787921963861388,-0.10040379343230427,0.010353305106347948,0.1271644055213877,0.07204823908783195,0.0635424015918052,-0.06930282937184964,-0.015346230567937115,0.05831356275235484,-0.08801685966951386,-0.0794568519837832,0.014115158334793064,-0.020597673900744264,0.05517498150714344,0.008001671859463825,0.08123729215939764,0.04540667344140185,0.10106287098579636,0.14157358704598808,0.16507829115672668,0.20461731515917903,0.13114626437122814,0.05313899319380102,0.045360312007597624,-0.11509475143802939,0.0614701594968696,0.010083782469859604,-0.07889064004030873,-0.12259324422572458,0.025989164028283707,-0.015846215539148074,0.07985373545316546,0.023330577857892304,0.007492172469541602,-0.015861735295063184,-0.0627361551399431,0.02622296648866952,-0.0168112659712362,0.042081636226035904,-0.07536982685897643,-0.008219660209000732,0.08924858513908066,-0.006739416010055699,0.13327532855071048,0.12203059812339895,0.0588398590284938,0.1809107296759913,0.05152512601891064,0.1672261346563084,0.1546074275744933,0.02519342102921983,-0.03520475389212129,-0.00919678736417252,0.03737161180011544,-0.014555154927206217,-0.03154674595740136,-0.0860975109534867,-0.060066750831565194,-0.036855063679543436,0.079148209934528,0.0342437573788986,0.1383726911828998,-0.040599452706040665,-0.07218537120175718,0.013761600980550992,-0.03548168645088583,0.005188900985490327,-0.033111658021369915,-0.039063785244900985,0.03784093818728856,0.005537488588575756,0.05899257590845354,0.10738288406308925,0.09598393043859191,0.1541652778136824,0.10569346610792978,-0.047581938319960625,0.06269848357028403,-0.10662019146758872,-0.057536486044471744,0.050169653484906596,-0.02805735981174616,-0.08388936023370464,-0.007498719618996576,0.0657676593039471,0.11238247776885266,-0.05878094422071467,0.00769575827380299,0.052119259177547936,0.052287271525722656,0.0392433734494697,-0.06960646848396729,0.04028950965957916,0.005265802345797289,-0.029968080428432353,-0.06314878779022069,-0.006971501496680745,-0.03362529641480421,-0.047587549559612814,0.02728015059826837,0.17343785035410614,0.06438911385162796,0.03567278380314579,0.04246417213691686,0.007052128243439001,-0.039210712673413535,-0.029502208505010265,-0.037684361813283454,-0.01477444654573875,0.02296476412500151,0.02758635082380865,0.02810731915095124,-0.020028408469143666,0.05944396889569035,-0.11408221076469574,0.06628431873888305,0.02669849233869507,-0.011148294959169398,0.08097789915178626,-0.052943962893738865,0.023342453387442376,-0.048497674026036636,0.06054696060451867,-0.014392280629676775,-0.06519816091947352,0.05373230238444214,-0.0035380688472707836,0.12120092978743574,0.029726311254668524,0.03473085239864,0.06754792046825801,-0.007134612804166088,0.16411374594987088,0.0343450772509144,-0.04053805202618797,0.04413231955628485,0.09078556651917313,-0.07886406019759315,-0.009862186480162457,0.00837601932114974,0.04049741112927556,0.044613534074977194,0.0994411869555824,0.1498317004793263,0.0416647012223767,-0.03805092288178896,0.08648432549646509,0.07612821005473959,-0.06834889484708638,0.021422768043028437,-0.025164195023422212,0.06415495342946162,-0.10646140231674657,-0.08211205750807077,0.04650770601020678,-0.010832454763225204,0.1218744372125493,0.01274267189014468,0.14245816151891916,0.19632337964303695,0.19258883152551462,0.10775064463546921,0.15759354771259107,0.0945012107161269,0.02874174739168044,0.03418848518136402,0.009850051447631175,0.018964152238357904,-0.07654550994740514,-0.05841746524077582,0.07627175856890077,0.07078961646024699,0.03605960311755913,-0.025569939493815537,0.01978536795513425,0.07530472245213973,-0.024661365948225617,-0.03950279102641538,0.05638505091472595,0.055781835799673316,0.05286414342855494,-0.006625474295212336,-0.03199068438936937,-0.06861069168845477,0.06895661150515098,0.03592436486499711,-0.039842120271509865,-0.022515657093864584,0.061129878752481506,0.16664915600868474,0.10754218166381799,0.05784277287282259,-0.05830959339887487,-0.004966582369761281,0.08390772544144205,0.09443588454538146,0.02414691177541832,-0.05336553140438233,-0.004875852316126847,0.00839927093020921,-0.0480571300718239,-0.020513458263905174,-0.08727113302729794,0.05404409978539439,-0.06155374294876258,0.07681839953161652,0.05926899528352602,-0.0025027808694290396,0.024534266211637037,-0.03356379795514316,-0.03813199145003251,0.011507160701668358,0.06011543056356812,0.10278587089477582,0.049396295973242244,0.08698425573477316,0.18736053889327972,0.13951934255213608,0.06459935986423015,0.0609135643556355,0.09893496860463458,0.06672546161110449,0.21013859366120857,0.024843465593494693,0.013441797187605046,0.013117460582199222,0.03224517661606714,0.09006574883813688,-0.051085141471485296,0.03823913846670178,-0.0218315410723145,-0.03306341212737912,-0.046179932967353544,0.04241270084542065,0.07787926423791078,-0.04271241168413825,0.06226654261054913,-0.004492111770696469,-0.07670980718661007,0.024094250471257975,-0.027815016028342424,0.003973560084966206,0.08468990380268801,0.021378312423294903,0.2097728187647926,0.0650577701670346,0.07983324201102729,-0.008924332691333666,0.09286103444437771,0.1783674301603202,0.10568781793269047,0.05279492629811476,0.07459761002051706,0.031721121608164385,-0.04557919832759616,-0.04244346691343719,-0.061396563325010055,0.0064889707679058216,0.008081184790594513,0.08265034016870777,-0.07586110574074555,0.01735987573221987,0.016137453056866407,0.031464064809822424,0.03790498551345848,-0.03867053507619355,-0.07443592335187299,-0.05969703406080633,-0.10673016296817212,0.01796341722505774,-0.08055128698409762,0.14931292191142173,0.07100086822991959,0.0748648663653143,0.07444202451720074,0.1715373010179419,0.17269798370172765,0.13175164319777666,0.12384427858458825,0.07981401307009707,0.06256632799098556,0.07448053958878907,-0.07297175825118,-0.018972781272667435,0.00945493253384648,-0.01017544660498678,0.038187934778126764,-0.016579540141660062,-0.06471506418636291,0.012048247042266745,0.04708076040767514,-0.04935840876838558,-0.03135561764037789,0.06693684651453473,-0.06831143835675772,-0.04250170528445744,-0.13839293089126364,-0.010650275269840592,-0.09347500365879524,0.07287678830256726,-0.015874505923480827,0.0032408227077202773,0.03215549523064068,0.12850955057570693,0.1560530710265626,0.11594140910547446,0.03985712009123,0.019568625825368304,0.0487857314668301,0.020013357075340747,-0.07469730076468345,-0.06883956234816388,0.05079678399675118,0.03127892227478118,0.03340703058307759,0.009750131106818109,-0.06950476588810037,-0.01116958054176942,0.044319760414052965,-0.014686613034942649,-0.042945382622814124,-0.09165548563107577,0.00830865102449588,0.07196104773788221,-0.04573184345420256,-0.10855153187296886,0.042638709384015046,-0.08832022090585544,-0.07184647109374918,0.0037506687006602555,-0.06976579939883325,0.025724091495073625,0.055109379368415604,-0.034600525613168134,0.00035375968438388587,-0.07963570262769824,-0.11085312908372623,-0.03158619494238268,-0.05205861497474778,-0.07835065854615408,0.008976224354692017,0.034884864434553665,0.0786238721271503,0.05842750693764402,0.03066294854961385,-0.04568823718816633,0.005064205786226649,0.003634151283292112,-0.08269199227989328,0.05839946842641525,0.05649718178127679,-0.07830192178036159,-0.023621755151687737,-0.04385985874377577,-0.020174861595443207,0.03626390834755394,-0.06747191514643235,-0.009243740155938944,0.042348677913547454,-0.10416039892712521,-0.03229228984100605,-0.07382538311857482,-0.03595803387323511,-0.0803631631892638,-0.05447868691837488,-0.008143171875044472,-0.028366477536050528,-0.0025168040866455563,-0.04820344869659977,-0.06183517899131024,-0.054287456874466726,0.05799808187578823,0.014177528914690072,0.0604697452277477,-0.032717240597827046,0.022093895271325947,0.032422448829171426,-0.01688668662263292,-0.02981898625868498,-0.06496792742744023,0.0025394652948801835,0.058170048193209145,-0.01726807930542891,-0.07663130425198468,-0.056231753380738686,0.04183160104482332,0.05718780541439716,-0.04636366093715574,-0.08275723531859347,-0.05977379948642299,0.056201161612053636,0.03866357108040752,0.009047862310417721,-0.013553093964344617,0.03876059971212188,0.04631384049600402,-0.05717279795104032,0.08587908358421664,0.07035846727974297,0.02322830176073501,0.003857168786385093
0.034402509727586475,-0.041606453291713294,-0.04786388077314778,0.0072074212893668095,-0.053274033923408154,0.03512657007613281,0.03646687332680597,0.05370325627039363,-0.08688172647535071,-0.04940569165424831,0.027284098499446293,0.03306298406103442,-0.013385955131913152,-0.07485657619409906,-0.025115783842180824,-0.020869201426856387,0.07670284780236325,-0.03913512762787546,0.036614411584045665,0.059036889603340005,-0.043052749278743606,-0.06401697029856256,0.024455458723121763,0.043244482138366236,-0.020150036415018616,0.02132347385770052,0.0452090380212652,-0.06529815518561495,0.015561884444151422,-0.05497136254626951,-0.00826123825144591,-0.08103172266198456,-0.05045423690332596,-0.06365574354164355,-0.05280841960476829,-0.08572820002282179,-0.05746807503366839,-0.056565572843163145,-0.0021384092607025754,-0.02196133613484163,-0.06670140308330186,-0.0032065086089312195,0.0806169917056847,0.06261527004694732,-0.015670530364812436,0.05178320443674348,-0.06951501345539525,-0.08014417462221073,-0.023501119539467374,-0.07718989337949163,-0.03689880630681793,-0.04554867170006315,0.049180534131154696,-0.026649921956979995,-0.005695221773734027,0.05790909176306545,-0.0024492522584024755,-0.0043692596099324885,-0.028232015440715106,-0.04839675976979982,-0.0409016855189383,-0.045221746781103404,-0.07585769510539382,-0.07087537553161644,-0.0031377178210698045,0.01774769880695197,-0.029794815656708582,0.07004390453731128,0.06218060719713722,0.01724277411140233,-0.031390756210008544,0.011719811162697455,0.08159597291336887,0.0010546165129236961,0.02481561255310276,0.05467960904795696,0.04465303403294207,0.052132140342861975,-0.033584190837488474,-0.07148728888893151,-0.06460246273425163,0.0009388412508245617,-0.04080468469839598,-0.005460862489722042,0.0578807149117554,0.0051835295248237895,0.06103798121406077,0.003748687789119086,-0.06225675658175016,-0.0639279556586068,-0.03186992462638866,0.014096704124411674,0.07207944973787928,0.039556646724167796,-0.09984168961083749,-0.10314666662051246,0.014883024758240555,0.050162499844646845,-0.07506424540045455,-0.07269591360726436,0.00834665145508385,0.048410162492435446,0.09294115522615305,0.018242062772339664,-0.1086924402106783,0.046522741988926496,-0.019811385743978276,0.08108886187884282,-0.019403922558311543,-0.06438462843764213,0.07170021326114605,-0.034644473386037086,0.013103265503563662,0.0015618640581956055,0.06240860002556761,0.05828815657189386,-0.048795059263713345,-0.03099112428070639,-0.05190009030038635,0.06882482974499426,0.07574706852944302,-0.03624610528349778,-0.07898384158374414,-0.10395934365700965,0.06566206812159142,0.10429370781187108,0.14162184647881246,0.04821744676741419,0.0019137245234507323,0.0848019746513502,0.07322376616056166,-0.08543109455040662,-0.08168861031000733,-0.015135751354438532,0.021728116495473127,0.0005715083883331241,0.010702796815642231,-0.07142061512575344,0.010466364166868893,-0.065243392707995,0.08505729592846357,-0.031011397295368618,0.026605045329386838,0.03498082463912985,0.022696037318841896,0.016954820159129982,0.05952342209171545,0.004492826725137571,-0.06598437217096659,0.03894504396933326,0.01751643493704813,-0.013803748268679911,0.13065483583862622,0.09898602203082137,0.11544064675987557,0.0698847890680334,0.1411497958868017,0.05234237238317086,0.13581973251146018,-0.10403602064363274,0.060340542299110136,-0.005734087838597146,0.010448006253355699,0.07144854812643414,0.0842837837846411,0.032415678186504926,0.07622324596320146,0.007013563274042302,0.02756585388611648,-0.07819722119561823,-0.07633587673350105,-0.07212565041174894,-0.07502090310209907,0.05287819589714346,-0.04977753012420212,-0.0019451217325777757,0.0007771951079815243,0.0039049559790832115,-0.0195970138073822,0.023930081737698273,0.03745725663101876,0.03365730575227611,0.034452142628411696,-0.06827164033989128,0.04433434390595844,0.10061387382725293,0.07688696952448067,0.016889935624068642,0.009345051346443704,0.12533625822735717,0.011606582404522187,0.14384118517012265,0.0594943220341875,0.01835270837047092,-0.037431126464476404,0.06505898936136113,-0.005743592998274983,0.015901891652368903,-0.08140433488219402,0.03336372726585691,-0.08144037557005114,0.041680359645320256,-0.01418672816406128,-0.037968206650611416,0.06658544411668339,0.07110539851925787,0.00017929410358437267,0.08168065322410764,0.021039968378320274,0.017122775276515612,-0.11878601289059329,-0.11189506511951389,-0.07716506245137736,-0.03954718133363055,0.072822992615218,0.1534534459627056,0.13919137911647314,0.22605576899969554,0.05301141061406408,0.17182154077411416,0.11309351414846523,0.009836819145104784,0.042015356314522925,0.04882005652318347,0.0731104305895975,0.07334367553857293,0.07619951859746901,-0.03841868097877045,-0.03863570329119146,-0.057712326121567924,-0.01968437807941853,0.0542172488644933,0.05565063632246091,0.09874189667402317,0.028284628648056018,0.0385123122978789,0.06506277440247571,0.09218637664223507,-0.09018940056032038,-0.08668442958443212,-0.026992991168801186,-0.08508802767264062,0.050770600908313354,0.14011944132489662,0.02545656847708641,0.13281012064336145,0.14685533881409968,0.09460028659879784,0.17436881685899844,0.09709256523868648,0.0377725253533524,-0.06723711077092658,0.044588992680514215,-0.08217549240716523,0.0679359389652553,-0.07164464495164796,-0.005764063834218944,0.013872141294897986,0.009797137497616095,0.08526337353845637,0.08464156859304754,0.05157428139192577,0.0483082205238027,0.10937570772090478,0.03742920622120255,-0.05527677682295815,-0.10629532862980622,-0.07858825618512505,-0.12424736815832636,-0.03044745895287209,-0.08130168735738215,0.14175212165548043,0.10635974543007683,0.05538818437520423,0.09292744418475024,0.11405055958475682,0.15657832809108307,0.13892495676230354,0.07517828928221228,-0.02905306082680172,0.014296973539851014,-0.0014012224091218266,0.02966463459591461,-0.08606811617596775,-0.1409437656547263,-0.08815929736535635,0.0859942368264812,0.15495234123458654,-0.008567293974103921,0.04186874312156478,-0.02643569180717445,-0.10025312283529626,0.04169887808691926,-0.06947755879044704,0.041162749358845875,0.017851877906974675,0.012397186034032951,0.12902007751103314,0.05371101351050634,0.04171457248163441,-0.12080559376327396,-0.059063749983103535,0.0244765313911669,0.020620581602081484,0.07855023005180713,0.11747271639983702,0.04976746711687686,0.062307206053383725,0.07238797890981367,0.016870225681998977,0.027968670726490782,-0.06781036448541299,0.04710436179122526,0.06541381547311276,0.013222064948138795,0.10403036014091989,0.1711107817092044,0.05356753493134676,-0.06755309548407319,0.025621820570938692,-0.13054786606622282,0.14299129588069323,0.26599267081866257,0.05125643808199579,-0.049363179931333406,0.06994027490531048,0.05786288315665387,-0.04865232085203394,-0.15047871366351773,-0.002569068611468366,0.0036279528898445347,-0.035155236295227564,-0.05775091845670836,-0.017393883706836765,0.08351408440883828,-0.06744186035598347,0.07582877825549043,-0.014845732031023224,0.07032562195188614,-0.0009386574478042847,-0.015146192882734374,0.0367487254766499,0.11457307910823637,0.09822797493956989,0.18928901451603927,0.11967465407879935,-0.029913658162988115,-0.06012932679380624,-0.05196216271748797,0.266839900265165,0.3871441732251312,0.11678677307744278,-0.13804725850361174,0.0263165182864037,-0.14178251742998632,-0.07620509328262341,-0.10592425112980836,-0.11527303972963275,-0.019655390882155465,-0.10279526885760347,0.020908987476714314,0.049685761561265404,-0.0619355245594964,0.04973456799862196,0.03225523588605345,-0.04210083773904678,0.002602040698458717,-0.060057408246146506,-0.006665330718776423,-0.0172550038540024,-0.06974740969627752,-0.07875250942170466,0.1175848858715641,0.15580012998713014,-0.010512328830381909,0.05344275446832641,0.046633372295812915,0.3041248580598398,0.3106464840515982,0.14286201496960943,0.015979361961099284,-0.04650629884817948,-0.19143517705840654,-0.026599898191932904,-0.06918184484209741,-0.09238385388821851,-0.041222795794277435,-0.06838767887786082,-0.12111497345868512,0.041361871566202656,0.09102452568385394,0.05806507919813994,0.03317290288684258,-0.04316796077015431,-0.0655580006280291,-0.08036719995869003,0.038067370873013796,-0.08499857344833087,-0.031190890062792742,-0.07314572636975142,0.13620081497203346,0.12523931435369937,0.021286047842399153,-0.014168884746924293,0.12098447197114048,0.24495644523569296,0.3424338446103199,0.0981473254538212,-0.1741148341921774,-0.041759971691066704,-0.08041764738012278,-0.017409788201030816,-0.12594618055645015,-0.17075635992150498,-0.1784064367116914,-0.09190024276825,-0.01605731543597645,-0.0478791348529744,0.04258901808462451,-0.07984331921980777,0.053366458815148704,-0.07615960159778619,-0.04594304149151822,0.07870685967719893,0.12444385959251164,-0.0381416708276785,0.004502255277678651,-0.0032954106804692204,0.02188806978434937,-0.07991513319076461,0.05667944541355924,0.08010139647465568,0.21035338210823465,0.23474121971729833,0.2685266866606453,0.22566554695328797,-0.0037103983905992345,-0.032411382093204835,0.06227706141866291,-0.16059240466726893,-0.19451949804719607,-0.09437624527471579,-0.060242681579026326,0.037997080006141,-0.038515050223601216,0.027127510478878614,-0.04870471335125151,-0.06984394072394519,-0.014716311574454364,-0.0498481479874246,-0.016508410505229224,0.006759155136073455,0.034814223762104364,0.01147373079921699,-0.0693642305610757,-0.06566418900661375,0.04015312172416821,-0.019986619567324483,-0.06980108697907943,-0.12372320955422299,0.1062995325129441,0.2583150177261625,0.17084882740507085,0.18410989550696352,0.0012053348619418677,0.05868389035362636,0.04575123606781563,0.08746623239091489,-0.16812233676779517,-0.1120173896028711,0.023011197500162537,-0.08051706373612431,-0.02519378165912494,-0.004228306413076234,-0.053015451383378646,-0.008236305812408909,0.06296057611390989,0.0416747213122655,-0.05612514431485833,0.03138570537274875,-0.02599877119036754,-0.04420565878228256,-0.00230270101210507,-0.0839225880849844,-0.11912420220870003,-0.12236486526511038,-0.11327479654257167,-0.07733559566485376,0.02795602656635562,0.183343697425398,0.3199367281059235,0.17076935184487305,0.021650625850875342,-0.09071050521789803,0.037599837421926685,-0.06705975111434892,-0.0011677551749879427,-0.10202059522498784,0.04525242196766103,0.021874578910313927,0.012314267845545302,-0.02320309254386496,-0.06667311875968256,-0.03834743435047269,0.0891435614771486,0.06134578116975848,0.05490503703880643,0.02866286171446855,0.0023248001332075766,0.06795194960850683,0.05751057658842,-0.004348135862252804,-0.14517139162733406,-0.16710098396613007,-0.13837088764564467,-0.08807945052878086,0.07895572558228084,0.21167667662664402,0.08877121451354633,0.1633695898645524,0.06953586727953573,0.008451104952398147,0.07453200209866649,-0.030153541602519585,0.014300461099782268,-0.031602043874573556,0.07128845224634674,0.02125656427283394,0.03622206026101741,-0.03263268616819449,0.04540722784821536,0.022588558011890254,-0.01614341694038513,0.075628397031792,-0.051348655947526425,0.09445137635484951,0.043781155883312876,-0.0315063182381128,0.09141237622397455,0.04352128934111051,-0.03506290145389115,-0.055323515854284286,-0.04341891499935639,0.054293973617760304,-0.033260155296648344,-0.062120368817340815,0.13274818082087192,0.04575755865878206,0.12674571988222488,0.1160819944815664,0.07677559564574668,0.14111021100815546,0.09069029409431674,-0.017670663637312654,0.037060666103980816,0.14175252796766608,0.104716211794238,0.0586990465277216,0.0616671072939735,-0.07069359620798385,0.012213001901557578,0.059526386374653656,-0.0066967671706716645,0.07233901544902703,0.09069238352610574,-0.022808033689369414,0.02637517818635146,0.12826390679665595,-0.01694169950225713,-0.00571095297967003,0.05905017303076062,-0.014401160993005816,0.04808603306408662,-0.10493997059112226,0.03565583896475929,0.08841516161395291,0.06667911967834915,0.016417964963889132,0.09666034523767834,0.1905277113672798,0.00934405619101567,0.10364083726056139,-0.06767149149563412,0.028133530622262978,-0.06392032462583644,-0.06282887635366713,-0.08927116641957594,-0.0277752998289066,0.024098423762629592,0.029778819380801413,0.025261079304836464,0.008933104107360094,0.11653171832880346,0.09781892563459887,0.10121690460130742,0.09096320612764272,0.03843271523852519,0.05553203632446064,-0.014748514052285493,-0.02590928210270555,-0.02977586842532422,-0.0966963280094842,0.03331695525751087,0.10054969599549246,0.1536438334385293,-0.06207111995858239,0.11753637344412438,0.14952435306669853,0.08587323277048788,0.02950920628660643,0.0811733966188555,0.002308873877493708,0.0671070607612186,0.014683690593991097,-0.03512763416645482,0.020659637826204398,0.017730605701998605,-0.030936214068658516,-0.057974591984034894,0.010545581980766496,-0.024263778863241627,0.01687155005155489,-0.048407192154657885,0.1072802842678216,0.1281853658748909,-0.052013435147048835,-0.030819670181810345,0.10801442430562433,0.04737158385937867,0.08297541367429341,0.1746519046568444,0.05399005602749035,0.08841715208541269,-0.007913721153655372,0.02538176505598046,0.11497058160895444,0.17112726200048736,0.012881825511938831,0.01961045463136052,-0.07638024216323372,-0.032064070741349364,-0.03652565880839768,0.031659561359852754,-0.040532557569660344,0.02052751923229624,0.06468265180065066,0.09019099152288079,-0.062356396548353864,0.05903586043446324,0.051400575926393945,-0.0974781860809723,0.01562548943600095,0.06766538391571833,0.012204935205528785,0.055285945794787114,0.10033232027814791,0.1351990175593286,0.04363942131179409,0.09669536157291585,0.057309133215241954,0.12387756980381309,0.07471252670033168,0.03252416371798177,0.16267580437718018,0.015753047468856314,0.09221569158797117,0.05429190969927783,-0.08035194995663501,-0.03907368918246994,0.03669001778582958,-0.008636804265663149,-0.029501540523011346,-0.02458152224780637,0.0009256825722634336,0.061901486898687276,0.06096426500850213,0.05655978226702657,0.026354011253727674,-0.03640900303733492,0.04140068008943487,-0.030057661067188133,-0.009392998901391631,0.13765253074321834,-0.008355150752997666,-0.03730096827397739,0.02458007806254111,0.04526824797345538,0.09141478641934131,0.03359255760992269,-0.024521755961430195,0.09622833282797803,0.08918782355835146,0.027216250718073726,0.017822177233252207,0.008160444429469412,0.06953776412040656,-0.012099877086015523,-0.017289685816867687,-0.038316528056728937,-0.0066125751535627665,-0.020226291990133843,-0.061144263859493994,-0.02871406530881707,-0.08341225702487746,0.019942044661374763,0.0381343700997361,0.03565128510834143,0.06715859406979191,0.02941549400471273,0.10537241916748875,0.08751498236700432,0.013596054021739872,0.00485386619572727,0.07040072053600908,0.043220806582367266,-0.13785240443976737,-0.12947140901193904,0.006502466619139267,-0.016401664681518144,0.08924992148797221,-0.049396924381581414,0.0070492750908837136,0.01901240250061318,0.04435770108680335,-0.07466780325304823,0.08214954114938805,-0.07924792261086232,-0.0692224507718324,-0.0603539594709575,-0.016845294951801655,0.03741233202280361,-0.04091787111865121,0.0628693126297084,0.008219951448516274,-0.02344498982601445,0.023983085303586928,-0.04158131167324028,0.0383074630962128,-0.06203903063073509,-0.026441218399146836,-0.059745511613215785,-0.012001545476002672,-0.1397863149358518,-0.10365511099446947,0.019133374042145608,-0.09729153613362293,0.0036270390135148783,0.025743590475919953,-0.05978320017354102,-0.0797597957642301,-0.07122284431248238,0.07108432672744582,-0.04682643130993079,0.0505236194517237,0.014948356525374637,-0.03002757043200752,-0.01197774088290047,-0.05283390430617507,0.009134151233587812,-0.058754690435406834,0.05685265234852072,-0.05268345723186995,0.044092252767355296,-0.026070568004767813,-0.03333187193191111,0.021016809977081365,-0.043692322480859976,-0.06790899070842679,-0.07097953648095628,0.04211686979098231,-0.04620223821812908,-0.0471930170715288,0.05284699347963204,-0.05364573882920681,0.031390974699431,-0.02019452556910097,0.06650670695284473,-0.055593924752096784,-0.03346487478681587,-0.0020098088132760863,0.053611268586102996,-0.04633933094233367,-0.0055159855975129984,0.08260824015714334
-0.037800592693884784,-0.04420400691173859,-0.02662923050653915,0.028301959577203946,-0.03212979790223412,-0.005372995144362861,0.0823174080287979,-0.04993810526118602,-0.046535276083534,0.06930757671489744,0.05567144959370235,-0.0558960392772496,0.057597587982290144,0.030757782552054254,0.021114106605570164,0.06536507616673903,0.03846660402443434,-0.04732494704933687,-0.02745773638234996,-0.0626668113943935,0.008792747709634128,0.011763572525171075,-0.06356276462654341,0.022597431345904063,0.0503383332747269,0.0467994759039742,-0.06802738447068742,-0.07049144444949632,0.004123297105834497,-0.02932516275821702,0.018254895659829476,-0.029576558134392496,-0.056443660769852515,-0.03811949028064576,0.029483105843272777,0.07842759144162269,0.03537291147285858,0.07530621433482809,0.06720892395264781,-0.09502908640092522,0.045939376953334145,-0.07707085495203045,-0.0021114674648977,-0.06984046807940343,0.05566216009797799,0.01564938466031852,0.001379822264123079,-0.07771433393567476,0.038093167935607325,-0.00815484663369336,-0.058318967696136176,0.05955686615550173,0.011722284930488453,0.020712698465363624,-0.04771033361226024,0.06594656393506418,-0.07513503671417164,-0.03916495407745668,-0.028196255908951532,-0.01150944399979387,0.05826975435192382,0.07619492938552327,0.08142349631012637,0.02585138476396199,-0.03807852296264779,0.049403427971463236,0.04697805009551028,0.04307948696630473,-0.0009371406611300273,-0.07789048511949939,-0.05155564736014502,0.04128573190673961,-0.014851396048356454,-0.036483634126974675,0.0038169080144991505,-0.04242203440346924,0.02267855635668442,-0.052695148738370425,0.06631737066664639,-0.02047081978711114,-0.03714603666780003,-0.05402720997740031,0.009768320002617232,-0.011784659616350453,-0.04560558471619484,0.02990509897127592,-0.019305105357035886,0.08423675305010173,0.03575068216395404,0.07293154978709433,0.07602575379553848,0.032363071860168874,0.052906843824805344,-0.08292197977296033,-0.026582899873169166,-0.044352772885328434,-0.01788613436275011,-0.09123016026854902,0.00777972303011567,-0.05184081217651322,-0.07435381633211327,-0.04065237430781803,-0.03601206583251805,-0.13886295476800414,0.031338524343450413,0.04906185672543931,0.05915128807016591,0.041639237548410875,0.03594695045008955,-0.0757723142672486,-0.045768790155800515,0.020883426895849225,0.06444445972048535,0.027123260310292645,0.05348238503188006,0.03762826112590632,0.08289395337955272,-0.043166529336847115,0.01331330798496486,-0.043579171741651365,-0.021332556089740443,-0.0797548195923745,-0.02188574079276072,-0.03834937656150154,0.07188119388817987,0.07679369099712044,-0.09782366562791536,-0.1434783085677875,-0.003417378989477467,-0.04043450748940388,-0.042233905806576065,-0.08604290352698994,-0.035161057383658524,0.09991553199887572,0.04847166926381087,0.05856581804823757,0.02265420918847057,0.02556142990092322,-0.0680235954625842,0.060406320329854234,0.03752780003050156,0.07174860400263613,0.0295099321829725,0.019155249068262797,0.06699028508219662,0.03128193337233344,0.08788354347481236,-0.06829997941352696,-0.02279575867831298,-0.12468432794273664,4.777843500727257e-05,-0.047894473767910194,-0.06332172068585447,-0.09174066187657866,-0.06720927721445934,-0.04065332912473015,0.06623577700427044,-0.05960350455963705,0.09638018116804922,0.0171637544212366,0.052028810589988025,0.1424915831999664,0.07724792082454035,-0.029557391496361222,0.029445505937626047,-0.057272425983662646,-0.027975576456673375,-0.011562983295284355,-0.04727057695329788,0.004711213179183454,0.021429877665098657,-0.07366946930240333,0.09575009269404686,-0.02582492463119561,-0.028920098358171897,0.008484360967055815,-0.03149334978875617,-0.08177905312414557,-0.012920646502975879,-0.10962724762762188,-0.06643886198544613,-0.09474268218771743,-0.1873126214367214,-0.1409467722178361,-0.06276373551582938,0.07237250185993549,0.11764683035958139,0.0360512080475151,-0.07703979487952348,0.18974118789898478,0.010219227988725698,0.07182484869198832,0.03049448338904387,0.016555244023142627,-0.014871030001059837,0.037084156235210476,-0.0022252019618345755,-0.012692160927570468,0.06063340819554184,0.049187422037771975,-0.04271188640831912,0.04875158822127936,0.06024869702859224,0.06985446843451978,0.006365112192035004,-0.003582459584849199,0.03955788523205704,0.04041072564137831,-0.08690901899180165,-0.1272203078364109,-0.29635292304352107,-0.24689779135552814,-0.11963242283431964,-0.11985377600276642,0.11745098839892824,0.001721639540421493,0.08992286697000697,0.1744977915634328,0.10092645757408217,0.08354798554194907,-0.030056418689869684,0.038175089329244655,0.04139123661651515,0.005572628303538033,0.014515354470491567,0.060066536933986864,-0.05268125546590156,0.09427487369466296,-0.06133797690719539,0.03433377282089861,-0.006303248791183332,-0.01642657021846036,0.09609297937274097,0.09996034922910274,0.07186544425656657,0.06849885219722376,0.04479776432436917,-0.04763578180270064,-0.03640829387319726,-0.23038325952804847,0.010894681993704806,-0.027101906387822186,0.10377894863458238,-0.004602773385489194,0.0376545235349375,0.084544433011641,0.03989059048691239,0.002126324837065928,-0.07642907829039253,0.029654869934026336,-0.036204645312990356,0.046397508627228606,-0.05184764169390125,0.04242242687745295,-0.023638675090005647,0.0934805237633202,-0.017009172001787667,0.010501204776809322,0.02500052361441532,0.09641824341351085,0.16862288134750797,0.09538665009098571,0.09190294731693059,0.07060368268369921,0.10050873050550338,0.07223205586436166,-0.10945821835810184,-0.060788026071846225,-0.0073635229343955305,0.06625803683351575,0.16913252570028614,0.1247661811294435,0.1768658144765306,0.08286703191298075,0.13123330132583466,0.009251816000831328,0.06388216149319058,0.045437583267429714,-0.08089471356411689,0.07239485397481654,0.07323681549439369,-0.06356491175175115,0.023010058437001078,-0.039423535506914104,-0.015051795751207565,-0.026497373055779632,0.05709591274506766,0.0825875933526879,0.05365658665188733,0.09517995894290439,0.15791071211757662,0.1739572367592332,0.1278093026640431,-0.04512643643761423,-0.10632469885671755,0.09306494115594642,0.11365853636845004,0.16863315518003824,0.2432146158621336,0.22694656676702168,0.13215489284119478,0.09462300579132711,0.1886867120455759,0.07262195844006916,0.058063462507505555,-0.054469696765724405,0.07580873834424996,-0.047163187464769524,0.08460772487863893,-0.05375464493478876,-0.0004485974455462411,0.017963000864294372,0.03533801108279802,-0.04471107705959856,-0.00432939932302287,-0.029750329843353518,0.021818091706230055,0.00952106722466892,0.11739937455824512,0.13663118138320182,0.12752606896860016,-0.06500963997892191,-0.07326092392046177,0.01920038630607897,0.1314325393490199,0.1185548632495586,0.0848363634942243,0.15213107700666098,0.1390637173185836,0.1028978424129073,0.13188535824191647,0.07233380414278544,-0.0062954616925754905,-0.07803237861780059,0.023702819072678988,-0.07409924457986389,-0.033891977605740746,0.00978299589316146,0.061664838877110106,-0.04765020419941611,-0.05805533097064218,0.07380548134008613,0.11102075097069039,-0.03070575662435974,0.05188090582096256,0.0548660742592813,0.14002905038402458,0.08421571728361225,-0.06653535805269657,-0.16510830083027267,-0.13556145397915056,-0.19621484083639815,0.17269077902030328,0.1269609417305381,0.1253738544387732,-0.024049536913994897,0.09512281692205676,-0.060101029907972066,0.06813722328583431,-0.01573681537582795,0.06859297993322429,-0.08119635184516676,-0.06251574553066491,0.08150790044558646,0.05627160194561363,-0.08228201785481577,0.0665262337206584,0.0031151005187587664,0.053715524608308696,0.1402712469244411,0.08063024529038831,0.06474009348750992,-0.04034832456107301,0.03339044259312132,0.16883057243630387,0.04778196665433422,-0.01864605264742358,-0.04247067044135767,-0.14349653023833572,-0.18732481451667576,0.0036705303438835622,0.03234762720372609,0.06967809364743212,0.11301751455738955,0.1353224967236256,-0.02626781126745625,0.01443613608936452,0.058697891627851606,0.06467737208111739,0.07349437569248908,0.03814622427424352,-0.04882561368570576,0.06089799723342715,0.06743031322615943,0.028086483466669206,-0.025319513366173618,-0.06919686659429006,0.02818282579643858,0.18734594396217563,0.029721126567640702,0.051787466217078186,0.08669790994282457,0.005026950685335076,0.05743213763386779,0.011704966836215915,-0.2595571258187184,-0.21890488375136388,-0.23321750415350925,0.03967168455169265,0.09560783074872213,0.10189428297879345,0.14144652009946582,-0.010620565986242263,0.07212277585395148,-0.038812888062942266,-0.06557685706028045,-0.03408524289775596,0.08480941876964276,0.013593595296457279,0.019123142338924808,0.047423423044176134,-0.04015853253943983,-0.05341139718897414,0.00757780202295049,0.05009453281696474,-0.03974849840044463,0.045386652444173926,0.0049805804009974575,-0.013128264916362731,0.06617107124676233,-0.12993195251259096,-0.06519427216876178,-0.08089123533843959,-0.1495116886144679,-0.16498741146497678,-0.04407602498539062,0.18793558221282858,-0.028029570319366454,0.05380368323964562,0.060183772503488504,-0.03006088072841973,0.02893275389611022,-0.022382155297954957,0.0015464815896995615,-0.04113987564972357,-0.05650707319200591,-0.06131280807355839,0.017928489367832933,-0.0019481054338608389,0.08427579718251006,-0.05515901011063148,0.060971832122874374,0.05484998225284692,-0.025033036667998162,0.10704162855103504,0.11129532834108848,0.06322859456900087,-0.022390871674093222,0.0749082440589952,-0.07050455064285749,-0.13186367614245284,-0.1500378245111971,-0.08800470271079655,0.123599396338859,0.1632848603063783,0.12141775450508863,0.020090358902462135,0.12449944077937199,-0.03945765764783388,0.050328432628329076,0.06154779723529753,0.13278946954562365,0.10006189175318103,0.042873495335618926,0.04327296349082209,-0.028210565052743393,0.05987712875143065,-0.026830665831687337,0.051061970415337145,-0.0825548083458669,-0.018461543454982875,-0.009175631780927115,0.08256507671466287,0.04549570581467996,0.015771721160626303,-0.01957674163103744,0.0452279276015429,-0.13430007483642575,-0.21332180033617934,-0.14284509439074983,0.0779423418089238,-0.02288515142592816,0.12963778047926083,0.08893443946857182,0.13525454687624994,0.13411426513268507,0.018986731654482895,0.017934913927777445,-0.06824453416993898,0.008233307925488835,0.027006296915267885,0.03336435118954412,0.04493968518599809,0.061756784040864376,0.01949484569970787,-0.05825140265446309,-0.0067170906990107245,-0.0908089787003658,-0.0316485804784125,0.05335918790548872,0.07659755736215314,-0.03220806438487003,-0.12735896486537873,-0.013480588628276544,0.06763824067681284,-0.138509227857657,-0.08693935077467255,-0.13431827031783541,0.03125962564875993,-0.011166856286017579,-0.047422954711757954,0.06790551958053806,0.011980479572000945,-0.02773721872762427,0.037918461648116644,-0.08908533945314345,-0.027344314531357678,-0.061114028384230155,-0.03175626723522696,-0.003263384143724443,0.04442662344086379,0.07898264803984614,-0.049368022875495535,0.027731468782815412,-0.02643758348979558,0.06420984289004424,-0.10816466648790671,-0.053225950792168616,-0.027736516960456137,0.012391267115206005,-0.03239936909050497,-0.09557168073382855,-0.04129743665800539,0.009396243544237745,-0.05825291724907626,-0.08669745256608913,0.055842730099117284,0.01600049152053586,-0.04019012476932555,-0.039090293374272195,0.014952756830167401,-0.03365366843115655,-0.13629258029340371,-0.03786278246097825,-0.08302179067455459,-0.06338702851846353,-0.02756007619693133,0.025235715929429206,0.009468618466259494,0.05311051481033779,-0.04833838567614194,-0.008698672513376561,0.0059779433324461265,-0.05124176680219442,-0.009069712959087997,-0.006719877597493018,-0.09863171432760375,0.028294656983185316,0.005855539123683287,0.025871281304088715,0.035658473792083936,-0.0010063228704192,0.036005497227417534,0.037226621589330544,0.03529319252657846,0.018899182144411424,0.05805856218186375,-0.023595975308775927,0.022550143558809875,-0.009277108051964751,-0.13354214723684618,-0.18667538185805505,-0.13003787041609688,-0.04068803218989806,-0.04279569434697873,-0.05115106607417259,-0.023119972674897744,-0.04438971541914308,-0.005941174093187851,0.012722375521506813,-0.024016014267155453,0.028403494165021942,-0.02914789524482259,0.0627867125830634,-0.06287316892901464,-0.09231296706961713,-0.07810755843866034,-0.04637959011307591,0.04864932475223388,0.04656380378379789,-0.01947018905659896,0.0780750225335869,0.0913910754988691,0.010988053360882962,0.03210352603231642,0.04764115217333436,0.1736245218336444,-0.09712525520334582,-0.10632375321625501,-0.047044379820098056,-0.016872955147897956,0.0450540652224431,-0.036415850065382886,0.04517999628688648,0.0715487824772206,0.03456874009402508,-0.05710889030558532,-0.010857544310287997,0.020408354486706644,0.06714076088197236,-0.03348527238709729,-0.06412600383510583,-0.01792474885262006,-0.09196223326407231,-0.0892161422542626,0.015016982112833378,-0.008860019743235624,0.04038544092264499,-0.02472195707371313,0.09574205464974805,-0.011627664741357204,-0.0005749344392365485,-0.025594436148687862,0.06453434713206999,0.026524941303831123,-0.05184147080329524,0.04800863279569269,-0.04947802947768544,0.04814099373065649,0.050725957636025124,-0.020784391231626727,0.007022857192095606,0.045160284026235085,0.044534022426809004,-0.009439270150515343,-0.03893464452300372,-0.05440287111717183,0.00962622301515717,-0.05878308674294352,-0.02410307569679198,0.08123391882581024,0.11601225697608672,0.045675544170445,0.10529114794085805,0.07531994535069665,0.07906381606508714,0.026985814685843212,0.02722982322751,-0.04813628471251863,0.07371338702378467,-0.055436139856021686,0.06896705624250914,0.061269387933313595,-0.08232258843459128,-0.04002055394042053,-0.04449969741592733,-0.004306103893991179,-0.01173189847736877,0.022132829812443047,-0.004315247674635547,-0.05518865916920928,0.008556601460151868,-0.03665541168478408,-0.05332376335227136,0.021806689768195244,0.08561318741836234,-0.06457504315925196,-0.0031426049091460417,0.11252948894803445,0.002566784509339343,-0.1276777437401254,0.035180077145544976,0.011297612937121417,0.08347612164061077,0.07648501083508989,-0.11897983424412727,0.023410208106568395,-0.06149986407210949,-0.1645080588603217,0.012095810147444193,-0.035045674832038576,-0.000569963234678773,-0.09515656654857345,-0.144595555267721,0.05060451753213079,-0.05664652319749521,-0.009307049733425181,-0.01609832814480267,0.008200185480001189,0.02226468736885121,-0.06221886823698659,-0.009395105677782704,-0.01903404439615177,0.08102992816568386,0.03349790266439703,-0.052200253813784805,0.0646202718656767,0.036804578418503375,-0.010847342772707234,-0.055144899483106184,-0.06698608282775666,0.015628662548972872,-0.012920810222820543,-0.009034332073457912,-0.06026641073775269,0.04328377519387932,-0.0587732566939475,-0.08228392212434116,-0.07411741981261372,-0.1118919930156385,-0.09344598336856866,-0.036328513993476474,-0.0698898472017792,-0.009880674786444912,-0.03466155601573226,0.013851638601086362,-0.029400128569593443,-0.020986887198841023,0.02865355189987874,0.03599418992770081,0.037027076689456324,-0.06551580701002564,-0.0732702144825741,-0.017948224282167156,0.06315626381662365,-0.05559837396883108,0.06167693658775497,0.04022029978635496,0.001931014968245539,0.09311271982240425,0.05095227366844671,0.07101984342255303,0.09878431112853155,0.11742504462132289,0.046500726520957276,-0.014174424877025686,0.02636111000995369,-0.020076746579129882,0.0402161482579056,-0.06399707706608951,0.0053264672997970965,0.08055667123465747,0.01425410164743806,0.021981484080284885,-0.059031507097828985,-0.04913446361718862,0.08250378806455337,-0.007495647966871484,0.06795873656136739,0.016808234996869644,-0.048005963888560876,-0.06773133985974782,0.03701665135307966,0.018633169057130982,-0.046580137418012285,0.03318761157151348,-0.04886410570295584,0.0675533303554213,0.06418273501687588,-0.018906818938762036,-0.05764379536978796,0.05739867737535769,-0.04733682726291777,-0.0005184490761778005,-0.03985517926250368,-0.04146065560266413,-0.05717642992582304,-0.08892576290118835,0.07220152132273515,0.07586583111510227,-0.06628992536924147,0.04192673403975655,0.05699536105254635,0.027373979418933134
0.029948738059235466,0.027395153836402068,-0.005549918241648918,-0.0009269552049590006,0.015009944032045032,-0.013850659352416085,0.0037955094703892157,-0.020616381390199192,0.0010298891992875057,-0.08315797373256853,0.08184785187756234,-0.01946261724168588,0.0784792345438785,-0.0008414106173256861,-0.0756988661645769,0.011850599610507358,0.005515360700596463,0.06573120681437153,0.08008636279143332,0.03721260560280957,0.030494824039191994,0.06308627875579237,0.003515212012241957,-0.05063329965646533,-0.08359066708677942,0.006228268977467385,0.07608926577273212,0.0016567161201656352,0.012092848938973486,-0.006314130405270156,0.0544858096771999,-0.03298308269402076,-0.0005110503999018762,0.01868948164295716,-0.06617647521044283,0.02801698956507973,-0.01281296118237834,-0.06241475986858075,0.08385261472149545,0.03353341687439707,-0.004031772818657571,-0.06307313263197599,-0.06652697432235248,0.02153423505461332,-0.015708674819488178,0.019993050001191486,-0.06362102037508752,-0.06790797132896777,-0.04405572386175009,0.0015821812766052851,-0.0827436095887395,-0.059328600130589396,0.022657759189960013,-0.07771215539549609,-0.06161022619567495,0.019317856924527768,0.053399425830034,-0.046210700927190956,0.05619300603785396,-0.04352818323379994,-0.059498508336889834,0.04628585664837,-0.022281641911656797,-0.002429658064949328,0.05601420707936872,-0.046648981528118055,-0.026565431722067427,0.05145961024817535,-0.03539260549440527,-0.04861653009302935,0.0518617932540711,0.020178094740327533,0.016429974552418073,-0.008272706486709197,-0.015807583000489366,0.01794667213876748,0.060311759995488476,0.010511248264416217,-0.06263898999146114,-0.061312155399358345,0.051994919013741855,0.008760330587666388,-0.08116992480448977,-0.08156171165273111,0.03762007885967501,-0.01875791336738339,0.08182617762383255,-0.05747639355146887,0.04910994038401098,0.035692794474986925,0.055687326855139864,0.01653906230856544,-0.01060847351127425,0.043385761951371574,-0.03325141643812266,-0.010851357798200132,-0.038205454348700714,0.003405219706270063,-0.049679116419828244,0.09418410751252589,-0.060048033811804256,0.09342957410820163,0.014451665656751387,0.033438660463620935,-0.0311746803914309,-0.030343162252004,-0.08229422514071041,-0.014007596714637353,-0.03655773285953213,0.0836276390032726,0.05680949548730907,0.013635991885247943,0.036351200588895086,-0.05619091781836084,-0.017606933650674984,-0.032822869409698655,-0.012612370567565681,0.040216373188644926,0.025744460332977566,-0.0023005027173230463,-0.009175361925796884,-0.020433410432942046,-0.032819840265161236,-0.04767583039353506,0.028126347930594032,-0.013409678351339865,0.01951460887379978,0.05047260998636695,0.05936825885077862,-0.016620656013059468,-0.020487136299744392,0.018714112103506486,0.05427083964354524,-0.02549533320271962,0.02594608412564574,0.012246968411263447,-0.07863764822248161,-0.010830414057009378,0.021104602864909183,0.037227080953224766,-0.06858089371321224,0.06805771344830165,-0.038272417458705875,0.010322456130316777,-0.001288978205103877,-0.05459705573562617,-0.05842595811330772,0.05737827317574647,0.02616994802193041,-0.04604965611195736,-0.034514896868352345,-0.033222507817295126,-0.0055837158075377515,0.08385611358297577,0.04687948744870997,0.03925030459823892,-0.09347682751347605,0.07225526531661187,-0.05505524607348562,0.033349764230679965,-0.03238482715251929,0.01583067380175129,0.06755121930514849,0.009905644970498208,-0.039264247234320114,-0.02860333941553406,0.08291219657017107,0.0736324369482373,0.00914736737028847,0.034909589102039784,0.01659621333371757,-0.06989846804707578,-0.09060124229561116,-0.012783420442777424,-0.04541096689599459,0.03933617541442109,-0.0068533178536236816,-0.05551669020375548,-0.025526699796532593,0.01802009807377574,0.11106936877171308,0.05563274431172695,0.04121880191633606,0.060461000679307736,0.10393027889068475,0.024769352706067064,0.05749393235091855,0.04174667628653004,-0.08723299775349751,-0.06928291739546455,0.037369619312672256,-0.08350608046823053,-0.05081522915570232,-0.058848986906050824,-0.06414973978248492,0.026211162592673688,-0.02623193450373537,0.0573753106366822,0.05246448843919762,0.07723547766356265,-0.04875603497527036,-0.03346441804912041,-0.024012670727840107,-0.058266153490118676,0.04344419116095496,0.03160467686231146,-0.06794557758878426,0.09453878657050442,0.11375479332175514,0.1306684138934091,0.0861419862223308,0.1686211539937718,0.06900115454629005,0.03375885916240919,0.08828351325096692,0.029843814982014914,-0.0495763839860305,-0.050185247988149106,0.0606078518241468,0.017618022327709357,-0.03129260606428396,0.07921306799647197,-0.07264689085345995,0.007129432022394933,-0.003352264836675173,-0.043665516848717105,-0.0027881924545777445,-0.07763741610555316,0.0586183840771948,-0.0026102491014640935,0.06885632503037589,-0.030553760547319533,-0.09054236137155462,-0.04729203483860233,-0.01186964884898876,0.13273222201415652,0.051915685461767495,-0.012734822460503501,0.15418971612637378,0.08598688508521683,0.05609264288686647,0.04014008712616783,-0.04762071832601562,-0.051214297158184735,-0.025546243265033856,0.006678358091924222,-0.09002280363658395,-0.07219868485958846,0.07124025915211606,-0.0005507388584541822,0.03998281651623607,-0.06969897502144097,-0.015334023653651512,0.07778818142482011,-0.0729240336758085,0.07500357775590297,-0.016846085185361657,-0.03793067654936903,0.04720760779669128,-0.03273662870327229,0.08217087408006818,-0.06134576413440082,0.014054970215710371,0.03737002396958412,0.17245207225213782,0.1153045130714118,0.14456961497365006,-0.032712796120457306,-0.06954532369962473,-0.05671906014972609,-0.12244278953644876,-0.08681156919123904,-0.04976705232404963,0.03609038547658666,0.0032021086155494044,-0.06741483791160245,0.026323654976216408,0.07181095870360667,0.002862054938621798,0.045245625933849294,0.05895830295549132,-0.028210269016291315,0.021762897609137192,-0.025057490012155778,0.06626600258601903,-0.048047695048306846,0.057355188248742146,0.06743036393523273,-0.01085745396810111,0.0810978334264302,0.025925368959050593,0.05172732447442252,-0.012179996703392723,0.01656008490399216,0.08532898111158353,-0.04007545625960767,-0.00028683327281817166,0.026297361671310745,-0.14175314967779976,-0.017976223272779254,-0.029280131216121906,-0.03430660623729876,0.029854128089258396,0.07978772830624638,0.10393313879137292,-0.005418498223236417,-0.018758594087379805,-0.07726070541020007,0.06334511642904983,0.061196065216315806,-0.02924373198204647,0.08883999486210213,-0.01951565628927745,-0.06662312119716211,0.002885819583242333,0.016009896582036286,0.00658690853225513,-0.027385210295815195,-0.03850776021825764,0.033044776760818746,0.05811692873505751,0.06376497241156472,0.0044217727334551924,0.008999563097204125,0.010859191177524588,0.013171091048118214,0.06746987131389699,-0.12000640070284298,-0.07001545870429197,0.023750818677510974,0.013996163622685248,-0.07092974104967245,-0.00896635610707433,0.036421808290683116,-0.0732566273646395,0.001672422680588935,-0.01505756394345121,0.05516110398149565,0.012623972227494734,0.06296115246335594,0.05360538774992222,-0.011857537050337727,0.017553792793683482,0.0426859774650855,6.584383226845343e-05,-0.043661749868002114,-0.06665917578877095,-0.12639032701267602,-0.05275994888618257,-0.0201825169022043,-0.018088635970570727,-0.044502824943039046,-0.1406640084447892,-0.07632598076409651,-0.030730946236214137,-0.019390529753359,0.054387700046453706,-0.004086259011437637,-0.01725830597870301,0.013354763909234717,0.06045067668300568,0.044806132167099756,-0.061608831788251626,-0.034745377734247414,0.031385556459092204,-0.05375601997197994,-0.05423903695059314,0.07660759787237892,0.05567027105174044,-0.030603908233981552,-0.061351483151123744,0.08797664137490112,0.10730880827055836,0.04361078501022695,-0.13265935630501055,-0.0722802684015201,0.04972898542974617,-0.0033422561905603783,-0.11131579200509177,-0.05860910141372131,0.016378429735880728,0.07415321636125737,-0.11880477378393013,0.00936303291458203,0.026464280395382938,0.07948396323268296,0.032944084309647945,-0.0148669163876475,-0.006529665400885753,-0.058364386439502265,-0.017702570299221843,0.05695935786811425,-0.08030401353313296,0.07852988166841304,0.024454495334121435,0.05313449568031352,-0.051617244411105524,-0.07912942501408303,0.030176555718942587,-0.03368130133070318,0.09604164756796944,0.0002544489224659685,-0.023487301045534863,-0.07991330862014896,-0.04779195058602663,-0.0467181170549227,-0.013704089268962197,0.06697203985438675,0.05830214408246525,-0.018882727732689557,-0.0801952719666442,-0.011155819372466595,-0.045673441937301065,-0.09412148029590307,-0.02939780244411233,-0.08735260740931702,0.018708311104355703,-0.0395927874394048,0.06925995429872779,-0.08097729576268134,0.03453636947152613,0.008013531916010489,0.030830091107702805,0.06945341846069411,-0.009417305306429317,-0.0701858171368812,-0.043185436715287434,0.11182764348228941,0.06999543196700266,0.022422579399055807,-0.03661928812378087,0.11486738364191387,0.04691969282972721,0.06854664740866756,-0.06972592595468513,-0.008981706015864437,-0.045902749984199145,-0.08718583536586597,-0.12825441432785276,-0.07152533879084233,0.04185915255158606,-0.05721033984803122,-0.11915139902758465,-0.07407681659195683,0.03667382035565101,0.05924153141965868,0.042360204871046844,3.7075704063832544e-05,0.04300381398504607,0.04770453576541117,0.0578282589313336,0.04847831700159837,0.03334192399380289,-0.027025320425308322,0.01855631498922839,0.031611699568042065,0.06655859783983656,0.08412634565670433,-0.0801762814395426,-0.09479592807218552,-0.03208356046834238,-0.08744113953054862,-0.029956279836694646,-0.09683839549242673,-0.06589222562623788,0.05673983185971434,-0.061734086437191936,0.01806219356785668,0.061856699313538245,0.0021600002903601006,-0.0858128346781079,0.07561588284509863,0.05678867729094308,-0.04684497877804716,-0.07614206885688234,0.04853462974141326,0.009166784797760648,0.08168316754463288,0.04420007045640506,0.028265801270709105,-0.05612884784453557,-0.09555679212605739,0.01758746078603862,0.09795666239341196,0.06608843517478748,0.049123584752169554,0.05476670838195631,0.030810150689789435,0.004242284121213209,0.028940811743463076,-0.07564835977944,-0.08176950836051135,0.03074117872092267,-0.04556486330277109,0.03336077776750424,-0.027938391592680436,0.11145677046939285,-0.055231547131075726,0.03953916309999764,-0.002164025960761015,0.02890773685588216,-0.022887541346565322,-0.06897521639597562,-0.0317862171870883,-0.022083502253239004,0.06074193029230899,0.027819332503793252,-0.04708414505544139,0.005974873937592573,0.023386882610180796,0.02064492160730419,-0.04267122999750049,-0.04553671073975678,-0.0010442787778385124,0.031240658724134226,0.02228789155469979,0.09539927946234844,-0.027721117894122887,0.05308948742015957,0.0625396932800253,0.055691931052264304,0.08646126091970487,0.08592283993685168,0.01032576241645506,-0.0045056511263788426,0.016263897112432382,0.07163835672056132,-0.05480357570458266,0.08978549065555665,0.08314146391065522,-0.007556578033923987,0.07860055984136459,-0.019675569694827474,0.02370200043183189,-0.03973151828242572,0.05293799110168044,0.06919097580418299,-0.001534632252976993,0.07910636614446474,0.062050709160339494,0.09630701077469721,0.06223874914322049,0.13651243003313154,0.12879903266768156,0.11703097821820349,0.025869594667951957,0.14418515469808701,0.021976610642998554,0.08850727748375371,0.07072736073827332,0.01503908314436425,0.017696504444296515,-0.06579783923371658,-0.05038723136579136,0.12850464066351874,0.10269940877128433,0.04487383372062973,0.058647472428240636,-0.07178214546804908,0.03270012740550556,0.03164226499059096,-0.015234001073316796,-0.07747599670379694,-0.06694038649850578,-0.05168208613819588,-0.011114941552165584,0.06174661390810225,0.0005699218070198324,-0.05144452459342773,0.006612427999241021,0.06382836180818116,0.07886492482536105,-0.008086715065657836,0.14267479977340128,0.03331990130981232,-0.022334351099699355,0.021806553540876808,-0.0010006841568742874,0.03623002451800184,0.012000632182496812,-0.031877724414246585,0.005503529290304083,0.01841412981381371,0.019510495967555812,0.05484898159229791,0.0013217754097354993,-0.0366644397516063,-0.07385687607659898,0.009184042563943298,-0.05373090284308971,-0.08433721602566062,0.06291947375087689,-0.0731273542202846,-0.020002647155109226,-0.04953058111088857,0.025524763737514732,0.03785173925230362,-0.011132678717425515,0.12516549181745257,-0.03805787962155126,0.12409501807134046,0.1978021392291216,0.022506696949025216,0.029838913851441627,0.05029969482907214,0.012945675856846991,0.031568911710554697,-0.06974344525906233,0.015533253125354002,0.05614846071964568,0.10733616707716633,-0.037678080244467435,0.04680483284271143,0.03185481689341336,0.010250760525513401,-0.06915185638459617,-0.06646123267860468,-0.014839468564273782,0.023222639549354888,0.03449660995841542,-0.029481222113654004,-0.06038701608449036,0.0435716454186247,-0.05830846845123821,0.13497151974897553,0.1030083953570345,-0.0017044585302167477,0.05988819974287446,0.13251669079802705,0.06463953297135147,0.07094024870625526,0.04628266096316882,0.03935712136601002,0.05389874025152022,-0.05420707478941892,0.0695616503677929,0.043271464878624225,-0.03292942845361432,0.06865614511391334,-0.06982064798975737,0.05858049402276478,0.059304927129025915,-0.04570985648832584,0.07910110599254472,-0.007860382683336553,-0.05773417195204048,-0.05080222936818433,-0.02478395639839225,-0.08250790927170522,-0.042113362831001144,0.0462505712843072,0.016625673130887048,0.1210852434890133,0.12372067166019045,0.06430519776845363,-0.01989885973393108,0.013623900579157518,0.09476705404207791,0.11736607288797196,-0.023773513882675967,-0.021405073234118048,0.1276255077295611,-0.044591256952477065,0.014796911860086618,-0.02358696799492935,0.0643082146313252,-0.04976950427037591,0.04064744077018889,-0.07391778853741383,-0.007668520350197331,-0.048641427947457905,0.04265659224053583,-0.038020302964426066,0.008578864650712198,0.013464813263374495,-0.06260973046308109,0.010505144228254515,0.006376930758095448,-0.01258768518195421,-0.10316181880283012,-0.09436956624489841,-0.010052291404730771,0.052785713624898783,-0.06320695906992616,-0.025952841472734457,0.08037432150697063,0.04176449410529378,0.054902179996810865,0.12155766897422668,0.024913199607879393,0.12320192714867567,0.07855478822490918,0.0990370547027216,-0.048112176035847706,0.027931495618800355,0.018186776877150833,0.029980666503629502,0.04862286427518444,-0.03420458368498706,-0.04266774865580097,0.02903527505911865,-0.06971739108693456,-0.06282622611806922,-0.06149296333793973,-0.019761523060439816,0.054787546700137434,-0.03816899591169828,0.0070604309219625,-0.03580319501588806,-0.058571674528403374,0.03810229765664889,0.04967523392867068,-0.04524084165395972,0.03936505951948475,-0.05349284981427429,0.09961760871931515,-0.006792713560097732,0.009361906725625264,-0.028622412806343037,0.08327961045250934,-0.021186149580423093,-0.07264543518598396,0.01759071147981841,0.05292376524826464,-0.002904249600522303,0.0037910224257028937,0.019827536252254207,0.07214257218564196,-0.03820320238460301,-0.003374707839818832,0.039873213095404814,-0.011018449539090635,-0.030553669227681577,-0.037556559939759517,-0.018007190229752897,-0.04029255045221848,0.012943462328133737,-0.049738282352543836,0.07186755253436512,0.08106099419799508,-0.03887053268670437,0.06887288837371858,0.0009570357989244977,-0.015814771839585327,0.0479965642588835,-0.005525286775131275,-0.06471400796122996,-0.06708971715222228,0.004751420451436016,-0.026857151504123024,-0.059276983796575956,-0.037529308304866754,0.039558707255811176,0.08614585247178488,-0.009483965287169462,-0.00519994301443849,-0.021501626211374372,0.044814498683556574,-0.08089839291510277,0.0453554940900214,-0.03410572785325156,0.04968295893892374,0.013270540785292754,-0.08321161966070749,-0.070956354893228,0.0008809577349568955,0.05745197823914393,0.0017379590400123208,0.07634790310580476,-0.08076398345433952,0.0568638856048098,0.07128073490729224,-0.07572583032244277,-0.07012557664069738,-0.04098502443917444,0.038732158577990845,0.056200064427134946,-0.06601857051351993,0.0744731384175023,-0.04752858294359048,0.06508229540760324,-0.07415906460499269,-0.053786661877482635,-0.019311716232898967
