-0.013824137851646823,0.04128214705425498,0.07885017083988415,-0.0403911609417607,-0.06591315698640798,0.0323374229344691,-0.03188226190398777,0.0684423796101279,0.04387097867717006,0.08786953921343924,-0.055564234544829436,-0.03915154031689537,-0.0003744769107261739,0.03733169223554236,-0.037286857872495804,0.033156251442042234,0.04326370223841082,-0.012636033241273098,0.024741694626206304,0.08261438461046627,0.005412348243614066,0.09048312731106732,0.06213803910783033,0.020963069475034565,-0.05010157493265595,0.057332851055375764,-0.021668077450371977,-0.05770313086953677,-0.035547931991499394,-0.011166538051277135,-0.048698029174628614,-0.08443421882409505,0.046926654342730946,0.05916895471090384,-0.0862909448453965,0.009690735717125337,0.010956410108139468,-0.06081597636795333,0.009662932265895133,-0.047270853474012484,0.04130820122700992,-0.0031822796934542668,-0.05329883573277871,0.068544093421644,-0.061078102999012215,0.09191709174444378,-0.037064331518540675,-0.008408543297665017,0.07393125917142802,-0.005593711265657711,0.009860512012706643,-0.0751424454565446,-0.03268674207783658,-0.040512484902577466,0.07252221252699363,-0.03846467741457453,-0.0818042825276804,-0.09203081739804678,0.047329073443760576,-0.041745390264833364,0.05430373407306704,-0.03057817310237131,0.0314306714857229,0.04431432391623034,0.007354942110580073,-0.017047085077859108,0.024287259507107754,0.0678274343270328,0.029285559538462,0.09558529056102152,0.0005159985670219749,0.06596897940367519,0.09880574949845829,-0.04521920225018477,0.08529198863192909,-0.019340304538838848,-0.07245360249992974,-0.06148536838999293,0.0073842619766195305,-0.06035656149175289,-0.02859081714347396,-0.08444725306629325,0.02872673786809578,0.05673011782044268,0.08427309978616405,-0.03953267095385448,-0.01497836946015628,-0.0425491091238983,-0.08368948010636396,-0.024359707981829317,0.03566727770371002,0.00050654540362356,0.022011196341564922,-0.06968198523400901,-0.011897941308112146,0.07253153191820971,-0.016624222520110803,0.052680997614105086,0.039257643000163336,0.003079995568720339,0.08206254885153755,0.1463142073593074,0.08880371219733668,0.05932652115771128,0.07777666254483034,-0.00953157408630676,0.07636972305385105,0.005157369139410118,-0.04520819504640573,-0.001249079034493402,0.050471290488694254,0.0031361490196135143,0.0384391915971001,-0.05454201964280456,-0.07536259687934276,0.009640721963341564,-0.03740242897100996,-0.0577554718280001,0.01482594785946637,-0.06995681597106304,-0.09677552137320077,0.03277441376834241,-0.07884495670816319,-0.06311916820814169,0.06653732298499511,0.14298126339838774,0.1546944741330943,-0.007417027323497607,-0.026076579020805773,0.010223420124684371,0.06880899228802279,0.11626941053852018,0.0230162920105762,0.0024491087797840053,0.016780281522187843,0.024938995031013298,-0.03463858717820039,-0.03868344619962219,-0.02092437126523063,0.04619194326516752,-0.0583609106814265,-0.0786189880552012,-0.042413606766601046,0.008785787803356596,0.04630284261846163,-0.05257043713451549,-0.0070942153865771445,-0.06629491062513944,-0.05330616962646538,-0.01002813507850824,0.031487780431965505,0.03686871145709055,0.08167593770215725,0.03370961603349493,-0.0564066229399519,-0.0764878672702993,0.045184196927170434,-0.12054548813049651,-0.060199615960828325,-0.002205863301344999,0.050759849253222175,0.12121495484430757,0.1070270999633883,0.06307956200090731,0.06127876599672011,-0.040133874344001015,0.040212820603396954,-0.045820203929265856,0.08170892267187636,-0.07980543189861186,0.05161716323936039,0.06409306240112882,0.028449003144030958,-0.050245290551200965,-0.15529166597763205,-0.0753186590790855,-0.11194662618491004,-0.09400929953643533,0.008789856980301367,0.2096828444831877,0.015142151425361695,0.11801727426716753,0.032477230476089816,0.12974269407504005,0.1587491028887421,0.08648754854589975,0.07900382426626723,0.10782969609839733,0.137038612602086,0.07358602426928729,-0.03062330911516052,-0.04622114655219839,0.07196794610902128,-0.019490407485556138,0.0004044584419611499,-0.07915860057307987,0.014545789185820324,0.04705177506018034,-0.00040210543940992174,0.01376767625355214,0.019909924734923545,-0.14547961063104722,-0.07003485978114946,-0.08627508861696731,0.07360525963267565,0.05541912462243436,-0.019834871416839622,0.0021691011947684,-0.05700261193786369,0.10231041773094728,0.17122842510509562,0.17808156082235133,0.05974916471114137,-0.04401515997496774,-0.08964187618168694,0.015344366119846565,0.18845713937864783,0.0901391631664626,0.010493960052341824,-0.003941214425858411,0.02013043180699617,-0.0177161168849379,0.06108658651997287,-0.04750552996925621,-0.02560704010159687,-0.08254366737817984,0.017706707794071054,0.01211045312042342,-0.11236879866998443,-0.07655671565830902,0.014668303460058202,-0.028543490037577893,0.03405213346660507,-0.09757782775876812,0.02461505153120731,-0.11685826032482675,-0.01047887884324748,-0.08604995968033491,0.015764738397304908,-0.0384932257046845,0.005507790087193925,-0.045505910756154164,-0.09313237003634557,-0.09740130875540727,0.060189893290325085,-0.00934080039194815,-0.038814725375417754,-0.025596845139407555,-0.1581437471015336,-0.12640148211136573,-0.10963523149307987,0.021374728812630868,-0.06985012701460404,-0.06608624211883142,-0.04337740962803891,-0.09060936411486567,-0.08661313262692379,-0.11116423322597425,0.06710334788312645,0.0542689290015007,-0.0973542207731834,-0.17536040781769474,-0.07395656034415855,-0.10895476509494087,0.029746423976436193,0.10407661366829521,-0.09580770233838222,-0.03395453120771493,0.02257060405196793,0.0942807579853593,0.06143074501698025,-0.02521905323297841,-0.10890576966756009,0.044499157317423196,-0.1104796512449155,-0.15679025280831635,-0.06484929543726678,-0.0363750485540215,-0.053632595881723984,0.06861081642918324,0.01530836894781861,-0.0021943049221492196,0.01752905447361503,0.030054535130487864,-0.08275466176378767,0.020651971839672725,-0.134798470350427,0.003352464944751466,0.017284254125001338,0.08764771479754727,-0.010482173784155413,-0.07323745364772022,0.01869751732143361,-0.04249953187825449,-0.08207461498481268,-0.003013987308018524,0.11110360033809383,0.1345834111611949,-0.048274027129235994,-0.07680067988672484,-0.05319102074683816,0.04503595272921462,-0.1010255782744328,-0.13698931696649483,0.03452737247710672,-0.02313053660333266,-0.06752883254733213,-0.05655874334169093,0.007130705118442173,-0.03793451372807117,0.04573169485045891,0.05213020649649082,0.08004300504163356,-0.03305079520849145,0.012616515251196798,0.0005620753442833321,0.03304899393857631,0.06514210995550761,-0.06254189730539564,-0.09450697565498221,-0.12610888273541593,-0.13048809238074355,0.0017471766162910128,-0.00511343787492903,0.2311429263127709,0.07105788970885395,0.10263144619583753,0.13339024664052593,-0.007450574688358343,0.027581344774671637,-0.02746016385020504,-0.0024378881302948114,0.023864835508769656,-0.09083048706235247,-0.012695440417952494,0.030228025394142977,-0.024415772632669364,-0.04086611162011945,-0.0059768465036983505,-0.00842994408395466,-0.047498915074106834,0.00989756764229517,-0.0237474734710231,-0.0556165106115414,0.12790708177823962,0.04281709357618973,9.86791224581759e-05,-0.07691724489681498,0.031189107309617,-0.12019828911059899,0.026405170774044175,0.09356647038772022,0.061452953477604384,0.043151336457811225,0.11280869928755913,0.14059087539001414,0.07563224335639847,0.045424022504093636,0.08672514052924503,-0.06986868275838333,-0.03503479359253981,-0.0944630791236224,-0.027179754029211578,0.0035452056909454086,0.07271334026658322,0.056961668285460725,0.06698767411679837,-0.05945872028902653,-0.09370729124900046,0.037931381049539664,0.08828504398111332,0.1469929672103335,0.10015830027318537,0.038296293424149926,0.16171582322694183,0.11460987535598735,-0.05328052798726305,-0.14139674998165452,0.09576596961192943,0.0574467899885822,0.07095811944664944,-0.013296218087258314,0.14206455802135737,0.1153032416508267,0.06614333405353594,0.04617498191415962,0.02367069708920961,0.087133586413853,-0.05774296953178502,-0.05861985242161843,0.027745787786181364,0.012823109383985174,0.014187497668700704,0.031986255219053406,0.00534499043000111,0.04727939468089929,-0.0065806236595717625,0.07037977407457739,0.08357095231515503,0.31196095581878963,0.14389700525149915,0.03989093694833822,0.09703113118658355,-0.03420631930818221,-0.003019226024015879,0.06616417837083552,0.2776866265300646,0.2326975325904538,0.01825401595751364,0.030421774895547687,0.23541106712008739,-0.09420495955626539,-0.09085925127688001,-0.03901004341330092,0.0811307742379978,0.042905356731062785,0.003015947036983799,0.022476704324999035,0.06249945923404124,-0.06725899147183578,0.028062863686009725,-0.0725842371377079,-0.028127957538671023,-0.06207140884262825,0.033249565065810775,0.06425972437940738,0.23107546350163938,0.15464164672552427,0.12305071513494473,0.1476870781192184,0.11265331872574676,0.031006920594328687,0.13797685143984992,0.08176248419011242,0.22259852391530235,-0.013205386696559776,0.06986865218663145,0.2633590522939121,-0.03251641416837728,-0.0666359150599707,0.01260867586387478,-0.05331875227818613,0.07142578402437787,-0.06308389343836339,0.034376697965493176,-0.056199380011308094,-0.08009169129281161,-0.0030344065193838115,-0.002032235919847515,0.0826442044897119,0.028788662249619325,-0.003913659883824275,0.04455972670891282,0.01732747170430909,0.25169543594403415,0.26846908193269675,0.30173529519619907,0.22028220042682764,0.20805178136365735,0.07562187234221153,0.1467913030681199,0.1935204398912424,0.21896513252658534,0.17867509332860715,0.10556348205416476,0.014085661480988497,0.0904369335357129,0.035945774376432246,0.013318403468709534,-0.014653983059785502,-0.1094475793047076,0.017071745448113632,0.08524362079789798,0.01671315804576259,-0.08030435665379398,-0.045466711884013467,-0.026645963123277407,-0.05264490617523595,-0.06281344427545713,-0.08951548975968807,-0.009279425790556559,0.14358078652554623,0.10618020818519558,0.1426119694125981,0.15833163500907702,0.12367532571112995,0.08303916530011857,0.06358546038931538,0.11524037881333597,0.3135750328219047,0.17219727158711723,0.17300583285579932,0.12598066662832372,0.09164764541446697,-0.003886413456867331,-0.10866780911230667,0.0008550847141846668,-0.0609796072942814,-0.13842638619101916,0.022442406980958837,-0.07321830008584626,0.04566492987457785,0.01073422336308348,0.04881879901129434,-0.012021692280215558,0.051017258380976566,-0.057790306150765844,-0.03294785231815163,0.021800006800953,0.05883765502506897,0.0718930788675256,0.042348068473453085,0.04136072980017927,0.05085962651625822,0.10724855144506068,0.03114679702056479,0.17849973218790574,0.3230478141401602,0.35864929010981617,0.2089310669338092,-0.07249116518099603,-0.05605646327207646,-0.03979503805219999,-0.0099173225459681,0.04073991211883862,-0.03911145774673679,-0.02410352935053312,-0.10113410982250473,0.01802693824988765,-0.0262602537962101,-0.02846270770784139,-0.03778568675699056,-0.026150765426205383,-0.08855907858756622,0.028167201125928205,-0.006306968443728044,0.00996208421749192,0.001353608022667326,-0.0401133163235845,-0.03540137732791496,0.07360577802825574,-0.04007177912386321,-0.0306520635185941,0.09604833966055613,-0.020915257305776442,0.13261074212504598,0.3098116049501637,0.0641294629989616,-0.0974365763066563,0.023913491348823278,-0.11111994886281516,-0.05265992813703295,-0.15213499875701167,0.008281226340620897,0.06544910114604985,-0.0077025872211145905,-0.003419732443676187,0.08580187110845863,-0.02747762114160222,0.00716667902396796,-0.043178192743366026,-0.050922961661617576,-0.050907867029510216,0.0011640308659548579,-0.007764273371999196,-0.03084026205227261,-0.012943776149403365,-0.0283954932620114,-0.0038842135371633672,-0.07214759891425596,-0.01817462218367151,0.014495460190028375,-0.06847989244299538,0.0023551563697281398,0.055564248709693606,0.13459799886915355,0.0378452533902401,0.04046219551450681,0.05395879838360145,-0.05078758255672685,0.034211063587037634,0.010557232054003848,0.06317014707710482,-0.01766928625805511,-0.04620240971655518,0.04012015890550252,-7.009769086053803e-07,-0.08001832040087212,-0.04898329052121434,0.04871106560886635,0.030353148496621928,0.031032110886720424,0.030348559831995563,0.03281163300776379,-0.06394674445686838,-0.08172689459547021,0.03018176827678936,-0.009223801483124652,0.17847725090896266,-0.0538580536318285,-0.19437170181606586,-0.04705771583308539,-0.04014699411761594,-0.003211508140020851,-0.021897893533053228,-0.012163601777356169,-0.04807812593861124,0.0686995400328422,0.024667906412805717,0.019719172861842424,0.009629006127761155,-0.004430226196221132,0.020521148035261647,0.060576823436308554,0.026090198517714058,-0.017738490087810723,0.062393174525262156,-0.08035087479589878,0.05017579871797016,0.0535680603747558,-0.09866623222328746,-0.035097337889886206,-0.047669233496614234,-0.09705201120440059,-0.07153116291073953,-0.05589297846229192,0.031430417513800636,0.035450273486401264,-0.18623630821705997,-0.09872689935124629,0.08194065996627649,0.007500065169339793,-0.023707810515233445,-0.0029031349934624524,0.10463592311335146,0.07802180787015672,-0.02078292730308661,-0.01913017556180164,0.043582089952838125,0.09633918062000194,0.07055629955447829,0.08144570726685134,0.058993880826091624,0.030212051813917732,-0.023087223171716294,-0.029247909088410393,-0.03245832821163961,0.08324927359324923,-0.04539877265694394,0.011300701301265027,-0.11864735927328549,-0.11099097071279965,-0.16980563099392246,-0.07445676684896262,0.04929639194303276,-0.073158458782361,-0.1598262830802674,-0.15697637095986974,0.032453206297845955,0.13989896110318448,0.027593987114121265,-0.03177811655682569,0.03992874322153271,0.04616275829092972,0.04036491414082346,0.04481027332221457,0.09389374245653613,0.01925067313565708,0.028151580399675108,0.007532770625983423,0.04900190690596952,-0.07970368919783295,0.04541549721451558,0.04148608301804199,0.021058062962319293,-0.03651662586373937,0.06986918277542242,-0.04836691430033247,-0.0060832184425478565,-0.039152668976335,-0.09082796404243543,0.009571748333565592,0.023127856276536414,-0.04635500388699395,-0.10253438518350932,-0.08634870685524391,-0.19028495247229812,-0.005630284879050161,0.04335294787926582,0.04760212230457261,-0.035281858545665255,0.012920713576762619,0.1712372651720922,0.041268347335412056,0.017241587365839528,0.07195802531635903,-0.049933582778403984,-0.023316910538988996,0.07459606267945751,0.0010600907668953184,0.08306321296196721,-0.057362020599672305,0.02044721723688358,0.08422281875390035,-0.08502700791151162,0.019634576833155934,-0.07770054034179635,-0.10884570597264141,-0.10571296293839431,-0.098721988306271,-0.0371495616813441,-0.10285701164637956,-0.15811402068880148,-0.08729364267305224,-0.059127186864077315,0.06608555841149442,0.08576509016436497,-0.02573650531592586,0.02756276437389413,0.05038239219647799,-0.008273453032695345,-0.015115475023562284,-0.05196814946406609,0.048175486274073046,-0.0749430310761566,-0.030087515981176045,0.04800299383729111,-0.06983725872796896,-0.028753721052876723,-0.05830899491322206,0.03096951768978161,0.03314698335463487,0.06847614952620817,-0.03449064329005442,-0.0824268818593976,0.05500470289532671,0.03241352038982097,-0.046599199847234415,-0.07382774129882416,-0.14210589840896584,-0.06336439039580917,-0.11346955950374087,-0.09555894885312369,0.029201300848958493,-0.03080604234060955,0.010296596319713186,-0.08702473535848101,-0.06857100247422411,-0.011680261736454471,0.05780665394260278,-0.030848211862791828,-0.01912771013793615,-0.08305500833019874,0.007081814307913242,0.01878252858013171,-0.06717828711837279,-0.0847588662464008,-0.06546065843184778,0.06631965034202848,0.002276074009109848,0.002746122477730204,0.06805511648719566,0.035792177534658305,0.004404716548408334,0.04503856733913957,0.07754643996423562,-0.07348854500097841,0.04066942942060593,0.07445621598599164,0.048938873993711086,0.08341191170016872,0.08001230106141884,-0.07982029023821942,-0.04610478654658831,0.008401616376955386,0.07753775016604533,-0.050202647047535257,0.014292880596989488,0.013000415936086765,0.07814714820891147,0.048960010852407566,0.04589198545036146,0.057451315353250335,0.053308528177932225
0.018672997177190113,0.007399163740381277,-0.08620217358798991,-0.058479277247068175,-0.0010261103156641127,-0.04192365829614733,0.006662199053767847,0.0818731235700863,-0.04521210991659508,0.021231462326380367,0.0037821442679964465,-0.023230850861325168,-0.0025320712492299838,0.011648645155913734,-0.006075554663269324,-0.006340570896102479,-0.01707097800028583,-0.04862715802790393,0.06286858964515575,0.0038037811974973718,0.061205480975847534,0.06666401159091087,-0.03183455958736087,0.048337338959358676,0.04797973525905839,-0.01237556488193752,0.06946949867577949,0.0050314558628193964,-0.06471320917960928,-0.022239815886204935,0.056215747337876355,0.03198086482854774,-0.06699911002466254,-0.053290245049250416,0.07205115716128146,0.048134430886399855,-0.019863709454967633,0.06603670692230344,0.07534424576438582,-0.014878562797693394,-0.010029916261368507,0.08029638052613867,0.011746588346199545,0.07158547932650093,-0.009047679546304208,0.026869298360205237,0.055762660228571514,-0.04073884651871864,0.08054012166102417,-0.07577316810019565,-0.0015857329056540178,-0.06278287078263801,-0.04489544969536239,0.04975347542844156,-0.011419275621767526,0.08353950600292849,-0.07287052874399645,0.0727897481572633,-0.04780716812486923,0.03944193047601208,-0.0059586736738677735,0.0384453678778388,0.07275177308560177,-0.014438397587941115,-0.03724035132761565,0.0009434779277245269,-0.02634839577066895,0.030167415487437222,-0.061899977276491984,-0.008668430744510694,0.030901175669965406,-0.06066469039558832,-0.0665026419916785,0.07780872418878315,0.06853775599847087,0.07551788519097961,0.07015607711294242,-0.021765590040231233,-0.027442548822527786,-0.05002711622588938,0.040791337169623944,-0.08377726718116653,-0.0410667679070192,0.04694611107621856,0.08106003454591572,-0.07919167692826719,0.06855779002522736,0.05236187802289477,0.05321598591797315,-0.06769156811729526,-0.0066858123831493275,-0.046591844864340884,-0.041434686657887375,0.12250807993279153,0.0371412737774172,0.1399982004858331,-0.0029342559592887315,0.0773794709108358,-0.009615359047091227,0.08088387691648506,0.08449887797930007,0.09829223617478432,0.05471530614770738,0.13445417599720513,0.03153725620484517,0.12544133339641989,0.017799956202401913,0.08162094100968996,0.034743461821559046,0.007492133945137505,0.02020539701445753,-0.017391238695037028,-0.022095069928180514,0.017386516885747706,-0.05452484794697759,-0.0730874514171708,0.07350358813492308,0.06269064312170174,0.058394835512803174,0.004880741209115541,0.06379068065109729,0.011089614267001642,0.0934272607957905,0.12100306116732043,-0.10358162295759055,-0.12692339766882527,-0.10036319544538508,0.050961342480390574,-0.0333259643614182,0.096762678952141,0.11835027434735323,0.1546977715839084,0.14416702456409142,0.11047783672703741,0.019925677768389365,0.017524337391757946,-0.05964272170764267,0.04834611048504598,-0.022250618837544908,0.08397379616125798,0.02777126239091298,-0.07796880439148338,0.057728153268546814,0.048544246873337735,-0.010708596857523168,0.04317652555462478,-0.022291089073196414,-0.010678830815099216,0.037146529923303445,0.08157901363762857,-0.013132208441704603,0.00470296445888331,-0.06197142029222555,-0.09792713625004079,-0.11991370784125012,0.03279188022976372,-0.11328344045387143,-0.04503061896328641,-0.02428727894279482,0.1401525550198066,0.13756363752781584,-0.007450291618614188,0.01567125560971931,-0.04526733582448643,-0.07171670735345845,0.057752635661195525,-0.012330444385646016,0.003372369992707517,0.002282733089451639,-0.06876259307679523,-0.07919425991240181,-0.027681501391089422,-0.036464891890804756,0.007748447097651763,0.06335337560019529,0.029983475396380427,0.07682663041335182,0.057190860790634526,-0.054057256628584356,-0.04817677280564102,-0.1726345799885923,-0.10615721592622747,-0.09352995068953461,0.016602847737385382,-0.14799446256453938,0.020081310330164744,0.08417568464771681,0.10199467394377151,-0.03468039255181992,0.050625065186739975,-0.002583240388479885,0.02921995716795852,0.0055338494043070865,0.08689615502249869,-0.03796040652544599,-0.08084602571717445,-0.06359359439793222,-0.050719430350334216,0.010208592245603148,-0.011083425723247406,-0.03873267590907578,-0.06696038494029545,0.06411309103076723,0.14650552198451064,0.11223515580981325,0.1536900760176198,0.07769406639683288,0.035569872426046534,0.03960020069348026,-0.09667793578071003,0.0259364692155734,-0.02073116203989294,0.09321049526691969,0.1282345226324962,0.17524830142670308,0.011426644994357828,0.005159565703041996,0.019272574731646147,-0.009242020128900904,-0.05980849692042449,-0.0265010006843385,-0.05830844158377709,0.04433749230674623,-0.03126616981810686,0.035459469915192714,-0.03761779685598017,-0.05539524866877538,-0.01960212437548237,0.02479839077794642,-0.026923891977335638,-0.013692672107331487,0.03837960245440105,-0.005061770185866019,0.21070917996607885,0.19517419114651843,0.23673380606256084,0.12290662947487299,0.12710328242304453,0.07199949349852322,0.049392096944377066,0.0842071630745962,0.0073550441966507745,0.09356345260749548,-0.08505218015742311,-0.028198074228663658,-0.0039042227705100947,0.01308003737495242,0.09787559429913674,-0.0040116739192905225,-0.023959377011060563,0.0617055840950323,-0.07203735155205829,-0.0078107580660494065,-0.0737051896111647,-0.05869318353414772,-0.015557367128780478,0.0440702561041758,-0.006395383206620267,0.1219709156133767,0.12936611097327375,0.10560089437375766,0.08208256959493161,0.16024628143999894,0.1364377481176494,0.13789375039929083,0.2137583292907057,0.16535329971285675,0.20135064109336626,0.012006613108182844,-0.1546477379992155,-0.0482018559309262,-0.0874716957301202,-0.0019006817398789125,0.00016229152996239055,-0.0020759624691476858,-0.034472824238562114,0.10664853183430639,-0.005938860562896254,-0.014466390686730475,0.07206714144265491,-0.02136490587644876,0.03728010056618333,0.0407709344278554,-0.04340817632890426,0.04310617269058791,0.019804677730182806,-0.00339496441936627,-0.037802512456906974,0.04582209108199985,0.1184567171577756,0.10262411123873941,0.14232393827670933,0.17516473681603692,0.2600687310663257,0.15024063211134475,0.024290433404174666,0.12354253493763155,-0.05771589716451489,0.06581057764754651,-0.005962609867124041,0.030393637440342264,0.0035213813061195248,0.1067602654590053,0.14491985258927678,0.020074567287140247,0.07698922450892572,-0.07224790751967308,-0.05868246138922838,-0.01066804752258385,-0.030948617230314574,-0.07925415641675215,0.07913527053893071,-0.0009465123464097973,-0.016379906482653785,-0.06027724671934964,0.00439483520670826,-0.016533879241845958,0.04008366900277622,-0.029405044960932557,0.034006811052230954,0.06612909051441515,0.18285738140989136,-0.006318933253488671,-0.08131481681489545,0.08315195767849566,0.051194337034637355,0.034949401011719894,-0.08602555434504686,-0.13291381448262696,-0.037118164841197544,0.08054339344661243,0.1670173656417776,0.033009363882177734,0.0493951855323848,-0.043195838754200105,-0.027914682866570065,0.06524909172403522,-0.008398282865616337,0.09051551382046104,-0.037720649403081064,-0.03997718466868841,-0.059601546054725174,0.009956387057711198,0.0645303179956473,0.014891316783357006,-0.10501604007445933,-0.1052701421600096,0.021086679259288123,-0.062345814862764394,-0.10887313850022272,-0.14528429392843573,-0.2372261164610802,-0.009435336490575557,-0.050264326577167374,-0.043209943103029176,-0.06590951401182024,-0.1251206296197204,-0.03418895326444413,0.061076964392626984,-0.050307221368755844,0.09703410065297552,-0.058802606892620436,0.06809849341137637,-0.043772185277805985,0.06702989193934415,-0.05018936502300666,-0.051049306895027576,-0.0007875835196336662,-0.0017443449317970027,0.07083863734723773,0.04265143997176592,0.03134970276351482,-0.01863375559074378,-0.09815966363378519,-0.19340785571881325,-0.06727508402479385,-0.1258371311785473,-0.17801630670140264,-0.30379174125319536,-0.08289900981967895,-0.032016417053804196,-0.02122430569796556,-0.03033823001300844,-0.05063966334985621,-0.16452046712706173,-0.09364735542265823,0.06322102964997968,-0.03181232037052776,0.06871883323124708,-0.029924031110424357,-0.023793699030964063,-0.04332867911681946,-0.003722673368469171,-0.06509071941019678,-0.005561168230386659,-0.07770447685698681,-0.09038334907374285,-0.0005474467529632681,-0.05273965944577239,-0.07467581436761984,-0.03732915589205749,-0.027067863177922744,-0.05191843736739285,-0.04116984151952757,-0.10633430603587343,-0.07068563352738325,-0.11741046507115788,-0.11065152520744509,0.006258973515071217,-0.021960122826224313,-0.021557783978543042,-0.0401554588800006,0.048724425446808446,0.001033541325066285,0.12069918824337057,0.06599544599823236,-0.0485728926692857,-0.04380973509178243,0.06140073430442279,0.0004321051499115487,-0.03532876908093726,0.060469841578683986,0.08371024011530995,0.052814208750312015,-0.11921793701678017,-0.12868285635421617,0.007197899561622667,-0.038134418967852204,-0.06532376293906347,0.02072209858739603,0.1169188871754114,0.06654310176013133,-0.06985238782274064,-0.08062087342234266,0.003444805124090091,-0.02915897084131742,0.04433283408436146,-0.12499654121447155,-0.07368657312438445,0.026807377864406665,0.08453774439770292,0.03912058052427143,-0.024651248714794186,0.07101316890890944,0.022134480199994082,-0.012722617497892155,-0.049052822644805066,0.03672528084351961,0.07210587515331614,-0.06729661520110412,-0.0523727125528232,-0.05693623303701553,0.05251513721087023,-0.04184966594866705,0.02960999408385963,-0.04410264708175949,-0.11052336325060881,0.06835263539474142,0.006042948759856805,-0.08192433293485496,0.04801343140707792,0.04208637782755775,0.05484792065305109,0.014776486381251343,0.03881307091321485,-0.027193906120776132,0.005695266396446509,-0.06749540470180918,-0.018740670286982383,-0.003591930024673744,0.059740338641904124,0.05483861633044727,0.01044518596743844,0.08916404699999965,-0.06597827517214581,-0.08464908169255875,-0.01150535890434578,0.028032445552616064,0.01395895278072096,0.06419661732959406,0.05794924537292897,-0.05516134124341423,-0.0726049713685824,0.008652643803455958,0.01907564918865271,0.053188179691342964,-0.011421258927352835,0.0324474581131093,0.03149662385876173,0.10236880502915251,0.07148739930316006,-0.09567904065230194,0.02089385696389892,-0.10997741789818777,0.014683730857239702,0.07511537599645672,-0.01990521493300922,0.05083813931073696,0.007400997510545042,-0.02774493839984398,0.053383314419315084,-0.06886261875910715,0.03370640405498569,0.048124954051965194,-0.05479212183945527,-0.03843291297727311,-0.03347909790967851,0.012397733059287711,-0.05181337025545348,-0.08504496424953192,-0.07391736000595268,-0.038389400303373504,-0.04666915727819142,-0.06434115852152289,-0.10968692973020339,0.14035030055066908,0.1167626097201244,0.12211440174984932,0.0798324036108515,-0.0068420784273663165,-0.03733387348424252,-0.00494486122012775,0.07526558662081698,-0.07629863140169679,0.012765582632125214,0.08302713679919627,0.1514581461821916,0.007138175464743325,-0.04605423478697705,0.004688229606460376,-0.07241668899829763,-0.015421475517667128,0.07369587327915748,-0.07153529261347642,0.07810926405645874,-0.047488066694047926,-0.01914886799179979,-0.026453497685582923,0.033677235690351026,-0.04672970971699132,-0.019866521420124753,0.13409606082695466,-0.006196468976882427,0.09593596573540843,0.036188641008356,0.07445209838289288,0.07427628082294434,0.04980661136558598,0.014773232779804297,0.03065263277383691,0.019078843893360745,-0.07357407804079621,0.09940812485231357,0.06533988027777725,0.12489271745913406,-0.02615576544544621,-0.03125655170935508,0.047182882578237426,0.037895065980297835,-0.051191206359376004,-0.040977550512805036,0.000904040968653921,-0.07298412141022129,-0.04025675132825049,-0.013682732637601612,-0.02671588599773973,0.005748331096994133,-0.02810889430414904,0.047172493383634995,0.08327990566149673,-0.038051354095703906,0.04605359241873401,0.09220628146829947,0.05235268821498607,0.049360773232500925,0.19508375479103546,0.07231423423537897,-0.006890637800284441,-0.045502168274304075,0.036947419214195365,0.023815912668654172,0.08135000802713961,0.01601892530146788,0.05691208366003308,0.046929707821374955,0.03495134033990486,-0.05979445829215937,-0.016464822790367033,-0.005761189937221214,0.02368087744030861,0.06420693271987145,-0.07147697104863705,-0.09560443851608419,-0.10814623812334319,-0.06414892262304164,-0.11121509565182307,-0.07061868383530163,0.10882248291040433,0.08154814824339818,0.0608739694680899,0.022574790537840856,0.08037684092427554,0.13047545421915258,0.1441562153995126,0.04918895673383892,0.034909466627703056,-0.03727522467154071,-0.10277593911963483,0.004144552240056386,0.15285716751517578,0.0207105022413084,0.02922005438887545,-0.07764222283187626,0.0010740257049550463,-0.023622041003545795,0.07100325821589495,0.02266556600148592,-0.05929286574654728,-0.03656858035926248,-0.038859337724958844,0.015209991172635206,0.032135339252371914,-0.04000293661290249,0.05251888221158394,0.016069181085914774,0.023271185469491376,0.08794551025577689,0.04358019230403094,0.01090812000629384,-0.02147493836579888,0.1426834777539152,0.1351453997168168,-0.021702581660612768,-0.027828225430538367,0.07019622807944403,-0.12218329630169258,-0.03815977257773855,0.05907958654385321,0.01539746146703131,-0.07095334244167899,-0.034975315445878646,0.013031319049757488,-0.07244813195564102,0.06632063710245466,0.06912817833876414,0.05596500435723626,-0.010137136197893153,0.014164838871706692,-0.045219519574849876,0.0007239076714829453,0.020278578824841676,0.04349159810415017,0.05734476119384086,0.0422509261764262,0.07735714066858067,-0.071570774441291,0.037138635686988365,0.04170740844827541,-0.09876686113722233,-0.05294681197229697,-0.20963758954310638,0.02563190634310365,0.009698270777941918,-0.026411768467889327,-0.0026365709510155883,-0.0011995407456455423,0.07099828487851446,-0.00947837464494353,-0.028155136167128364,-0.08091645836282307,-0.062464367169453694,0.05509836642807679,-0.04296014325125607,0.016680011125848233,0.06833620055332022,0.029891076883117085,-0.07623831919826857,-0.015029020916563695,-0.0027116087770523156,0.1712558316687532,0.1458358911764552,-0.0006112394573015483,0.030797151109441243,0.1271139382545132,0.08948277663053521,0.0014736734819774863,-0.10850609543601618,-0.052562209219493394,0.010811499080904091,0.053351975482344584,-0.07177934820201895,-0.1307210931849891,0.03606874849406616,0.05147623878566591,-0.0031618087968431348,-0.08589781661165106,-0.046689989783585545,0.007681085037351714,-0.07778770465776334,-0.014616851630212674,0.0690918371377808,0.014686225600735013,0.02608104138909089,-0.05923033000053611,0.04583807059506288,0.054473600564297134,0.0708636414312159,0.024186247284312744,0.07367180739918507,0.09524213152618706,-0.03324496121079892,0.19195425969620095,0.16997511425508308,0.05353161347565361,0.0939192422932402,0.03847240939718552,0.049039102424333,0.134796765821961,0.07598992002552177,0.039864517585879694,-0.06624100770027314,0.0038481061596864633,0.014010817605259098,-0.06886869952825213,-0.08111256152775859,0.031060621893442095,-0.04005372750703727,-0.06940607714545652,-0.07329755847562311,-0.07419861555205758,-0.06460939977785615,-0.03728894726531951,-0.032973272849123915,0.04378070125397592,0.08501570852865681,0.05171939896656539,-0.06658925404991459,-0.05304466485381583,0.09020335805073594,0.02420374407783653,0.015512512249273277,-0.031963217516378664,0.07034844786675337,0.16221572672281784,0.09895062388273261,0.11182834910525889,0.10816007384764251,-0.034555371764400614,0.0585830177151211,-0.01603516664177878,-0.008917173420712054,-0.006190014766076376,0.06493782995033678,-0.008562982138893267,-0.04232680816320229,-0.05156486438860695,-0.06101662439890772,-0.07702536997145183,-0.010424476283652305,0.05841794251611447,-0.013699674922827962,-0.08012984872063032,-0.058505612930582734,-0.06906882392698542,-0.07719535238419849,-0.06701659159268705,0.0318755753492768,0.0029112305205016846,-0.07748666378108911,-0.07873306104251371,-0.0385443719213527,0.07512907204306388,-0.062161836695490996,0.04265701618998041,-0.05828621267494757,0.015986461605519326,-0.07531428141043353,0.07607928379867468,-0.045137558045175115,-0.0064303816064119005,0.008488883603897502,0.056221343561598504,0.029346512784287314,0.04567540776802735
0.0574087600334003,0.009795222725633114,-0.06895373749244173,-0.0031046392996744417,-0.03417161006447748,0.05469404236219743,0.060884102531288876,0.05257880478924099,-0.07110421859482786,-0.011080849785746982,-0.067300917382406,-0.009310040530005621,0.03340199139764174,-0.03791948752394077,0.04480107578107383,0.07303825981853135,0.05134160623803482,-0.045734186477458624,0.06230111306672129,0.0425057493218985,0.08121333075184604,-0.0689570898111959,-0.04331027185977513,-0.020889003271327478,-0.029632158361138836,-0.07640144469396588,0.010726916024306416,-0.03271340994104783,-0.08818931658886386,0.035175957960349835,0.05326165011026215,0.05581791442824425,-0.07677565375734044,-0.02551531014494945,0.02731812273573608,-0.04879998109077252,0.009173924509012447,0.08081768607581818,0.07853315788003103,-0.02004172284864806,0.04665651570355062,0.02070630656110988,0.07612681011282642,-0.061852310199736055,-0.02435335866076373,-0.0734083802825048,0.003157705705972908,-0.07358709949830568,0.058416735768220866,-0.08467802764253791,0.002430042943589834,0.012793430425185253,0.041645967941456224,0.03881801073792493,0.026462905375084462,0.002727327178448361,-0.08312246461175667,-0.07803656569039578,-0.012307404325813722,0.06572337273740904,0.08075190284474501,0.013778593153768502,-0.08467339119233844,0.03216987513215322,-0.005309611388623953,0.08592397891236832,-0.032104700993040795,-0.023086201638253735,0.015891407567518778,0.07988378545041211,0.030163239339186375,0.025077826155246515,-0.046139973444690084,-0.049736227161780486,-0.01671122258596643,-0.07216701874874289,0.00043152036975044707,-0.0205580213334916,0.03239796628261129,0.08354696372432,-0.04275730675561342,0.007927524538324156,-0.029836766210383937,-0.022697332675933102,-0.00567657639851548,0.025664620414688987,-0.01065239802279496,-0.03615771811508247,0.0637500144551276,-0.006193542862519857,-0.018370198381985177,-0.017891530975098935,-0.031051868268606172,-0.043134208623845705,0.08454025134602297,0.10465872473994865,-0.039720375494695814,0.001146525281671635,0.07625634168232442,0.02923031269922278,0.00628432314969811,-0.008132692930876212,0.004422229726306633,-0.05509092263009605,0.043588134285820944,0.0009175992786252078,-0.061590833471612205,0.07697351922514334,0.07727664985174044,0.05303199417360115,0.08452602892641456,0.0069779311592893896,-0.03134845513806168,-0.009905482750097833,-0.03256342062189323,0.00948690131406323,-0.07827278556006165,-0.033561740732478855,-0.008087392325511127,0.07599890454153796,-0.07025081696321869,0.05669003446886731,-0.06605183368576205,-0.012457334876762882,-0.0246975602526277,0.11148924514446776,0.032365679508430605,0.12016468151828527,-0.04659891332240398,0.04119770712198375,0.04024371860224802,0.03584117249336132,0.09945239298679547,0.017515089941640298,0.07822650524096578,-0.02444399519829117,-0.07717975683783664,0.0712476825472575,-0.06037314093175433,-0.001377847345854542,-0.00034695782073735444,0.018631797947988863,-0.04106381776148192,-0.059286408298165984,0.02529232926768851,-0.04264569026530423,-0.05747261546925174,-0.09175320188895353,-0.0731641876571258,0.03310444611561212,-0.060537867514297385,0.11304137159722502,-0.04683514828302355,0.0668133727550502,-0.07344925532799869,0.11040729821286101,0.01671921179707387,0.08627894063231827,0.023983966941606767,0.05894038458955078,0.05252648301219153,0.0719042841616668,-0.010085257046820182,-0.06884076536171393,-0.016081919994463283,0.04133997187998216,-0.01323501111769429,0.0454155018211722,-0.03664546334277708,-0.034861514336941776,0.04621299970848694,-0.07918669367482627,-0.03722790009762002,0.004509574253409685,-0.07613608227132082,-0.025628934778813603,0.09773589859197614,0.03861016776758758,0.08943949769499447,0.14528287130016193,0.050345640602995456,0.06806955906108962,-0.11132920109383274,-0.10661242349771247,0.0928307944241678,0.14487616121789426,0.028848270805772083,0.0018378245744877027,0.03507478458804787,0.008557135111646623,0.05644435429048083,0.10167037005738443,-0.04335773788994281,0.009618901465074173,-0.02771807561146113,0.016690963507013,0.0070327017941797226,-0.03595169334657761,-0.003282227924011184,0.07849182665665759,-0.022909496795395556,-0.030651776499390437,-0.03239471180287679,-0.0033960485379404552,0.04359108688723188,0.06640276521306553,0.010927091862675202,0.0665020001422058,-0.007050251377279543,-0.0712860095740478,-0.1171373231193932,-0.05337160747206304,-0.08573535405585293,0.05424187632501216,-0.09058582306255082,0.012763510658149844,0.10128134573942414,0.0932769335809672,0.12920555139827708,-0.005644476812437684,-0.0580286853277036,0.061974369795304275,-0.059478136627149014,-0.013673175377438795,0.04448622175912741,-0.03628685984535952,0.02094023475926796,-0.01650284527988668,-0.09517683410335723,-0.06051531640736055,0.030327804890298626,-0.005720076911113547,0.03764448382770178,0.154829707090062,0.0631747632554138,0.0713770802193765,0.08886175652276365,-0.08642288715326478,-0.1378452046905173,-0.020688429105218894,0.025783881103202656,-0.03455189600746512,-0.03289310974670014,0.11419511881528147,0.14704983717844133,0.036713870381710326,0.008238798564973166,-0.04090261100631141,-0.026659886176275488,0.057033735709333115,-0.021273206756654787,0.030837263744637855,0.012745529792397818,-0.06928764751096127,-0.0026939496680994613,0.02916429657291467,-0.07395728923124233,-0.07143383692887106,0.0015387933954947525,0.001901382450619492,0.15210624999731337,0.09043976586541044,0.011166399559060009,0.03917303646794805,0.058835069579118424,0.006132393031114907,-0.010884021071875295,0.036614833527771014,-0.1539378281654726,-0.11079868351611388,-0.08550194692457308,-0.09054255604167594,0.03545799480347992,0.051069188135329395,0.04930179291950419,0.06795365764619017,0.05530936952422646,0.03116403462453864,-0.04045186556980453,-0.039777201784396365,-0.052233342254665804,-0.07729252170909903,0.026359410642077176,-0.0774308612500005,0.05372850453988612,0.01843259854299514,-0.04148304538331355,0.007576945666750094,0.05276906099253134,0.00045347838464220155,0.22243197312090304,0.28841587165794097,0.050976194260493025,0.014197196983804413,-0.09412040448963603,-0.1401895980805186,-0.03339253608087959,-0.05892567347671319,-0.12989373959596162,-0.018739047161997754,0.0749057669229415,0.012027776486166259,0.11658606555065111,-0.04941315462820376,-0.0097566229967129,0.056981833804401735,-0.03077596493310982,0.06501644403690351,-0.05315822653028371,0.04212740827206044,-0.02050881566443039,-0.025201946750733627,-0.08209523728008603,-0.048101918103818184,0.04789540377650112,0.030239021327963307,0.051833964088874175,0.07603703380347109,0.2615502174690379,0.11086868898820096,0.06954322748514902,-0.018196593287881414,-0.1445246021976763,-0.2026719884172953,-0.04042979677581749,-0.018818331667504278,-0.0953771088295011,0.03326759126616861,-0.04697653928198852,0.0255737993766209,0.09478010898676345,0.022473733818778503,-0.06276051829271387,0.05321443877958318,-0.033403214678393627,-0.051680122587169794,-0.050653356062886526,0.03318589193480811,0.06644990995191308,-0.013050540845192261,-0.04472569875287839,-0.031015699149591076,-0.03351721214049085,0.039412218850280074,0.07471530650343518,0.12194185414881654,0.10663895037287387,0.07403328110769593,0.04378942393925791,0.016965110128889384,-0.1600109545561888,-0.16805070272532016,-0.11886391258295205,-0.028892512236698857,0.009084318512392092,-0.024645674679239463,-0.05414125416500275,0.014513753452897056,0.0925939637424233,0.12217182188940895,0.01038825877347272,0.011340267949845351,0.03248944741854568,0.03586280589004413,0.014067635691233068,0.002310974628077442,-0.020947359706932362,0.07270093531981403,0.0645216496077916,-0.020699430024344795,0.07842181736844508,0.06937801861062136,0.06778668257878896,-0.025734968280850718,0.12841709251588562,0.041348031290569735,0.06307689047499336,0.02670569383083416,-0.1422367220485015,-0.10120251871457113,-0.07850630086744229,-0.06652498869462481,0.027499085398233623,-0.0686547917706269,-0.05696118252962894,0.06814429621739261,0.15352575989195963,0.059480601670099637,0.04867569378018904,-0.06999196012847855,-0.015268616028560304,0.058963116651678936,-0.08679101528615117,-0.07837197560096534,0.013360899819776985,-0.009785122007338812,0.0701132617113098,0.02531148188889095,0.10983216004944922,0.04597937116209012,0.05582109638627591,0.05639831671734958,0.11015775862432563,0.1443290748937737,0.06317867604459786,0.013088708076957008,0.046342012544541455,-0.0817313245305156,0.003129782668198891,-0.032227756493,-0.10182014738079638,-0.12724111317287162,0.025885984850529675,0.01841709818788383,0.08920456390133076,0.006301852717533518,-0.010606752930252577,-0.014019140717196727,-0.06272455449489145,0.0257394533832554,-0.018032340967016416,0.041598521913430164,-0.075133931940718,-0.0026527171726773813,0.08335225279249693,-0.027114916353524848,0.13170993497474864,0.10515434243153919,-0.01633205560887275,0.12258150687893156,0.02433863917727642,0.14561942583511658,0.11275467220339688,-0.01970136118340422,-0.02841594702713212,0.01427268308834962,-0.002774357189712647,-0.056837491658019254,-0.06207343985192561,-0.08404538373607004,-0.03624238154305294,-0.026922330512201297,0.07171950730775857,0.011800825538664544,0.13032030336608805,-0.0333589213514043,-0.07280254040550148,0.014528157931449038,-0.0356325594710271,0.0072388035796620755,-0.03319398505195955,-0.04036350788148421,0.026295855606635044,-0.025871974349479274,0.06146332949502751,0.07598134854819194,0.0688347051508493,0.1103728378784652,0.08546066900821078,-0.054920630765571965,0.05280302502215754,-0.09276941563899181,-0.03372348279367552,0.04810813824163559,-0.03749126689783702,-0.08409180883332544,0.015207438448440216,0.07806864236245431,0.11390775167453997,-0.06570032562775847,-0.018211402370569795,0.04078885070887348,0.04494969459285951,0.03971430328810227,-0.0684820394573686,0.04051907851360391,0.006757122646360062,-0.029638492544132766,-0.06441094325187993,-0.0016935140320880851,-0.04266119798217085,-0.055118386503405926,0.004618707433873952,0.17134956304129997,0.027334863070657786,0.032012782755827675,0.024726648814455222,0.022087293144412115,-0.028651117768438043,0.0048105247525380024,0.004729963996228651,0.012901361979228271,0.04281653431538918,0.06465307765846824,0.08163096225597515,0.04306635705571197,0.07645170301855646,-0.1377806361639304,0.04135163891097753,0.023019664003560692,-0.015823978342656,0.08114385774456602,-0.05274380976109762,0.023553528246694776,-0.047524131606499244,0.058129764846056246,-0.011791753442881418,-0.050175185797437086,0.05067125795561975,-0.019111055585938435,0.10836865437187976,0.025636188703105377,0.022500284180037786,0.06690344789869146,-0.00011014584563683582,0.17950428522521134,0.037192542623583624,0.006945918089626285,0.06386344734584246,0.10078488473442745,-0.02932151961255684,0.009195554816361945,0.023461722301849546,0.06357363563090385,0.03076696810577975,0.04707189033985458,0.12007713065597272,0.030313118235747692,-0.036318613305328595,0.08713315053335624,0.07593108036968281,-0.06770055853897267,0.020780643030932976,-0.02403348436851124,0.06499048296404596,-0.08101422832040267,-0.08541969405912168,0.016921562574582286,-0.03561929499645116,0.10862164617027092,-0.005473607116330284,0.13638870655250598,0.19387559311277414,0.17073408359737502,0.09859507932056187,0.18510490682902694,0.12822605599445724,0.0024929891438478105,0.06973255710661015,0.0336895836382161,0.007111130506637749,-0.07940696209787727,-0.0522088986740456,0.04063750293588774,0.05390259737083049,0.04107825930851957,-0.020994625265657357,0.01978996110719382,0.0747768134085837,-0.02414182344613285,-0.03924401112660261,0.05819543448294403,0.05657188911563485,0.07488096382633792,0.013114911030385647,-0.06561859938970067,-0.10208518915317753,0.06297555821813258,0.020491813716992418,-0.01572478992168499,-0.031179131298465793,0.009349743581584804,0.13362228859100406,0.09477656890093916,0.027578202802133526,-0.08298870579912775,0.010598943604767036,0.12694695663111258,0.0901506605548003,0.004039453057925434,-0.07597425697420276,-0.01548398727104379,0.007662857860520063,-0.0421981559679472,-0.010638552550658573,-0.086638811436239,0.05455143464807094,-0.061555877206773794,0.07901597765239096,0.059377674290701614,0.0003745616117177346,0.037142555791374016,-0.013930062980582174,-0.05928792076699456,-0.021595144740945746,0.025658335331085365,0.12074928919654865,0.07628910361595019,0.06380717012711373,0.10474188933347856,0.11524118277920348,0.06033938607523066,0.06783111224058243,0.09073618879479338,0.06529012996598028,0.22421798096102452,0.029443835356620478,-0.004665456746024038,-0.02199105068264696,0.02891966908853272,0.10103713032992663,-0.03967283732054288,0.047018580822461756,-0.021466776298397244,-0.03290170638077977,-0.04640868242627574,0.043040624629453024,0.07895735142434715,-0.04171635870696959,0.0665710868967336,0.01688527294440641,-0.08251133882729014,0.01883937949040627,-0.03592274438276934,0.016939065111701304,0.10610682447015675,-0.004354792021704864,0.12502570635537585,0.01868938291602,0.10200874826186891,-0.0015317129435380838,0.030504138328295387,0.17415164026795169,0.08650912826034189,0.04397836559533961,0.048234141571735674,-0.0061899524535614075,-0.04266422976796334,-0.027564731307381202,-0.05281218704343628,0.012174219809847009,0.00782385973794657,0.08244609336464534,-0.07581004473611846,0.017709284769005112,0.01678673334038173,0.03260603423127926,0.03779001608657744,-0.03518213324108861,-0.07578092333834703,-0.04732990217289467,-0.07962385930573511,0.03485670818284555,-0.06086153306408571,0.13858333257987793,0.0298113466297401,0.024186848159195713,0.04319246982597291,0.13713651379511585,0.1203554446349646,0.09267676280669675,0.09292711436703535,0.05817182212166038,0.035842002143565595,0.030620074303249124,-0.07943456913422811,-0.006202354553544436,0.009864083103708078,-0.00939147047737036,0.0382706501594917,-0.016516417369640095,-0.06449376922641677,0.012538211756851278,0.04910628490354046,-0.04863556747926395,-0.029343797973647095,0.07309349557398999,-0.05656026549030927,-0.010233439617368618,-0.09111821391721425,0.03580577499359404,-0.04784298245928891,0.1290015653757614,0.017272197465745202,-0.012316760464818452,0.013379789282862806,0.09667790664914182,0.09766861863103442,0.06997194346768165,-0.0005953719643367763,-0.0005235388794910739,0.035425448141589974,0.005805526751552122,-0.08781792297966709,-0.07188758831932002,0.04879360629638022,0.03127907635543369,0.03340703058307759,0.009750131106818109,-0.06950475650960485,-0.010752966163160798,0.04540924904409076,-0.01378209833178871,-0.04180434623257655,-0.08390423234042717,0.02038219702490465,0.1001750599452658,-0.02098367735234491,-0.09267787177795886,0.06364886277592711,-0.05642795758687986,-0.031084309392340068,0.0352305707813907,-0.05591869676840277,0.030663668877634796,0.028821582382061416,-0.05337987263508313,-0.01731899545289957,-0.08154862332797035,-0.10482630839263984,-0.018639356968446277,-0.03990769549397964,-0.06849495668581489,0.010150097251531686,0.034885042632801774,0.07862390294464744,0.05842750693764402,0.03066294854961385,-0.04499195495673177,0.005548337007085426,0.003943257650883256,-0.08166003174033185,0.05921790885933669,0.057243225434353354,-0.06910229227929494,-0.017667522541526863,-0.03794986136820731,-0.011303880171866664,0.04453065023813498,-0.06014872499010576,-0.0056313985798646556,0.04972516631790063,-0.0965729791511886,-0.030951339603539213,-0.07694184283990443,-0.03733512249206126,-0.0778200807231833,-0.050374073977557964,-0.001854118438381346,-0.02498250839007782,-0.002645880833667634,-0.04873338510529261,-0.0618351588950222,-0.054287456874466726,0.05799808187578823,0.014177536953888605,0.06124934616555091,-0.032288082183263525,0.02297423559876616,0.035080269954854575,-0.016423898518942742,-0.029836224709604023,-0.06309363029824876,0.0034470473568622316,0.05892713786234814,-0.016903215063256503,-0.07289469214671118,-0.053388918230965,0.043677101853453595,0.05896458280023696,-0.04309074261574277,-0.0814380365702235,-0.061078305442770965,0.05550891676360927,0.03839517380035244,0.00783537585591076,-0.010559598786695821,0.039008382872924456,0.04475814916189791,-0.05729984223534778,0.08587908358421664,0.07035846727974297,0.023228312478527528,0.0038571741469896384
0.03325301076485546,-0.04053505484012726,-0.047516506823816335,0.006295651169818366,-0.053637064929016945,0.03438875359319162,0.03671830333441436,0.0534862405846591,-0.08740855971580314,-0.04893459649192698,0.025011388012864202,0.035570609490484864,-0.014181725005209112,-0.07265985752520816,-0.028797700986582866,-0.020580966006719284,0.0738148541031527,-0.038721408903031086,0.03349572443618111,0.05889239923758897,-0.04267182545347609,-0.06654774648369727,0.021453247916621145,0.04827842326805546,-0.020833368573643388,0.019782239393914686,0.043787152589496864,-0.06585488529647905,0.015692103731873363,-0.05462037507568351,-0.008014806603577429,-0.08007917214724791,-0.048202391925127826,-0.06486663619980604,-0.052986940088894735,-0.08468077678034641,-0.05777924163781003,-0.059610623354127826,-0.0020272233513238735,-0.024707267266627392,-0.06399592871726778,-0.002505685019110102,0.08230608617277362,0.0654651247952863,-0.012676126927968453,0.042967514807814966,-0.07266703983048414,-0.08196554279404376,-0.025784773883402085,-0.07780406407993007,-0.03624422953647902,-0.052341015180525544,0.04753264714416364,-0.0272009216765342,-0.006824504845386005,0.056307243698069546,-0.001783332112215085,-0.004482095816013771,-0.028339008373888693,-0.04846069940581531,-0.04079316511344954,-0.046265296428562974,-0.07648545543341252,-0.07122023190476987,-0.004134274595696673,0.017556710159853176,-0.02726438364585598,0.06807080593956298,0.06250552585262541,0.01957008854315131,-0.030689902458766648,0.00586402126364661,0.07601026527154106,0.0021902311352158337,0.02593953654187385,0.0531681042554349,0.04584281071501962,0.052392986898881694,-0.0408875499655584,-0.06950384641350238,-0.06610648779054165,-0.0009347902354342917,-0.042620269086048636,-0.006824983621713086,0.05837855724715817,0.0049925322108468366,0.061481641570306056,0.004533707266490239,-0.060064719030315884,-0.06337227822415863,-0.0326096688541773,0.015824616901855992,0.06826293621718388,0.04976228858774149,-0.09267748727735842,-0.09881412739872356,0.006471371204879573,0.04163279044330426,-0.08127247235082402,-0.08311152176874288,-0.016626451589458257,0.014025128206113797,0.04700287590452265,-0.0402861929730453,-0.1337205829919543,0.014940958589926438,-0.03955162902143248,0.06739923818924083,-0.020890963550344883,-0.06472681155514402,0.0710244428944442,-0.036024007191029016,0.011984930729803058,0.002010717260979543,0.06345408932897036,0.06200635874194516,-0.047438859435151394,-0.0300903262216245,-0.05301167759503967,0.0686142279335295,0.07777187655803768,-0.03805719088718029,-0.07824206331842573,-0.12358730570403216,0.05099633516546035,0.07463154749769131,0.06016689026851479,-0.0744324426694503,-0.05526702235296278,0.09823684527830528,0.08580212686999775,-0.05916093656793487,-0.07022168608285372,-0.0038609433550391456,0.022221799264859322,-0.018404838990829304,-0.007794492601686645,-0.07711075563171371,0.009818610669467084,-0.06662221011713941,0.08520980964384421,-0.029733034454831844,0.026164763697593595,0.03509366794038083,0.02266771292693265,0.016135070377273866,0.05754899542915843,0.0052004598057150755,-0.05500782214136838,0.07291224029188738,0.07829665624041152,0.05260821061535364,0.16775056051356546,0.07432892889236319,0.07975165219222213,0.027202469825816377,0.12442153365547062,0.0472900861138244,0.15144577602081738,-0.047894805667684205,0.08648807701749783,0.025778250022196966,0.02464195214538011,0.06896675018838064,0.06760579380369605,0.028791646716505474,0.07344107924780298,0.006755808794052657,0.028391543065039028,-0.07664603546155523,-0.07777930656469723,-0.07237898525933785,-0.07665251690574307,0.04707948039475113,-0.052322194920970316,0.0017944959771110638,0.025295002946693002,0.0558296627067231,0.03561689263301382,0.05772438509349365,0.04669039592811281,-0.002428262056389414,-0.006631762783278018,-0.09092184960767519,0.033511808062195045,0.10712102733432702,0.09585656693032792,0.059483472663825324,0.06738809130569107,0.20155376781849005,0.04005335858065093,0.12877020287581767,0.02745944398326803,0.0019291908098535418,-0.04465597376196957,0.06418287978361355,-0.008407142371190213,0.0161039724546369,-0.08277709624738394,0.03463177715534659,-0.08424828800203958,0.025005503982533962,-0.012659633920321905,-0.048426570162844025,0.07375123888379101,0.0857711700862033,0.004908692446650864,0.08619732929451182,0.03386766713445788,0.03936105880586346,-0.12628708185770884,-0.14031365335110682,-0.12696520463611205,-0.04999821549158618,0.11607705910767371,0.20527861379615248,0.2061990606767163,0.3059216678215009,0.08272261697606632,0.15244313822320443,0.06273871220829308,0.001667890751370721,0.03987231529902549,0.0461249793190008,0.0726404222200304,0.0724081953013275,0.07449655686098475,-0.035578633143486346,-0.03913205864625217,-0.052234371208033585,-0.02377996938878814,0.01711457848285644,0.03155358907968493,0.11512693848043168,0.06015234845724907,0.06140144057036342,0.012455178131388616,0.09689268923590738,-0.057500644635730916,-0.09014938615937756,-0.014241852585212923,-0.09947534638979935,-0.018110365592997186,0.09876502961335075,0.08996085188691966,0.15126048788333135,0.18097500002037326,0.0948114711602367,0.13596080584312964,0.09170602072339533,0.0370721083480487,-0.06672646557245238,0.043442618627253654,-0.08180097132405731,0.0672504274966449,-0.06572676924948342,0.01373145164519655,0.03257220897205762,-0.009485446583610356,0.0316721637698089,0.10932382247071122,0.13288578050838387,0.10635894214785944,0.10476486620311086,0.07624990401745385,-0.03959848113261038,-0.057699716800233065,-0.01893464941234692,-0.01858897656585606,-0.035750597562952034,-0.17043818362998425,0.09008772959183653,0.11966197912573066,0.05868558561911194,0.12020260033607656,0.10877990503915694,0.12336701441707615,0.12061142685323047,0.07587594366607382,-0.03034916338182786,0.016628935018905843,-0.004247319449863513,0.03443343418402611,-0.06976859761975093,-0.09875179372704383,-0.08924482918628546,0.01958847205325031,0.11429465380044805,0.04786965923930444,0.0623085763387976,-0.0514414770814399,-0.06665879144012898,0.056947012202107565,-0.03282550611221283,0.0625361398945624,0.08989548427309993,0.07500194415796242,0.13124062090232524,0.020286613390061867,0.0422346767763538,-0.07722853287012275,-0.03862720457900421,0.024798840493582237,0.018946273457846833,0.047134053414890964,0.08270105710533045,0.04280138126103064,0.06183344067983849,0.07515145895297325,0.015144182661616695,0.03010068213518395,-0.05329291790104976,0.07349393680120597,0.04026475247712808,-0.04524434387965712,0.06955951865813086,0.135699180496835,0.06077302931227194,-0.015262747360705877,0.09734327161054127,-0.06879931661556009,0.1411763690976691,0.2808924617572282,0.05537358543960806,-0.057709332458100046,0.01161911947267086,-0.04648684321403021,-0.014502909782639612,-0.0917710210666736,0.06379060086561415,0.02919564063527894,-0.03423463131218745,-0.07775264697861192,-0.021075492498374603,0.08466159353991512,-0.06918563158384812,0.07605401328805671,-0.011837436642991974,0.07056842468588372,2.9125533143661912e-05,-0.0030000936861869568,-0.011052063229929176,0.044858863208738914,-0.004147094786997726,0.1394787473904422,0.14358914535005654,0.08871097673529248,0.07611701796823826,0.028883878047111313,0.29930675996029443,0.4104526382819937,0.12316324209351782,-0.13561992960826366,-0.03185097482262735,-0.17869423401974557,-0.05667968755018459,-0.08505907527416742,-0.07343740705883608,0.01198923200146075,-0.0838654327480863,0.04462397593595069,0.0598030519678782,-0.0634609475391471,0.04619812383290707,0.029686830966722748,-0.04127573861008953,0.006048264240543711,-0.06497259867794354,-0.01225665358560108,-0.058232712214226226,-0.15914059393436922,-0.15659104746558553,0.08631326100463386,0.18265295098813006,0.044956500636296734,0.13961041535706462,0.09883818165374687,0.286750996154523,0.27011570747980684,0.15411987018533607,0.03127015396398483,-0.04204352466277943,-0.13839264674430013,-0.020027467579738265,-0.07056502984322842,-0.10778704009073223,-0.029292666958705596,-0.022117333652728086,-0.08644059323911371,0.03595413028146014,0.08720201366487307,0.056599921987886326,0.03276749896631467,-0.04462640697581036,-0.06254251203815726,-0.0866487635374158,0.024820117750115955,-0.11949860717350161,-0.08722089800241416,-0.09685809692448562,0.11471699173798275,0.12891669606218728,0.033727071352242316,-0.06332628646278636,0.010867327786224224,0.16015040484951276,0.3305986250774835,0.08098298755267266,-0.13203690018517408,-0.006691238757079144,-0.08004395127435004,0.011702884234817041,-0.06954988887342488,-0.20385723091099525,-0.2219056925644654,-0.09974516141610906,-0.014971819013405548,-0.06047699038902815,0.041497567471359555,-0.08040807264489878,0.05640717241438962,-0.07546208326706003,-0.0438615439695086,0.07560298423416191,0.1145017323163373,-0.06171288708412888,-0.053407840796827054,-0.00773280528240269,0.022513051256626396,-0.06541920958078194,0.04757052894488544,0.04396321193983066,0.13424681088839974,0.22164603866901184,0.25081402725025875,0.2024862495733518,0.004036647398175365,-0.0055559816144472906,0.02347500654522512,-0.165485405087963,-0.09964011474132063,-0.11154573089345851,-0.11518336371861373,-0.020735304314406268,-0.06609161010150984,0.007509904953076244,-0.05023649563844403,-0.07203609173553394,-0.013241456736147798,-0.054952909052371025,-0.02113931126930508,0.0012468733600276916,0.0070350519893927,0.0031406253632217224,-0.15554408848446502,-0.09504168255146768,-0.009212217119432134,-0.015277613288273635,-0.06157335482674919,-0.11503707459864115,0.12779484430466784,0.2659430928479045,0.15879283167406666,0.19912034825748684,0.07432404499737295,0.14942450734528923,0.03794042046639911,0.09254048675355948,-0.08542090823678616,-0.08048236549343478,0.0012008748872801797,-0.11744306727824025,-0.05504433566599493,-0.005256637943058178,-0.05359870477481565,-0.008402853339880414,0.061268757921077,0.03733674921158935,-0.057859471289899135,0.015431609796805253,-0.046884395744137275,-0.05560592342198765,-0.06213792569993677,-0.1499926126440673,-0.13282111654559386,-0.09457250339752314,-0.08846796398116206,-0.10386926214640126,0.026439730382781433,0.14058147970966542,0.22258220461836986,0.15842159644914172,0.09477194328712042,-0.05214512937116763,0.04910912572775221,-0.07621229803117392,-0.007600808842150839,-0.07233778780922552,0.06088015745356277,-0.02310030418652047,-0.03131496536312241,-0.02445894244973089,-0.06631451096771836,-0.03911799931005687,0.08605893685649887,0.0614430384265079,0.050088803711841254,0.00023190577609579144,-0.012755739403906475,0.09826226616204119,0.043635376578443776,-0.05517723373695075,-0.13899373315068916,-0.10774725074744855,-0.10244076166756834,-0.10403964206057545,0.09303355055607176,0.20794972428655317,0.0479403609679025,0.10726234347553189,0.06909371246933033,0.007344439474675948,0.06284861185393513,-0.04269779968274488,-0.007562221304247163,0.01318982439262564,0.09587902582345513,-0.03028483728273976,-0.013155756951135838,-0.036275720191374955,0.04510669473230307,0.020713459817626536,-0.019670938897141273,0.07239512408707456,-0.051518519756977084,0.07115111393924153,0.03146724262461418,-0.00296793826155089,0.060990947930590275,0.008519855500427177,-0.05797511812924959,-0.014136108964399267,-0.008304826868624195,0.07962921789200916,0.03222103061723714,-0.0008789269172254426,0.12946326704998398,0.020141264652381575,0.045191082041466865,0.022439718557458535,0.01650063933189274,0.12039282460274213,0.0893208016590202,0.015436871341964524,0.05514618194034248,0.10158963220252835,0.07903433915280714,0.05861863387976759,0.061047299370261134,-0.07261449200123202,0.011176194518552295,0.055575100968540396,-0.011065330970578836,0.06037370599355302,0.07977773915863344,0.0030823424199362295,0.04801470420231356,0.11053048435990123,-0.0467069637482924,-0.015029793270818185,0.05482292006524234,0.04944061368500955,0.15523255250215368,-0.02070396372466505,0.05645131421554524,0.02212555430013346,-0.03856875443371704,-0.0681297256102572,0.023072385409164856,0.1811708252560492,0.032877769503467345,0.10123247115531324,-0.07792518136936785,-0.012640938847594482,-0.08106402735888865,-0.0669873363877088,-0.09144129336619845,-0.02753896909464865,0.020789808455474575,0.02388425348359035,0.021047529649803703,0.0005740929443480456,0.10330928774197835,0.13521789651000685,0.18427296279803376,0.1469778741380553,0.07414802029629748,0.038269885997347694,-0.0669151444251284,-0.0425574591560677,0.026127586021748927,-0.0027201241193883004,0.007440109689225747,-0.04124315862466133,0.05945375281914327,-0.09737863180882979,0.10761686891186352,0.1407265401026556,0.053082053774606036,0.022487797211261103,0.0451598464550829,-0.020919852677390553,0.07331148375502133,0.014553984010057914,-0.03513532221023115,0.020556554791417117,0.01616814831763698,-0.036130670411100914,-0.05917978955110253,-0.0005880551669244186,-0.03692600543416698,0.04115176497134061,0.03639683418296253,0.18520765351932653,0.16106755697785013,-0.023897678900030302,-0.06984104932851004,0.03581997084840636,0.0747844127537988,0.08354355299362128,0.11046289493133027,-0.005143752831587014,0.012164181124396923,-0.022863608862530083,-0.014050385735971917,0.08056890608211785,0.12579431841427982,0.0016940287607376818,0.007685151860495456,-0.06638783190547194,-0.027166318079125798,-0.03792261171305912,0.03169714173779362,-0.040917396603589666,0.01740333196155649,0.06506665277802105,0.09009155104048955,-0.06580508698896863,0.06656583914428557,0.07214407116975276,-0.028090813973170453,0.09608531640844516,0.1137058297062274,0.0342972885570884,0.04695063924428369,0.08751269434342424,0.15217088632496,0.07364354553176819,0.08836380727012594,0.027431474488465925,0.1336763100342467,0.08290209308183648,0.024444523783690563,0.16521195351179246,0.03414277110766239,0.1202000900121053,0.05738830253276853,-0.07751547587691354,-0.03871457617717153,0.035616093871340015,-0.008104554936483668,-0.02989310099716757,-0.02383003561092409,0.0009595728298781687,0.06177459431494164,0.06675728602675231,0.0692563006254011,0.047231407739991745,-0.004918499788513752,0.0476166511880485,-0.025334920713449588,-0.03448386365796935,0.11221967355567769,-0.026414329410334964,-0.047756735964098025,0.019753209613032077,-0.008941372466705799,0.04888954174718442,0.044299605351193976,-0.033782350848396134,0.09990010802946614,0.09702930937922495,0.03836157289795268,0.031147670103992185,0.012013664850419608,0.0723402816703947,-0.012099790247787042,-0.017289685816867687,-0.038316528056728937,-0.006612569867941738,-0.01961358269790638,-0.06117149884366317,-0.02897029717853913,-0.08053049957844527,0.030313809926117506,0.05496869251327314,0.06536320390588447,0.08982033903543848,0.036929256479494015,0.12172789374156683,0.10526835740713118,0.02632548509259383,0.004880442845320281,0.05860621897721581,0.023496201349784734,-0.1395645883684503,-0.13065643927295692,-0.011275805476561944,-0.025324686381730566,0.08587909459093639,-0.03550326266627182,0.031488655202631964,0.026372789455736036,0.04466077130500989,-0.07466770282239758,0.08214955851780396,-0.07924792261086232,-0.0692224507718324,-0.05948690939304962,-0.01669520217005416,0.03701693256530491,-0.039903474239116284,0.06392943426885861,0.00598625630406894,-0.015424917441657512,0.02975405205399055,-0.035410209780019686,0.04739830102006789,-0.06223710161291012,-0.02462042715860396,-0.06079676200567489,-0.01401099073910967,-0.13852163894272176,-0.10284275165900351,0.010569642217873324,-0.10703612641795676,-0.001099460242302364,0.020284170220955574,-0.0652098304195566,-0.07789807489665418,-0.07056182492857269,0.07212615455959899,-0.04682641998387509,0.0505236194517237,0.014948356525374637,-0.030027565901200134,-0.01210702919151363,-0.05273943517776125,0.008718646278311237,-0.058098919162893156,0.05789274552839437,-0.05174121005765891,0.044537013784581796,-0.026573035501223315,-0.035459899607075074,0.016314594805923933,-0.041314605678083795,-0.06724287616369509,-0.07408302052391325,0.04155857789893447,-0.04521907912623351,-0.04487142023330145,0.051959142149987904,-0.0492993078032601,0.0324965853731452,-0.01934916426014473,0.06807109923843452,-0.055364864167258436,-0.0348105100366225,-0.002367838482922476,0.053611268586102996,-0.04633933094233367,-0.005515979557078329,0.08260824317832345
-0.0375536105958506,-0.04396838391765036,-0.0259842868969816,0.028021171900936205,-0.03103113210955261,-0.004695891877731099,0.08241290914124856,-0.049150258986031044,-0.045802287058766745,0.06686822173966216,0.055422806894095476,-0.05787569016447428,0.053991946665630515,0.030453752821440003,0.019195203265464634,0.062354006841225953,0.03867947537556883,-0.0470677690211894,-0.028048109442378184,-0.06202485636518294,0.008072526815295016,0.011460151134200946,-0.06415697870837557,0.01997514999239083,0.05049675114903813,0.047740618947488156,-0.06779579949144918,-0.0711188538749403,0.004459756251670423,-0.029315415473548188,0.0185629932072419,-0.029970840319554708,-0.05640217387107417,-0.03781857806197652,0.029501535479793763,0.07833808981282325,0.030962807433158848,0.07413606770835651,0.06465172577029304,-0.09429772628706781,0.04330745531249609,-0.0786547846843882,-0.0027059598593350705,-0.0696443707137673,0.05544376564578411,0.017275544113219923,0.001465610188603647,-0.07756267418466606,0.035637511194097866,-0.012075758737296913,-0.0603473514490421,0.05848264317921354,0.011130764306530858,0.019171402462106933,-0.04804842995937358,0.06687225446881176,-0.07518209763457866,-0.03905263196239001,-0.028222969109004258,-0.011159272392891575,0.05852463140503504,0.0772891854968978,0.08296566052799416,0.026071766363692767,-0.037485565593056804,0.05409148300086704,0.05105711892292243,0.043509430621584154,-0.0033877575295382387,-0.08131991344097753,-0.0523374303736011,0.045677475953339715,-0.010375079434215862,-0.03687767858786605,0.006774599945775877,-0.04634233838824374,0.016007195529288185,-0.05726697149228511,0.06706193337711203,-0.020891370286706554,-0.03636285963320373,-0.05346396135180079,0.01057179904705083,-0.0108507268134889,-0.04509268619469111,0.029642115579713156,-0.018848471877703485,0.08600145455533194,0.03519816571118251,0.07253747751614836,0.0767390847053986,0.03273768276897294,0.054682195695347095,-0.07555499144215082,-0.019493076439488763,-0.03828985582591033,-0.016061721393608425,-0.09118455673849499,0.0064809746977543435,-0.06111815202710118,-0.07661521597534898,-0.03825376508185156,-0.03378685074825538,-0.13993158519202717,0.029340562862308843,0.05247101025494781,0.0575618176342328,0.04102763280017161,0.03493622049995674,-0.07656493893086777,-0.04511451232423957,0.020699712207331872,0.06471892233193804,0.027305182415257735,0.05339008359685563,0.03718348811707779,0.08242611837105634,-0.042715205710420985,0.013922942048733223,-0.04300284548734216,-0.022023671858978067,-0.07912605043861962,-0.016377855419157306,-0.03897833339565329,0.0762737273440846,0.07971821541774872,-0.0920144775974899,-0.14556980672101863,-0.002666496137298559,-0.036965124760590655,-0.03915738998399475,-0.10993917248796695,-0.06321430165563699,0.07956098744247402,0.027073207944384687,0.060193137803765936,0.02565025645395292,0.026275430281041234,-0.06802039381581843,0.0603972840214424,0.03780139816591879,0.07231904431973375,0.030505782834997122,0.018834193207851246,0.06737752161402855,0.03420727152739809,0.09117543157444928,-0.061383202705925746,-0.012818284552318772,-0.14578307009938798,-0.02235884424030311,-0.05902706285576776,-0.07922313868160721,-0.09382105311530982,-0.06989668774058111,-0.058992806473526935,0.028341654699048993,-0.09340383142979665,0.07408715991029038,-0.014320853760121995,0.03052097625052283,0.1230936826888775,0.046083377635862795,-0.036447911371050586,0.03463808578988541,-0.055677660622456805,-0.027016632082863777,-0.012473216782752154,-0.0475082547394129,0.004677988066323318,0.022586114048432294,-0.07334460861426273,0.09696000690831907,-0.020227142213517287,-0.02733224233717255,0.02830396589159716,-0.010202379959009127,-0.07623420364767527,-0.0010608769211250184,-0.10124221868637712,-0.07808813074274715,-0.11265038294654137,-0.20864733279239417,-0.16760064224622154,-0.06026966786658715,0.08198791243165697,0.12162960557262913,0.05058754397493027,-0.09663493921450357,0.15361421723115612,-0.03317921374517138,0.03769101190674591,0.02573672885518238,0.01839378968952229,-0.012338179558390009,0.03631194860998837,-0.00017709874602309106,-0.011869738935447413,0.06143556763516297,0.04885452515391126,-0.0349647748716683,0.0675194867766485,0.07197579674427994,0.10638160713830651,0.008120853091952783,0.016956535309223395,0.08382916397209396,0.07873114730034061,-0.07228328318505728,-0.15069263252576037,-0.3270662269394098,-0.22299439606622898,-0.06153890338066796,-0.05601258130601796,0.16332976533912885,0.005747954739417211,0.07237140527850124,0.12345373624698028,0.044980375704859875,0.043516701236794755,-0.03134534463068433,0.03785027891147191,0.04285231158239651,0.005557897081376333,0.016289817528271557,0.05962180642094182,-0.05099774710070064,0.09245055684245648,-0.04671272116283388,0.04827647480049858,0.015413095242054274,0.008211207079520144,0.07834606280139626,0.09833920562985839,0.09573911839332015,0.09718059553078508,0.06168069753516332,-0.059318502261459245,-0.04361108126556671,-0.1990175906066987,0.0802971891138588,0.043331051002754584,0.12207576480072227,0.029485090171707067,0.03812098468343738,0.09616913505803688,-0.007366380052665132,-0.025814636130118838,-0.052946589357230525,0.03713767347203437,-0.03591776395972449,0.04480608431344302,-0.05008893318254393,0.040941107303159974,-0.022650773863593127,0.09800484033469788,-0.0033652948976497857,0.017673968212891855,0.03822663621988211,0.09325556460664154,0.1294083943798091,0.07284598720666552,0.10709753944222669,0.11343180287477461,0.0944182770877616,0.057322341410122116,-0.10687950319865173,-0.0409013422795099,-0.017015121261839645,0.016127502917562552,0.12586126443254728,0.09768811160260661,0.16770612449357183,0.09921727016954646,0.09881270838920664,0.00014327951471422478,0.08482400627344493,0.05950098188451065,-0.07987838643609989,0.0716878994273145,0.07259530130031003,-0.0602706140137651,0.018612526177813494,-0.041047845630347544,-0.013433806793140997,-0.019122545577522663,0.07797884390702334,0.07265353137609858,0.0011349178038687255,0.06563943360492519,0.21391582324284186,0.19245967468800065,0.10820914774668434,-0.07753933142908086,-0.10506820819121074,0.1088115086800968,0.10727381715922782,0.09702933892232471,0.17082053408045839,0.17252699270839877,0.08732232510918612,0.07583982958368238,0.17330897889670313,0.07715646008499612,0.07586881382562084,-0.03893031460989946,0.07880950236010023,-0.04836591534863589,0.08353446280500053,-0.053349209721250866,-0.005468078643175373,0.014836372527336928,0.03693198704165052,-0.025353153782740074,0.014881408212579337,-0.039580507007789444,-0.020264304007449108,-0.0017290728516475395,0.13475357330214927,0.11819256619340893,0.09764771517423684,-0.08588519964310157,-0.05260723397273823,0.03108912587590876,0.08789117200170238,0.043053439201851784,0.03357098158826899,0.11291457100378792,0.1295985673470696,0.07819020283540946,0.11974239086047078,0.0747424477641936,0.00774803348030103,-0.07311094074617674,0.022950844958538875,-0.07334549861891891,-0.03379722629562385,0.008604135126992684,0.061491964625074516,-0.049139611501366164,-0.043255696444298886,0.09677096856540587,0.11080121400105797,-0.02677873367362055,0.01499118943191691,0.01815428362331115,0.06585614906310625,0.021508604465913995,-0.13023207900367417,-0.1945160073524428,-0.1285876498911644,-0.20517536799452338,0.12427008013742288,0.10429590834021955,0.07337035538602082,-0.025633646980037436,0.13553452945810554,-0.035729658704528836,0.055392948718628154,-0.0340935936942079,0.055004987562138084,-0.08084245899493615,-0.06157247929928119,0.08445986439661113,0.05755442562531178,-0.08166121826935892,0.06297035231820579,0.006294373528175855,0.061862464206824674,0.15532821553575094,0.07403668984611289,0.07714219197647292,-0.027887864339322183,0.02284712769872556,0.1425952504521746,0.014538009955120702,-0.04305004784174832,-0.052477641834308274,-0.16351538484519712,-0.17487118493846732,0.013290135048369955,0.03465328744512809,0.016676988158853448,0.14614520479803816,0.18291895847260725,0.021027927574047978,0.031997221574218276,0.06466081944814207,0.05369391350776386,0.07901832352047064,0.03856784502096656,-0.04648500132388784,0.06200116252989074,0.06678931904312302,0.027634485612481913,-0.028678761735749885,-0.06487699010350684,0.04900664693065633,0.18653660725868304,0.04388938693877435,0.08846282872678601,0.1375148637205395,0.0611478152141411,0.10169733079492434,0.06158172610491312,-0.24835398341340292,-0.22656015097480206,-0.22261836221854622,0.05589274891106861,0.09229891557214279,0.11479524393650813,0.1698351968183788,0.014299105931186228,0.12077086204739312,0.011989149850108165,-0.05728433927286569,-0.04056878094613872,0.08493054415897647,0.013065253632990737,0.018888437028551506,0.04524227677004894,-0.041183232303035874,-0.05053978703531302,0.01306477666116753,0.05904769664822707,-0.009641542132539415,0.06542526579966483,0.010410363613526648,0.03005817136053228,0.13548255643942644,-0.05220052441873977,0.006402848301706838,-0.02977878992246444,-0.1326526640990633,-0.12526883873711236,-0.00950953421899292,0.19156820903955815,-0.022709960907268487,0.05663949035476005,0.07505298376380912,-0.01930708903166994,0.0652789559381551,0.008911905478615216,0.006412400224226592,-0.05844283252085658,-0.07006627517560966,-0.06004917067901273,0.016565570472219307,-0.0023986750978135843,0.0842912747211295,-0.054350666994102806,0.06842944713591373,0.08072920801835914,-0.005382533334522761,0.13587247468335573,0.12362381719721231,0.08830416887119885,-0.01525381988203075,0.08154390918438413,-0.08073134803696956,-0.12290564167727894,-0.1381669070348213,-0.06513774154331561,0.15198279356938893,0.17251376306505586,0.11291263928107172,0.019251572483833943,0.12403051044647553,-0.02916996582272988,0.08260542225235618,0.07551314324516058,0.11562392086723505,0.09177412466162005,0.04321316479661766,0.0466048810537727,-0.02812280589850091,0.05978337174221525,-0.027518673809891772,0.052932350754400344,-0.07301867931508305,0.010748904021664733,0.009668084712582374,0.0985722184817325,0.055579006584825404,0.011167776061620014,-0.056987060326259394,-0.009188699095113093,-0.1575217165892076,-0.2453111601498047,-0.19227747730193365,0.08791503104872629,-0.009600670520689115,0.13686973595579477,0.1013482108882969,0.15085973637856714,0.1499466897133415,0.03626672840871048,0.041678273267543864,-0.05717932024988499,0.009295003050023148,0.038415692831433895,0.03709927921980304,0.045914578815835175,0.061570130064016675,0.021191195355691434,-0.05672514320414082,-0.004251556707488378,-0.08208746369812757,-0.01721625014745496,0.04631253330839285,0.07091412316590417,-0.008269254871418809,-0.11855846936314979,-0.04681984921657292,0.03421544324043056,-0.14986647091730568,-0.12242745428972793,-0.1438460546502925,0.042902697320730966,0.00019675846794759696,-0.04182054291254532,0.07104070127861195,0.022090924227607008,-0.02022098489744999,0.050577431774872304,-0.08060607550709643,-0.01653140994209937,-0.046319452131335793,-0.013405722973460151,-0.001005419358628836,0.043730300207450265,0.07940243760852979,-0.047205111415474045,0.03070505595461958,-0.02635900079035194,0.0647573197401805,-0.09814366165613714,-0.08119828392216626,-0.04565692506595003,0.00577481231268158,-0.021370780309987344,-0.12365172045721683,-0.02001328755702672,0.040983068937948244,-0.06328798877226144,-0.08225799306706122,0.05819962585237021,0.023546935158323373,-0.05663786069137291,-0.030765681684314712,0.032096341989711556,-0.051802716019057726,-0.13399364547801018,-0.039535889331655194,-0.07127723494654083,-0.03435306858859992,-0.013689375377851108,0.025187137884814168,0.009399267058308205,0.05377112441384892,-0.04749970795785969,-0.007276026567020043,0.008314821910385399,-0.05313033397449236,-0.024233523373476965,-0.04346742166212564,-0.13373435323663144,0.02676068668666701,0.0036337982314656736,-0.0012312373694277165,0.040836422269989056,-0.004077959813649257,0.04146493343804298,0.01715210007186427,0.018568779819324973,0.004473822938749643,0.041270035276143896,-0.030576129008722995,0.03812737089508523,-0.030968373955997844,-0.1435852538097661,-0.17445492003727417,-0.09239007755425484,-0.0008423635633625385,-0.02462001458502901,-0.050297261584969166,-0.021705614067762335,-0.044396112493417156,-0.005488606170261338,0.017013381897209714,-0.021852081047008736,0.02753837222404841,-0.03608802030224574,0.01977635211340216,-0.10770529796142912,-0.10614110124189975,-0.0996145392375321,-0.03311861771216078,0.0503987073600521,0.04961567260962313,-0.009236605795868533,0.03250113192854748,0.0840981122808038,0.02061080609905424,0.024959724272663086,0.03131141977580756,0.17729057396283868,-0.11063030486995803,-0.10911337499936002,-0.0331184883368063,0.015130154894781823,0.0731243040153214,-0.020285769290575684,0.044809209545413634,0.07192963461248306,0.03458036567608476,-0.057624019932914286,-0.00892695608177733,0.019585828702179023,0.0674527009215448,-0.031885068896743946,-0.08992024543112637,-0.08308071101269622,-0.13410536096149414,-0.08103987563076566,0.042169166126725034,-0.028500256376771956,0.031638003215156967,-0.051546203958845904,0.0698110102790788,0.011854573921918958,0.02058425544737986,-0.01047947519013841,0.08267975229064027,0.05153010060597814,-0.05062193214662827,0.04029159590819404,-0.05292306351993238,0.043570355822241016,0.06610554057678536,-0.00964327590695449,0.007583973026963814,0.04546475346499298,0.044552494397510925,-0.008285641433307463,-0.03906833090555854,-0.051814188660839415,0.011978282130682149,-0.05942003506472022,-0.031828444612028384,0.017360955946773383,0.07733952619503445,0.05527532148736931,0.11824409705594677,0.016097930680102516,0.04629185323345999,-0.013218390613669388,0.03760372202343225,-0.010879423745154264,0.10090813465666375,-0.05032588579876663,0.08393704446261785,0.06594445161807222,-0.09209831151644045,-0.060111955695332814,-0.05073516192738826,-0.010562907107470551,-0.005033264220997437,0.023467709395606776,-0.0038833669815024454,-0.05517783775996535,0.008486820493507146,-0.03631373483519117,-0.05432275977933762,0.023362316369272735,0.08474832446625376,-0.066429074787677,-0.019418882057461354,0.09372813223909923,0.022017376276356297,-0.06004835530858452,0.06196273772608934,-0.010530771689034348,0.04309151410268327,0.05559682928325783,-0.10376484886070639,0.06209557549542759,-0.02202913158984796,-0.15204075529524658,0.038720275244061804,-0.016830535496345552,0.019571476751593674,-0.07901613714405743,-0.12053503847294532,0.06241776223529052,-0.051489420424895356,-0.009306892151427321,-0.01609832814480267,0.008200185480001189,0.022264696960464674,-0.06233488519700768,-0.009854652782904776,-0.01687328315962945,0.08067302628197211,0.03292110967031325,-0.058643602698138765,0.0647722063973327,0.046586838010316975,-0.009156738577797304,-0.0534680141758893,-0.05671647971646011,0.015983756361886044,-0.002604973372533963,0.017575612376809543,-0.01041380188575642,0.052120936015373945,-0.04824422673966762,-0.0556148048298724,-0.06080577239066663,-0.1028087828613382,-0.08021454232881961,-0.02809185108882099,-0.06986081913667805,-0.010833703500151403,-0.034661373768087964,0.01385167011888362,-0.029400128569593443,-0.020986887198841023,0.02896418376547544,0.035773418627490235,0.03778222295867783,-0.06589795578986077,-0.07312626946091867,-0.014577455863481933,0.07462550239753928,-0.04457748831371721,0.0626830380026215,0.04649981769354978,0.02516036009678273,0.10947039130505694,0.057931011704924186,0.08114722014940762,0.11022324829589528,0.1118752866697924,0.04640126804072747,-0.009694432179859958,0.029719727983956386,-0.016756541729183904,0.04366922934460088,-0.06447488277719796,0.006014962594933554,0.08106753153603148,0.014254122200396315,0.021981484080284885,-0.059031507097828985,-0.049134455395306476,0.08254746583746254,-0.007320041649240565,0.06846966571120132,0.01848204414572937,-0.047627176510134414,-0.06788068875981226,0.03804209781313494,0.018955563649839413,-0.044542325789349003,0.032437011774577716,-0.049566134910186105,0.06853970545548735,0.06610708910181273,-0.01865615416066366,-0.056811193373488444,0.060829448726734965,-0.046082063582946094,-0.0016765468196125607,-0.04202778252042188,-0.04179207018503067,-0.05754272498552137,-0.08878692539653954,0.07252939366631811,0.0763641175971901,-0.06628992536924147,0.04192673403975655,0.056995372013891134,0.027373984901352635
0.02990887436849724,0.02706358653655333,-0.005611402935138018,-0.000578940334377675,0.014908232534852291,-0.01415808755063983,0.003905739654646945,-0.020208927774515755,-0.00017654451860494653,-0.08337564085381184,0.08226345869035057,-0.01929703135882818,0.07945333679429346,-0.0026046803972815495,-0.07432188408659915,0.012303184473479166,0.004340741640022504,0.0660959292001766,0.07954245030237511,0.037513688749991884,0.030420302956675218,0.06416105602336022,0.0038265548611316376,-0.05043904871236652,-0.08370268685595393,0.0059069313809032385,0.07647334706934583,0.00189146966030362,0.01232965752944682,-0.005589670856131708,0.05514602089918824,-0.032376796833794665,-0.0007492570565183389,0.01907369849654163,-0.06575789917474309,0.027517518347999013,-0.012903205140944656,-0.05972674056155845,0.0835013550337327,0.031894662956313484,-0.004609491344319471,-0.06721636668668547,-0.06840948410075637,0.021535091596396445,-0.015123909907143615,0.019626991918379914,-0.0640264250551166,-0.06842255356975535,-0.04201735571780587,0.003281043342083254,-0.07985985932743506,-0.056707549685777105,0.02372721313427784,-0.0769159210357734,-0.06121068282905657,0.01927430786041101,0.054149609737021036,-0.046220469013251136,0.056060908078678084,-0.042962793663239206,-0.05933431932413459,0.04599392548369963,-0.02263165767108791,-0.002090972536740617,0.056755879035333044,-0.04880761874091237,-0.02921848481195567,0.05175321095678458,-0.03615760580864943,-0.050122825683061645,0.053159157009321216,0.015288234217932446,0.014312950991688486,-0.010574426889904275,-0.01792861262432448,0.020418354623977945,0.06614009771503052,0.01754654741204047,-0.062017116962600975,-0.061489774979851315,0.05169897281248213,0.008661907651318825,-0.08116737039845513,-0.08169004680193967,0.03714843723197443,-0.018294059747872078,0.08132257014416723,-0.05807984451185918,0.049779841625517636,0.03628414423469148,0.055859950262776674,0.015925233438545877,-0.013114638563591834,0.04197294920801008,-0.0347131447053905,-0.014207316509721941,-0.043661158013747405,-0.006015457467867899,-0.058320862989633036,0.08295417461642668,-0.07020148406309419,0.08420764519658185,0.0102825960502283,0.04742607801433275,-0.012139765287709287,-0.012828631197112713,-0.07346514762227546,-0.012892331685076612,-0.03609594500318167,0.08450212377337035,0.056438872694698,0.01366010605074893,0.03652038546256983,-0.055815456378874695,-0.01728129557969607,-0.03273529399350513,-0.01160284403703955,0.040143178689891666,0.02527416666466805,-0.00012592878157704612,0.003127690642261758,-0.0020185090633862645,-0.025223389168546603,-0.0377569686474582,0.03492083389579907,-0.02198212994902131,-0.0010378662159134008,0.04163964120954581,0.05705539548369041,-0.03664690838395936,-0.04005840672296984,0.014402359008261898,0.052295676345599874,-0.026590103016679266,0.022020171492039033,0.003756111073399803,-0.08025017244169809,-0.010735818147369023,0.021240672412875253,0.03738891199108929,-0.06880483644730895,0.06786210459251933,-0.03882593075303522,0.010705471870337572,-0.00118987200538578,-0.05537398209851648,-0.05612689027269487,0.06210191801718965,0.03099206994278005,-0.031955988526314705,-0.029092546141932893,-0.045580381678394975,-0.015925046787773886,0.07724365160913642,0.04467604925507051,0.052867019883612885,-0.0713374398830203,0.08257439171587054,-0.057862231076689835,0.040255502119483345,-0.029172168044102737,0.007279293870222884,0.06782357812784877,0.006760368086941091,-0.04408274195323909,-0.02922251104628643,0.08328772283417579,0.07397906826336818,0.009554289863969468,0.03564313758703287,0.01647499880828478,-0.06952502215234392,-0.08764490958621539,-0.008314781171400696,-0.03845239801793326,0.032440464082900584,-0.025712265756538035,-0.07267052602080308,-0.04251035680910038,0.0031934752936403988,0.09191740048415012,0.06682621882481311,0.06359623457531695,0.0844074046105796,0.11736441938469068,0.04272768962212098,0.08093847916551583,0.05740291820659665,-0.06416332133546576,-0.05899314910151292,0.0500298990336037,-0.06431225415069883,-0.044606008415307534,-0.05535897039492946,-0.06313507168782799,0.026352696675506757,-0.026931681724266167,0.05702328014473585,0.05241380707901295,0.07760553084032171,-0.04659736818018306,-0.036633850808423345,-0.02963774931784463,-0.07240348794434853,0.04577343484957164,0.02440739689672851,-0.06998410442379907,0.11005467763417093,0.11538340117678542,0.13011094453608935,0.09196546072193401,0.15888866289076545,0.04584262415033842,-0.004500676934137661,0.06626620512748718,0.04423761432013681,-0.007407569674522344,-0.014434470764400917,0.06793039355508806,0.040729078749818313,-0.017898237410858248,0.08242258147241761,-0.07320211656002133,0.007273490387483226,-0.005111767718391863,-0.04280277688441475,-0.0011487999167925703,-0.0773389614909085,0.06241224768601167,-0.001658167964310445,0.0683262407293886,-0.03621051635240326,-0.06311964965564366,-0.026398553043649072,0.015566626445595737,0.15938493422945535,0.042493033937526604,-0.032340409436238275,0.11257584553951185,0.052597345631729964,-0.0047967750932235926,-0.02473303639832665,-0.075548753418643,-0.059516567977295244,0.022226977985348794,0.040334065501068876,-0.07113390690831399,-0.06487251222853715,0.06638917013358735,-0.00021949009363369542,0.04032130663046303,-0.06904153433622266,-0.014786279269775224,0.07835445447480101,-0.0727842249382226,0.07159730914124651,-0.021548197968468137,-0.039564236945598345,0.04428133357485873,-0.022037959490141038,0.12241194959211013,-0.03887658477325997,0.029363823992934454,0.028108905901077043,0.15352568228081154,0.08091817405373168,0.09852009262425743,-0.07402118001034151,-0.11764506897119459,-0.09596114523161754,-0.12380849207311524,-0.06194787914008771,-0.006551262591908757,0.05475621170679229,0.03020457688016527,-0.0709007072604114,0.013798778153995533,0.06330952171036223,0.0035965416467943563,0.04651104667890611,0.05979130204999674,-0.028965268414813748,0.022510372628544644,-0.02654214845563791,0.05793962787859877,-0.05787476988686669,0.04147937113234999,0.07697774768805002,0.00938024576886533,0.08754489936059462,0.015970072685559653,0.04554414895294648,-0.021288151218378626,-0.026789476182634716,0.040711799445971475,-0.0651304606826417,-0.019761042420393962,0.01682160176126291,-0.11736933904332518,0.029739718032240993,0.026921780454568254,-0.0026813300311809784,0.05159058717379693,0.06995224014463845,0.08554971564142924,-0.020837265666122786,-0.019142753384806012,-0.07649675298044531,0.0628704346677174,0.06197154753421158,-0.026148613559185043,0.0878338671314767,-0.023148966475188888,-0.08867481284498824,-0.01072191323809349,0.02193955958619809,0.03147804532321968,-0.020985423748702835,-0.029992236185308083,0.040838547036508056,0.06981927904820402,0.03857629199242963,-0.011215982688907887,0.010305565456496819,0.027006553132844512,0.05246798926499823,0.10695979241114231,-0.09068442498489547,-0.045033599589750985,0.03166973845628503,0.02161779944499456,-0.07051260537646337,-0.015220876002393954,0.03318931824756146,-0.07345959687459795,0.0021863511082957096,-0.015246846601539412,0.05617477844619333,0.012412082964199047,0.06370960399573002,0.05176675441924479,-0.03148093450513903,0.02034857727456144,0.06627890887380465,0.0289217926856356,-0.015185684236889015,-0.049555587992119565,-0.09335743804770309,-0.005362596775288383,-0.008796470607027073,-0.014971180306716248,-0.02690024889869416,-0.11963763581745823,-0.04503838722695474,0.007599636601013478,-0.008530699825633422,0.04561866091384866,-0.012070285984911939,-0.01269894564851222,0.012522058284736567,0.05971798152284275,0.048086174360889536,-0.06149603118938988,-0.03513191575608608,0.032315544920812164,-0.05400614123641267,-0.05401918790730706,0.0800722172888443,0.06570877076855264,-0.031462372186154365,-0.04513764620251858,0.1043428899931763,0.11319103348578108,0.038310333550275216,-0.13457319334351972,-0.05272470387148094,0.04117473071530159,-0.0033402438776722605,-0.09667457692386575,-0.04933200369490545,0.00833779626040339,0.08231463026110462,-0.08075992285829922,0.017741701240580086,0.004039649809777055,0.072172957816805,0.03570497565153687,-0.019756871653383055,-0.008777345134835851,-0.05729538909764991,-0.018492388241712007,0.05743809669481039,-0.07997252362414417,0.07929862119107885,0.02358175961192041,0.059906802487395064,-0.046627039389350595,-0.08364613360782269,0.049628059497990464,-0.022638402649125675,0.06895326324866334,-0.056029401256471496,-0.029996446987205272,-0.0714445790439719,-0.06930404679274424,-0.057043708016181555,0.011817597059610208,0.08264800339191085,0.03568807431067969,-0.02365218896079788,-0.0861997049454896,-0.00861695743568798,-0.059454460384091495,-0.07585607686487912,-0.00815027380560141,-0.07399411554186656,0.020696833712326914,-0.03404382663005425,0.06962932844415663,-0.08074523270097231,0.0346849550905353,0.008613329321510045,0.030341732326267423,0.06951839722491429,-0.01740671867358539,-0.08954420866316014,-0.03788176425941033,0.11901609139344707,0.027561362563752273,-0.02195903055672093,-0.0531111104122438,0.11465687126377004,0.03695939811119637,0.07391550727281655,-0.06484181709010459,-0.016323152980491792,-0.05153731104831548,-0.09106449532025196,-0.12001734075323914,-0.05710387166672928,0.062256184165566296,-0.02211027022384494,-0.09014665006911024,-0.053083721915619275,0.050066722554504915,0.07345766713057356,0.0423244066328588,0.0005210960728468517,0.04243055523664955,0.048855148445813866,0.057357756313255334,0.04450043345060028,0.014875224646449503,-0.04336873666330483,0.026871468191795395,0.018371153600182297,0.03911376607458477,0.052469743582084574,-0.10611476446551969,-0.09100738559865557,-0.028802860627667473,-0.057975526270121695,-0.02229966765840043,-0.10744231183924034,-0.06964368076712554,0.057770697261279653,-0.05228425634850271,0.03400238742472319,0.08105942989513325,0.0165564303623991,-0.0869477404550497,0.0752159767494578,0.05000030448810119,-0.04705872589775968,-0.07741958435796639,0.048643724800872416,0.010715607942876007,0.08176993057937793,0.0409297895388185,0.026940985629381693,-0.06955573210983677,-0.09670885911446818,0.00448442342370848,0.0882192078014798,0.046758286006326026,0.048544389705347205,0.047754782215440994,0.04010058976761341,0.0143402315357695,0.05552305376502937,-0.07004011272117613,-0.10489493609357418,0.018477046779590063,-0.050534314394971566,0.05524446451698952,0.006292534952107968,0.11706069443292486,-0.07540450190315852,0.022902203741825434,-0.009764450407896167,0.017785242737453574,-0.02459083477771181,-0.06947292734744306,-0.03160801148478144,-0.022609663436766028,0.05740204262828141,0.027888208473012207,-0.041096117612235916,0.0033092809014970514,0.029828327650546695,0.017005838834941576,-0.06288002167068052,-0.0679530609844009,0.009955896159304612,0.04542323723147997,0.014178096382146182,0.09636990851348669,-0.03640846702565226,0.029555011863845394,0.049363625576146576,0.055404327780459214,0.06715716774813121,0.10164798594049879,0.042863201623885086,-0.022463156148433364,-0.015552941562306815,0.049578049883741045,-0.07132802086327074,0.08216386950880245,0.08248057866652145,-0.007391927593221827,0.07859447762031782,-0.020638361383211946,0.02283389903580862,-0.03966554319802327,0.06826068375699373,0.0669128837132862,-0.0048519304612870545,0.08157630710363922,0.06087729327548274,0.07978464231404554,0.059376921079613704,0.12556112076619375,0.09297585299636793,0.09174357400021001,0.012855175553878115,0.14447754561104975,-0.0070555579305757714,0.08926095147414767,0.06029188678799503,0.00980760475736837,0.04828251408455038,-0.06705540441859659,-0.07436059627012531,0.11594246564220582,0.0900237995618655,0.04124265981063614,0.05863780878284107,-0.07205309544526499,0.03264613425940631,0.032029927713538936,-0.014710386156205117,-0.07779402737458632,-0.054271468656254214,-0.03965440849173047,-0.026009159522204874,0.058614873894451025,0.013031763497755956,-0.04490401772385121,0.03198276548124635,0.06022780515183425,0.05304702778509277,-0.04350627103330478,0.11375326525449396,0.017557877242510102,-0.044252449657060676,0.016440751548534582,0.012958338404803546,0.02826405217758642,0.03167401736612639,-0.03728471028348171,-0.0014157942356434483,0.0030327331448471682,0.0032116446885168534,0.04876098922758805,0.0012864770015829376,-0.037101928328540396,-0.07387259548024044,0.009128088311621756,-0.055225430956414634,-0.08361317440618772,0.06752783721751295,-0.06306359477534375,-0.029354910889900755,-0.06242993315498695,0.012930047928581758,0.051043840881788566,-0.015029621197671856,0.09099977343193484,-0.09094540499413677,0.09587043828753429,0.20166761033043434,0.03125094598263441,0.036725130819987704,0.06195693489195122,0.01751853452688506,0.036594619337138326,-0.053971388677633216,0.01512227957766659,0.055776101857888186,0.10077813515514347,-0.047690341084082516,0.03834039736941559,0.03183219625515763,0.010009520911136986,-0.0691807006940231,-0.0668370842194859,-0.01504974787344213,0.023136821965082644,0.03407304824204968,-0.019334489068112012,-0.060118263556230664,0.04870938060112959,-0.0674526036479225,0.11992781088461187,0.07869510490619179,-0.03853538207602293,0.011702344581890881,0.11769974838163332,0.08297715723899333,0.0775392500243989,0.04770666036624441,0.05154626725325492,0.04595955641913226,-0.052253287916909114,0.0765046844252984,0.04129086066689521,-0.030278831462684633,0.08881581043584603,-0.07167602473941999,0.0525468963619358,0.0589207627127221,-0.04613445583126403,0.0791831559207651,-0.008571961768237683,-0.05779502479792843,-0.05125242942831167,-0.025518441950384312,-0.07925947732840107,-0.0374735775550289,0.07343628390930936,0.022987072303731232,0.08612201379648501,0.08994104227963307,0.04742111797327546,-0.03184504855199991,0.03676429145828399,0.0939457443510861,0.10530598909579444,-0.031153854453327016,-0.032173462732360034,0.11134176102336187,-0.05257466881691386,0.0034761925263187615,-0.029608661642319574,0.06791121655058233,-0.035053110593703085,0.040104545520837316,-0.07452528246012294,-0.007742994166976337,-0.04898496146374207,0.04278673111873772,-0.03825382562476291,0.01009191855074383,0.013001797747010942,-0.059108668892192844,0.017640101898195648,0.022148695516915756,0.009632640375485073,-0.08911158423605227,-0.10918613627534629,-0.003783024443416941,0.08291657348973855,-0.03177019095296591,-0.020233955542260536,0.06224606836433214,0.0074074616790354405,0.018850155105223004,0.09560040483134115,-0.004119539354451995,0.09888576188411234,0.05769360502271518,0.08467992197188776,-0.060874182489291995,0.026646570990974013,0.01597714218465459,0.029980623873674637,0.04862286427518444,-0.03420458368498706,-0.04266775125057737,0.029136146157603373,-0.06896010885939965,-0.06354987417833514,-0.05975092729412617,-0.016433842857064753,0.06058285616185246,-0.035545065691856094,0.0023761550731167206,-0.03557628543057081,-0.059811216029741196,0.0398986833877236,0.06207506821461506,-0.03336299385153017,0.04103358855217952,-0.06925039754460292,0.07843722797626881,-0.024767867938287877,-0.013271200695333262,-0.044416825467962835,0.07838038908791846,-0.023190906618471153,-0.06958815316068419,0.02319709488348635,0.053856764726008026,-0.002904298903164457,0.0037910138993338116,0.019827536252254207,0.07214257218564196,-0.03813878805198284,-0.003099649367346298,0.039733338750121014,-0.010621677024792955,-0.030228314421064818,-0.03816292031447947,-0.02360511380329275,-0.04632247821504005,0.011576539380744684,-0.051358835866357436,0.06282786222159878,0.07399599900921015,-0.040637928114769704,0.06705320487510362,-0.002130976702587551,-0.01538736932701137,0.04723377219945763,-0.005887728892846249,-0.06302850090490661,-0.06268105748593585,0.011139068532448096,-0.023989501765579676,-0.05979992184051439,-0.03761602067514051,0.039558701695711074,0.08614585247178488,-0.009483965287169462,-0.005199945238667586,-0.020860841500478802,0.04479968022329479,-0.08048150084515801,0.04536112850020276,-0.034441537949932516,0.04955428262175173,0.013547568119803937,-0.08202491678206734,-0.07231420966417669,0.003061870649471505,0.058725386336826446,0.0005025897492985839,0.07640817754501565,-0.08052906289036484,0.05615183268154868,0.0703407700745972,-0.07718723829428382,-0.07043827221961842,-0.040743631110537644,0.03839645325605585,0.058426802586803245,-0.06631518074675738,0.07404855446087415,-0.04757775133435279,0.06508229540760324,-0.07415906460499269,-0.053786664842806337,-0.019311717716033457
