-0.01099665072852751,0.03852109044476428,0.07904338174654614,-0.037948238042922605,-0.06541153179746033,0.03230059219895021,-0.031146761908775713,0.06891006279382696,0.04225145468001393,0.07971845530917972,-0.05895296123206264,-0.04016756517241591,-0.004844727951112921,0.028053160064891343,-0.03631911883076368,0.03574874894088453,0.04339179661672892,-0.013740583203750314,0.01965306000704194,0.08081457469275292,0.0005670024017023088,0.08125048935862503,0.0609061880528012,0.01995984372875399,-0.049884995660047726,0.058386981189892495,-0.020991804373731337,-0.05753816407346649,-0.03421856034140122,-0.011626614115563372,-0.04706530333378233,-0.08249843323303002,0.04714643655345435,0.06091963653182615,-0.08549344132507446,0.009558325768134706,0.0060486182882219216,-0.06547375041988945,0.004564754039442497,-0.053220621094231195,0.04652743860140383,-0.01776736107687394,-0.06695519784973282,0.0518822014346296,-0.06218851857700301,0.08104196015286867,-0.03449737278085952,-0.01606785779994247,0.07660761151352011,-0.010087553271153848,0.0058245449977136765,-0.0739421752825462,-0.032189909786384835,-0.040121393914844726,0.07251269164913213,-0.038373002293052266,-0.08342832870530723,-0.08626273518410367,0.0472680933385595,-0.04437168008469967,0.053713322675304875,-0.02923151206337212,0.031850450443959386,0.04563911499716575,0.012207596354852732,-0.028025263304418388,0.020107633385310325,0.053751905729819555,-0.02084529722107996,0.055401852423555636,-0.014324644734914781,0.08267777623325456,0.08575751626329983,-0.07590876227226416,0.0780217774893306,-0.022497311360017733,-0.0821243891977689,-0.06468962479630115,0.006485373809895403,-0.06430163122287369,-0.02749319934715802,-0.08472198681145143,0.028859210027499256,0.05797474012963649,0.08565187434747958,-0.03837107566041042,-0.016140165876074548,-0.040051219737777366,-0.0825131456301394,-0.022050173201470697,0.03511028677001549,0.006482238291313429,0.04528693507519418,-0.04034542506036352,-0.020948338839260325,0.06921871670682238,-0.05237567229023292,-0.007974052274023043,-0.008717946704576245,-0.02773643889840005,0.028925705318918804,0.07166923705296477,0.041382829146453894,0.05309190451651542,0.07936722940256183,-0.00805583852842022,0.07208785653744136,-0.0017213135553781711,-0.045367215298757486,-0.0007821767079103336,0.051254148117787245,0.0033731553423265856,0.03918694459916586,-0.05567171536858506,-0.07423328907752173,0.008957073537165733,-0.04045380941592758,-0.06525999631943821,0.021066396064239476,-0.06393422550961027,-0.055694303519454195,0.0626418749258048,-0.08161863248636486,-0.0865911380627928,0.0007252864732487403,0.037365913671671705,0.06624402841675801,-0.043457677763207234,-0.03877283119518148,-0.01917818090050979,0.045917228178987496,0.07919872767034637,0.0011932871749774977,-0.00348655742673352,-0.001001656824971284,0.02099517142282345,-0.030947605183210984,-0.0327406897746393,-0.0154843429012971,0.04644032660461482,-0.05574391744149358,-0.079092109158191,-0.04181204901156757,0.006319482736917988,0.057017445675238726,-0.04556618230333627,0.0331419843118864,-0.008316563530981407,0.01081481925564291,0.05447585611955515,0.057919111991632126,0.016257005795953038,0.04206617068842045,-0.01142317159767134,-0.005068011261464552,-0.04478868183285645,0.08484663683440344,-0.07764435209267534,-0.08207302381072756,-0.025271415130872135,-0.014833536307440907,-0.006906153648221499,0.0036749635549772467,0.044750314932445946,0.06520527175026368,-0.03756584896445828,0.04139413223289338,-0.0456542103794632,0.0818638282786362,-0.07862018495057636,0.05395686347402543,0.06931563039296829,0.0403756263761027,-0.021213893077222247,-0.0844903014403749,0.006453647409888571,-0.04495703278231155,-0.02887390554631456,-0.04080009045484621,0.06891481092415198,-0.08076971627166141,0.022880011281835262,0.015707295296406236,0.06955244838204296,0.05503388410996687,0.06630280699554154,0.03890143054387845,0.05088167465578721,0.01889503471549731,-0.08181277808617443,-0.05074362268469364,-0.02949847359835277,0.08611257965445238,-0.008684629853675546,0.003066567947823677,-0.07834485820412122,0.013515116598890986,0.04940891293044779,0.003941647208730445,0.01734347898408085,0.04867389602504265,-0.07977209903406082,0.013961880803714036,-0.024154948500330828,0.08266309275257458,0.08560200596172547,-0.03158972619953323,-0.030265143649919196,-0.022894572243545706,0.06684980722264888,0.080730646254878,0.023516907772859266,-0.06853801878798343,0.03756207053071684,0.03759257766541942,0.0695144996042451,0.07013381632867653,-0.016311839466920042,0.05721091720013119,0.059233825897777974,0.06969681244475222,0.023785737053089034,0.08222321939355562,-0.044780948188598575,-0.023225543768421605,-0.07404665428843406,0.0178756003750967,0.019613786804385032,-0.07936280944035129,-0.0372463423297171,0.048425681576712704,0.0032482833527170264,0.050420829866880436,0.006386140654962029,0.06581815593914726,-0.01747668084985457,0.042054955687127554,-0.0650167494263374,-0.047122333470569745,-0.0496299111342837,0.07659553510059333,0.027422242996303095,-0.012749592844217408,-0.05823989730036238,-0.026639973590270198,-0.04110712981717805,-0.014842372429035472,0.06956566311554875,-0.02920072692562369,-0.03955404679196653,-0.07073106098599062,0.04369501884768995,-0.06921005611303276,-0.07250012020873467,-0.04918995278978032,-0.044657666205628034,-0.019991787204324016,-0.07709075936107679,0.0707739083050728,0.07230507817200588,0.01888842543953952,-0.08426606166946962,-0.023982753402920134,0.0390702397223701,0.00011359309786134222,0.058902909282183606,-0.024759337783522548,0.0690182257473945,0.00037324685913836823,-0.0783300087395905,0.06164787884966149,0.05881047502925023,-0.07724441158914701,0.07778810747319641,-0.0497578917144796,-0.08148742233033954,0.042309702777203244,0.058259722084683246,-0.023962725120956055,0.07760586190938061,0.021612411053490252,-0.01819288858987606,0.01783860033799369,0.05152503352409413,-0.03247139795552959,0.04811020153380041,-0.08095054855218611,0.04209777295237941,0.009777031920497638,0.0763517455144624,-0.008188064718080184,-0.05387795785598526,0.06790211165933357,0.05809419173805897,0.026827282424517058,-0.016546652310523186,0.00021150850791611976,-0.015967641547696323,0.03186943051530686,0.007572478047594811,0.006312700484327832,0.036127303583207475,-0.05967388780790362,-0.08090007216310148,0.07884984091075728,0.03680466257434229,-0.052359558658943615,-0.052534920964862585,0.011018359229391206,-0.05055688038950103,0.03628484362394438,0.05044639105758325,0.08069288069776084,-0.02298361676476532,0.03198394187414434,-0.008703240240917579,-0.0621976213414906,0.07275786079906871,-0.02557214094748251,0.0538329036021053,-0.058923851755799124,0.03377801838146194,0.07204526837173786,-0.07562446185038095,0.03536973186362791,-0.016772445441555248,0.060905029367674855,0.06973749519138177,-0.08452072488724217,-0.06774135210461465,-0.054265962804669304,0.003725738084895449,0.06869208024639918,-0.03358205109756322,0.028579270164066306,0.03263748781495878,-0.024414189129469056,-0.05198049876236849,-0.017019808556879703,-0.004762225665928718,-0.007969589719939064,0.05220521283534291,0.011952597980699963,-0.07782782471241935,0.03814713080930241,0.01828696533007457,0.04296008414256893,-0.04556908496313491,0.027428696773637365,-0.015399516100387657,0.023834874145299723,0.028917004296308647,0.02299170436508001,0.04442694884892586,-0.04685950680565059,0.0006267087012185327,-0.06910823779925325,-0.028486347044772358,0.05863158964749347,-0.06959339082704044,-0.03406459478228339,-0.08133635672377763,-0.014806940085168887,0.010327368715540306,0.07160839653036256,0.06238026695375378,0.07736625627787824,-0.03641595762389775,-0.029179349283263337,0.07867191709091495,0.05392340770899748,0.03427831441045823,-0.02715133885692734,-0.02325308224818433,0.07322259989521304,0.08354497255900295,-0.035935230780068765,-0.05038115899537805,-0.04760352834353309,-0.052785516278132834,0.07979357415959916,-0.007986220320443408,-0.0371096363889317,0.02875826167772957,-0.06672953874861617,-0.08600080846564438,-0.03586425266107723,0.06638528782124799,-0.07174083657244891,-0.06944395045930843,0.03264732282555193,0.01535180956633255,0.019391400164994382,0.03224537995366984,0.024797371552572302,0.0663860823787925,0.02275490741892429,0.05495509365399249,-0.05058608822484359,0.07737591141254953,-0.008740302488775348,-0.0479281654661672,0.047099882665577804,-0.0018860059916476683,-0.04103491148369872,0.0011621945455507288,0.08315413161331231,0.07784939163538031,-0.059254818170225765,-0.08088053893865887,0.08472823366112127,-0.014542925537590179,-0.0007990192218878904,-0.05647607318436029,0.03230123019812714,0.029388013694946053,-0.011146945900083775,0.016776607065422368,0.06379083995314784,-0.0630742834814337,0.03158868700566439,-0.07231174354314175,-0.013198088934373388,-0.053784997703084876,0.01166914600379781,-0.014768856049652055,0.04158611519152702,-0.07785469996410188,-0.0826386707580913,-0.05120339213781134,-0.04045651737379533,0.01795963162916133,0.0726280491176604,-0.03716165712128416,0.04817462703199954,-0.07989216643021797,0.07918324217362889,0.06559767314582962,-0.07311288622446159,0.011682462205473821,0.04588105557702328,-0.010027237431929924,0.05621359995619386,-0.08642570899677482,0.016036776473422595,-0.05764762541454242,-0.07610843628316606,-0.0024666954397748967,5.162145299223731e-05,0.08180965013635241,0.04790577388886963,-0.0003245499313864837,0.031817525260531235,-0.05446551874268728,0.08605089769064507,0.06366946856650048,0.048396754972509476,-0.06856536522721508,0.0351832944724599,-0.029186011252160634,0.058683828848164414,0.06258767836587066,-0.009326801417342318,-0.06001314891452683,0.06348517839660917,-0.06333564858194785,0.05786547169789559,0.07267476687524278,0.039540755079173553,0.06457770885110367,-0.05988634183069837,0.004324857014387416,0.06907525625143374,0.012424745547213343,-0.08280450347816576,-0.04627147232599896,-0.024469087835603743,-0.04926170379020868,-0.0446564869722063,-0.08445414425860848,-0.013315750046634975,0.07086125376077285,-0.005374157734222829,-0.016223386834933434,-0.02508707374695549,-0.03445359261902707,-0.06585797412235159,-0.024839863608194332,0.0290257594727412,0.08108297313871872,-0.0787325858295837,-0.006163132242674882,0.02760569041840251,-0.007360801964478675,0.01093882788070246,-0.07289659893543822,0.004163659210915244,0.039851713952742444,-0.07546065987191107,0.06299824453116032,-0.07981844850377068,0.04367407203648591,0.009496902745272807,0.04717565221622147,-0.010179315390438348,0.05776274028022461,-0.04232807197549056,-0.01903118118614764,0.009042500008809757,0.018672729653120685,0.015187845137651975,0.014474018028715627,-0.023714769905673703,-0.060541634399291326,0.030209780061739893,-0.08129769195711305,0.06948827536020934,0.07533685276499201,0.06905988017194756,0.059472098439457104,-0.07810965257845376,-0.0729732986588372,0.018032698938556257,0.05236069214570869,0.05195437085626212,0.05362795276467427,0.04790217540213457,-0.07585622138541426,-0.0119154633050403,-0.054205718161834664,-0.03316379042550336,-0.039344986792864446,-0.021419379766024423,-0.08553058061388671,0.027003905040050364,0.014020616125295468,0.014852749159448647,-0.015390349872191428,-0.03862065904418586,0.03159128792143739,0.0805844904256729,0.0071220377320737925,-0.02319531466111944,0.04505588220821318,-0.025618149608968837,0.04690563128703695,0.08031026767198783,-0.014235251266362523,-0.013549059158865437,0.009168748606071758,-0.07689519432602449,0.00450947156014867,-0.07868213147244121,0.06597872708111718,0.0805562213371378,0.0009300615981290561,-0.04329704394630641,0.04555722742876808,-0.03338864046243177,0.005020064734020975,-0.03975237840941938,-0.04440796170029851,-0.04949546602919505,0.003978590259930876,-0.013442472313962436,-0.01240560109533309,-0.00040756064905762834,-0.0226029550968829,-0.02869613049490676,-0.03303085828785294,-0.036193171134094794,0.07050949422383945,0.014708125361345942,0.018892444173144896,-0.048270166295662435,0.04549469901942427,0.01918395956811307,0.05459027920250989,0.04147872720661469,-0.06717912711075497,0.030736423988838427,0.047961526702013424,0.05889795216363044,-0.022159012794507073,-0.07951725082186278,-0.0058592335467579325,-0.01458348868304758,-0.08202532744747713,-0.04639851979523121,0.05124644065223849,0.035871379719260216,0.04737470977514013,0.039976871943107034,0.05255266768169356,-0.04461562935556836,-0.06710027408401922,0.0746879084949686,0.021703040110417314,0.05770214342882912,0.018267286550876716,-0.03307025926761533,-0.03613462483112145,-0.057599848426054645,0.016246956592428984,-0.058192625535923144,-0.018038713287143265,-0.05245454690361051,0.015062210654396679,0.029797917003144284,0.051896915622327865,0.005266917492267263,-0.04406704103442526,0.014818306407761066,0.04121908374797735,0.017391751912770884,-0.01934546911669304,0.06411325002892518,-0.0802706903337753,0.049522803040889726,0.06251007939738232,-0.07889305142938996,0.04050924266732307,0.056924892924878616,0.008679351879495053,0.05884462985246147,-0.06349789649038771,-0.002994958510963916,0.013128993122220252,-0.08039460391043891,-0.04894078439034229,0.059378068969844794,0.05098514361296196,-0.06402822784957844,-0.012932024964005133,0.06584875903538863,-0.001097999368093544,-0.04172969156527928,-0.022816606995199468,0.0473896577451031,0.07171853904724175,0.06494311401005132,0.07828816649094195,0.05762159083506571,0.029474686506045625,-0.02652679531430588,-0.022253522294637625,-0.02557983556767193,0.08209094653689819,-0.03344327228004964,0.06582868579950878,-0.021939604124016993,-0.01069648927469451,-0.039842674735122055,-0.04152721225241795,0.008130493962584742,-0.08214463883852195,-0.02858136672903352,-0.08117893974954193,-4.410487042531484e-05,0.07839626660742127,-0.08014535894108483,-0.08488155902301432,-0.04124805580804036,-0.05416634847810823,-0.058023611918555755,0.009389926212462277,0.08217803290287372,0.020244522258584315,0.025483126253188004,0.005262069083810966,0.04776911753599249,-0.08133828100966059,0.04650061861977176,0.040793093942028645,0.02229020937100567,-0.03478329869965352,0.07569483632834374,-0.027742764122133532,0.03185729950950562,0.004252474726941599,-0.044705373081338824,0.034479241413629395,-0.02035022671842615,-0.01755082325765251,0.038122829383928816,0.06813062625833291,-0.0841562377399092,-0.0004760591218516068,-0.005009196689612561,0.07941933472778968,-0.028183308633822193,-0.07252041908776276,0.0840752646103787,0.028007696674584595,0.007960776428073163,0.06386086044543672,-0.04919037954233462,-0.023295582515155403,0.07459130652080395,0.0011438655876620262,0.08480162545160545,-0.056597629206349434,0.021452319970819426,0.08569805775604739,-0.08240393096814584,0.02952719295193615,-0.05254104403314794,-0.07126373779221283,-0.04664542740554522,0.014601249158164898,0.057508410500762004,-0.020396110840005643,-0.04141167179296875,0.04162359477947159,0.008823557530412139,0.01919485845307008,0.04523595004259144,0.007173987694884956,0.06317719169176449,0.03550928550373069,-0.023163822692878356,-0.01696467924870642,-0.058669427115951384,0.04550648508595671,-0.07459612337006942,-0.030043089578295316,0.0479997270729919,-0.06976207931494602,-0.027912297521290087,-0.057937295981725555,0.03228451052784604,0.0348589995965208,0.06885713427592072,-0.033654965952617785,-0.08090595343804018,0.05911708372599125,0.06097375298681354,-0.020541508528257816,-0.03160331889353587,-0.060077099447778726,0.05138903756307831,-0.03076527490712475,-0.06547511312107676,0.01106809084571833,-0.055245060475945115,0.017210632455939217,-0.06711128424843434,-0.06614922289234967,-0.002587076631305252,0.06189392697466875,-0.027962958000995228,-0.01979267636338198,-0.08305500833019874,0.007078229861840442,0.018790045981131556,-0.06715560497422891,-0.08390605832484194,-0.06566520653781949,0.06652438169155911,0.0031166284073584054,0.0036434946043404693,0.06989196777670627,0.0369705821186382,0.007834327849318541,0.041387075937328835,0.07243653572836718,-0.07847225597420188,0.033119880783142215,0.07924346953975799,0.045218068673296544,0.08454461485224792,0.07114969781796697,-0.07964907054483739,-0.04968651148233878,0.0015328542352992715,0.0723864862509014,-0.05671726865925408,0.011826655836993855,0.00558212236747292,0.08049128748082114,0.04885183790427004,0.04587946541140863,0.0574359401523824,0.05350038157861553
0.015054557449129315,0.010501524276699913,-0.08542621906669497,-0.059031088425093727,-0.0002044658787030884,-0.04425186824811637,0.006101501404328762,0.08317869513483596,-0.04538573932886323,0.02883512853628054,0.004882590839906438,-0.03079245980033858,0.00035211158156468893,0.014642887904790047,-0.011097739740353212,-0.008562101617801457,-0.02231046341084429,-0.04280779100386639,0.06315351434000013,0.002725073045729756,0.061371212982951624,0.06868892547861036,-0.03200956003608375,0.04316224221822225,0.047124864655454436,-0.012851910120468046,0.06889428169521682,0.004432690072566109,-0.06338761522440023,-0.02061968082864246,0.05549454296243186,0.03205618349968999,-0.06731270311690744,-0.05496332277090014,0.07161584915690117,0.048068204669024346,-0.02605900372533719,0.05386660832131068,0.07191810787913233,-0.013616781505730688,-0.017777372217008564,0.07203428888894328,0.014464628270294475,0.07369585633227813,-0.01494405581068066,0.023169058847971255,0.051788525496004295,-0.044827618026409666,0.07621850604948913,-0.07461595050943541,-0.0011781171712837296,-0.06008123571462155,-0.04549313553871629,0.04930836171630906,-0.011812635247341113,0.08307808615560087,-0.06940004838189005,0.0696010959247273,-0.04774019795654766,0.03840703828681055,-0.007441586995364871,0.038586598904220594,0.0705029073386253,-0.01512956394742849,-0.048337476984102117,-0.020127486079314517,-0.04959719302536063,0.009565497729443812,-0.04853495738755832,-0.01185832870910121,0.0031526298186004167,-0.08459435506531553,-0.0732393299666014,0.07885877806861324,0.06103288544719458,0.07504739702139437,0.07373325072562104,-0.026878193132228258,-0.03535786510776901,-0.05217025806694519,0.03992615522497431,-0.08439045717703646,-0.042245053462132386,0.046838985208139436,0.07820056953238418,-0.07897173481170451,0.06993650044291959,0.0528520454010758,0.052136527691185174,-0.06884518051997718,-0.009328490006656413,-0.046769119438676614,-0.06297003732316617,0.07075470632252147,-0.029742799514026915,0.06301489058833641,-0.04287221569122427,0.06588753003455611,-0.03026359722699562,0.037324745138473746,0.030098700437268654,0.07511370157442919,0.02930640542709239,0.08040009516621051,-0.0284071292414028,0.07791223781767831,-0.009866676916052336,0.06800316186413452,0.034023099684597845,0.0068114736992402015,0.019693054914643474,-0.017454411698214902,-0.02367158287065801,0.017960676197731222,-0.05693887232730613,-0.07368766235960662,0.07652993159012554,0.06356916680093452,0.05829854826076385,-0.0009604543950967302,0.02905627014012129,-0.07873457411193112,0.0190090164673793,0.03688397274232948,-0.06796771300117752,-0.06596815004420968,-0.07263984294365057,0.0018434440295073368,-0.04313976534565389,0.08612964708594674,0.08391000987445427,0.07882878239455458,0.061994701336113504,0.05938982276794638,-0.01469567252823372,-0.00709815030143815,-0.06537866556503803,0.04378725153280517,-0.026095546552035744,0.08331377709388908,0.02642280750672053,-0.07729250488170636,0.057805136525260155,0.04958844501647576,-0.019165648709356727,0.026498780523082115,-0.02077951885069616,-0.004271856484942151,0.013371074740934734,0.03888886958769542,0.030795168339669905,0.0546292379021765,0.08488201203928329,0.06834903859427639,-0.03462145561780174,0.05301217002548139,-0.042309959871505994,0.009290548148442957,-0.005473437926909738,0.07408427149562118,0.054970276597289806,-0.03851220359102943,-0.010714266806780759,-0.07975954605292772,-0.08044745462660717,0.0536301802203244,-0.013251027020095393,0.0024832006318770334,0.0011137087771206841,-0.06811295580658222,-0.07854815614672729,-0.03092241560013359,-0.050276912495551385,-0.0028995773232565873,0.07022289520279212,0.03658556792802638,0.07707719503178483,0.05622553145230792,-0.02433474931517858,-0.01594045184773011,-0.0699187188090803,0.012786243866522875,0.0040462814946703755,0.0577083587513774,-0.06282553673183394,0.0394383834467514,0.0691089850650572,0.06552752001432051,-0.02945114111123222,0.04785424047530399,-0.05654255746510842,-0.0064885736268224725,-0.003989527478127286,0.0782881833145665,-0.039356591842503334,-0.08180911999875048,-0.06407397537185722,-0.051607138156970024,0.00833021263958674,-0.01095412591463344,-0.06075748368207131,-0.0809678499919634,0.031805876656353586,0.061310999777311616,0.05304464934309961,0.07208893032398676,-0.01144053360262428,0.0012590512849932115,0.05631574560744873,-0.042287362770320164,0.04001059125790551,-0.04571507349442049,0.036785750861974796,0.007440037859633303,0.07800842997883302,-0.04525951467574319,0.06660769524893886,0.05523868948985001,-0.032540989373015104,-0.08468436921549362,-0.05580762114955077,-0.0807603924706093,0.03739813289773028,-0.033421597934971396,0.03117113684105549,-0.04267593621553982,-0.060011031392314,-0.04499023731227544,-0.014299495944790536,-0.054350901750007244,-0.06305659164529157,-0.03994198479187558,-0.08329469645569533,0.08291520425251533,0.04972413242790652,0.07990088919834604,0.009162988359248668,0.039010296800188304,0.027350585185842876,-0.01852880454145373,0.024194424012001597,-0.05193691978903825,0.022870076433507927,-0.07508677451014537,0.061603282879528994,0.061501180566946145,0.019063579072077515,0.046383347487737286,-0.08118176341672621,-0.07398170989506805,0.0392818370828065,-0.08457795298062204,-0.012473717398632747,-0.07806282156222011,-0.06796853401875665,-0.046676748049377666,-0.018380200127128515,-0.06860939409485022,0.06387817776316246,0.08190639114768752,0.026409798413594577,-0.025895389212928964,0.01638812285660232,-0.05487651629257262,-0.013820062626683683,0.04817045191818532,-0.05332288126424834,0.0629887191426403,0.02357568918049365,-0.035087855965100195,0.00130557781179392,-0.013171306260111494,0.07075116302468439,0.046264879916765284,-0.012694046617527321,-0.0704803043481375,0.00619878638111625,-0.07457865941231694,-0.03782692150340655,0.06512529647324077,-0.0250820988613338,0.033999242840195634,0.035865747385054214,-0.043864790033682,-0.004619019762259466,-0.017801745931638177,-0.0332431318760459,-0.04732323674049935,-0.009179093849297854,0.07302491670484244,-0.008348317965793411,-0.016731745439863537,0.05020510258752797,0.07115892912626537,0.007986168885224909,-0.06302535721032604,0.07578332397658896,0.0050516420039763005,0.060927939152235766,-0.05868819783110836,0.048670633524512674,0.05821300516502079,0.05368417027004557,0.07130680593150412,-0.026710870067377705,0.041349323202378996,-0.08104297491139743,-0.060971688362790225,-0.014203552256716406,-0.03494724506028697,-0.08530710720317769,0.06601530071731508,0.009902477480794347,-0.013365266216757024,-0.06561285568431022,-0.04026473287973535,0.02246346134954371,0.04375007376370103,-0.039043709584285505,-0.058263974510783224,0.01005225765203556,0.01688996132360879,-0.036351668182347655,-0.00018327249899267208,0.05467330554223798,0.03245567265363309,0.05377922485628528,-0.06473131558110286,-0.06206292874465153,0.037412555992139586,0.04101766389740267,0.08602389667647747,0.0134402522783569,0.030704767994272655,-0.06900426639694122,-0.029982244755503727,0.06201556947391418,-0.00926492829637548,0.08470558876300512,-0.05171294494790026,-0.07023263501648866,-0.06878777066537058,-0.013264350000592619,0.02756396267820372,0.07663564416953411,0.03275556556651057,-0.038205519323527434,0.08160376066548247,-0.012860573087903338,-0.02264943263764824,0.08472628267359925,-0.053521818259451605,0.030849769063610463,-0.051901663699507876,0.03876910470982042,0.030280087697397647,-0.037596253312674806,-0.005614699608477425,0.032902557090970785,-0.08400392399832622,0.08213377130775022,-0.07416066048618893,0.05708361081552174,-0.046809456987357674,0.06791534080844493,-0.058784008037293604,-0.05686382464397886,-0.008466215378885204,-0.0347067275565315,0.07560371192781101,-0.011227894776122516,0.018851593233717927,0.03926411321823414,0.0266456257436661,-0.024135111843492863,0.035920263402274034,-0.055529904526103055,-0.06394173063406525,-0.030922556099530516,0.07219945706999761,-0.011097616584598844,0.01037869962375326,0.0812001453093308,0.015806001784615484,-0.04301895257903417,-0.046231473156254276,0.057709854318440855,-0.06038335476837976,0.042858029329695665,-0.03161771204636133,-0.028463557191182393,-0.04587476692553144,-0.00404052745459935,-0.07015333741345911,-0.01119892047120054,-0.0761542751758201,-0.07354513908269872,0.03313411408732224,-0.062079236255879175,-0.028157529371818934,0.013688442278465785,0.05487251484617677,0.029079045137636688,-0.03506469797074733,0.021691653866067924,0.0417746674026407,0.008054462823843068,-0.07277471897435847,-0.002253209350005667,0.023341067922268244,0.04507918156909381,-0.0169820215821862,0.06841252719581456,-0.01433989043868523,0.06669519466730817,0.02136049864374213,-0.07679732046422531,-0.04785681764120909,0.058631564239255925,-0.00184027330536614,-0.042203361152592093,0.0626997405013593,0.06637365591883615,0.051170213360003935,-0.08585474075287992,-0.07983189250532814,0.05726232968044761,0.020066480064978853,-0.06986686225820037,-0.026941398940078715,0.06811428692675917,0.07367054266233107,-0.022889780156125153,-0.029188754901677664,0.0841588822002747,-0.07964124775406171,-0.008067998369981691,-0.07335954577684241,-0.06383361788600421,-0.018500478776458086,0.04539020172041362,0.01771954218664328,-0.08076570220160843,-0.0013109248002798515,-0.014906938700983897,-0.018717028690194565,-0.0531880543306052,0.03527501632293497,0.07093054441875273,-0.06811166015626094,-0.06474841635614129,-0.06102807266330719,0.07641017733900712,-0.008895348316734037,0.05494888167492911,-0.002052999831605186,-0.0636729172576314,0.029908652813598276,0.02824704872584745,-0.0749103709695039,0.026980451927896384,0.026594593510703077,0.07907240748630444,0.05557315549132107,0.052214218147121266,0.03804855728227465,0.04162533254727798,-0.05323954474889451,-0.04213733560135403,-0.014749668624317935,0.011117117774765178,0.0023790871077887387,-0.03858819463224688,0.0854314471230636,-0.06624250733821951,-0.08508782678509728,-0.014296378618362748,0.02324833317394524,-0.0033724789539242117,0.05910720076434662,0.0697245898926655,-0.019255383966232,-0.08496749449194912,0.0035179275014485347,0.07412578458324705,0.07148191234241175,-0.007872668813839382,-0.025355384260564377,-0.06291499882939149,0.04399247956782295,-0.021855927988223015,-0.07606633109082522,0.05056627015448578,-0.06856983808212842,0.02032722574839617,0.04889183885114925,-0.05605192375663171,-0.0028555295539541697,-0.046846578674836756,-0.06472058405244184,0.021231499957584027,-0.07374490485402292,0.03569192754975749,0.04726837805987292,-0.05241794591126024,-0.04257025352133097,-0.0484368824647405,0.004748760589956203,-0.02694855186118392,-0.06414536158034,-0.057660827590826594,-0.03633518089796591,-0.0522689925997598,-0.06074296802193996,-0.08557372879840888,0.07278803724711803,0.026445344983087312,0.06901928354265724,0.03136193192901762,-0.06960137986234481,-0.019386715363880102,0.07548996828471276,0.05959180188991859,-0.034210257422581686,0.024661718236575,-0.003370629755253058,0.07249897636248255,-0.018316960762629446,-0.053786275718222906,0.007166226067282123,-0.06609020251987315,-0.01513741782616158,0.06870637026290902,-0.07305226812777667,0.07817714509654587,-0.060838013385645935,-0.011453330411590244,-0.0029001960586849613,0.07065196349939781,-0.0389620994034892,-0.020890814312917408,0.07571738210905112,-0.053012095160150326,0.0163637370931005,-0.05521783304931441,0.0012136243968971108,0.06174193587814411,-0.011811624814012971,-0.0330701922143501,0.04253138211125821,0.03254809348012691,-0.018933518543370498,0.06723312097789824,-0.03672082848916873,0.07356366306304576,-0.050308834145821865,-0.046317099224126385,0.05101050531388737,0.038867327451187955,-0.0517001038803986,-0.042958995567992,-0.007302269726329816,-0.07619030566651304,-0.04170200676749647,0.007052795513246876,0.0012956899623132456,0.06728343616017003,0.02594431518791681,0.03439185595170897,0.0001934398543142153,-0.0655539956656693,0.023708981977547842,0.01704141310724522,-0.046326063475307405,0.006235059129819018,0.07521241609066316,0.030196236387888264,-0.008621016471683085,0.0341641915785807,0.08461114207652946,-0.03117133641515141,-0.0421869180386798,-0.05255795748127744,0.02470090009927509,0.025982455833255078,0.03927350239765038,-0.057247658155716016,-0.016973820747164102,-0.007556625060197271,0.0224456497492288,0.06118547806470703,-0.07696222871976127,-0.08152936603135881,-0.07266856882175164,-0.03455229647709242,-0.06882047703532329,-0.04648578422397789,0.032572930440466136,0.04074522527630724,0.03471611910183193,-0.0360943312440182,0.04771875473886,-0.013374155959740952,-0.054928282370891396,-0.021013316438812726,0.04036255003864355,-0.021090064287089247,-0.05090832483626828,-0.04587282672008859,0.04372752597854571,-0.0252597536591979,0.0149044067983928,-0.08214574495407607,0.002924427318614087,-0.024120670836055198,0.07111312016058075,0.022886673997629812,-0.06059195562152002,-0.03666013637225499,-0.040500148241659754,0.015432893327040122,0.021709795096249353,-0.07180180772805032,-0.0002722803377992042,-0.03013661077962724,-0.06656197604157099,0.015628258481672125,0.003029891688737582,-0.024451367383395796,-0.06778340313351208,0.05809674181399575,0.05355332624920391,-0.04274389374064175,-0.017571248451357768,0.05754359860439587,-0.07802310834768326,-0.05724810298399527,0.054346959339038395,-0.005065800581432175,-0.06918678721192544,-0.03175239431242334,0.012758176040332619,-0.07266979273699482,0.06626046070496293,0.0668965220788775,0.053385904040163905,-0.014584826069551617,0.01617850356947681,-0.04279391340431534,-0.0028269211394201512,-0.009882849263419834,-0.004358252045566454,-0.02379081259450663,0.006720157584123045,0.07442072355853876,-0.047209417375395656,0.014579238843837964,0.026889924206251525,-0.031533708624412404,0.06571773965595976,-0.0701316887746759,0.08171056216501994,0.05033444429879286,0.05084597970856095,0.053821136625111225,0.0403091302290125,0.07876719612621326,-0.003574434207438462,-0.02905548476317557,-0.08152166043423106,-0.06285076026683825,0.054555014872497025,-0.04402225042421928,0.016638348061065466,0.06672322823985037,0.027821575960033453,-0.07430195067386094,-0.021878420092412292,-0.05071878742456936,0.08594265482360905,0.07506457936155071,-0.022581259951083458,0.018645906769029014,0.052009540916674965,-0.050049604867065584,-0.0537730904668344,-0.07641431380313238,-0.041545854739759955,0.0730268669903261,0.03752061212383014,-0.0761164629637962,-0.07692707846413858,0.07781255172206007,0.07895129004677473,0.01703261718439388,-0.07991845153268715,-0.046723051289243527,0.007693225550601673,-0.07785298209463508,-0.014618120708896707,0.06822824014905438,0.013820893077636233,0.02437613415231135,-0.05965452234776384,0.046098542419051126,0.04907487664206829,0.02783495197958383,-0.05749756095316466,0.01691611484670706,0.04773961754321899,-0.07344876178032433,0.07635622106765666,0.03658057818826983,-0.04255547033808753,0.057396137915305394,-0.019567573430719958,-0.012960500951238433,0.03880594271056147,0.004279953315726787,0.03759730359020743,-0.06007742506790792,0.012893882429781378,0.02896003832730128,-0.0712853613748349,-0.08105946292560709,0.030950429791478617,-0.03997887093104247,-0.06930519993795477,-0.07446756436675807,-0.07471294905178003,-0.06502176466887043,-0.03855243907138199,-0.035523962155162306,0.04297348289254394,0.08325271567970577,0.04406445421090701,-0.07451023385481674,-0.055568753470605074,0.06900206516849883,-0.039419802434599895,-0.06148648319181755,-0.08531347780026013,-0.010648187380325221,0.0548563100063869,0.05435684422524172,0.0595428033417772,0.058628376271327,-0.05072419320041403,0.05103449215507921,-0.025028967267992468,-0.02033572772088318,-0.006435489241661799,0.06488542983383269,-0.007946625492629263,-0.04233953619406428,-0.05144959345523705,-0.06326104354844676,-0.07691869879407087,-0.010741388582270622,0.05830359572782799,-0.014220464736684823,-0.08307954055726566,-0.059423468712850876,-0.07373343650582924,-0.08230313845844793,-0.06840353045463803,0.027883614948535917,0.007667237611141695,-0.08450488475908141,-0.08256130560587926,-0.05047067008733407,0.05284483094024985,-0.06917217034153536,0.04297498372297413,-0.05926719166683327,0.015343511867888009,-0.06931155869097709,0.07842299673019497,-0.04138065721480282,-0.005174991228808171,0.008482883605473628,0.05654338380746437,0.029274660359088142,0.04568178746377157
0.057485312084821306,0.009687085417806992,-0.0686362991744491,-0.0011895847007351735,-0.033968123416080534,0.054895384953608364,0.06118928848035653,0.0550577550632749,-0.07128850433787222,-0.009027647370549827,-0.07378811010785383,-0.007084219098575942,0.02831818015640364,-0.034681563299999905,0.03787161339762866,0.07276475579853342,0.04933524313855997,-0.045525714818672874,0.05487832270243512,0.04506470758614756,0.07935000324947389,-0.07394570621686676,-0.04569221321484941,-0.020433542850607972,-0.029575419000376378,-0.07655878241452146,0.010676578063341824,-0.03274522654420653,-0.08571040685058268,0.0378304274565755,0.052031410881094226,0.05607209627141346,-0.07811076050667115,-0.025694724625530414,0.02673910730433117,-0.04968925930698448,0.006979411467791269,0.06840211140207417,0.07758790841149701,-0.02177748847421711,0.02696007327379879,-0.00036584896359069795,0.06935501593639481,-0.06432674565109517,-0.02840678820557838,-0.0765556012912956,-0.005008001352683034,-0.07637592813886424,0.055800445662213594,-0.07753081843459739,0.004242637618545851,0.015270775970455204,0.04167135977289048,0.03860662319024507,0.026303865999492,0.0024882017504988855,-0.08364521740569167,-0.07592664080098625,-0.011801264110165164,0.06716003856621132,0.08423136242307155,0.0164552097016282,-0.08636250908465164,0.034559770263731,-0.013435509486910371,0.07003101651810073,-0.0413785431204679,-0.0381142123396872,0.009323080377569955,0.07187370585310345,0.014499709246947727,0.01269905591191062,-0.043891487287239246,-0.05579267292880785,-0.02154345588781157,-0.07148634198893966,0.00025517680204195767,-0.02195742489247506,0.028078965473825643,0.07611394299809739,-0.04276479556000771,0.008370497609235602,-0.02924992927160005,-0.02246812626087077,-0.004117587372428593,0.02646088660165972,-0.00941257730317486,-0.034869206183922724,0.06614141412412533,-0.005867046833647437,-0.02068835429098223,-0.013315896676454081,-0.035629808096552334,-0.04375877287971448,0.07263869891224203,0.08459505931081424,-0.04989741385733678,-0.00822310436275307,0.056140396570202505,0.010527421805132012,-0.012150716547640834,-0.020275728062157442,0.013467893684147155,-0.06388829796039931,0.012847857423090513,-0.02931064988731412,-0.07691854297666559,0.07698758436611114,0.0767649117696987,0.05262689683604624,0.0841477126929077,0.006836483288156751,-0.030544455035917368,-0.008217354122544736,-0.031249178721495054,0.010194028350364138,-0.07597717871262974,-0.035583153008236376,-0.0046797897362149095,0.0853460959219503,-0.045671537424118364,0.05627456361744486,-0.08301344001230285,-0.07295234049813804,-0.03333106368602773,0.07477946634636337,-0.008792633718899847,0.07644903823690653,-0.03618106541961697,0.035247083373042574,0.05296572199624864,0.02739695312398656,0.05174316455690639,-0.023353532027082548,0.0639372082347938,-0.04266710646295869,-0.07588956164738711,0.07230029526261493,-0.060159501373422734,-0.0019440721603697566,0.0003882026665408049,0.018749752117539133,-0.041735872313524144,-0.05697997195801514,0.05683577111433391,-0.007438604190448822,-0.025384497621758702,-0.07383402828375549,-0.07698761051027062,0.0149680596996634,-0.06369642086013655,0.04666387624443661,-0.04638920843975763,0.06270812926291196,-0.03698731750211327,0.05689951880044131,-0.017237880464690835,0.05949251040391839,-0.0009371295953190189,0.04097807940807125,0.0158265458561442,0.012562303958049905,-0.038846139113167234,-0.07149642780398141,-0.015717299509634127,0.04197051532935228,-0.012149584359134056,0.04451790898012145,-0.03668021082726618,-0.03238602243641558,0.043965939029511965,-0.0785808689792335,-0.005790136810473588,0.05145263021569277,-0.04002469078953636,-0.0249635635532855,0.07409828010547179,0.011967490484745272,0.030924400539754652,0.059953636275518106,-0.027311730179496983,0.08087243214655127,-0.042207008662923505,-0.020986983130263277,0.06040337721186952,0.08520809818521345,0.011262546359873638,0.01750434008409115,0.012242326709311703,-0.055875003539882125,0.014726927691122525,0.07425378903354823,-0.044613131762396646,0.007714795644201808,-0.027853757006690627,0.01653894172509695,0.005722280861353646,-0.03325449165987381,-0.004076196389140312,0.08040508396072596,-0.002224906967048954,-0.0008984072614411031,-0.001619290588323703,-0.01189318100043188,0.020754174139522727,-0.002482364890668167,-0.04749126009998746,0.03531257622664822,0.028036163541456008,0.020050381704607125,-0.03589799698419146,-0.004954925934221475,-0.0789517578987231,0.04315712937761508,-0.08390481574336194,0.001489417957976243,-0.01564050060106489,-0.012307660112615665,0.0772689509806741,-0.03182576154497882,-0.05538607539359438,0.06383396735356987,-0.0565792279667167,-0.013456752256563783,0.04623809097650955,-0.04114183898270832,0.02412037507541957,-0.018341661703571197,-0.07149740530571913,-0.05408163974665596,0.025297209810859308,-0.05403308692808094,-0.044418994626227115,0.06805034331731656,0.018783756271375057,0.04744671595863958,0.059135860225970185,-0.03893111629590817,-0.05749911432748685,0.0010051417362208226,0.0060567285596357,-0.01657438235214599,-0.04813560459303446,0.04286282860143029,-0.006778526751325645,-0.068727518523768,-0.04194939925987902,-0.07560951779556953,-0.04805744497402199,0.06118562184845982,-0.018302750942744903,0.03472600242463903,0.014415449518785291,-0.06854102109328677,-0.006481876194892352,0.033381316186788954,-0.04062847524658899,-0.06951668109236847,-0.0398676632692319,-0.0283128942718762,0.03844268257170897,-0.010103962126616389,-0.04324622766342793,-0.035235496395342084,-0.04655097929250581,-0.05382348003739268,0.03305459788426984,0.050037558159088114,-0.0602118902347972,-0.01162769917293725,-0.017300782384760835,-0.07532351538953656,-0.07286209946289748,0.006678194470459035,0.040495030159353296,0.08515668164175494,0.020579045049278336,0.03763217365057184,-0.036550116324871665,-0.03980554573886925,-0.05146596059118422,-0.07386345989427391,0.02685629238091626,-0.07018034957270049,0.08331126295538463,0.020601534802352967,-0.05165796191553237,0.043109014691616154,-0.007194819804494143,-0.07116502085819586,0.07130196018960158,0.08640375100341793,-0.0649138064654657,0.04099531945186702,0.007095212145624151,-0.06891034419022099,0.013574459762267078,0.013648791397290848,-0.06198849556116292,-0.008919978126075341,0.03191962511358115,0.005262625363449222,0.08004832346256821,-0.06818002216042031,-0.04648722426765097,0.05537483548439519,-0.03010903375259153,0.0650858566298668,-0.05189365315748692,0.03873402601908159,-0.019169116438978142,-0.020230697677517773,-0.059135590020138025,-0.036141182590791576,0.08489102957185402,0.06384429240931783,0.027090980974971063,-0.0611913536515114,0.08043216096875629,-0.04757550793793951,-0.007901836193823966,-0.026275923933208167,-0.042784143014380334,-0.07419435944378085,0.016841490567112847,0.04245805449376555,-0.05165861130593678,0.05336901271255081,-0.0820156277711489,-0.02048975341120142,0.012655359126239144,-0.028715835998473927,-0.0798831369373023,0.05441958498934977,-0.034006779283991324,-0.05235764396057747,-0.04737985648442667,0.03215699405919842,0.06762401249900724,5.542665184953484e-05,-0.024082690535437667,-0.019818399727351114,0.009777071825099825,0.013224555884516626,-0.008319809336215416,0.007243512627407006,-0.041449026216117776,-0.08451306367220389,-0.08146057668797485,-0.0005434517698554741,-0.062484255232988985,-0.02713801832433974,0.0018010966051598485,-0.013510583963405105,0.05405514408887524,0.023910628389995633,-0.08045565873966155,-0.07451675083558285,-0.045065965060497176,0.06484404428244844,-0.017896642752121623,0.006735067334727385,0.0309525843663136,0.03601070992461613,0.015150457359990068,0.0008769818538434126,-0.017849643836760187,0.08595447836893043,0.07708705604322126,-0.03424968360608134,0.04921364238414641,-0.009216359232069088,0.02892674779125306,-0.08494235974411786,0.03884764909831083,-0.08010424721393875,-0.021794137934201097,-0.034605922520900764,-0.07603744414925036,0.0056665391649652055,-0.015618848193945429,-0.07584003445190039,0.0670723498107607,-0.06696839839883859,-0.08276998142050182,0.011979988675957955,0.041481377176720007,-0.0023805552694346433,0.0032082663636617288,-0.07704356113410837,-0.01611822363287953,0.058154804246493795,-0.08588147877080753,-0.0824267526755163,0.02006136655711229,0.0010255360726919142,0.07904009135291107,0.0050319857733595735,0.03758357075387403,-0.01850232128457855,0.041883919274730834,-0.013344890850352486,0.08060530907894595,0.07260918836320022,0.017737635001312042,0.0025619913715175433,0.07399526450421703,-0.014694183078008669,0.04552585945203175,-0.013894133576914085,-0.056814306143639186,-0.07470987002595361,0.04229021086258051,0.013876217658640446,0.03668751027260093,-0.07140868389224098,-0.05379023717967734,-0.02067489333243419,-0.06431672020184426,0.02576227358317543,-0.01815832523131684,0.03850161238710695,-0.07691386584799224,-0.006142912553427682,0.08379108663626345,-0.06745042302434205,0.060025168591587984,0.047583699436073,-0.07254593661264942,0.01725204724344119,-0.08233962312119991,0.06328364828381075,0.06950819340466438,0.018689866848863618,0.04773823978091518,0.055581445317841996,0.022362845333514243,0.04175214016480908,0.010044453339205093,-0.04308073419263725,-0.00784244417696073,-0.014089540594172957,-0.01660716685824744,-0.07329211613408276,0.08427423900222798,-0.03886844448420305,-0.07399696419654564,0.014040978226761088,-0.03397153631978518,0.00706080177258443,-0.033019611079207214,-0.04838394573206937,0.016353885371504992,-0.05775174124289087,-0.008848809333429146,0.01279156635889476,0.016346515905656007,0.03214755370575534,0.04228022266345164,-0.006164315119866454,0.08367970266234731,-0.03228020304276191,-0.0066311296145144145,0.04843257481817299,-0.07079802253816643,-0.0695463179387367,0.04577010592883296,0.036257938491930555,0.07293728942772366,-0.06098241260132151,-0.06862769105480003,-0.014837747895986783,0.005317791115149613,0.03399557543007247,-0.06935442104319546,0.03961154964445872,0.00858235380268602,-0.030603813688464734,-0.0697809859765886,-0.005390993936444078,-0.0535876126658901,-0.060825080997913464,-0.0675410289511075,0.07225095722846292,0.0032302924233467236,0.0201660398202081,0.012619975216595828,0.01219315216147542,-0.025913932667823505,-0.012144858197657912,-0.03563977785299404,0.0781315646296307,0.050439279785102174,0.05297699821260088,0.06792472482564443,0.001970455099385451,0.034251555936764384,-0.08564955460106921,0.02298167948971735,-0.021469705782652868,-0.049555695025627816,0.075484114365369,-0.054896520774861,0.022510499774615486,-0.04774446076143173,0.05958808604885801,-0.015074991326170732,-0.048572206908077835,0.07055473179617192,-0.009617266986288717,0.07272524554860144,-0.034344517266157,0.010531644994405124,0.03966585440789718,-0.06459147796600502,0.07184073901048516,-0.04999254502120658,-0.03281460076424668,0.03663883882984007,0.06286939379331564,-0.0053098904238391975,0.03502056451306972,0.006943668246781301,0.062242207592161175,0.018495996532034972,0.07760204426177915,0.08097475612991797,-0.008913790288035666,-0.06313234882546043,0.07826781410286382,0.07303434799940264,-0.0691324296909057,0.02270891843991843,-0.022938660536574396,0.06357129285072713,-0.08352269359761363,-0.055823049193632165,0.06697228775322339,-0.018418524318170648,0.07677688571028285,-0.002803604556276887,0.06315432312958286,0.08592110826652868,0.0036516904953386026,-0.07463048958432933,0.08486324527250125,0.07483645902878039,-0.019971071843659385,0.0030771424483678478,-0.046388683586336556,-0.007499107631650785,-0.051444997162139974,-0.005527591573981178,0.06424591932348643,-0.015738264117899168,-0.0010107727374625056,-0.036905151729031915,0.01686087683462156,0.07448601904980048,-0.02558598842027784,-0.03549631746189129,0.05480970322171261,0.057645190626621025,0.07595891253000187,0.04981801408886528,-0.00704501059755693,-0.07505355215761246,0.03698523257562589,-0.03291086043305548,-0.04096166518228321,-0.06398072530078101,-0.07444148472749147,-0.0001259575407072511,-1.6087832840930196e-05,-0.02112725352427181,-0.07539654520827725,-0.05665451456243732,-0.012291968055359571,0.05851467910655556,-0.010884659635977068,-0.08573477859084211,-0.0703164404503744,-0.05931894576056032,-0.07169285336999118,-0.01904696437419744,-0.0852444320678023,0.055604534429923344,-0.061877139462329304,0.08066599621103991,0.0629368931857689,0.001079351285864665,0.03959573761274613,0.011442223506996141,-0.01649714333706269,0.010177854202197356,0.03922813883512734,0.06493790758031637,0.0359421087314652,0.007204009807961188,0.03983673974340765,-0.0029746951567256705,-0.05886622500316631,-0.04484773710789705,0.012450082401319937,-0.08498635686266878,0.0683914604955359,0.0027400227713093262,-0.03422584400791763,-0.05381501390388465,-0.030379553187074883,0.05907975911803362,-0.0587246619209649,0.03581094896599003,-0.02155702731375137,-0.0330118311239015,-0.04694961928441033,0.04353643274758928,0.07782830825097717,-0.04313913119571928,0.07049886445844462,0.02654070197114797,-0.07578949179648609,0.053207674879227146,-0.003952145474304563,0.013261357326929209,0.07912383184513926,-0.07830246223618346,0.0149541181249354,-0.05140639709490055,0.07577278059537518,-0.07782918464729174,-0.04372056770215774,-0.013715264447201937,-0.05217679369981877,-0.03657582791184344,0.0021682636649641555,-0.06300691219882354,-0.06531026820844975,-0.03398429750023814,-0.06072486363657167,0.003417151409420305,0.005253232858023033,0.08181955276036997,-0.07678639947278729,0.01768861302018946,0.018698872388697222,0.031664008069098824,0.041517964853322584,-0.02274014405500224,-0.05563160797156291,-0.018447673757280434,-0.03071118709994653,0.06642291259952925,-0.08507584017845038,0.04808048880241852,-0.07654757191797298,-0.05261439565538043,0.0418240412461951,0.07124816571318746,0.06394279678986695,0.007346466115858611,0.014429532927384173,0.004115779864084241,0.009426848694874613,0.03197480612291252,-0.07795185501156696,-0.003270728131343605,0.011437051846455564,-0.0148859523188751,0.031746567113906075,-0.01716357748210844,-0.06542881711351022,0.01464001704844639,0.04934016226003054,-0.04880759943385813,-0.028971005147135763,0.07696812298619181,-0.052334918886189546,-0.008924783587134976,-0.060963209345667506,0.08495930028389052,-0.0758186831911781,0.02567331762119573,-0.08639403456290373,-0.07385287052812047,-0.011265404151736266,0.08250402721050382,0.07504801336638539,0.06425735769746291,-0.030301512906279086,-0.021836270792584073,0.04711629523790217,0.05353309958833725,-0.0767170536683246,-0.06068319450353969,0.053158669286676785,0.03320800554692298,0.03355616741260912,0.009776123847267143,-0.0692913159407959,-0.010504881931358193,0.044936923964878674,-0.013832054679268053,-0.04137317747550505,-0.08210563233499318,0.021122089985073027,0.08567142367943063,-0.03141250148274586,-0.07959051774468912,0.06483912638331009,-0.055060263487005996,-0.05014563646310689,0.025262427420165566,-0.048466803376769375,0.02396967776525625,0.029930502989351376,-0.026572531585059574,0.0004235275201704553,-0.07492962811156531,-0.07271755880106444,0.020373163903103703,-0.027924919816384338,-0.06555741112687315,0.01423978737898972,0.035793155690908005,0.07862430990551307,0.05845185938415861,0.030964166907703376,-0.04437460295848167,0.007188144044716255,0.005362689113765516,-0.08128158862574972,0.05826347836617293,0.05779447684132515,-0.06911158353846147,-0.014200151365815539,-0.02913600433073289,-0.0026279945577390015,0.06143439538332086,-0.04278872585350619,0.029102207871809845,0.07864729503625588,-0.0772970292750788,-0.016047845850639824,-0.06398156394080111,-0.027313744111599817,-0.08242425184386613,-0.050454348042677157,0.0008919575467889352,-0.022322010780618132,-0.004832246524594982,-0.04624036972327513,-0.061851906407940395,-0.05423549313876217,0.05801739468826033,0.014338543423700075,0.060581090778081534,-0.03167671012264189,0.024149747719158843,0.03645987058587493,-0.01600796726351946,-0.029955813042318414,-0.06322214121989986,0.004399510797541554,0.06199559660701709,-0.016675330120935732,-0.06949644056050712,-0.052752154601206885,0.04543173951621849,0.06258583926296286,-0.03825961569775516,-0.07667102804049829,-0.0620470512324522,0.05863745974838465,0.03779022953415651,0.008307603966917414,-0.0088183914901787,0.037876866139889324,0.044517987241629975,-0.05843171965802989,0.08587908358421664,0.07043576310810264,0.023286041804346617,0.0038569412773206305
0.03114568158178979,-0.039296388097429656,-0.04751094236940439,0.0044251113165285905,-0.05368354776476591,0.03651008684635166,0.03686185337612419,0.052425955485345704,-0.0850004908015998,-0.05600056495574592,0.020246673434329815,0.03798695116876653,-0.018090499941047514,-0.07165193432672366,-0.03054508476909252,-0.027512370980386815,0.07006557746658601,-0.044424935681038065,0.03423021546144156,0.06126062446177605,-0.04434755056807606,-0.06291719164898225,0.013638968478942519,0.05022260622568509,-0.022179642514309626,0.018571260347231375,0.04302973629092622,-0.06652368548363603,0.01639661179868163,-0.053459530044954386,-0.008740518741027076,-0.08184061556740806,-0.04999551009891668,-0.06572803199605977,-0.05147065185215787,-0.0849820912931817,-0.05381254327192138,-0.044395016276900054,0.00394635290800522,-0.021067625767818104,-0.0740936478400398,-0.0009330393409684311,0.07646449694992699,0.06750805004872991,-0.010816771340667658,0.057630593834183945,-0.078444880053461,-0.08012092818793112,-0.029842290880771935,-0.07106491667249862,-0.036741153880723805,-0.05639376390154113,0.046749994440814166,-0.02787977307637841,-0.007625171519323434,0.05611707516993243,-0.0031449582219214367,-0.007231100225294375,-0.028450556040137583,-0.04486834711901019,-0.03735556545248679,-0.04442439742357909,-0.0742526801118182,-0.07037765088255914,0.0027943085045545463,0.04065405415093771,-0.015581073053374722,0.07490837060042657,0.03122858172060272,-0.009787697183271564,-0.016643996287535195,0.018627142624747964,0.08197819778266717,0.013530898299175947,0.03590007870069875,0.05911233815828634,0.04832220877200371,0.05470703090039089,-0.041356834238058644,-0.07532057433829377,-0.0676232746006571,-0.002276034706113384,-0.04426992177056081,-0.008742162684483384,0.06056088683237218,0.0026974187929678377,0.06288999967912501,0.0036501625941720035,-0.0591600743198939,-0.06466973559932991,-0.032341071737054854,0.012010444667704878,0.07105596762185659,0.05628531662501346,-0.05300972430496933,-0.06189895775008811,-0.01500492316224163,0.019903433079783733,-0.06744267544663103,-0.004912937161602114,0.08116807965270541,0.0431492401975838,0.06335682871727151,-0.008178152549846216,-0.07595882215203124,0.06209355019349505,-0.004315275408483107,0.08239467020595176,-0.02058428221088385,-0.06550230246140538,0.06996754364366782,-0.03603774838347423,0.013197438726259865,0.0040060453390919955,0.06713102851837989,0.058727567582438786,-0.05376381405801216,-0.02842480205793287,-0.05492504448550076,0.07091771072947527,0.07463059758681743,0.013946073378757832,-0.024988240827600212,-0.06787310706513859,0.034849106941109084,0.025924168593108914,0.009883543555346522,-0.020825395121988506,-0.08464406848033475,0.053492924418627096,0.044760674075825076,-0.05882869768584268,-0.02617587354181648,0.05393429843525886,0.06248242803712868,-0.002158076560030445,-0.01098109454083324,-0.0805413828331487,0.005654069503198783,-0.06678172313452439,0.08374143920048115,-0.030615430935322714,0.024843052138805666,0.03626317838703642,0.03148012607825498,0.03507376294108036,0.04825344664307057,-0.03149702991600624,-0.07994030344348567,0.07546617917587943,0.055828833932807805,0.0058026359632534575,0.015609064379564044,-0.046541603453651006,0.007694590691103815,-0.06200755274593733,0.014670261936637634,-0.07840680838274067,0.0778554261266209,-0.06252682022290924,0.062045132952465984,0.010951140975576808,0.04995520881652508,0.06675583539556293,0.0540800278676909,0.025565266592805887,0.0719072553018605,0.0062755060368228964,0.028217570815415788,-0.0760433634662603,-0.08163720054370541,-0.07146671726021543,-0.061217419010679106,0.053720302946995785,-0.07353768093775719,-0.06487664464593348,-0.0045607451493362506,-0.00012716426339137835,-0.08740816126634811,-0.010009522129952222,-0.04565399736695683,-0.05927707534832621,-0.06157525280970367,-0.05851513622199342,0.028144755223128346,0.01849335164657236,0.008440003105405823,0.030689445982289076,-0.03604500370615469,0.06283913718352997,-0.056639722209809784,0.07645362905256184,0.0016607102297687831,-0.007328889306169222,-0.04813815282765964,0.06341783841579716,-0.009577662046527513,0.017446302862636286,-0.08416890107858638,0.0331368210614914,-0.06719093500022943,0.011100332006979925,-0.014873640224115173,-0.048713186651441115,0.08383035637753555,0.04685025832049369,-0.06357056122776435,0.07322012365134085,-0.06263272074722726,0.018909602617731294,-0.059230484909963396,0.06551383748707197,0.07373665131954114,0.0012813829657003263,0.04298342601856515,0.06481622757114386,-0.015453749294583055,0.08124349695069218,-0.08403802455239216,0.047428257532101406,-0.001762362603589293,-0.03910681099703103,0.018960168744701793,0.043993815178965064,0.07279896932670109,0.06963689983904511,0.07865231182800897,-0.015187434188631468,-0.006217689177599154,-0.06819624190324386,0.003786980880539121,0.0019632631398479577,-0.020392075482647064,0.005092355997479631,-0.017189598249656074,0.06705856966021205,-0.06971925758156863,0.08021675553623361,0.05921431761900186,0.05608868684947368,0.04901716426176814,-0.04191965701915996,0.03621684753770094,-0.007103464904244975,-0.08501952086418313,-0.008459776064227306,0.0819754676432513,-0.02799931428726106,0.02132873286628106,0.019006357553219486,0.006213531774570735,-0.08353444424138289,0.04918466597356139,-0.08587855115404303,0.07163249129641812,-0.05965263540220361,0.05112851024751962,0.056563508872560335,0.01785351432460431,-0.03132883740329135,-0.03432310168613651,-0.006282360704824173,0.062934174321451,0.060921854513438914,0.017403036959936925,-0.03332627461335181,-0.00658499549509908,0.022891643097705323,-0.019092799224262005,0.01809490057270241,-0.08227486481872745,0.03965180318610498,-0.008071794673854748,-0.034677778396020945,0.052697908188184935,0.044562137573066124,0.06849306399387542,0.05595546591256799,0.05650145651650042,-0.03561981948603409,0.0116171544733886,-0.01250911663404156,0.036005174035064286,-0.08616305484320141,-0.0649717531099918,-0.06421149186274246,-0.018622729037960407,0.021498521883373763,-0.046969343899141654,-0.06658242627244802,-0.07692859245880375,-0.07420363227598727,-0.005807556920708618,-0.05006636919009382,-0.06542833389358022,-0.016049330567547423,-0.0007943391353619606,0.04681384086343465,0.031250745612052266,0.06754793867105828,-0.05685180925177097,-0.07843511517912205,-0.007800679647269878,0.004401599336008759,0.038990850534036586,0.02713585668976362,0.026822088614073075,0.057068886327379796,0.0768271026060715,0.0023162325667048103,0.027799984689107906,-0.04140434071286886,0.0774258040897373,0.03696669503731571,-0.0764718126317256,0.05955398995515611,0.0783951819263147,-0.08293010650725051,-0.08128849161064945,0.022632086248369838,-0.06338204900315873,0.04829310150408545,0.046222589913191364,-0.05702421545753667,0.06748350586057572,0.07806891035673143,0.009306575226277305,0.023360054766093555,-0.0669212458298775,0.07658759622965451,0.07438979494189626,0.0009135766935414115,-0.10326951806041534,-0.08181445147144463,0.03832838886348518,-0.07242216355916896,0.08027367220016159,-0.025004296776943567,0.0665970646076814,0.010853698690309168,0.010531154614197754,0.031346385997693106,0.07725526364525807,0.04433466420960605,0.026649633788256348,-0.016696965461722,-0.0842193449856074,0.028481960666037517,-0.05653167220243394,0.08149063208186508,0.06922462142387473,-0.060117321050462004,-0.06644929075426481,0.07410886080126451,-0.0637077500201866,0.04615563178533397,-0.015576430748422729,-0.0845502237006275,0.03875469388377949,-0.03438603720952325,0.0638772985580545,0.05167576420265948,-0.07616763688458925,0.04041011317649288,0.03731642407133054,-0.0468488457910917,0.03769415037509378,-0.028262608533030302,0.029688873162600035,-0.00856726700592026,-0.029482281827607613,-0.08477038590833218,0.054377514902491784,0.0655380958720175,-0.05538159439291924,0.07409637146194682,-0.016134924423136122,-0.04810765337634974,-0.025809995757917006,0.05209023798686355,0.002922548694189057,0.0062978314306900715,-0.06571936985947083,0.02886793039886969,0.039389091174517304,-0.0330147970286173,0.05124277209430966,0.06374901048459303,-0.0229994374855637,0.05817979023369657,0.08330426656577744,0.05407417365646697,0.02937108682637062,-0.04337390079371276,-0.016751513541911026,-0.055509651976917346,0.04555216981024846,-0.07569494749192807,0.03697209785070098,-0.06879374159641526,0.06550148913780057,0.04779155510678351,-0.02669279849075835,-0.0746320246677332,-0.055842892264308754,-0.021598961757117237,0.037471134410953316,0.0030754065842661512,-0.0791824953278488,-0.0141764306978056,-0.03333981941779492,0.057297572353315944,-0.05231702410350779,-0.06822385216771486,-0.07750866824238438,0.0034353092427285205,0.038820347725928794,-0.049611255345785456,0.04161170010931261,-0.08436707276307226,0.056820306252939476,-0.07789462294907638,-0.05961873782395187,0.07264927495893439,0.08443414322551003,-0.05108819208755306,0.022407833515716923,0.0015971796377566947,0.024323464241895843,-0.03672585906537392,0.05510421488095415,0.04723616826834181,0.07990696531938474,0.07747592170345023,0.07683574428727888,0.07637281451077278,-0.036283068587441396,-0.01497094039985447,-0.033222722310154905,-0.07385847476869628,-0.07431437753628342,-0.024803190672112955,-0.07446469606765166,0.07035110445005566,-0.013572384630210437,0.009844322399642929,-0.05273597693660601,-0.0719580638397901,-0.018184233053046228,-0.05238651073564508,-0.04807301211879363,-0.009588187051526259,-0.012736240303925991,0.03300558396162837,-0.06350504217331597,-0.056249921060847335,0.04059977283406805,0.062299608065174164,-0.023504221507727813,-0.04070073893481289,0.07723974443759699,0.06374544661291974,-0.05754787420577214,0.07459960684105511,-0.06000554945932703,0.05094410745071863,0.006689195907837612,0.04816862859001986,-0.04448806797049141,-0.061714701199338154,-0.014086491405196995,-0.06369151928638654,-0.010894254635612152,0.002795730767108703,-0.052245843475356823,-0.007912472577927487,0.06285042464670985,0.03607530695192578,-0.08212770816107054,-0.00018255396692444818,-0.08238340503297514,-0.05641871352977325,0.02650668832753683,-0.04841275313959223,-0.04483347623428521,0.025294530533697523,0.08232955446593812,0.011954396568871688,-0.0041536672046646106,-0.008105311061649278,0.08515455539135693,0.047730871195775355,0.03879678422573799,-0.0620941670882393,0.009405941873245149,-0.07071740555180944,0.08004885239446197,-0.04981175944256144,0.040197012094406334,-0.03548734337044311,-0.01008276516932905,-0.023619820355669258,-0.06991544615516208,-0.03709465149534791,0.07979695778047545,0.05643298696867508,0.028294088435067626,-0.019216385823225317,-0.055880732639063214,0.05785239168906933,0.0647729285670055,-0.0034700434525993945,-0.039152352928372776,0.060107093039201864,0.01239138222845882,-0.06390787740003498,0.012670955326678762,0.044173701134823294,-0.07705158901508666,0.04090301494687719,0.001994824043280158,-0.04317234571571296,0.006396217153697597,-0.0739444543529798,0.011259589855603325,-0.02265186701092965,0.043691601511054605,-0.04048171331037382,-0.01585324473758174,-0.0406296335602385,0.03436763286938056,0.02021418103455471,-0.023730278388215977,0.06827634831817248,-0.057283183675384555,0.04549437424314676,-0.01878290337417117,-0.032532830835900556,0.02056216510701479,-0.056631038401574706,-0.02995076740110558,0.07263121968541944,0.018182144929621415,0.06145886247569337,-0.06723684468962064,-0.07435885127629306,0.06451986786322751,-0.06198812017336762,-0.028728405749247038,0.012138081181367395,-0.02108387301977922,0.027372709026727608,-0.002840017927447254,-0.010314623282411532,0.005074981042602821,0.08271328282671311,0.0729469543073803,0.07383481724906704,0.06260114418610106,-0.07204607394723375,0.00972556669015787,0.051084545166196677,-0.013497950281029129,0.04834315683140926,0.031374582069097046,-0.07313691002775831,-0.06345681298860319,0.016854265703036782,0.0033539794341781227,0.06426299161930499,0.07369903002790029,-0.0352658916109806,0.08338729748120262,-0.0030241951532080473,-0.032811079381087294,0.019787810374818384,-0.044057483848143814,-0.042999471626754,-0.046967444501385146,-0.020246197122865225,-0.053255950863276474,0.05306450566747715,-0.07476854350059978,-0.007280948863327833,-0.08044388404532604,-0.04490440775047414,-0.0854713457895297,-0.02718669162891144,0.014516289892898134,0.01944349183395254,0.019472993132307395,-0.011135660097976587,0.0813299373989604,0.04749361935200916,0.05220135943245218,-0.0012211943060754125,-0.013648668616267026,0.05387906309293162,0.024435030727151787,-0.06729892784967369,-0.04959691049389509,0.0019430829861026497,0.013098760737670502,0.041239048806921155,0.08468225159049263,-0.06373023344373559,0.06367948066723458,0.018923543706976974,-0.055687850572585906,-0.006030333454035732,0.037010527710319104,-0.0012310426376919334,0.0622409905516321,0.02358431386262415,-0.031286011020616636,0.02138641987590781,0.013370635555292429,-0.03967830161543629,-0.06350825242378355,-0.009024408542565802,-0.04946587146184827,-0.03822864580719838,-0.08371559947422469,0.06267610248264657,0.05936820412355821,-0.035665351306202575,-0.07934298685651518,0.04989842732003064,-0.011072121754560398,0.044403439349646155,0.04837000383628571,-0.05575280002535829,0.01341062305089883,-0.011929137721254873,-0.03520581345090987,-0.007271719574478502,0.07543999166074522,-0.01700124202835356,0.004044106798096154,-0.06714194548608837,-0.03035267732135953,-0.03703543232580447,0.03215760366042361,-0.041331927856818135,0.015350748566793603,0.05974543155512278,0.08252341121461633,-0.06755101491650344,0.06531133571282198,0.04345795712711342,-0.058996738261578446,0.07201937530061048,0.0660251835768161,-0.041008405184082754,-0.02705865638307499,-0.028328367730856282,0.025199191253277416,0.015122726900866239,-0.0034304945996236832,-0.07944251430566839,0.03424838475507542,0.07202781979564234,-0.04643891618188131,0.07701293626654301,-0.009072458903030383,0.06704448637243479,0.045827692463446736,-0.08559693505051312,-0.037739907388538656,0.03576871649842593,-0.007456492087436351,-0.029090292461879604,-0.02090320500686163,0.0012856352108018354,0.06167531383730985,0.06731000732752411,0.06480885808370704,0.03610299551455003,-0.01216030730490626,0.07562945259083881,-0.01126786904259128,-0.06498533732501723,0.07058576179841912,-0.039216052874464856,-0.06418522820916608,-0.029275275753501112,-0.02720515106700699,0.021603878671407097,0.03565766747690117,-0.06949932668781435,0.043844256627428045,0.04533302913538501,0.019224826199928522,-0.0007229300706287085,0.00241332081140457,0.07203399073195645,-0.011448970845062734,-0.017231024483922087,-0.038316409881382664,-0.0065409432581380106,-0.019832608398380306,-0.06306929902802365,-0.02916910397086586,-0.08038540146920226,0.028666499184129227,0.05198474060270379,0.048788917267591485,0.08472442145916478,0.025916557146922935,0.08233296468786397,0.07001564652678174,0.03803969199245519,0.018481908969825694,0.05841210244884633,0.029719733843663592,-0.06954956388983459,-0.048554830721957466,0.04892190536255788,0.01301560880062967,0.0864759842828097,-0.03575023146707352,0.036824468684524735,0.01774809336831245,0.05005591622165129,-0.07436188936536206,0.08214958214082066,-0.07924785555317403,-0.06916388399121637,-0.05887571921905717,-0.015393307106873078,0.03712731402549069,-0.04058329350836637,0.06334352154559586,0.00585100310224904,-0.016302706761867923,0.033256067537546605,-0.030721629387486293,0.05287207852011834,-0.04991919121855497,-0.0016688582733916765,-0.023521508627269976,0.016226444044373737,-0.06289624055515103,0.011007078690558962,0.06437545934016398,-0.05744837892539116,0.03888300431270064,0.03579195589777269,-0.057839408086834534,-0.06843565037415791,-0.06238148531882676,0.07279222891317537,-0.046826532043349835,0.050523455171999666,0.014954826074379474,-0.03000796643756072,-0.012673443104239936,-0.05240120420824033,0.00995735693380969,-0.056193975537915615,0.05763612437102028,-0.051806146642797604,0.04340561649318638,-0.025018321421019923,-0.03212434510071252,0.01971204452681395,-0.037601082012307156,-0.06948938375539443,-0.07206179148988628,0.0467957155989482,-0.04124196193687584,-0.021538962813047083,0.0547289261007276,-0.04696452857018103,0.036299387317240174,-0.01496615061418301,0.06597205923301418,-0.060159489346877246,-0.03375756285145042,-0.002123419674837037,0.05361171824675919,-0.04631345287601197,-0.005496551157282627,0.08260828041030242
-0.03675418833211166,-0.04656881150311559,-0.026793774690282792,0.027633978031681324,-0.03144898249987448,-0.0063001530355513025,0.08121261571649754,-0.050012224586586954,-0.0450622624354898,0.07069353790833525,0.05146909442559769,-0.06213457148247882,0.04444742027354432,0.029416017353576206,0.01750598554703693,0.06433215912874049,0.03624222347355829,-0.04311532134332927,-0.02788433253639806,-0.06753378337548992,0.004413880038240837,0.006727082436150586,-0.06095625953856412,0.015398077562776922,0.050744321740670874,0.048131688049548,-0.06794088918706993,-0.07085137172511657,0.0033626099519413373,-0.029046751723009512,0.019112212945002267,-0.029886311125492032,-0.057313819087752994,-0.03805590994898184,0.028385820060475807,0.07700824209516714,0.028790337730959098,0.0705254854475562,0.06267110108537184,-0.08577443315072213,0.06064407589771164,-0.07889629973764559,-0.006130860853856611,-0.08052088698702942,0.049478890414880815,0.015194093140116549,0.004699560301595336,-0.08437299772288055,0.03831625284506643,-0.0132874274199625,-0.055940266524048765,0.06124996798000633,0.011452937297809126,0.019664540293817805,-0.047938808856880934,0.0671928947306451,-0.07774165707388764,-0.039044759695840855,-0.02888303938300136,-0.013524331004941603,0.056640258107012065,0.07663064882113613,0.08065311146010443,0.025074505689928504,-0.03405086010782202,0.06069497842637135,0.05392695272659334,0.05680029023836429,0.017115723434786016,-0.06547615769079429,-0.05314418592246448,0.06246395756164972,-0.0016108873706589708,-0.044027505355957966,-0.0004563952155140664,-0.04128254188152098,0.014211940927089937,-0.05856161083400166,0.06665264721417444,-0.02506198912193709,-0.03577917107524516,-0.05317164167917651,0.010843668595353424,-0.010227785214089164,-0.04527046552274676,0.03018476811725523,-0.021475846191271058,0.08530946885434507,0.03304949975685243,0.0742347290066071,0.07814367781460015,0.032946389314830724,0.06255601964440412,-0.03382484917019709,0.030734027034392715,0.017470663467541805,0.0443445947705995,-0.07458353359825354,0.009869442600697841,-0.05299138913166544,-0.03040907390709901,0.0010165519090321233,0.02084103878196071,-0.08571021387769043,0.0383745823776483,0.06488518839685557,0.0506622850101269,0.036108859095873226,0.034873301496047254,-0.07656742757614933,-0.044926485505764335,0.020735806806544858,0.06377746888076792,0.02705571250753711,0.05123738072165883,0.034105962056438795,0.0817737616233994,-0.04541139797206573,0.015099000649623497,-0.043777868215517435,-0.00617203720759317,-0.027861221587617984,0.024624464546624415,-0.018240801077612816,0.0778641437027779,0.07252944845703223,-0.039678726286180716,-0.08587299309444162,0.08235000086579182,0.03875848165900831,0.029189345888556387,-0.02947196580413245,-0.011182047961465734,0.07991720876980428,0.02418878144626693,0.06080395432259076,0.026993727422215407,0.028121118845701922,-0.0666864538440122,0.06067090304494382,0.037129525447063494,0.07312442732136074,0.029771224171807723,0.01433925670706047,0.05707666367939529,0.018347681312109558,0.07972614652784614,-0.06861965052448064,0.057257245905161624,-0.0792852848170586,0.028973134408074634,0.007270805451016069,0.03413324384340511,-0.03836784237296421,0.04540711309431451,0.02271290322943075,0.06712839022164127,-0.08427282675914861,-0.0370887103429511,-0.0017530064853704462,0.07860298967627082,0.030532489766677953,-0.04481416108242859,-0.034527853657782555,0.03494509374100397,-0.05465445281185218,-0.027131991278353897,-0.012562337402741732,-0.05014112205664588,0.005297647155140249,0.02138045001775456,-0.07405644732724356,0.07589339899357309,-0.027865737529321203,-0.03324404105901645,0.02324365533501857,0.04592885620499253,0.020237947111109746,0.02388887336013341,-0.04723258421736457,-0.005546130910022129,-0.022002682653494303,0.07387533192874139,0.06888102873497402,-0.05408568329836572,0.04944888856318629,0.011798778146535852,-0.01671484546843147,-0.07892272336446139,0.0838546798674402,-0.08568644073122397,0.025033464231164218,0.031858466381294505,0.026216539752188947,-0.010636423494464059,0.03649070372667959,-0.0015813980534740916,-0.01185244804845856,0.05898020642271292,0.04315382090288358,-0.061959349207120616,0.05226141927893667,0.028105386741847285,0.04198418049726169,-0.029979071320837773,0.011007721169246695,0.029690143235376283,0.0698286047948244,-0.0180255461911781,-0.046740710467408936,-0.07810838545932991,-0.009239919210690992,0.04432904438075312,-0.06993964049278666,0.07900593259955466,-0.03735351062467609,-0.004539058561637825,0.0551195590994037,-0.0007370911755336136,0.016187212723399177,-0.015131105451963158,0.05875953875544283,0.05432225831725846,0.0072295633440808,0.01734674343803698,0.05888409574381544,-0.05224945424675984,0.07275756953155688,-0.08249658483710409,0.01061640788418905,-0.08330359113628635,-0.08351356236773833,-0.039516396792267414,-0.025057985462528715,0.0002683080414220768,0.01811186962816358,0.003483563003921061,-0.04557257594460462,0.07928582508038194,-0.0855225466347759,0.07169114655852062,-0.00643494030308471,0.026132653839773316,-0.07704721425354352,-0.07865985659651895,0.07603824361122377,-0.07977477338938187,-0.030404300703788304,-0.02020951674565674,0.06066709019701047,-0.02265912477238119,0.05004824624950746,-0.054822867929038774,0.03494608316256526,-0.03162466315784986,0.08166222835681056,-0.05803750252365015,-0.060492041284292614,-0.05075735068735901,0.0667027783116271,0.05897317190841816,0.03374258829213441,-0.02421084403819282,-0.05426636347218017,-0.006403531961798342,0.025762262102392165,-0.007634953338541328,-0.05832277912732658,-0.08030963338045284,-0.07955829728922743,-0.07076635455985394,-0.01759693722494213,0.06244955742855052,0.01820831955448221,0.003053626200368417,-0.06197408038225588,0.0806615874906173,0.06685904772649148,-0.08021366770448148,0.0734059338496647,0.07279968117692676,-0.07369273421092394,0.013232700546168857,-0.04085187953866518,-0.04476149433694585,-0.06076021111970685,0.04456556999413128,0.08558416077985495,-0.05294551372192689,0.052273080477877217,0.02138465264872108,0.062034740532762186,0.08236085304361533,-0.0857165314026635,-0.04943026912937142,0.08035143856210786,0.030866431550084075,0.028372080457396052,0.023203246644935917,0.07122435081915421,-0.04494679131014006,-0.030265676980852634,0.07046111458344408,0.033334387273772734,0.07746797687868859,-0.018374959714633196,0.08172666904256903,-0.04631108348668593,0.08392254898774054,-0.06790130300833172,-0.01686136021482784,0.021862259937431978,0.0431868164232726,-0.03424859766372747,0.00964392462847449,0.006281544646101853,-0.021011183207512905,-0.0435416495872646,-0.06722744078731305,-0.0006423766216261508,0.06518782722986642,-0.0557309397675392,-0.018557688062555668,0.039439447726463704,0.02588977540849566,-0.017540643793073733,-0.0009416507739690104,0.05431669724680734,0.05000819215276151,0.012588445929651774,0.05795408840401421,0.03839331537408392,0.008824257907302221,-0.05457914002407984,0.03814570658125109,-0.07315774760609318,-0.03617276714082189,-0.007029626114336829,0.04529541444856497,-0.03352257611729303,-0.015540012637175913,0.056008081997132114,0.06963273369267187,0.0024398586362386013,0.0786331464269686,0.0011397953459998664,0.019081376448800515,-0.062787703673522,-0.05541675716422892,-0.08402971936842382,0.004179275213479517,-0.07921570488462677,0.08038076216559165,0.019821570295258217,0.025691636580490753,-0.0677167510484745,0.052067595482778894,-0.06541570856775432,0.0043146576738426505,-0.05504989335005709,0.03575189276251051,-0.08550686660995752,-0.05704145094396658,0.08580257258865245,0.05327335240704578,-0.0809274870918464,0.03533849672270026,0.012244775245162914,0.05880306837410002,0.08557935446219972,-0.029706563210019205,0.035590772165134364,0.008357796640917318,0.012775895688675739,0.07039029670636428,-0.08154586317714223,-0.03671791853320077,0.07538879244833192,0.004252948590801116,-0.028171497695597496,-0.023399646584763813,-0.07754843800457846,0.04269960965291769,0.047671458282515025,-0.0024728010561705593,-0.04508732765118184,-0.013059351239227267,0.048610585056023045,0.02199898220101588,0.06063378510561834,0.03985956977902275,-0.04549129404853096,0.060726951227624705,0.0649915432521146,0.003325958915093396,-0.009979301152383284,-0.08540749715734182,-0.038881893124745166,0.05147663351981313,-0.011938085767341683,0.05126133273971616,0.05954842263921148,0.0503606388064053,0.05402904160114677,0.08021979322750362,-0.08159456264969707,-0.0033324058243604467,-0.054091487366827375,0.02093374197150277,0.04026200433277142,0.06786314759607417,0.0777259076212797,-0.05881541018068275,0.0608630671564751,-0.030493000231324483,-0.08501284864015644,-0.06905000727879422,0.06997919830915254,0.012882514210106291,0.02024458456027324,0.04017770561784299,-0.04200383881225305,-0.038402976657624634,0.028695362432152247,0.05563387807393039,-0.08088229864514657,-0.0626041600310935,-0.02446205455550779,0.00802139860784446,0.04299368146339664,-0.04084755445652869,0.029947164528976427,0.015681929084641708,0.01549436758656983,0.06005877330057633,0.040700104442581424,0.08424331047265483,-0.08442298880120104,0.05454014059829713,0.00314502214274234,-0.0473504931015196,-0.017069306844811838,-0.06054077315366583,-0.06104045527520787,-0.07655882468958441,-0.0791261440247607,-0.05881971910128079,0.01601133331449371,0.0019874459939733607,0.0813956607508156,-0.03221277693958983,0.07016805219867728,0.05725216965979292,-0.04762509692575404,0.04991965713080722,0.08132076978483943,0.0493150987976345,-0.08577161513168934,0.035137779223074865,-0.0008418716999110049,0.0018091460115482578,0.035920659929083214,-0.003261746456939803,0.027620670189215168,0.016309165871273977,-0.018922910529304244,-0.08044294948221235,-0.043487926119038706,-0.07441713077871795,0.03864508068660959,0.04821182576096022,0.05377952282765851,0.06872101025845403,0.03690399446032949,0.04571437227792172,-0.02758028293118696,0.060040149448100946,-0.027777459904335736,0.07204826133024772,-0.0694641780365482,-0.011542400608380292,-0.02108720541129315,0.013313278949664775,-0.025577705992697784,-0.015859657066429375,-0.06262549569752349,-0.007593670152945234,-0.02806228435914422,-0.03993348566138173,-0.02699763584042041,0.0767907553452499,-0.08286752279030596,0.0624516282103026,-0.015344104557325518,0.06932203495174075,0.060041102450827645,0.0034069246084156854,0.05291891619693798,-0.009932069378148152,-0.012954215812958431,0.01875921117145689,0.03825920827156326,0.046826440513073,0.06146237675576999,0.023462761156405935,-0.053073625293297746,0.016371094904245355,-0.06650132161193034,-0.004916580662674502,0.033196339485930454,0.017858208438124683,-0.08146580470870451,-0.04672922516177276,0.02623853476428199,0.04765455408533686,-0.04169722795822016,-0.014314418095449274,-0.08365090203234761,0.014699983570633408,-0.040305966543110736,-0.003063878819899812,0.054436696163123396,0.01799749413036611,-0.032606581683896095,0.06036462680483225,-0.03199303527132136,0.022871625268918394,-0.07458092868747467,-0.024349315700676992,0.00033860925069322337,0.04408873876954425,0.07865124014817565,-0.04294018169047875,0.033399028666709574,-0.0236326696530618,0.08310757182849166,-0.055851496806798136,-0.04622909744054445,-0.021838442737823233,-0.011713893506731726,-0.0021001740809150774,-0.07345107071028804,0.07302115071410267,0.064182549615342,-0.07526380232255454,-0.07445192395624306,0.00813167891831061,0.015370277485463756,-0.02134225286579259,-0.006604406037222118,0.01817819788827609,-0.05081932160539217,-0.018959655148432637,0.059784199975836345,-0.03157342297537125,-0.039029198725978084,-0.010589113074865876,0.026403511311947014,0.009421998305040341,0.05353544499008539,-0.04395674418374733,-0.0061935603489716405,0.008978702089767355,-0.04874307771858538,0.026935177486663676,0.035595015792719474,-0.05888614182479655,0.07642028536335593,-0.0016762148730691082,0.04766281466493619,0.06976018690118484,0.0037439151420116984,0.03222692790819236,0.05216897341005784,0.057404714713688236,-0.03991788125754609,0.06039454615185059,-0.04866920906926388,-0.021523453520100152,0.03882665096696703,-0.045350144911339305,-0.08067867523439902,-0.07273787696487138,0.0017299262362431456,-0.017745365180405738,-0.049519000630559425,-0.021387009332588462,-0.044013942224452186,-0.0029541556653089676,0.018817035867893978,-0.020561086315318843,0.0328739441362588,-0.012848563793162286,0.08636538429261943,-0.022774473809725988,-0.00478379091448922,-0.016713321687977033,0.033676976198573565,0.012284316894227362,0.039402208621673346,0.08255888598331154,0.0604882373611436,0.08437720457079134,0.08113342542230592,0.058062048546788,-0.05106450712149768,0.08575828284010342,-0.0750767323731679,-0.01900276891840871,0.025135660927218643,0.018918609619861897,0.07909175565174117,-0.019642413980826227,0.04488786916633948,0.07255985025400252,0.03406233387404062,-0.0588466248669079,-0.009146013351619086,0.023269261494429466,0.07053764032339788,-0.02961623823501471,-0.059516666566002595,-0.022989721803704576,-0.061841672705139815,0.012993469136384505,0.04407703384685438,-0.07683045413487984,0.0223664544151007,-0.06302304914368587,-0.015161958464663127,-0.0038661327776597742,0.046067668935263366,-0.00874200962074202,0.023605965036178025,-0.013743140513768076,-0.018043626286072104,0.08242491951882057,-0.035884146047859895,0.07175894711944628,0.059189371402222135,-0.01280816340960253,0.007911179411058514,0.045713686714078466,0.043841716523353724,-0.007351131819971549,-0.030878626428594746,-0.050264550207090794,0.008800746785094954,-0.06749392691860012,-0.03667034046396705,0.013915922395521597,0.07675270558963156,0.06905999582086246,0.06348077627139946,-0.0392333695355055,0.042357980369993005,-0.07686398081371051,-0.03538642941546792,-0.05372555328668765,0.04819921527696943,-0.07120886485262455,0.03776165060029478,0.008433657202509217,-0.06148346009504238,-0.024239497387958983,-0.015554656924762985,-0.004707291884851472,-0.01363276144151238,0.024033893733047512,-0.004090725702388734,-0.055746825983170024,0.008459729442544969,-0.03630003176491251,-0.05428410893978705,0.0226003761550823,0.08430659516137204,-0.06968351067141067,-0.027652545693040435,0.08358982331143786,0.01130736440590182,-0.08472302037609772,0.04380701204932147,-0.06003748968086481,0.03992469297568179,0.08153496254580882,-0.03198817923849544,0.06465059921608406,-0.0033554033304696667,-0.06985789844867851,0.07548462941214783,-0.028417376585357344,0.050119724699773695,-0.012131549367491024,-0.07689594890686542,0.07028103569706241,-0.054404296963538136,-0.006804571548436023,-0.015873364530111483,0.008199915022439021,0.022539893178086554,-0.06300814811124375,-0.009463633365255112,-0.016939833365537005,0.08044845739402606,0.031937235256887256,-0.062385990135800075,0.06222228578452395,0.03508555252076778,-0.010492023920787975,-0.019907149773347975,-0.07802024101275162,-0.00677962929498236,0.039328309986938086,0.08662731828581441,-0.025710341903822233,0.029747124238325515,-0.024989877860508297,-0.038218874785931355,-0.07155438335077852,-0.04666326616120437,-0.004862937663167608,0.00834345571323143,-0.055526552452512624,-0.007228683101671682,-0.03348517200834457,0.013851616054954824,-0.02940028203864998,-0.02076170719051646,0.02893190113781492,0.03592096303532491,0.03753410613617756,-0.06576423257813589,-0.07254800280863076,-0.014279258146449841,0.07450533426810711,-0.051177241826752144,0.06721223455552393,0.061149720794756036,0.0077669634808814085,0.07396894165517204,0.03682436608734511,0.08451442919561639,0.07445042749509229,0.04542835717389427,0.024151787592451388,-0.03310151465508153,-0.0035553745828636038,-0.025184398086601733,0.05747144077270933,-0.059607165627255695,-0.0015095865315903516,0.08342519727084174,0.014253852376131535,0.021981484080284885,-0.05900656204706582,-0.04905960601124474,0.08260882305426105,-0.006788050512266228,0.06833231958426933,0.017966197553813568,-0.04754718610081831,-0.06851816495054779,0.038021165508749614,0.018009391733052636,-0.04019359601876838,0.021923092261893717,-0.052781620808986324,0.0710424843556752,0.06461423714240727,-0.02053478309473365,-0.05632665531720052,0.042841100509401105,-0.052474484486451756,-0.004009747757697967,-0.04757434775092597,-0.045950890159601514,-0.049462626564440844,-0.086101310791185,0.06981570108481339,0.07641487753447597,-0.0662918567257726,0.04202654098166534,0.05707031208035077,0.027373899691784116
0.029264792901238287,0.028494890224788967,-0.005138335070154008,0.0001111874912695405,0.015171873251908356,-0.013689884557042032,0.00433741024304293,-0.018440770348520905,-0.00035066012064477155,-0.08308290458806353,0.08122009736278482,-0.016689235523810825,0.07913755662238915,-0.0020113514427960873,-0.07517462588858016,0.00916974717218345,0.002964922283453053,0.06317675837985112,0.07722650904479282,0.040482318570625904,0.02850923985673865,0.062345330673592776,0.0013587086050307349,-0.05025543008309285,-0.08376995374437443,0.005679658569529203,0.07651264662567728,0.0017807338652010068,0.013527037877597074,-0.0038060774059577333,0.05433665121617519,-0.031839591084399536,-0.00127520546151316,0.019017167835732145,-0.06608225708767441,0.027135127864673515,-0.014319685465984168,-0.06905514774827172,0.08156838300923427,0.02751642746234583,-0.014675443670243989,-0.07568750749602102,-0.07160678806442415,0.022274714371572784,-0.018268323060073966,0.0194023359458064,-0.07011360205430131,-0.06835653634083869,-0.04482160509204847,0.004054654630163862,-0.08127044689623888,-0.054974144688040405,0.02378780075051985,-0.07701226742362968,-0.061119960775723806,0.019261406583267374,0.05539313618492516,-0.04589587982478056,0.056571444429447906,-0.041352960575426034,-0.05665230456962975,0.04815673722305449,-0.023281707240968903,-0.0001848369996924114,0.04999745114834655,-0.056949125329647826,-0.03292755011660254,0.04521181351641327,-0.03797915626536672,-0.0459258943377061,0.045175823232473454,0.004431644286311278,0.02166981136968281,-0.0024615347268439345,-0.01806791039929094,0.017588575428235064,0.06969222740555044,0.01801622384541869,-0.06414633891930886,-0.06207649116026543,0.05145392118689867,0.008861477377650445,-0.08084540794207261,-0.08176386251667708,0.03789487134558292,-0.01803469644560622,0.08327159789303294,-0.05772139078357028,0.05151377214330263,0.03603985127769906,0.05466681778002013,0.018223178286044882,-0.018594814573467802,0.032072048605593526,-0.03885904222110129,-0.012976614065866513,-0.03589484838251263,-0.0018324347527193786,-0.07764095498623869,0.06696719138793422,-0.07283972302230171,0.0864964529697529,0.017220763348668098,0.032032345477710125,-0.03503196184946798,-0.0325917459717691,-0.07910677131594676,-0.012306117646990728,-0.03622046892356205,0.08440451706537302,0.05622057349378243,0.013551704450478597,0.03747267704919617,-0.05441638281330763,-0.016319333321256176,-0.03165976655362469,-0.01038136016215144,0.041275178183225646,0.026889630435971795,0.00642293584606979,0.01295919677742977,-0.007800826613628925,-0.019440696869517902,-0.04210419125129147,0.03736348190660336,-0.05923499787250092,-0.05970325465969013,-0.0033815810241275123,0.04812917646295783,-0.05223092912915143,-0.05528240704993412,-0.009466116504461452,0.012211207310161391,-0.04894924404360022,0.016435523532140353,-0.004917163659403898,-0.0801575412865375,-0.011334930613397862,0.021092739086968078,0.037221192282328106,-0.06804231487155347,0.06804031553780553,-0.03914671783125084,0.013294164802370327,0.015213135437301866,-0.03537586786013295,-0.03906670582396582,0.07226148603959646,0.02067550500206952,-0.034470225517648605,0.004323979945839727,-0.07856184360435041,-0.07232851154250187,0.014410874593728371,-0.009993343468729253,0.0029834621971674695,-0.08320268300087136,0.04678567132598512,-0.08106924711120034,0.0011618199237888017,-0.06933294101112746,-0.023783946796797108,0.0642756243414619,0.01020415753686562,-0.04404841800803881,-0.029505107745042725,0.08366276760241628,0.07395311456122108,0.009568496437255072,0.03678972676533795,0.015663481736450425,-0.06848268717823268,-0.07022104957018223,0.018332993478341508,-0.016342133428149986,0.03370394261330522,-0.03937691969485458,-0.07374067367043777,-0.05315050964492448,-0.07999895533003587,-0.025544912999435242,-0.002473885521620037,-0.054403608700054645,-0.00506307183925883,0.07523411554215184,-0.04501584304563548,0.03501364951078694,0.07464291319642793,-0.07327754604197145,-0.0668091005136827,0.0482634809307436,-0.05804394424239465,-0.04320104635124797,-0.05854695888541279,-0.06383368108304273,0.02619501046146508,-0.027067164853103037,0.05835176896339431,0.05214174500250602,0.08049914051883172,-0.03208564330663914,-0.02010985392443032,-0.006917728090471789,-0.07548591663362401,0.058226102203467404,0.03654722704930759,-0.04648457076920588,0.06196513094176636,0.014560031943043554,0.04756822035437027,-0.04247634768938168,0.04148544103435904,0.0006605104745081928,-0.06391221502253217,0.02157102099222696,0.05180382446341059,-0.032669041737962354,-0.016480598546180402,0.08224737379068744,0.054813417825618715,-0.01715351454201572,0.07548936281940821,-0.07655502579050927,0.0071476739291654184,-0.004876479204134046,-0.046528222390122644,-0.0008600004867122769,-0.07328834897405755,0.0815075873009991,0.007575992829335812,0.0858724032327363,-0.052925340016744545,-0.07233173421470472,-0.010189125145473432,0.013517083619276334,0.05277328549481948,-0.058715456990227816,-0.0854766489723388,0.0617000217622161,-0.0036900956102440576,-0.04358277783378868,-0.06269733499042557,-0.0836852028259968,-0.043716375453704374,-0.0019217303884099357,0.029342802826650662,-0.05258746311413122,-0.04922487483951616,0.05886839618366749,-0.009362718393999922,0.03726036772791852,-0.06849296605849196,-0.013001910689010188,0.08021983764709738,-0.07196165202248014,0.0745321558836981,0.009657608780715504,-0.014614272849911276,0.04857166518355133,-0.05008227107831814,0.0601116088153103,-0.06772549973540923,0.011104620205700449,-0.04882058880866446,0.07398032775705309,0.031823543970160274,0.05142190796133916,-0.05182573300365826,-0.07576174007481977,-0.059005005826478885,-0.04960941439983965,-0.023560478442980492,-0.05987209882418548,0.04956900407354392,0.0427958315792226,-0.04877864869039967,0.010592949995781947,0.058295880619552376,0.0046512522462933,0.04658713979953771,0.0592205529158322,-0.022978537018188045,0.022464832255828477,-0.023395376131003443,0.08066441567913281,-0.048133059322687084,0.04628595582019429,0.05956984869284879,-0.02617700433328813,0.06789657997353556,-0.02164636971139248,-0.029779685166730036,-0.08337235647941336,-0.04122642394995224,0.03513290180843175,-0.05564627967951761,-0.008797795856854373,0.03185154367667886,-0.08478174639399477,0.03293393579854782,0.011192724839880463,0.025405185318859467,0.0509126174422128,0.07754547495033944,0.0720924224854129,-0.03482216813828841,-0.020434954955591972,-0.07721119309233984,0.061426746904535603,0.06652367713314433,-0.02129899571476509,0.08572931049679844,-0.021857197995032662,-0.08334971364706732,0.0001687186666188346,-0.0020078042747397754,0.007977256779800405,-0.029153558534980493,-0.04224180825978364,-0.01946661853257184,0.057780405764846464,0.000294251421520832,0.012419397960664168,0.06823251556065267,0.045182027719821265,0.05649364085298942,0.07521431570999428,-0.08632342447910162,-0.03632577019040642,0.04547919509663621,-0.00044430259242998277,-0.07289221665749634,-0.029411370982203817,0.02233012394322917,-0.08023770703380376,0.001970357296359568,-0.012822464324471235,0.060110783504581905,0.017460036863525333,0.05700290102477237,0.04452914859692321,-0.02547294522150382,0.030720484822497562,0.014790061213388009,-0.023567111902428037,-0.019234035408596608,-0.05386750088245531,-0.08070810973490092,-0.01869433597143095,-0.018886252231963375,0.018870879164434053,0.03003509956803558,-0.07369691548743394,-0.05648976700996937,-0.018957648807306986,-0.0010267467886004907,0.06000351819922516,-0.038800445736705255,-0.05188240078865251,-0.004286972183896905,0.048138204572759635,0.04369352230674087,-0.06399418796787465,-0.035490620915242424,0.032437249390997014,-0.055350216638080936,-0.053017738429894205,0.06406216776716861,0.05569324940950038,-0.03210113382291567,-0.042980521969486804,0.05790639245846979,0.07155392441413952,0.05815446242348986,-0.08463716714122978,0.030362763867003595,0.08410030041146407,-0.005369518794569589,-0.06572431673948145,0.0027351352715467717,0.029723651686552673,0.07886749862724701,-0.06375405888246191,0.03592323999109958,0.04909887894031488,0.07990899261011614,0.022452562634340253,-0.041353868619658604,-0.02205088529404438,-0.05728501509270812,-0.019631698819546323,0.056923689414855316,-0.07945358920416826,0.07896856885457082,0.020574043831921972,0.03628934709321297,-0.057844456865419315,-0.07697376742084967,0.05935785707539151,-0.05957697668694838,0.0066183852643028245,-0.048999194420445986,0.00924915738616758,-0.06295310327768446,-0.06891510404838742,-0.07763671799578642,-0.009974039518672932,0.06827861698663586,0.04469708267252431,0.0036897937655759527,-0.003187579500859735,0.04626234625631339,-0.03324523216529038,-0.04796226848098083,0.008282940235310426,-0.08234165484665085,0.009323236796170545,-0.03298616082481792,0.06975003221720028,-0.08154747857535395,0.03554154144761876,0.00692226270463364,0.020495058831436045,0.0567545761311716,-0.026251514489107078,-0.07964887543286535,-0.01029265037618425,0.07815656054913814,-0.030756153120130598,-0.022039289918760627,-0.06602293580736608,0.0619987194971781,-0.0017984267219745503,0.0808504497128368,-0.03396195229233033,-0.009398757997087039,-0.031105545416104847,-0.019227920690915327,-0.07801668191139462,-0.040551024326626044,0.06993197404199485,0.027631103460182292,-0.06718112122280372,-0.05634760336217475,0.03457779770962495,0.07457946541930416,0.041428470038059884,0.00015660921687200846,0.04263857248023214,0.049792144446021994,0.04591672638008232,0.04177261953208522,0.008674706151847664,-0.03431386070407213,0.039073327010676284,-0.007206826950953579,0.021064383563220605,0.06775193143796032,-0.05270132764702655,-0.05813831153123536,-0.041639086342747204,-0.044020678944239056,0.051139285386567576,0.003911560262675601,-0.012520081343057049,0.08567634051255221,-0.04008471051486369,0.03536169785737253,0.06705159651804474,0.04758457238433614,-0.07951548065519773,0.07340551810896133,0.025273172367423213,-0.048184816303336334,-0.07758610842956071,0.048014058073709315,0.009640620021387292,0.08102104848894215,0.02686771716538887,0.022196895540462978,-0.07173812615449722,-0.08397671264725698,0.006200846386411607,0.05742647050339683,0.04801773080734086,0.05589316145031218,0.07989715029196603,0.03520913609134447,-0.009205324776394514,0.029963717143355238,-0.05134835247238873,-0.001195886215018939,0.06031527398762047,-0.02128026695167527,0.025742511184341378,-0.04135610479056995,0.07350176390309014,-0.05539602380226047,0.015374978631248334,-0.023552413762580836,-0.004332561240815561,-0.029367307828645967,-0.07080535049159806,-0.032252387937111174,-0.02203968705108521,0.05701579215844485,0.015684664127882664,-0.051629226183953464,0.006386864921015242,0.028155648305012895,0.005959877216106135,-0.0647885690930139,-0.08357245962525606,-0.015892797741614104,0.0010210129632584719,-0.06406501848264297,0.05840723869453425,-0.047604991422026906,0.03371863026090287,0.01783962065766743,0.05629094948470871,0.07616529011399,0.06647895134470137,-0.005333528275242329,-0.04911801623220259,0.0089116202569259,0.030650731879642183,-0.0800340938572479,0.07206058105561944,0.08132836428466003,-0.007057601473451552,0.0782496393179713,-0.0200557584349151,0.021485749218614042,-0.04203058174654812,0.056534063882124425,0.0621504834088516,-0.009857954971417088,0.0771843696112055,0.05404368490013107,0.07708991106323904,-0.003229204687267754,0.06138806862790698,0.036968228895738135,0.04699713439333305,-0.048902711645168614,0.08233946099873295,-0.07108477440354907,0.03122145669018855,0.03934764896957334,0.003732873233699682,0.026014021103841878,-0.07953484879065537,-0.06619069821980493,0.07198200745143457,0.0679778604783933,0.028190958775322156,0.0572770071035201,-0.07231022848341187,0.032176635912979576,0.03266823651069851,-0.017144978194564904,-0.07795943103238186,-0.05512472801707298,-0.042421480914376974,-0.04207109388443049,0.0509518250394414,-0.005727111996857487,-0.07234793266904664,-0.019094759967390417,0.021264523522791512,0.06511219696004351,-0.06418789499944214,0.009749160360202415,-0.08058760587730121,-0.08295631428574124,-0.026774761317032117,-0.031411985519113776,0.04593650371476023,0.005022280829657911,-0.06590123510074794,-0.06221024770467531,-0.032565344259988756,-0.02160864748695747,0.03546657722671813,-1.250302647524959e-05,-0.037379347380578194,-0.07465284533426551,0.008033064339654767,-0.05417467227519906,-0.08278800412651417,0.06573994111668637,-0.05973527645650917,-0.03720646011431457,-0.07941837318166158,-0.007909696743243037,-0.01855033475118682,-0.0737482169510814,0.04522572267923606,-0.07920374249660149,0.020485985032291452,0.07670148646461024,-0.06779656337645232,-0.016064550371122126,-0.007066661848896582,-0.007058349907387585,0.0692176864022808,-0.056228454183341145,-0.0069936548802700975,-0.016252460664462072,0.06495892498683345,-0.06352054457072948,0.027968171341347298,0.030720020879031383,0.009231525102585209,-0.06954077254915006,-0.06647981046509047,-0.015919835563701985,0.021490223302482937,0.03561730575451893,-0.01437900249114454,-0.06736526781759222,0.04027555035413758,-0.08643543169958606,0.06526453974679086,0.04433349437555483,-0.06646856345408454,0.0036973520873861293,0.07620472326328705,0.035003867549197744,0.010186351165119135,-0.0016373677777259965,-0.01250742897335227,0.0246734398796945,-0.056888443958231644,0.06289253413145214,-0.005165795929155425,-0.055281965844147136,0.06783796158449529,-0.07674309469161249,0.04961927857934689,0.05758349497655081,-0.046498642058908496,0.07865833340660733,-0.008283384463887917,-0.059281312896085285,-0.05188759118945463,-0.022937066202065527,-0.06921730684806242,-0.0293456931848401,0.07968436366008433,0.04401570623234115,0.08454718888422165,0.07984084474726395,0.061442396488642304,-0.02733378678744397,0.0045602708989803805,0.07427652812037384,0.06494982797776203,-0.05471810611670294,-0.05354713694040467,0.06773201782607595,-0.06785526813618065,-0.02229842127387059,-0.055541375491317886,0.051417024958859144,-0.040076278424333325,0.040839620198777266,-0.07789427123742343,-0.011503703492225459,-0.049214745630462055,0.042250963652332496,-0.037389171894544465,0.010391379135655384,0.013047203294389744,-0.058133642029539315,0.02250407861486266,0.03161753054487628,0.02916330734958215,-0.05353709762077437,-0.06912017774375476,-0.020141762628411067,0.060057043573015646,-0.045200104299119186,-0.06607329511243284,0.036683208906278755,0.008815405736212117,-0.02179172134667879,0.057878830694039665,-0.049882209230601465,0.06960107801339793,0.03276781475258395,0.05344027102755773,-0.0824226152528058,0.024303238212555034,0.017708086054582246,0.029668007748284556,0.048594733316758267,-0.03420458368498706,-0.04270214298982486,0.02943510722987641,-0.06829624718665556,-0.06339899284170239,-0.05959290994517558,-0.01449290217035994,0.06394669025379021,-0.027795061076520078,0.0179136545554174,-0.020328994077621315,-0.05686437522524052,0.06558397688061363,0.08391675150025918,-0.058284847338425316,-0.0011493109314398898,-0.08286144208039108,0.07147198838984156,-0.037425156381478204,-0.037877087298612284,-0.06184877674916147,0.04898364944847523,-0.05167820291682959,-0.08429171245778498,0.019068490690625686,0.05435696989510535,-0.0030512331048500457,0.0037910138993338116,0.019827545580186394,0.07211444122721586,-0.03787006484197793,-0.001925564382499185,0.04048429986596726,-0.010350709487246531,-0.03036760829552225,-0.03766613325847272,-0.022976671323698652,-0.043239992456735335,0.01805749106077548,-0.04292224983129942,0.07062963179864105,0.07665176695567266,-0.04286329784653939,0.062167348664228066,0.00771141441666606,-0.00278056059519524,0.04979300415639302,-0.003256702324171317,-0.05968897493208706,-0.06391974259404329,0.004602146717377897,-0.027641482547419213,-0.059617998648028546,-0.0397153332236576,0.03955872701535505,0.08614585247178488,-0.009487083695662696,-0.005209301799621745,-0.02091104376321524,0.04512217734954757,-0.07982297630127219,0.04623919406638394,-0.034103308743837664,0.05037185063079417,0.014198256888325272,-0.08044562291673132,-0.07249108673037041,0.00497982484299759,0.05940862913673339,0.001845557031536179,0.07687818308827502,-0.08064260444158539,0.05908542193988087,0.07617981663158505,-0.07396691566575715,-0.06911761494703157,-0.03910439251279522,0.03899592535646403,0.05467355150286161,-0.0676350489388359,0.07454553891418955,-0.048641686608738,0.06508247664133997,-0.07417155287826635,-0.053796040059624885,-0.01931170972017756
