-0.013607349026651365,0.0424280120121165,0.07944778025897103,-0.04031694459627324,-0.06568429342871031,0.032477409156739676,-0.0318738513883142,0.06861098052230684,0.047533524802159596,0.08727418156384775,-0.056857104630170394,-0.038530154188024544,-0.0033174014314203025,0.03650542904212759,-0.040720622265565505,0.03426004054765485,0.04336050753106699,-0.007983182809629051,0.024638452141730934,0.08191639081299786,0.00318335680057593,0.09294803475310442,0.06475189653692728,0.02433206524512337,-0.05040049900871311,0.05675940602323672,-0.0213120982510605,-0.057193562887454766,-0.03533071740832186,-0.010431144404407651,-0.04885703402519902,-0.08372242459291732,0.049014869948906685,0.05893012050082878,-0.08605104559277615,0.011524568765579784,0.009342749599689225,-0.06682489993854979,0.013018105639972162,-0.04594137936268245,0.046937248444403994,-0.0033875879156279416,-0.048198139900857945,0.06719271396518196,-0.06168158377022821,0.08926171620560579,-0.03316315175614675,-0.003996215940849471,0.07955547753568294,-0.004870693507390351,0.009403146417400131,-0.07838009537680066,-0.03134126102867548,-0.03880746986217197,0.0730857017098518,-0.03893467713998312,-0.08131046860210042,-0.09269052221482066,0.04793057148499234,-0.04142242110598719,0.054333658780734775,-0.029752907216309847,0.03218462528135983,0.044641689590764935,0.007804865834135285,-0.009365983748780558,0.029019886134181654,0.06844230334359223,0.029895481946899154,0.09608622951645647,0.0031491489576187404,0.055408033341733054,0.09106570102130243,-0.04686458386653702,0.08506006360984088,-0.008933494479958013,-0.06973347191548998,-0.04550279375393074,0.015686163521950507,-0.06306679388961814,-0.02942250593476129,-0.08462770455404081,0.028335858167308704,0.0562661975505261,0.08546601173583437,-0.039008604587150796,-0.014429448127873003,-0.042063570942558075,-0.08296235766935132,-0.02399445186537693,0.034553233311806965,0.003064167253665676,0.022035507593263906,-0.05633580184572048,0.001626405801622124,0.07177581844797286,-0.018889793698032002,0.058532033438326865,0.03747151537904489,0.0008107540003756267,0.05512200695135393,0.10091358410992086,0.03505680644048859,0.02453638130201786,0.07292544924953671,0.005043966798513778,0.07768059034263006,0.00014963824198231603,-0.045012141536300176,0.0009292009216411487,0.050277156357625405,0.0024630467177417298,0.037501991297171446,-0.0546111444017524,-0.07442374292914848,0.012240280022751593,-0.03669711633814185,-0.05642188006870465,0.01659478075933069,-0.06925254899064051,-0.09399521523361211,0.04350676847691118,-0.06827966713323831,-0.06603862782626767,0.03874809535635098,0.10531008547657143,0.09547808913159812,-0.04399280753689036,-0.06221458860117488,-0.02788611090947526,0.02253573396548166,0.11245940570429155,0.01683359839040861,-0.014392158916256071,-0.02175350137230105,0.007090137761798743,-0.045380719520755106,-0.04111269171136511,-0.020383177127619195,0.046129548072861966,-0.05722988981489706,-0.07818054693938885,-0.041751895307599554,0.00977308345969578,0.047197768308031865,-0.0559394593250134,-0.016353823135906245,-0.07686043173848463,-0.051238764624280474,0.021292849533262662,0.06020290062408705,0.07408082320529825,0.12038215483074023,0.062300873329214135,-0.017751201858645618,-0.03312247698056963,0.021184146224497435,-0.12808471718766115,-0.06110521191604198,0.038590726316051344,0.0650988086742883,0.11708161827905957,0.10240683596575215,0.05913981997386599,0.05539838262639608,-0.04210719045563626,0.040569973005895134,-0.04549443820256107,0.08272659078416848,-0.07839296945384333,0.05089044242504325,0.06483399257576676,0.025331353956050608,-0.07579208748976708,-0.1829489671070465,-0.08172725024896935,-0.0974461849720347,-0.0598741053485991,0.0163252896244798,0.16335484427884484,-0.0336969969441946,0.0720424332982718,0.021715789634279732,0.1724298488626043,0.15095155608118935,0.09732635755137141,0.059179656278862174,0.10415689486469264,0.1661184904752871,0.06971300845146167,-0.015780865249809775,0.0003106031850620345,0.09146489927310317,-0.018003568435327525,8.441054621816647e-05,-0.07872291111392964,0.01338948554590716,0.04793320345433173,-0.0014402355324664644,0.015216020146427034,0.01899715086307447,-0.16104602466445708,-0.05564707963698471,-0.06452350856963929,0.0788664551835579,0.055661115952389165,-0.010077990132214101,-0.0052200788937229094,-0.08508312061881503,0.06104366466187231,0.17174888566912405,0.2231426024033256,0.07380175506324761,-0.05867554211652007,-0.07742554697275993,0.03440927586159943,0.1848901555311954,0.06660952532135792,0.010865797627883853,0.04558590338753938,0.049410984342357404,-0.01618703764700038,0.06029943544788921,-0.04698937317507502,-0.02918310280127941,-0.08134829297046961,0.017898751378603514,0.01327808760887174,-0.11060392264117942,-0.05258808448096653,0.06678547306270202,-0.009894831417532512,0.0480974354609074,-0.04910057419245672,0.1042861031033859,-0.046047602283869615,-0.05015809305498628,-0.0900331007666086,0.010120690820670014,-0.07044559300578639,-0.017216519153150665,-0.12121178661488427,-0.13288265868483645,-0.0979150110511326,0.05830791000733872,-0.06008367180387565,-0.05419614645168905,0.03586908547862617,-0.15563759070977376,-0.12605444611357716,-0.10932756040554172,0.022695056619667423,-0.06846189772419557,-0.07069519698051968,-0.04787727313212129,-0.08036905705896595,-0.06717351335109333,-0.06646306305384735,0.09139955354037621,0.056664090343675005,-0.055723646370415415,-0.052543097008545786,0.06498953120862297,-0.009474027176754949,0.04484283720201875,0.09324962384918893,-0.10459057112770838,0.0029293964369467296,0.05087511728903664,-0.006504643948954691,-0.030657254766964907,-0.051330004126982715,-0.12334924479780683,-0.029850618005196724,-0.12360330978683307,-0.10841580580987083,-0.08865980971041133,-0.05776562565251663,-0.053171501040030045,0.07092511900070897,0.01586387188036195,-0.0014399368194448624,0.010382407141657994,0.04406930231111349,-0.07182599876272802,0.039885379170124476,-0.15535248986196776,0.019067016247200815,0.07667117805688747,0.12627845218569617,0.060928707293614354,-0.002407560914116313,0.0027813638854128336,-0.011709510258224004,-0.0686308100863212,-0.004506487703102386,0.07901616069804324,0.03456905587401785,-0.05238587071140847,-0.04204629184645265,-0.0374264622827655,-0.0345387845319536,-0.07965257443638746,-0.1326165824170379,-0.014113624552398516,-0.06577690978563178,-0.07119669073231742,-0.05531467188235149,0.005287498373276642,-0.03896940463017872,0.04068222406399456,0.06582576936860327,0.1178166722747924,-0.010724204837178532,0.018752639999412797,0.034788041215447506,-0.005280914339319248,0.06326931061752211,-0.02374135946869755,-0.022886357343513422,-0.05993619280276954,-0.17452894163582183,-0.04223356527523502,-0.02566205054885728,0.1738188049295794,-0.0118709783217277,0.06271734439964459,0.14817126048659124,-0.025453051256500697,0.011621829671500166,-0.012818023218286359,0.009885514249243454,0.0020212651564184554,-0.10315229255386195,-0.01226542760497499,0.030863761793974747,-0.02434126521636007,-0.04023038758620638,-0.007293596682259858,-0.004976776223180393,-0.0058046875052804175,0.02601557729589392,0.012124804152616854,-0.04450986764830204,0.10024188305688225,0.09935266061205429,0.01835109270942911,0.014525608690650733,0.06150371676307582,-0.1666039370077119,-0.004457804351515455,0.12599661348773014,0.06237900329108387,0.008111971547140738,0.09435518800513006,0.13072635630512264,0.014128163744509079,0.056282898017675484,0.12877040668311487,-0.055730399338258706,-0.03644922590685431,-0.0889303512394883,-0.02889035739952012,0.0021741952796788208,0.06900789267205383,0.05903539706565527,0.06528052175672694,-0.06618328101368683,-0.09935739149018634,0.026603848647332593,0.09656676475784959,0.17421553765135062,0.13065188700161545,0.020859075369274196,0.17046161129900722,0.15281449459083613,-0.020834841284814998,-0.16062562408682882,0.041837902310494925,0.06420811796553547,0.09214422284228609,0.05837110902524469,0.1200660309922538,0.08266943446272179,0.021033055930356405,0.05219843627000346,0.03231701740184398,0.07516956900848615,-0.07823426054293481,-0.060647070693819444,0.024790645906202034,0.012852277655111736,0.014270730955455994,0.029344875476787845,0.004437524372516331,0.03584404211764452,-0.013936565018728468,0.05990025634697199,0.08598273430176809,0.2867229998379919,0.10313203105329743,-0.014614336816127631,0.08121817002755446,-0.11468246402280301,-0.09694160510151516,-0.02637989123783103,0.25129002763702885,0.19219801907710446,0.07342661421465538,0.08062024002820005,0.16412262877348358,-0.09217474983907072,-0.06607146706650197,-0.039334319932680724,0.06702727724222127,0.004912292727535855,-0.030334108402852823,0.026802634370615783,0.06411477887354378,-0.06702257734279056,0.028450446255223052,-0.07261280719591832,-0.02845373433205041,-0.05561226163839366,0.027167924270035865,0.0501991843578571,0.21266237380271596,0.10772778013126166,0.08799031599362891,0.11217221233597191,0.07540173334836832,-0.01436831610325456,0.0844178889196692,0.07688105191203727,0.24692295034307185,-0.05663795045378453,0.06266268801203435,0.3011690569308469,-0.09070947557560374,-0.0498971752652169,0.046287791200108515,-0.019450923606662455,0.05985230866230168,-0.09075699198202242,0.02094980557053875,-0.040045107469293725,-0.08009380755793206,-0.0032157735121034637,-0.0022264983213268596,0.08104288867603078,0.024782314040063362,-0.002423569048412286,0.02453427431726584,0.024073573409740798,0.22468906157987897,0.1654221224216548,0.17318440389290438,0.12866971630660756,0.1571156939110633,0.09355767370458026,0.1670898931102562,0.24317216543456474,0.20104428639350974,0.16117396154731237,0.09957554098047713,0.011975408253392581,0.02932335873904387,0.003607722599152452,0.01933476306702199,0.002667916283921192,-0.14759872227279597,-0.023985839896703054,0.06256922152507803,0.016837969910620233,-0.08044757087825898,-0.045167745783974755,-0.02507974533407644,-0.05636988318775735,-0.06223693241954924,-0.10658066209646752,-0.05763565528628195,0.10434472204129142,0.025113903502103234,0.039125927462019976,0.11732651679131567,0.08995178449441903,0.09978882684444765,0.0737725328314478,0.1344275945725084,0.27075972634428896,0.09893270416338619,0.16589089266904677,0.14690140657091708,0.0459457219227283,-0.06336950367286204,-0.07983821348636522,0.019473164598158656,-0.022154271028476655,-0.13108058552105697,-0.014215066275158323,-0.0979306239103636,0.04484615566260524,0.01094940722846755,0.04881018297214095,-0.01113013298558735,0.04677967259629118,-0.0589795732146101,-0.07065703831475363,-0.04709600763976726,0.016478486300504802,-0.017672797660940202,-0.04197413706840174,0.027178935460248816,0.04998208056982432,0.09382025123528565,0.018858069300893027,0.19221742862186297,0.3138188778700161,0.35258132332984343,0.16179755787818095,-0.04938440640974847,-0.10781055410706013,-0.09188685600484879,-0.01278910464628399,0.05495086296353004,-0.0008430231830968294,-0.030266809669107612,-0.14094310670503393,-0.005599465483466804,-0.028365537506048116,-0.028229852214264807,-0.03628085066591179,-0.02594264487709466,-0.09121913078077692,0.0271683060973339,-0.050193458165369166,-0.05353370015549511,-0.0452596059308987,-0.09096878612544851,-0.08591320216322906,0.01524641568592957,-0.08330570365495912,-0.04568327901717475,0.07578431373151093,0.019412095239577123,0.17602254332939926,0.25996308220714054,-0.0004053033102356565,-0.11737629058158275,-0.05036441706875921,-0.12490070230187363,-0.03133855940756765,-0.1310673361002383,0.015253366861646193,0.08308840850867412,-0.0343686630445179,-0.012298567141233414,0.0862140328725296,-0.027651755048442382,0.00768615771440202,-0.043319547209626864,-0.048596498439528915,-0.056112242897028514,-0.02797647670635409,-0.07339830700434355,-0.09289434154385236,-0.0340302231214076,-0.050967655956776145,-0.034833319213063825,-0.12970221811281665,-0.03702990671665879,0.03869056229685275,-0.036799416970159926,0.027215942190551283,0.04004472546856006,0.05188953176315029,0.00869542585978844,0.06700163673141812,0.08848606364408373,-0.018927826219887957,0.061741021531556126,0.023757728426555613,0.055576043826487946,-0.02464368072631355,-0.05684491639861122,0.039315322895632325,-0.001292411202038595,-0.07980503905013757,-0.05471383688501554,0.05017236292198298,0.03144488535940772,0.03214993015949676,0.014180662276886953,0.013284985563618274,-0.060354688022435814,-0.047097118859462814,0.060927563720783305,0.004471910463761179,0.1783408526628316,-0.04182667628298079,-0.1313237199643588,-0.0089149282757284,-0.0712237499438487,-0.0631238485484185,-0.005899075366977553,0.07238235751842334,0.030099855157258385,0.12796814336512785,0.0734165970652977,0.052435370887386416,-0.010645232820357972,-0.02441280097421555,0.011239917441176354,0.06059968503706198,0.026110593910936154,-0.017783466320400964,0.06116121345064589,-0.08239513776569134,0.050478559236527706,0.05736559804537485,-0.10581527382596906,-0.04825941314446315,-0.039376985265735256,-0.0661539875024762,-0.016058352660158346,0.009025084145601636,0.04618480891395062,-0.02388567818317886,-0.1655341444341361,-0.10609418843403352,0.0430962984366441,-0.0197570287768106,-0.015352508376838369,0.05687800491067081,0.17561118210305354,0.12876425644191086,0.02051387411275682,0.00829302432849341,0.0632536488663905,0.09734990855742946,0.06379566953006112,0.08097829923044575,0.0588424886275972,0.03029557798589075,-0.025094314016886627,-0.031190425878836272,-0.031536986518296874,0.08549648677289098,-0.04608886974574144,0.017320153470910506,-0.09193996846908623,-0.0747189212418756,-0.14859139759108347,-0.048158404367773945,0.0747731413477638,-0.04757510076628067,-0.0901268931386687,-0.11913454537950517,0.0345598013448736,0.14606611861057592,0.06860573797796478,-0.002816970872537269,0.0793144019677382,0.092315320744986,0.10268147860422068,0.0876459769258245,0.09603630295533444,0.023070278191657374,0.02749296809117516,0.0070645228941938806,0.0486032452384414,-0.07932157592928135,0.046786953460670036,0.0400025706053497,0.02287404537517038,-0.03803687076519629,0.07271954511434413,-0.03525511534907782,0.002148617448772963,-0.01115501642391465,-0.06137236948531897,0.03000143700306582,0.0185176314277359,-0.04241916839860727,-0.09182658484995916,-0.0797909622281828,-0.2256561429597104,0.007213826937516514,0.07740843516251815,0.06657672661091717,-0.011706566881577226,0.03565202042558363,0.1840035553624368,0.058975132887465705,0.020630145280929685,0.07517803193021048,-0.049933582778403984,-0.023316910538988996,0.07459606267945751,0.0010600907668953184,0.0837406555743728,-0.05837653960906167,0.0231581628889309,0.08321057803764277,-0.08287795644476201,0.027169570737111532,-0.07535665658058462,-0.11117514121687022,-0.12079616727987194,-0.1171247278823738,-0.04656341383421273,-0.0937101961518475,-0.10820304021440569,-0.06369535701451323,-0.052108350509543544,0.07152531538539557,0.0855111464789115,-0.04058988340387078,-0.0009045194988454197,0.02189718828633244,-0.006397878673182178,0.005539600779226975,-0.04959515009034502,0.04918787040044576,-0.0749430310761566,-0.030087515981176045,0.04800299383729111,-0.06983725872796896,-0.02794448997586566,-0.058484017234365644,0.03119384853882782,0.033433392008536574,0.06926734619627893,-0.03285020446243373,-0.08525320589716741,0.04906728004251245,0.02751182281139526,-0.053059059820907965,-0.06723956382081739,-0.12102927157358868,-0.0483725072042641,-0.10507754701101077,-0.0885729897340652,0.015894186850149265,-0.043326446106599054,-0.004349054497602029,-0.10027730995319466,-0.08222500329311218,-0.019419282329796804,0.05773453908682648,-0.030155931878651402,-0.01789665860967904,-0.08305500833019874,0.007081814307913242,0.01878252858013171,-0.06717828711837279,-0.08236459907281213,-0.06589314804509286,0.06542983066894045,0.00513740872970741,0.003599101897747443,0.06890255262790368,0.03706003535732915,0.006247209590987683,0.04429164921361042,0.07649752672649997,-0.07093695348978711,0.04381963763535012,0.0743572925835652,0.04796276422322378,0.078865424465443,0.07930523634352891,-0.08005584909243539,-0.044125909882715905,0.00928839346617754,0.07793476244243597,-0.04788570791750126,0.015947432201096345,0.012654553788541365,0.07904444326144898,0.048960010852407566,0.04589198545036146,0.057451315353250335,0.053308528177932225
0.018729456639363932,0.007320282283107257,-0.08613427114483478,-0.05837878405724923,-0.001300578723301988,-0.041863872708671715,0.0067198164966603266,0.08173663683844914,-0.043899460313143526,0.02150314085180666,0.004307839317877516,-0.022662630403667925,-0.001363222294116017,0.011702615768362897,-0.004308353854086816,-0.007214302694553403,-0.017425715702254433,-0.047916388789521036,0.06289929210004978,0.0024756732322716033,0.0623470160619659,0.0674438624584967,-0.03302475415884711,0.04942579504043484,0.04810245821940095,-0.01235442648326454,0.06933322790870425,0.005556188258433106,-0.06486772226543147,-0.02262953920849717,0.05615564341640911,0.031701862449865253,-0.06628604825997174,-0.05291563480508946,0.07212938524131902,0.04818592250938895,-0.016327639160016446,0.06734555286001699,0.0770325505072033,-0.011887213650143759,-0.011597489319688426,0.08286698835448127,0.009127085367586217,0.07320724933877008,-0.006502643117805975,0.028583024968273585,0.05675997531266206,-0.039832870426478366,0.07830351651041513,-0.07555828813591625,-0.0010925745650227654,-0.06430088767804525,-0.04534508904349807,0.04982337467840178,-0.011747234451437013,0.08346914258210295,-0.07262592568713237,0.07317990944617785,-0.04776861006214983,0.039325953442409176,-0.005576020492151311,0.037410656123476015,0.07186213192755182,-0.014715615919703037,-0.03678459327021316,0.004156982534421424,-0.02638370200506798,0.030810197756084214,-0.06154178092611274,-0.004968662774837422,0.032807320553808944,-0.05291138697932372,-0.06428785963957373,0.07897479787395861,0.06926241518894326,0.07107892434712279,0.06558829546536632,-0.027603146734124093,-0.030399369121915817,-0.04886017158807552,0.04054367229975207,-0.08315399087932511,-0.040864326579867966,0.04675761332182537,0.08058257765000186,-0.07916226527512898,0.06795158802757163,0.0515235694692815,0.05318886477971096,-0.06806520405134554,-0.005799061992534037,-0.04647032651152744,-0.039801303297542785,0.12584091364094357,0.043274461288075966,0.1534385175423197,0.011417626959073788,0.09043650593240954,-0.0005350654797417838,0.08441285425715947,0.09813418794540359,0.11421566295340824,0.06860029053225232,0.12309228318237986,0.016101489365810087,0.11158396988114659,0.011723385271995861,0.08146321439616108,0.03448799068742816,0.007128693087697933,0.020367625732055708,-0.017426086857232514,-0.02200138634875649,0.017169458461611612,-0.05449788350216766,-0.0725459548927616,0.07389849949653675,0.0615945086154848,0.05839799858980452,0.005125430973441628,0.06805469702962724,0.013207649062995645,0.10290339418839793,0.14221356264913398,-0.09041067319966548,-0.12294753618182126,-0.08461215464678619,0.06441243257209683,-0.0198871928552813,0.1368805798715477,0.1583914097158025,0.16496202206175967,0.14279650297962163,0.11058782685021423,0.020896016193480308,0.02317617453911789,-0.058225992496807384,0.04768554316196876,-0.02329722170026309,0.08410504186776685,0.027537487581735395,-0.07790430167657626,0.057433457065938255,0.04842034116174821,-0.010555091821176399,0.04656970657141431,-0.016275903111548293,-0.002748156519542645,0.05487655441429874,0.11259569015204209,0.026714838676526645,0.04523398957585446,-0.03493157476401769,-0.08098367887581104,-0.10256362622845429,0.026233609862268643,-0.11712440229218118,-0.047422653596249476,-0.06548223003448359,0.06485735655315149,0.09790687718837608,-0.011124585288115066,0.008804191013079625,-0.02037310723802045,-0.06460022129426886,0.05828069555547805,-0.012555982399795816,0.0028747917011100015,0.00240389800322325,-0.06846766380244995,-0.07859661209856623,-0.028618218197951444,-0.036221478834848934,0.015962886549510173,0.0775402946724175,0.04250949243174424,0.09501483093416258,0.09962270401555945,-0.015739490263171483,-0.00019489594366701809,-0.10662052067967821,-0.06356511942388368,-0.06962298707808744,0.018481605883488114,-0.1542412923023912,-0.00758203599457846,0.043239188513039664,0.05974185172484377,-0.06868934338835822,0.044624691734797405,-0.003478481977318279,0.025767555918644464,0.011396702015443495,0.08840661685621715,-0.03665416037529821,-0.08110224497457183,-0.06353873014384043,-0.05132969216476086,0.010844194727852684,-0.010975436977931017,-0.0500172665862438,-0.08576043984241534,0.048984038701762475,0.1461807064433923,0.1388233396229514,0.17310382001735827,0.06692320376532913,0.03878720366088777,0.0861355298725477,-0.018529687408144306,0.09216895764754904,-0.004191855508178575,0.08632738045545094,0.0923156183439845,0.10323514191958715,-0.029077788227328965,0.005008320053040072,0.03268294949550929,-0.0004825960960901415,-0.07359255540556556,-0.032341974747644886,-0.06334541984705085,0.0449279705977552,-0.031054138292054275,0.03621391611011073,-0.03694830832171717,-0.0569318627254089,-0.01786504194306826,0.0010253584125659084,-0.04908160613311714,-0.02930147128897301,0.023511567629152488,0.016881285512311373,0.22304085883458372,0.1982811061819702,0.23195022954311736,0.15813757627203268,0.19043301209170976,0.13631533033726181,0.09161116090414129,0.12313700837418999,0.010814846605789066,0.06234462458443595,-0.10646739097254324,-0.011168153189090263,-0.0005606492070619494,-0.019834738621928718,0.060665095763443,-0.02415411884772732,-0.04335567410997706,0.058270996345914726,-0.07222769929741352,-0.008011544593037665,-0.07157450652967835,-0.05817779692610188,-0.016390479160543064,0.030956709477343393,-0.010647501564226888,0.12121580304428226,0.12666333574116587,0.1453432079268544,0.12006734865279524,0.15083047488832824,0.1359352363124605,0.1614712386686544,0.23397947650832637,0.16718422566909635,0.22391767531082246,0.05210028642010001,-0.12527170589994385,-0.06929033171909695,-0.10309050845406639,-0.007949985588641188,-0.036250134362956855,-0.07122473854846215,-0.09065723041936707,0.07297348393844016,-0.025074249954823626,-0.0181290175563862,0.07034816531236343,-0.020901182087835746,0.03615318164057387,0.04691914811888267,-0.04144693177997195,0.06737117942925835,0.03978871425848804,0.010449030181774505,-0.01831358092220607,0.1278981288157155,0.18739582874968866,0.12108863791593262,0.1554806046777289,0.17713493145974404,0.21020372677760044,0.13016768783570917,0.04386491997707825,0.12746101127518045,-0.05645260030198774,0.013404601936018794,-0.0873697165743331,-0.023198607591618757,-0.03199420163285828,0.039569317261167726,0.09664293193331802,-0.0003881001929012395,0.07178263414681432,-0.07381389663205808,-0.05875354302806151,-0.007439997750249202,-0.030325326275057782,-0.07468783336483102,0.0824943035905438,0.0017816154488698817,-0.013137311159904162,-0.04355752805705381,0.03378202872938937,0.08138370277448126,0.12584776210488566,0.024039616053191524,0.07305042186394163,0.03896617413767677,0.11357582617792907,-0.043476298794020034,-0.07311926146229368,0.07540198783921938,0.024805781034621967,-0.049420405576063274,-0.15372763569073417,-0.18923932750455494,-0.0757728445007419,0.0364212315640155,0.13419856206646338,0.029751204566292284,0.05790290954899175,-0.04328950404713975,-0.027762018833076045,0.06528222970908479,-0.0070163361992412595,0.09210041693884227,-0.037329930666731334,-0.04680834774028898,-0.07385832906364952,0.006144596218169989,0.07279632962144343,0.0792544545359017,-0.052532698175472896,-0.03825887980539175,0.019463477421327292,-0.13162623135446289,-0.18790470110334911,-0.17345160453446626,-0.24456698723643455,-0.010166656680760621,-0.09717588500055872,-0.07972399638984515,-0.0802940517678991,-0.14475348348803768,-0.08406053745310617,0.032808191414650786,-0.05914052010062881,0.10158236928679094,-0.052818513442515334,0.06661526294075641,-0.04448943963196467,0.06929535158641943,-0.04989324446040422,-0.0470186032217276,-0.002665908401867573,-0.006568067785462357,0.059532670076838455,0.031475520008460545,0.025332704652605044,-0.03655660096942413,-0.09793020815740766,-0.20687148181319792,-0.12929981215579522,-0.19103953807829469,-0.20827515804109495,-0.28347834672392136,-0.02301114854996911,-0.01568035792978799,-0.042424053372936074,-0.01333185304563875,-0.06873809749455966,-0.16973899437158502,-0.10961110070349711,0.04439281159868802,-0.025451361224680794,0.07055129049230444,-0.03314412442154253,-0.024367845965851204,-0.04346584088926014,-0.0031423595892013344,-0.06339773744500647,-0.002161128512781771,-0.08057146397269495,-0.09531328374014372,-0.0005549669705121155,-0.05936445090648477,-0.07116513023443313,-0.041015046117961355,-0.04262291650698523,-0.09645923587236374,-0.10848683278042891,-0.1430883520776985,-0.053655026557648054,-0.0786510017519006,-0.07594590577604825,0.012158574610615048,-0.01087814322390172,0.014889132982643032,-0.05333411510633319,0.03002520546800268,-0.013165059342546928,0.11069670270226316,0.05725147081366332,-0.06467347121121597,-0.04965468898084051,0.061215015898721685,5.744850694834252e-05,-0.03359669102893641,0.06095213287272428,0.08611836097868557,0.047244842447914735,-0.116445568851406,-0.12260365212854683,0.012319579537599415,-0.020177021257738407,-0.060524520568587085,0.007151734361215615,0.09899136738133002,0.03450504987929509,-0.0888327696472336,-0.0894505402321961,0.0109920920449192,-0.029932592026708647,0.055984072260392904,-0.10779310949439304,-0.04769394218282423,0.02697411173620897,0.09995083071446044,0.021975671302896536,-0.026332707901779013,0.04895142891718868,7.6424016142653e-05,-0.019230900663005705,-0.05083108334823475,0.0362623235486759,0.07249966925773858,-0.06862129749129271,-0.0513995927087267,-0.05630595729611673,0.06559718865542202,-0.04239293224791771,0.013623556723141448,-0.03028887055228257,-0.08970868040476701,0.08031605667004636,-0.010463761707422943,-0.14266627026810125,0.011143878205548652,-0.015538360062248398,0.010743052826632663,-0.01922505041448693,0.046653015928783216,-0.011157197208562505,0.030305397369475313,-0.04105603735556948,0.013094337911142786,0.005857338775833478,0.08553414671176975,0.07198559687712752,0.001868992670386542,0.08897670473789782,-0.06597663709706203,-0.08470770869227116,-0.012533688725785605,0.027245508668590504,0.017946186091051083,0.06917618299552607,0.0742331816765419,-0.05612695109360132,-0.086904393414307,0.001042709649332761,0.008732516725439367,0.03634370594382809,-0.04197315914226067,-0.002252949273513834,-0.013671353742024153,0.05969548231557304,0.00129991654548309,-0.1367925478989319,0.019614499769501484,-0.05063929440173139,0.04762015303104453,0.10110167422137856,-0.007511505848104094,0.055393692922775774,0.02600119343890153,-0.017283326384808225,0.04603144576466719,-0.06882909281588405,0.03394307580331535,0.04794193938713906,-0.054891421094050936,-0.035735190269464735,-0.03344829903266186,0.01690041726582499,-0.032118865473016546,-0.08283032714057502,-0.08634826305124273,-0.05770478062939647,-0.08624289856011631,-0.11853265803982767,-0.14783295730629523,0.10381743608061343,0.08716792122275245,0.10093649242923088,0.033515277147407624,-0.03301977603618079,-0.031918431308544805,0.07311980878888075,0.13508015126702722,-0.04606745748851978,0.014221700468065363,0.08825852162166323,0.16371326641598896,0.016339547296119836,-0.04674922071490474,0.004997970235593971,-0.0725194658634457,-0.016025024189900195,0.07340470764781257,-0.0709474319247328,0.0787472799095499,-0.04897300469995376,-0.0006490734956701579,-0.004595092049751213,0.034716590273076865,-0.06861714953397738,-0.0370527911138279,0.10861872525217503,-0.07477915523873736,0.03884901595640316,0.003957001208924425,0.08384516085379796,0.05679980284927855,0.024392177735459732,0.013695108535642151,0.0597048746207137,0.0423895442263736,-0.07344524448898776,0.08521571781716476,0.07225100874018542,0.12174255667596397,-0.025224155180305567,-0.02796344716156527,0.04714578911379181,0.03750448214908459,-0.0514891438738724,-0.04109641257869468,-0.0009557407410637482,-0.07059021287972017,-0.0402583908319306,-0.005253582934967251,0.006709790585214926,0.018577733584757717,-0.03648308315662212,0.038163136559996376,0.05444314268615688,-0.07214110709711836,0.02878462039534152,0.08068710250331955,0.07139024796119538,0.027403303282741716,0.16710143130285887,0.07218946080572675,0.013362962304778037,-0.017599150802054275,0.051948908383616335,0.029650930302283097,0.09312671253448436,0.013043726566469887,0.058308023080091136,0.04966317092949866,0.03436435828681611,-0.05961521850791661,-0.016326294437852235,-0.005211365102786339,0.02571921726830572,0.06256244276724145,-0.0733055398925232,-0.09948561039923975,-0.10272676200991991,-0.0463877453181552,-0.10130161253221352,-0.0409750651366155,0.10492391478547598,0.08409662797968293,0.06001938161074067,0.006515678942322239,0.10971914356741086,0.12883975310408488,0.1235727575939177,0.05020056792272134,0.08852485038150065,0.011101568030745784,-0.08182709033657128,0.01865401599481113,0.1586395664426863,0.004438285305691267,0.02772563771772911,-0.07641515806295987,0.0006625380119820919,-0.02348268374099568,0.0710790964330961,0.021963917426179605,-0.05896151750896659,-0.03772813996208733,-0.04200330048047103,0.01118675945906296,0.023262014921734072,-0.04234582317275662,0.06108588627633425,0.01899705906578351,0.024891186524402135,0.09310061659038982,0.034672706539780475,0.02276503182420574,0.005879217118551612,0.14435819546504147,0.14250813954219044,0.026067420479449505,0.0249248216647738,0.09767949259157349,-0.11088134541431245,-0.02181345653084847,0.06293197992807457,-0.006472479932332558,-0.07803876426938225,-0.03401526558831977,0.01305322187980109,-0.0725090586481323,0.06623229518309366,0.07152617169493335,0.05611251023403087,-0.010487082212136458,0.014050983094393957,-0.043002554554392676,-0.012071470079058762,-0.008586843365727806,0.0009937838457140123,0.048075410748286744,0.0365140534047378,0.09715176987410815,-0.0783704826032769,0.03936559097552475,0.04892562120906946,-0.07914286300747744,-0.015697307088124682,-0.1309229967131802,0.09494264666324351,0.05695211280476997,0.013110710244961724,0.0218843970870618,0.010799664747307345,0.0634348617100283,-0.020831621394278393,-0.02809278495321158,-0.08085943807816848,-0.06256854947544824,0.05503895010134431,-0.04320315010315703,0.01647494064893753,0.06718004359665461,0.034115071527869814,-0.06775066981975672,-0.006603302536181435,-0.004791310010266727,0.12032799187804374,0.09036640882726114,-0.036275629269641646,0.023257776958538996,0.13387312299910664,0.12329790551023972,0.03870176653313514,-0.08224505632633335,-0.06722353131457073,0.0017949032094173075,0.060870206088612266,-0.056265903370297035,-0.1233567147237767,0.028807228245527377,0.03526423846859403,-0.02416621353939873,-0.0926464530597692,-0.046689989783585545,0.007681085037351714,-0.07778770465776334,-0.014616851630212674,0.0688762989380409,0.014756852277517234,0.024295017971510634,-0.05802254021808664,0.05052260755266711,0.0635818512761118,0.08925071208870174,0.04004804177021338,0.09329825735036384,0.12637182830676258,-0.006680717309808254,0.20983150636261752,0.1614302301177309,0.03244219216392959,0.06164389850315889,0.03204527576609056,0.04580205483082665,0.1342628425799532,0.08473892728901657,0.04314013205185884,-0.07055096321141346,-0.006468122146636751,0.007716805531601893,-0.06889054774505811,-0.08111256152775859,0.031060621893442095,-0.04005372750703727,-0.06940607714545652,-0.0741302809490039,-0.0742711863647926,-0.06500966271971916,-0.036772168822070524,-0.03326824474415811,0.040417452394789305,0.08973160627698153,0.05741588062911375,-0.05932175710886568,-0.04378844743298306,0.08260017898660521,0.013529161886912397,0.007006696886429114,-0.03731453047726528,0.0679400161345264,0.179913143932523,0.11127410496785242,0.11890103713842418,0.11162996695578542,-0.03544939709155812,0.055490969819652944,-0.018314071282492662,-0.008876808754045564,-0.006320195030060895,0.06493782995033678,-0.008562982138893267,-0.04232680816320229,-0.05156486438860695,-0.06241477763239245,-0.07676440290496431,-0.01153206400594191,0.05655345041802525,-0.013610538041897094,-0.08038334861362188,-0.06047639201458385,-0.07267687760663155,-0.07678486084725393,-0.06774124797491121,0.03418776945151556,0.005001535461826932,-0.07732397744577878,-0.07724923946748728,-0.03515742602066234,0.07303273156154273,-0.06066754449356489,0.043471824020748395,-0.056948121801749255,0.01795664433337531,-0.07578324694998206,0.07651682824188383,-0.044761525892270636,-0.007260640745025806,0.008488883603897502,0.056221343561598504,0.029346512784287314,0.04567540776802735
0.05733315164168569,0.010639130430065244,-0.06885716400848238,-0.003008382607702438,-0.034099405282724565,0.055081067138486414,0.06104000239289699,0.051637229946687284,-0.0704436070680731,-0.008659371271063719,-0.06691333798189973,-0.008648595419805241,0.03275283065342635,-0.03806426579009285,0.04459918677824605,0.0736738495685772,0.05310083225652208,-0.047204992299024015,0.06406829472129817,0.042515634403598644,0.08168341852207507,-0.07122589804591548,-0.042355412205099065,-0.01858661645463715,-0.02972200191263381,-0.07647238879840441,0.010651988436032649,-0.03258547204857632,-0.0884676294450812,0.03447596209351777,0.05245466336852462,0.055473271697556406,-0.07578732648251223,-0.026469650394362384,0.026834488853617208,-0.0475181998239623,0.009523347493514397,0.07674393486931773,0.07706638428199394,-0.01696058428555454,0.05037102141994755,0.023601061766777967,0.07969033426677649,-0.059925691360548046,-0.023729946025902046,-0.07223312368108889,0.004030143798595254,-0.07250316211391927,0.057993947363001036,-0.08462576750160473,0.0012026387874330448,0.01024730168570723,0.04127686982583537,0.03894868606655847,0.026381526775188922,0.0021554411473859105,-0.08414048662920706,-0.07771495780888345,-0.012103423340538235,0.0645340330086131,0.0806423086464473,0.013781681604194705,-0.08458067073309457,0.03193220347750665,-0.005167026682880267,0.08640964859417373,-0.029161489069902787,-0.026788363087882253,0.014968692650977401,0.07711594528726404,0.028761897345161686,0.027811258706097564,-0.0450981636549046,-0.04598029096173825,-0.0152630803777996,-0.06834591268718876,0.0006508508382838396,-0.022115972659693544,0.02995310255756327,0.08352909615579758,-0.04264225249852818,0.007895528166433942,-0.030044684291330163,-0.022966476611313288,-0.004796248491690767,0.025136876216762746,-0.009808039025009306,-0.034815633812024085,0.06385120036400353,-0.0063015531177997115,-0.018890386906261138,-0.01612030324987696,-0.027659344751975855,-0.03829649047419328,0.09083657147386628,0.10365196123919888,-0.04697697406299362,-0.0028261618276416173,0.07700217794310879,0.03522885663220421,0.0109999636057276,-0.011123254642611654,-0.010416245038403068,-0.08033747197755921,0.022704788766702746,-0.023141455573592457,-0.07363382705480495,0.0754569035863635,0.07743078758016361,0.052678519271388564,0.08464475708600358,0.006784448452450433,-0.03173593424963816,-0.01008472443750288,-0.03283816487596956,0.010498407228640979,-0.07884884108463479,-0.033318879938442014,-0.007552061347402103,0.07207129759383436,-0.0872310913826454,0.03998641563643862,-0.0713474490962268,-0.03197410629267111,-0.04917046392451644,0.10459944253039925,0.0353649959888344,0.11705328611144505,-0.0439700148574864,0.07538484343280219,0.06141822880946945,0.06543715384205605,0.12575983057920126,0.03118063416825971,0.08497131439702292,-0.020507555110563864,-0.07971843512313476,0.06978754064871819,-0.060204419412587085,-0.0012178101252781162,-0.0002813141510783043,0.019158359495711715,-0.04063434607709423,-0.059459815246005854,0.02484320211894626,-0.04206234603634991,-0.06153974272457601,-0.09774016257806485,-0.07493166795589443,0.05332321784296358,-0.025864229501148667,0.15006092842445165,-0.0274190340558971,0.05880069912610938,-0.06731401782081359,0.1344184326764531,0.035507146981995065,0.11946276878623897,0.06302560531451905,0.09786988336864952,0.07220048891206923,0.08521800844886421,-0.01408377262257137,-0.07369691978226867,-0.01294066286148151,0.04129836228388976,-0.013934464355086242,0.045660731374003526,-0.037037730057202276,-0.03586843691667056,0.04618004677535881,-0.0796277386396953,-0.04221312865749143,-0.004183307515563407,-0.08279349958697868,-0.005958936846815234,0.13765284314087486,0.07528873387115338,0.10657272449791003,0.15535399286641977,0.0778170935582561,0.07087112993179079,-0.0932200311836519,-0.07895629711717855,0.08239293407696431,0.11907184499445511,-0.00970820362691598,-0.039045367984977174,0.008385577927801988,-0.019262503951480082,0.031876694159750966,0.09100733618204937,-0.040463225294857096,0.008461422862994889,-0.02953944190614525,0.016912584210786098,0.007160179379478533,-0.0355485337171524,-0.00346891693636548,0.07843163152566884,-0.02831780292910079,-0.030720266811963763,-0.011443676639938345,0.022829108667060238,0.05429379634873114,0.06536209717356951,-0.005409000579332546,0.005699133503320876,-0.03993477106549271,-0.07208994845232641,-0.09373629264080348,-0.05409317076179559,-0.09495082057650028,0.05009741941036047,-0.09803632824294972,-0.026877844929383703,0.019116840504126414,0.03995153377879133,0.12332217921958664,-0.015457534425119263,-0.06398219721032256,0.06187937922263691,-0.059289357468947236,-0.013352733539883215,0.04570803296504292,-0.03653725026438923,0.01905313327009489,-0.014453075641085987,-0.10391668034106391,-0.05946562870453682,0.028291949468591,0.012000249244272506,0.028698231028161245,0.1390357712768078,-0.006610629777748905,0.00932666397661132,0.06777553703313972,-0.09445010754773468,-0.14815332656914434,-0.05020064253803653,0.0353197099291835,-0.018852421509576597,-0.0006720805225894276,0.09059776751950717,0.045633070393497496,-0.03790068842864081,-0.018881495509280366,-0.03780309825746147,-0.028749600613815776,0.05832657568912442,-0.022040775092852176,0.031293396006253735,0.011621978144979013,-0.0683599911143235,-0.003917913967143116,0.030616559569935618,-0.07375878480757979,-0.0692600939391405,0.0021257283443719957,4.542098328783636e-05,0.11516485442954626,0.04262170104911892,-0.03944621730482352,0.020937694270844652,0.07896048106734917,0.0254334544872323,0.022639053818765326,0.05571756336720314,-0.10829556318945566,-0.04023629512797112,-0.055345335780440125,-0.11787436865612032,-0.03120538540991762,0.025363645979487683,0.024077057858344866,0.0654853436638148,0.05276903405162031,0.03095932479584111,-0.041260671974507786,-0.03942903940544031,-0.054070698328336234,-0.07643854567617965,0.025954704797950486,-0.07704886095411843,0.057771322067368965,0.019810896476798786,-0.02630580375966974,-0.0005435479209494812,0.02173907935802256,-0.029970387132167212,0.18305086178917399,0.2678963166907272,0.0647159708901545,0.09000183871404398,-0.06959206483098648,-0.1487491493485452,-0.015376455643655326,0.011576728764222784,-0.06697441126474261,-0.008430693630683191,0.05116467757252174,-0.009543334357022247,0.08869157587238936,-0.06308652700327767,-0.015244351254741077,0.05430830752035187,-0.03109769424268159,0.0650195494589428,-0.0532034785564134,0.041987798015062,-0.023325685061844736,-0.02613189260480377,-0.07592238830641816,-0.03771990871385197,0.058808574411288866,0.008031592767589793,0.004678369504642056,0.04306486409967092,0.20373614083297437,0.08995834397334113,0.08174284748541648,0.017611724613993684,-0.17240498402955784,-0.2348431519238233,-0.03682976775983477,-0.0018234026936327964,-0.0602079988209786,0.03488124636748962,-0.08275876124468284,0.0050980260056772,0.0829165031774,-0.0006683240075330652,-0.07402743045411586,0.048192598160667406,-0.03288628875745821,-0.052161512042436166,-0.05030773431463419,0.032280459132514205,0.06608905291584079,-0.015560322387843106,-0.05396933255131475,-0.020972551022212335,-0.03479609165865738,0.003395828158444408,0.034001003186877765,0.0826661011229132,0.06991592567667237,0.049339729234166546,0.04283052966717824,0.034341641579706865,-0.1804995646988312,-0.17354177351816455,-0.08501191728273338,-0.003883363558319727,0.011366726785346518,-0.0232479179631444,-0.09619707399463838,-0.026372116644434968,0.06043358476516002,0.11140497675933353,0.015159823117730202,0.010894799997041574,0.03303548321893438,0.03558517428173513,0.011700754724883286,0.0031269183083023526,-0.021716064533027334,0.0653489989767148,0.037025008844211886,-0.0476714360418081,0.06213506175067777,0.05405103541235413,0.08487681414356402,-0.011873781376427297,0.1522828186312204,0.04662804363727194,0.06711534354931781,0.009008711338806978,-0.15387084906195483,-0.11669825021653221,-0.04349484410528603,-0.01952202859763264,0.03958005430415259,-0.07789654692073864,-0.10140741949780388,0.00997950380500563,0.12798899586941437,0.07299676991786665,0.06350563207547782,-0.0696459732225856,-0.015397679938879893,0.05832517283362932,-0.0878869148743229,-0.07940451601507074,0.014160141689699821,-0.020012919496406465,0.05551252573464325,0.008583567098881754,0.08368831281568037,0.04837036113782857,0.10123869621045015,0.140519084830603,0.16285377983548002,0.2052246321792407,0.13104274589604142,0.0556671512898415,0.045863141703389905,-0.11372168603979059,0.06413897465327377,0.011879935264223493,-0.07898272460719896,-0.1254237263352718,0.022855882104198224,-0.017392876845900313,0.07973814505044229,0.023489409290641382,0.0068447224068502845,-0.016050963677148148,-0.06273448656802132,0.026207200810494782,-0.01678379344935674,0.04216023611819204,-0.07530128888994907,-0.008098299183621422,0.08852308346983605,-0.0066556379801889585,0.1348167848758404,0.12514095742744796,0.058882140321460386,0.17940067611624325,0.04954529278966143,0.16697631341543107,0.1558722204982794,0.027419315221248835,-0.03199390015959755,-0.005373848776982544,0.039522971975563405,-0.014883137563421073,-0.032149223589152356,-0.08858221372229899,-0.06130737762845733,-0.03777078533441058,0.07864651425186417,0.03401283015088986,0.13760105968275474,-0.04062509517331066,-0.0722577082550265,0.013767802499004375,-0.0354367377171444,0.005224617379810591,-0.03318170602338667,-0.039042697199566045,0.037495267208996395,0.005110231592609176,0.0593651329506542,0.10898455405065996,0.09834659387363338,0.1538947309751433,0.10281679628542979,-0.04890135277258783,0.06219278034565336,-0.10529078317679885,-0.05424380172749132,0.053894068637565865,-0.026867897021300977,-0.08328189144688236,-0.005748783021290613,0.06576655386535671,0.1112742210183462,-0.058073795196401067,0.0077286379011568575,0.05272096507562455,0.052543324159830956,0.03949570715134157,-0.06939546650191507,0.04032127334668326,0.005329629778033583,-0.029932518177279693,-0.06312136344131422,-0.006822667856423735,-0.03378265353475863,-0.04739027584857809,0.027642597966355438,0.17543293287069123,0.06499066511965416,0.035934354012374534,0.038844868828468576,0.005425089073859299,-0.037477976433736,-0.027892505394727197,-0.03631317538317267,-0.01241252707103322,0.02414728794792541,0.029438157709273736,0.029062393882929676,-0.020644844517963647,0.059455875330958925,-0.11400692883890377,0.06629185840489575,0.027135330310724872,-0.010839469986241653,0.08128278311205092,-0.052808060183669674,0.023340790436422697,-0.04847046614097805,0.06059208208019991,-0.014295039124087356,-0.0651095614968454,0.05319798202589453,-0.004149719664082865,0.12183993243896789,0.03126645002168399,0.033994376457216716,0.0671532144342618,-0.008335049295618574,0.16393358818279985,0.03539253725889361,-0.03956065495489483,0.04170096612781888,0.09103707930311605,-0.076493363663757,-0.008665300385392097,0.006201486207952156,0.04038454006715919,0.044253669681457344,0.097474331768534,0.14880551840151604,0.04154604618769891,-0.03838157909885507,0.0864743815120748,0.07613661983338545,-0.06833355718092457,0.021439008438801813,-0.025068427574301392,0.0642526781259567,-0.10618605303158624,-0.08251968265716046,0.04588358693827014,-0.010586723300094872,0.12188526101564359,0.012154706506484715,0.14126602246713355,0.19330683686456832,0.19043576982523938,0.10754130335184627,0.15798892545458673,0.0913711597397517,0.026470120346971722,0.03735410657051737,0.010945386632606281,0.015560925980371669,-0.07667224868551885,-0.05879072359252396,0.07430054884234301,0.06980575035563368,0.03594514062157271,-0.025770395122941925,0.01983600831993652,0.07531154111530626,-0.024642965914764132,-0.03946173652462096,0.05645456751686563,0.05580094794192399,0.0529788795286456,-0.006756448553425911,-0.03217433896614571,-0.0690974833281521,0.06881522214912014,0.0346292194099777,-0.040517394427790496,-0.025201136607777595,0.05743750188025131,0.1658730425534955,0.10680985399702764,0.05377319046236386,-0.06088365523937072,-0.004748105911115255,0.08431894014609301,0.09453546228634263,0.023884581405397478,-0.05472113531484809,-0.006385564056085608,0.007535462974091256,-0.04840549646580077,-0.020485984330456574,-0.08723475886179392,0.05403933259551072,-0.06153814118005556,0.07692907369521183,0.059219450806744504,-0.0024207837742375557,0.02494222488164396,-0.034037155575956636,-0.039414210311868605,0.009910062075997452,0.05863212366761097,0.10380374475111588,0.04884231820513216,0.08384944644749877,0.1813715406940662,0.13623681576628596,0.06306681788984556,0.0585332287925571,0.09570571482741713,0.06341529684433979,0.2095498090880022,0.026336333800375075,0.013733063438837116,0.011276405516204463,0.03167820365515549,0.08976596405490786,-0.05117050200504552,0.03828278978365773,-0.021828076191084053,-0.03306276430739607,-0.04615469064188489,0.04249972395653012,0.07794042915192406,-0.042562357505536476,0.06254349324583723,-0.003826089144973021,-0.07796398788462508,0.022380147567967357,-0.02925300172539512,0.005004121027762096,0.08667235230528204,0.020088216171466944,0.20493863144455174,0.06141877081145093,0.07813920242388636,-0.01202357705403018,0.08600309057027562,0.17340678396206247,0.10308376593454209,0.05563099986336085,0.0757207317857453,0.030265166614816118,-0.045500064415200284,-0.04188948960960915,-0.061468968322357216,0.00652477634830395,0.008074100109752494,0.08265863303134549,-0.0758468879725174,0.017382811394150592,0.016243635092523998,0.03148943483969333,0.03801990874012074,-0.038270367377235215,-0.07513925075412686,-0.06018178392946949,-0.10634761907141847,0.01838085137064609,-0.07884835692492131,0.15186140125709666,0.0706869630978488,0.07250898710673545,0.07218244596483703,0.1669546852079233,0.16585260516110023,0.1284928592443419,0.12411488556420973,0.08264734201603903,0.0639433917089809,0.07363427642428459,-0.07297686807799447,-0.018544570170694386,0.010025326236535943,-0.01015748189148596,0.0381916483786702,-0.016580901534371095,-0.06471426978984582,0.012027389649807702,0.04716461974214473,-0.049382537221514734,-0.03135087705944561,0.06697807873333285,-0.06835604097292625,-0.041894998305556416,-0.13823993829300052,-0.011816900182860796,-0.0942595660121451,0.07474328327934056,-0.013583091008890932,0.003009188737720859,0.03150015059961083,0.12714998355543072,0.15330079530317076,0.11607206606063868,0.04167961744348139,0.022223223510651213,0.05066867061005277,0.020402764558119704,-0.07431430574345368,-0.06840438963347653,0.05094986209449444,0.03127907635543369,0.03340703058307759,0.009750131106818109,-0.06950475650960485,-0.01116899097380313,0.04437342468067689,-0.014719813057548521,-0.04295778631794941,-0.09154853622675416,0.008513393176443227,0.0730013386050384,-0.04517225277084206,-0.10845001434738251,0.04329793894370987,-0.08746531288996373,-0.07040501267985184,0.005002938712524815,-0.06940362794555871,0.025264019803001934,0.05434814134038978,-0.034514744224931865,1.2355405050847558e-05,-0.08021174486812989,-0.11129216287378055,-0.03178956212026265,-0.05149500056821401,-0.07779582713418424,0.009059907405718617,0.034885042632801774,0.07862390294464744,0.05842750693764402,0.03066294854961385,-0.04571564986406569,0.005056129277921328,0.0036523381911793373,-0.08264377479459896,0.05839724837667729,0.05652499539062285,-0.07787341361776122,-0.023392401299207027,-0.043734735144373586,-0.020059327147685282,0.03643291829645672,-0.06735243712423862,-0.009076354684492952,0.04269150377069262,-0.10365899889937838,-0.032070106051535756,-0.07396142523832945,-0.03644199905420779,-0.08071925671204622,-0.05460728053679742,-0.008046308631539878,-0.028208886634469795,-0.0025186196133896747,-0.04813272634496945,-0.0618351588950222,-0.054287456874466726,0.05799808187578823,0.014177536953888605,0.0604945913785996,-0.0327219297020081,0.02212240348340961,0.03245823176016257,-0.01691466128914902,-0.029870826681933766,-0.06494854601400463,0.0025194282110480373,0.058135455153180395,-0.017188169592949692,-0.07646110997910131,-0.05613189761445882,0.04184662375838012,0.057322577730749114,-0.04595788353670709,-0.08259491621628613,-0.0597234400680434,0.05629586714464226,0.038732299693449455,0.009001490711218446,-0.013235605464447135,0.038849890498034924,0.04628732371044953,-0.057111424542367506,0.08587908358421664,0.07035846727974297,0.023228312478527528,0.0038571741469896384
0.03439027966010242,-0.04158212748678247,-0.047881283724495925,0.007158022198952,-0.053286893214056406,0.0351162229538639,0.03645751723473669,0.05370712823839858,-0.08688238204590384,-0.04955347180604063,0.027275593591098417,0.03323128663044691,-0.013554789859052648,-0.07501966182953376,-0.025055316906644386,-0.021102342451918683,0.07656821273126821,-0.039121568130452034,0.03661727533527601,0.058832034238131034,-0.043046643792094295,-0.06385784161978675,0.024160409160499274,0.04358237325497492,-0.020169556642272508,0.021233705707770688,0.04512506136202054,-0.06532777209210215,0.015556424677401178,-0.05500148583841528,-0.008255902633944432,-0.0810465153922033,-0.050411196867173574,-0.06369162481311588,-0.052773093934231324,-0.08572303318686628,-0.05761435949267771,-0.056518586450928714,-0.0022839282165056773,-0.022105022494862552,-0.0666658694312362,-0.003271373484332554,0.08092565595327458,0.06278812593548687,-0.015585767307650773,0.051363753816702926,-0.06950005764576063,-0.08019051231693596,-0.023637258747728554,-0.07732141045630019,-0.03672789254877132,-0.045712195258756916,0.04909706320834127,-0.02670204436653056,-0.005733995650717838,0.05788686823921898,-0.0024312328905702844,-0.004372552683952506,-0.028257683376103196,-0.048371428749873276,-0.04092544037328054,-0.045347528047163584,-0.07587231454881366,-0.07092436683983881,-0.0032232306912871873,0.017529020509169466,-0.029673115665396117,0.06978543737284401,0.06194419135420102,0.01741100910419482,-0.031065973282925055,0.011476215896619887,0.08155449608212452,0.0010748558525798747,0.02474607060708372,0.05498670195684142,0.04462425326300021,0.05211750378279625,-0.033572683121134456,-0.0715738718759088,-0.06464431726220254,0.0008601203657980814,-0.04092311547323085,-0.005539096805701016,0.05787892681979498,0.005145419027534329,0.06107124541771873,0.0037524875470089643,-0.062304561407153666,-0.06389917454417413,-0.031930099610563104,0.014171290599474747,0.0719483104574757,0.039552545383478625,-0.09971818731442689,-0.10155940180815169,0.01534453380340299,0.04958334572797385,-0.0751020223275112,-0.07232614466073686,0.007333090168303955,0.04716522336981736,0.09144225456894835,0.017195276376178136,-0.10955012541170242,0.045556821044213595,-0.020665680525989834,0.08055829442268732,-0.01951242655685727,-0.06439824251141728,0.07165364432058095,-0.03470981951605733,0.013094728991832756,0.0015637121156501688,0.062471690785484243,0.05825441875696117,-0.04880901150214439,-0.03093552115835778,-0.05191279405052598,0.06890295131228175,0.07544694129000741,-0.03704103577572698,-0.07892889870527425,-0.10424684697381621,0.06609032233771935,0.10465708494939638,0.14181441970376327,0.04675006947544805,0.001352224763218455,0.08611388927206669,0.07487272011611006,-0.08467111434899464,-0.08242637944721652,-0.015954244251609635,0.021112383867848382,-0.0001971801189712412,0.009815666672401885,-0.07168152869133868,0.01043287691642949,-0.0652799412660847,0.08504661214516095,-0.0310208454188868,0.026572386484123123,0.03500830150684384,0.022720984916534098,0.01679142952687456,0.05913989648379954,0.0040766201535522495,-0.06638099903823469,0.039572476197917976,0.019554424398503387,-0.012545091459816513,0.13182567007551368,0.09929146151361522,0.1167783229132279,0.0703577595299882,0.1423894747826213,0.05228324745878848,0.13798854119367324,-0.10147586958015366,0.06102717742415518,-0.006284603571451495,0.009850995145992657,0.07140909087908082,0.08351859362975217,0.03228160268972281,0.076092074970601,0.006992034479234669,0.02761841943208523,-0.07826934206046054,-0.0763511164626034,-0.07209978972530007,-0.07501054384376005,0.05236789982578948,-0.051032716768183425,-0.002712376855279647,0.001712424671106785,0.006501261140042501,-0.019279304799705615,0.021508906320581115,0.03519631946875375,0.03128743767978834,0.03502597512134368,-0.06524036815091794,0.04693394013753206,0.10118954826461095,0.07714251274297965,0.019015747977699927,0.011463050565156535,0.12591653757964705,0.011154696845937088,0.14303078234677463,0.05795229872885303,0.01793750911330969,-0.03754127114778849,0.0650670430155058,-0.0057969253710751754,0.015929479046765765,-0.08143104581980569,0.033366917863954085,-0.0812699044439495,0.040666638870238345,-0.014911009238898263,-0.03813600090883965,0.06774710311940732,0.07071182003274477,-0.0036202225053965633,0.0765246155227754,0.018120751097274075,0.018910553310049573,-0.11749515583780676,-0.10974286697513327,-0.07505179126840784,-0.04094502981573844,0.07272232960293754,0.15691623069125465,0.14068061765792758,0.22548345881405743,0.0520610740525776,0.17075431335186766,0.11057352017625324,0.009570502780499628,0.041949265723442035,0.048698122944234805,0.07315129571442967,0.07315687680665343,0.07620805055609568,-0.0382880096556665,-0.03832913522125661,-0.05841981986801043,-0.019029377254906554,0.05277055199343781,0.054039331019703304,0.09440686764794126,0.02397908643892589,0.034649718227529554,0.0658437542173759,0.09758946979945327,-0.08468084136084744,-0.08440030964521542,-0.030190324349508788,-0.0880536185813604,0.049970726682197826,0.14100565834457782,0.02492421534806171,0.12764469460301264,0.14484801297387973,0.09431027502284094,0.172843563388473,0.09656256587016293,0.03769744399200204,-0.06727825896346822,0.04458220063156512,-0.08212897674817755,0.06786409311858688,-0.0712904297749838,-0.004105437449641516,0.015037123898599802,0.009838047008268456,0.08333179088157879,0.08342319541396451,0.046992354768299084,0.04085022728982044,0.10550507855024588,0.03948212946961442,-0.05208068974093452,-0.10441785013621291,-0.07846293306205175,-0.12439237183489339,-0.03124394641571585,-0.08151551914441196,0.14199160485788498,0.10498812979019699,0.051430999862668816,0.09185429697514924,0.11467710534141179,0.1561554322258333,0.13869865240275636,0.07513390967723373,-0.02914987674826129,0.014365567271133419,-0.0015437298665064818,0.030138943520516773,-0.08517524672101849,-0.13760423364059218,-0.08623761187825896,0.08480261053443265,0.15369989029601996,-0.009470450392490693,0.03500506720071458,-0.032855980814733385,-0.09914826544824347,0.04516943573717688,-0.06714150225095956,0.04039386912590175,0.017442096295188614,0.011573811700251901,0.13156301370941312,0.05707343311918521,0.04363817324215546,-0.12162238699903193,-0.0619708412163254,0.02328449895963676,0.02287303332982102,0.07892989395037055,0.11701447386405477,0.04928216417458912,0.062298783336064915,0.072554222780686,0.016750702363693568,0.028165727506245977,-0.06686439132700393,0.04919036681406214,0.06625708236590969,0.011081948584359605,0.10291584927124416,0.1683587317596773,0.04874846762463631,-0.06779322229500012,0.026812238880005057,-0.130322317814857,0.14330341984160608,0.26615912889828086,0.05124079101579006,-0.044938032778979724,0.0746713563096939,0.060608868803730565,-0.047197187408460586,-0.15141171647876492,-0.003489533465066748,0.004248774887085936,-0.03387346911762581,-0.057781622158837045,-0.017508392936847392,0.08345857075683868,-0.06756064799077656,0.07588691215240798,-0.014804639557112345,0.07026572088026563,-0.0009375262288285112,-0.013992289329621894,0.03600888934237911,0.11143428788762295,0.09353043026639653,0.18504820480802708,0.11460775208509587,-0.028877581522264818,-0.057532095209244336,-0.05142078391980319,0.2659358022466175,0.38948419119755284,0.11910972979200307,-0.13531444005113422,0.02901273231235716,-0.13881928991436127,-0.07742031433886817,-0.10718586638609273,-0.11624784300750222,-0.019655795991546005,-0.10258264018589035,0.021047031735078502,0.04942233732259519,-0.06206849714287155,0.049453372049314076,0.03216301739206432,-0.041928198572353394,0.0025749730527066723,-0.06027610559016587,-0.006837978648713089,-0.019902759395069594,-0.0739121076117452,-0.08346516317816835,0.11356698235798017,0.15512439317759663,-0.00903674070538415,0.05608691793508253,0.04525433734963823,0.30267619990605404,0.31234771463101135,0.14698663720039537,0.02099498131801863,-0.04482559791185989,-0.18967370820154777,-0.029331031770648237,-0.0695875083995636,-0.0933719117777619,-0.04334901363535864,-0.07010171147601987,-0.12272967382267355,0.040443268778109186,0.09088820890521411,0.05782413016106866,0.0331099275489861,-0.043227651932097974,-0.0654688096491482,-0.08054475580221276,0.03738382247442285,-0.0887307794113109,-0.03510600086505777,-0.07615642081804398,0.13168511935682653,0.1234100127072406,0.020631832998903525,-0.0168952428168235,0.11612631815758488,0.23997875329397095,0.342336091071148,0.09991695842863436,-0.16831542048270487,-0.04035398736787367,-0.0839359174142634,-0.02360755474404661,-0.1263199897385267,-0.17164196792816466,-0.18293889185680048,-0.09733086422659994,-0.020385421068692254,-0.04862653182286496,0.042543471452113166,-0.07987357931273485,0.05343452466164814,-0.07616674113228859,-0.04602253487112516,0.07869546846778545,0.12364224665068366,-0.041728106275816974,-0.001242264937040075,-0.008612840394041926,0.01671563739009411,-0.08255515502378304,0.054258395198526654,0.0767234028968052,0.20572708945943932,0.23093922122885813,0.26717767166305556,0.22654206300114815,-0.0013189226095646624,-0.03488003219395083,0.054115611577423034,-0.16784933646080533,-0.19562320233187389,-0.09736920441284119,-0.06525019604338243,0.03192459813845782,-0.04291683166144272,0.02694490853919402,-0.048902976667440215,-0.06989130094268868,-0.014825210272285136,-0.050053959805947575,-0.016624854394377563,0.0066375754274863525,0.03469808735673497,0.009887670335512702,-0.07391805407396784,-0.06998859284120285,0.03661451584276588,-0.022791599326281484,-0.07025212956344679,-0.12429338493605864,0.10312947262818306,0.2555190036471575,0.16616908969398517,0.18506404308965066,0.005076153361632392,0.0620441987748689,0.0426302736294609,0.08168046986111473,-0.16944586233998463,-0.11503227215285033,0.020654550311335534,-0.0815967539212327,-0.02704592468719322,-0.004488935241247335,-0.053211838858795664,-0.00826192304042763,0.06281780518989456,0.04162427441507708,-0.05630137033360888,0.031272363373281827,-0.02585639473873289,-0.04480297624550011,-0.004473516624321302,-0.08624006914044952,-0.11751800918232387,-0.12022870587356319,-0.11152258959251851,-0.07759625991013101,0.029049599031085747,0.18297740149536987,0.31628345826267457,0.17168562201460777,0.02750472079973388,-0.08603228341230412,0.03666522231164346,-0.0687823114636794,-0.0035986396661819146,-0.10332589065177063,0.044888247726178124,0.020848213669903016,0.01042730031688207,-0.023530302393966765,-0.06677892338153385,-0.03834017143682877,0.08906088601205144,0.061222551717087285,0.05495869579977691,0.028547558529448274,0.002775309577546908,0.069022510425169,0.057289346749928305,-0.0048471309079195345,-0.14277663416129946,-0.16328411511245255,-0.1348642482778131,-0.08638550073026637,0.08266223326693377,0.2122552635274043,0.0885759822898992,0.16337686142682983,0.07180965604813684,0.012636971666328484,0.07675290194838554,-0.02999048015190023,0.010666520276042604,-0.0330239756180957,0.07101419217104595,0.02026607742251022,0.03543533718287158,-0.03269546144026372,0.045389003660538794,0.022570752867089303,-0.016219327105683645,0.07565756597820235,-0.05146033401833013,0.09398593359346527,0.04460278699624624,-0.03027201419683672,0.09080987162631987,0.04424394909046086,-0.03288671464383763,-0.05162328716945775,-0.04069950548844655,0.05718814359004727,-0.029728469642832787,-0.060010750406510646,0.13344909981087397,0.04768435267629642,0.12473593380216,0.1175101206505704,0.0797419527089191,0.14201503622071257,0.09012119494494618,-0.01922326380216039,0.03642306704870439,0.1415133895269487,0.10487757749136181,0.058677328752438994,0.06161832482902902,-0.07076043519637396,0.012182388424961567,0.05942685430802062,-0.006932618247160025,0.07201652122310685,0.09131254911900936,-0.02174669643666715,0.026520129052581165,0.12702281571803747,-0.017799624527513023,-0.0031304711791440695,0.06058594589330576,-0.012830947995423224,0.04856721994642637,-0.10581889335495256,0.03582265085983401,0.0869837005923777,0.0637234852659443,0.017052856296640925,0.0952755286519457,0.19111512391848517,0.009915515870293752,0.10293080945913104,-0.06786968069767317,0.02798917865228968,-0.06374076870181662,-0.06287142003147594,-0.08928293612175425,-0.027781596233520577,0.024005817583030338,0.029511775009014043,0.025162329298435017,0.008945284526723505,0.11709182169226659,0.09977162260562338,0.10401001893389322,0.09100601867370947,0.03941514544516458,0.06124538964081871,-0.009920211037367366,-0.021659495632910603,-0.02819641131322026,-0.09679877421725933,0.03012193310724364,0.09593570330602484,0.15293309402505964,-0.058941226135581774,0.11782293487800231,0.15080845517771582,0.08548630819794288,0.029009422928930356,0.08047005725382222,0.002072013696773606,0.06705396053237135,0.014668035782462419,-0.03511973043414851,0.02063362447023321,0.01781753223365763,-0.03108974336733866,-0.05814417095145215,0.010554976741695265,-0.024203899859785435,0.01763861062842738,-0.045896980661038075,0.10759238761016636,0.12897741654281258,-0.04704551312946013,-0.025683577686330335,0.1092061637150779,0.047660434117018605,0.0805555790162344,0.17309790637210373,0.05089774762893808,0.09086131612660228,-0.003672734616498864,0.023927745389780417,0.11386801750194316,0.1703800869752584,0.011648766207433348,0.018457812108230928,-0.07625825936578491,-0.03208861272705188,-0.03649922087808932,0.03166607971797342,-0.04056508290810751,0.020256147790201174,0.064825150375332,0.09018820781579455,-0.06233973519092827,0.05951157593724941,0.05121738011176791,-0.0970141986570549,0.016503251112444953,0.06944503651335575,0.013841223189063553,0.05725925447018801,0.10157567728784156,0.13555268197726353,0.04216326965682632,0.09377101703385708,0.05265922731308161,0.12704404860772303,0.07580490557061405,0.03187297174037338,0.16061130446445948,0.01525192559509251,0.09136003284150095,0.053959648963220745,-0.08024477397640238,-0.03910090432076449,0.0366653751224436,-0.008646388953561193,-0.029484220364290423,-0.024574487669673295,0.0008368558471008037,0.06188595401705615,0.06118896693209319,0.05711944279811909,0.02680051105436849,-0.03623818601068421,0.039733371324131336,-0.031818849118432795,-0.01173620001729567,0.13486775150316282,-0.010145719065306426,-0.040745642530490206,0.02071329589747876,0.04186520112983112,0.0887585171037813,0.035131299288172164,-0.024532489268503238,0.09482994840873246,0.08735657397716377,0.02631483703631259,0.01748333441266449,0.00810805944082515,0.06977755443218214,-0.012099790247787042,-0.017289685816867687,-0.038316528056728937,-0.006612569867941738,-0.020199976424478596,-0.061215049427568995,-0.028746663343506496,-0.08334266144131815,0.02025930177466766,0.03874837923351776,0.037007728485916276,0.06810024198986994,0.029482940656349165,0.10640140863493207,0.088225744771122,0.013539903146262388,0.004421552333778569,0.06813222540828917,0.040925728502722705,-0.13827330077258404,-0.1282018088920705,0.006003188486869306,-0.017443559874803085,0.08850725117096996,-0.04939400132844411,0.008209981037514821,0.01920504520353523,0.044391645467022796,-0.07466770282239758,0.08214955851780396,-0.07924792261086232,-0.0692224507718324,-0.06037424154031067,-0.016882202092228175,0.037416974102812875,-0.04088187277272882,0.06287673593162553,0.008174688093686268,-0.023001378270432082,0.02428329367808512,-0.04157601513976339,0.03847069678717328,-0.06193594312068269,-0.026729593531509863,-0.0601388502791526,-0.011858440116671776,-0.13893198219798755,-0.10300155193199406,0.018883835062844422,-0.09838130675169904,0.002557557767125762,0.02475907024853322,-0.06084010967284729,-0.07973710054526811,-0.07115568012000119,0.07109685640929155,-0.04682641998387509,0.0505236194517237,0.014948356525374637,-0.030027565901200134,-0.01194776654628422,-0.052851562811431545,0.009070910325255607,-0.05877268270712302,0.056865078948070184,-0.05267549756868713,0.04405878699679326,-0.026210601249712334,-0.03349259401654494,0.02063524221231432,-0.04354280005291479,-0.06802248253654865,-0.07141409529468977,0.04211928185225463,-0.04564925079950799,-0.04692476004654617,0.05285690776060367,-0.05344846177160989,0.031398087960244306,-0.020166103618475935,0.06647991783599659,-0.05559152822538567,-0.0334841193136071,-0.002037354538602787,0.053611268586102996,-0.04633933094233367,-0.005515979557078329,0.08260824317832345
-0.03778422761855641,-0.044210201447672626,-0.02661017712846798,0.028331677855322073,-0.03211358662689196,-0.005351369960424825,0.08233187266862727,-0.049921729343880034,-0.04653105638747481,0.06922339633327763,0.05562796191333882,-0.05603305377869061,0.05747588778683265,0.030666073159510688,0.021057867588498362,0.06518572684250815,0.03839859598578958,-0.04739689568297421,-0.027525510058786,-0.06264051480378333,0.008789026157511776,0.011781056635292629,-0.06358004998136907,0.02250792267217818,0.05033817831551646,0.04685236720698571,-0.068035079048289,-0.07055153134238316,0.004137622768409662,-0.029316685151683963,0.018270625234631244,-0.029589390788578033,-0.05645235665999668,-0.038118230207025164,0.029477757314161628,0.07843686537122721,0.03509667256722134,0.07532258730348605,0.06718334875422975,-0.09501252683427433,0.045952663877786924,-0.07711080471259922,-0.0022987632600194054,-0.06981116580536095,0.05578036691376276,0.015680172937933248,0.001362940689989081,-0.07770002826200909,0.037992770513444234,-0.008484772518358295,-0.05848018647297379,0.05953069475105079,0.011639789693211893,0.020596730076621692,-0.047768122256101116,0.06594872521592998,-0.0751210015179891,-0.039150187574086025,-0.028207360186072342,-0.01149291788557702,0.05828023216737644,0.07624213654275871,0.08146125156607033,0.025894349212575378,-0.03802544656535225,0.04938791584137485,0.046915613018398875,0.04297337317877189,-0.0008675635652487208,-0.07794164419157709,-0.05152303668237931,0.04136426511964693,-0.014921030281460256,-0.036561894609027146,0.0038839287175057562,-0.04247133830914305,0.02262170626848281,-0.05278003957244669,0.06637810645307293,-0.020465608123808595,-0.03712997076775805,-0.054021851599560564,0.009818794971092457,-0.011732324816747642,-0.04557715495531937,0.029895966191053277,-0.019301138970112496,0.08427670293640743,0.03573632226416968,0.07293231662316492,0.07605292462181568,0.03237883024918213,0.052898019923023426,-0.08296578415591437,-0.026405504878422113,-0.04375524279691466,-0.01746759822416305,-0.0909031824972285,0.007779934805439013,-0.05272081663955167,-0.07519699687548749,-0.04120915506787716,-0.03617309971379226,-0.13908815256480483,0.03136610991103335,0.04938621606046756,0.05921142629021052,0.04146254865253347,0.03586670886986752,-0.07589031701367922,-0.04572030692626161,0.02087284763555128,0.06443817924500575,0.027135451339701012,0.05348495704808884,0.03762724918309535,0.0829042069329584,-0.043191676275572834,0.013365633535712454,-0.04353221078025179,-0.021313691368633942,-0.07946714998060242,-0.020918515074649237,-0.03689729594340909,0.07332392643223137,0.07795676281719316,-0.09753282171549833,-0.14398797020055198,-0.003595993683876862,-0.04064104029415812,-0.042209564349106145,-0.08649274004402593,-0.034981217346397496,0.09995378551845219,0.04825616538018223,0.058778186023799146,0.022812829384417845,0.025600306257421813,-0.06801688690745669,0.060353744464875625,0.03753154933534734,0.07178153622084346,0.02953012856885775,0.019141781979239648,0.06700697522094701,0.03147090355118393,0.08823916462772197,-0.06789600844596229,-0.022243632551860223,-0.1239283916380407,0.000973942313447974,-0.046225796124488655,-0.06187277038180642,-0.09065674341707819,-0.06770674404286084,-0.04122603123546928,0.06460568174894112,-0.06198473312451078,0.0945094611511359,0.015115212799802753,0.05168078740460956,0.14312235646250962,0.07704119762969311,-0.029925290504056037,0.02961016394489528,-0.0572256151207918,-0.027934182668397183,-0.011640582003968652,-0.04727680580763706,0.00472729682507307,0.021453118338515115,-0.0736759862892251,0.09578524313353166,-0.025338210608740707,-0.02842863957818249,0.00929973514768827,-0.030113299955104582,-0.07953840678601228,-0.011611256614227593,-0.10773473654818719,-0.06503479152534143,-0.09433110527626867,-0.1890598497905638,-0.1428466163327478,-0.06528067125248885,0.06964696637346916,0.11582838364191633,0.03609483074821585,-0.07652994158113258,0.1911096570070855,0.010164645411749218,0.0699909939018721,0.02929756671606586,0.016042111652201676,-0.01494317249473977,0.03701243977817726,-0.0021548380641194746,-0.012677052412435916,0.060644609998393224,0.04918493509493241,-0.042672070438373934,0.049315534466833094,0.06078885921593955,0.07114369999172057,0.007010624522049454,-0.0004988848852332796,0.04262478679934839,0.0425709165484708,-0.08581929185949375,-0.1305273988054943,-0.30083919360188555,-0.24844184676829942,-0.12074017835843769,-0.12069291933304734,0.11578666447986705,0.0013878491511148782,0.09186704865267484,0.17598180355846843,0.10068365683315494,0.08150809300361962,-0.031080143580389456,0.03778031094088728,0.041459979967125644,0.005519570753550682,0.014633906013446064,0.06012343907222655,-0.052742120739374405,0.09421626088326496,-0.061290970989649564,0.0352244587127964,-0.005565714415656505,-0.015743539806815463,0.09732868819080588,0.10276070357970546,0.07304191625177804,0.06966316600252061,0.04331989609497455,-0.054027274646836834,-0.03981038277046083,-0.22937936609255383,0.013668950865509857,-0.02576055338903561,0.10332614761728588,-0.0025582118927089618,0.03952507854721719,0.08700820894202436,0.03829958125655965,0.00024493572987008294,-0.07565948215473224,0.029627401364994765,-0.0361539871207626,0.04635059377617721,-0.051833496473793664,0.04228315276273592,-0.023598890218689005,0.09375049031118854,-0.01699874293332848,0.010755118128120559,0.02518180506376747,0.09648327506205963,0.16918401857606555,0.09713197964368103,0.09398053485485333,0.0733392550807157,0.09629689355190225,0.06854368416591086,-0.11071698789680014,-0.059899661995273384,-0.006777284639692441,0.06720921935096416,0.1704473221210683,0.12582862920204282,0.176812098963378,0.08243525994517772,0.12866965167276642,0.007898071954172617,0.06421930195368923,0.04550107305842973,-0.08084536964126567,0.07233430837735506,0.07326586311927834,-0.06340123176573266,0.022516732187679515,-0.039728755112419585,-0.015742894513223922,-0.026980557605486913,0.0579628654315124,0.08240561988592038,0.05366288676458664,0.09645911362465388,0.16124989787018076,0.17215794614264068,0.12349132294553689,-0.0469521783602682,-0.10578459523993887,0.09501359884646171,0.1148224738235477,0.16841913881034837,0.2432467714974783,0.22703787317190335,0.12958425959181832,0.09181465618376536,0.186209397339465,0.07161213236125677,0.05834504360433652,-0.05416751558592085,0.07598354164117291,-0.04723583915814912,0.08459096702489281,-0.05369736213656544,-0.0009379771604767129,0.017708824827078376,0.03509398258904367,-0.04433650607197935,-0.002596060069289129,-0.029688594520283294,0.02041654517791333,0.010255911935702819,0.11684931611211566,0.13399039187047132,0.12597429357674747,-0.06486202631528598,-0.07099850957324813,0.021030670078425993,0.1310724397054548,0.11664337547655892,0.08480151238313287,0.15162104049776706,0.1371305497430463,0.10026529645447739,0.12971535050523259,0.07182552568403272,-0.005448912449999652,-0.07768120768863161,0.023702541748658552,-0.07403801320173294,-0.03389017626412148,0.009799013193633363,0.06165778937671244,-0.04763758358039511,-0.057745199508437484,0.07471408428032465,0.11186521585750774,-0.030136262996068107,0.04994604753707557,0.05371871647725722,0.13677054859059276,0.08238457927782568,-0.06718984878547497,-0.1646287406664847,-0.13478828923955158,-0.19701222624791312,0.17093699159546508,0.12692532230767864,0.1245448715124905,-0.023530717102271285,0.09483814267262385,-0.06018878697737208,0.06685222238021422,-0.015912454839154662,0.0685005600147657,-0.08115048930307567,-0.06246518386351724,0.08167229061329145,0.05631382204339299,-0.08232861619907962,0.06648615077537634,0.002917093215786452,0.053557590651128174,0.1412942784793602,0.08079940250561878,0.06520821842945242,-0.04195070494614277,0.030246244758013043,0.16711062485063857,0.04750589972864237,-0.017870973818524448,-0.04129019907601075,-0.1442085146103949,-0.18855826248791657,0.002758438215268618,0.032174504840046234,0.06980906581437744,0.11308350445810256,0.13324267356456698,-0.027435583032130152,0.013427007570103823,0.05947682841455285,0.06545303784662668,0.07391649424296806,0.03822315706711366,-0.04871674810796124,0.060851878097987616,0.06741233327593181,0.028058282588525243,-0.02582757131781187,-0.06927254752093628,0.029344757350802185,0.18739737503597154,0.029901345830307728,0.05043267923467076,0.08680094874441796,0.0063331773286933735,0.06034743235336742,0.01606851557243345,-0.25771227397463986,-0.22035944173549415,-0.23297332114843533,0.03990352875621315,0.09594804568818471,0.10512106305885202,0.1408626016087372,-0.014163661919705977,0.07027059909989726,-0.038441187942864816,-0.0642332287794727,-0.032008926002013764,0.08505950137636957,0.013563537431053506,0.019076463193359074,0.04730917740528206,-0.040095436184619235,-0.0533255633330538,0.0075714322439009085,0.04995341725415208,-0.03897640704763934,0.045250495936912896,0.0055883433832479975,-0.012613014701318785,0.06561822266279732,-0.1290072833222898,-0.06500027400985776,-0.08073326537775223,-0.14955538296418133,-0.16470729692517913,-0.04314587298859123,0.1886154088368561,-0.026110041215475718,0.05512022357943996,0.05930321168307601,-0.033970330377703396,0.02830471882828843,-0.02184013772936917,0.002517765977116613,-0.03898719760217769,-0.056562246585808156,-0.061229105215570165,0.01796227211335629,-0.0019452879240573746,0.08427224922113978,-0.05498845802990833,0.060957108801484895,0.05470734400970997,-0.025300311396713265,0.10702211381117618,0.11189118221736416,0.06313866913785042,-0.02494128508092738,0.07100747566549283,-0.07454536148121205,-0.13368619845751892,-0.15220591665132596,-0.08939073520673213,0.12353637556204598,0.16394398615795006,0.12168918574332717,0.019726221979458457,0.12305163602046693,-0.04185557120499011,0.050909872875434435,0.061623258786091574,0.13248734715394087,0.10138377597805884,0.043123479057972584,0.043557553946557914,-0.02817567651330475,0.059907650463999824,-0.026908587213149888,0.05113224736967948,-0.0827565387017038,-0.018557650831222138,-0.009546952731155437,0.0821303681363613,0.04503758412104293,0.014925242104353136,-0.02311682139419538,0.04114507518847376,-0.13811480381641042,-0.21678633138590028,-0.14766103491374494,0.07635805833542632,-0.022122787098318754,0.1308688875306972,0.09050819050168371,0.1370249615415686,0.13397286511482825,0.019426436882038205,0.01941853618554658,-0.06692288846186134,0.009757554846168533,0.02869496577860349,0.033753199667099956,0.045103565887759656,0.06175386348093848,0.01952549450755048,-0.05813656062420477,-0.0066737872798209785,-0.09106200155824201,-0.0321987818976227,0.05316013809589739,0.07650953293828477,-0.03237591132248168,-0.1271147065930641,-0.015085396931612224,0.06607023136452025,-0.13983034694713847,-0.08846163290452244,-0.13528553623580727,0.030805670764566598,-0.010472078211149568,-0.04620781698152919,0.06925874751094266,0.013723898765937825,-0.02735287587271861,0.039538629880019195,-0.08839335410104388,-0.025848696959852722,-0.05971882935053562,-0.030843840683953263,-0.003209746493663709,0.04441825932374234,0.07899059673048853,-0.04934062463541945,0.027783956221934882,-0.026305689993626057,0.06397493347791797,-0.10866569213028099,-0.053614040410849,-0.02723653168187372,0.012134108169055453,-0.03294043213047816,-0.0979778875182084,-0.04163827893821513,0.00882416996157705,-0.05965528200305642,-0.08783077944545996,0.056806730494930555,0.01678579945994173,-0.03963028893171787,-0.0375940896446036,0.015674687561785604,-0.03285960452897015,-0.13535317132506092,-0.03729046969235391,-0.08210528419250997,-0.06252045724292567,-0.027185634196786806,0.02526862415421844,0.009494726639376038,0.0531521124483318,-0.04826928829080665,-0.008661628041648033,0.005986569529493154,-0.051314823528039774,-0.009717552623740525,-0.00754440745201552,-0.09857154059365192,0.028947313635604096,0.0049488077636370975,0.02229721796524042,0.03339312079505369,-0.003505411151423195,0.03491445454723506,0.038056315350645464,0.0369474326556285,0.01983965826395585,0.058298922766356266,-0.02312823084916081,0.022863656668053234,-0.008749124356858057,-0.1328144963126179,-0.18593199322735257,-0.12920848480053945,-0.03991563000197594,-0.04274366600223418,-0.051146326864143075,-0.023108886318942423,-0.0443705521917156,-0.005904845084312486,0.01286659882792966,-0.024009445208529136,0.028221431200834004,-0.029330043510237984,0.06261974859090456,-0.06279970123881505,-0.09180294268148675,-0.07938787124805073,-0.0488877496476566,0.045832012596198804,0.044749490130666085,-0.019673640848398503,0.0789601486226575,0.0929237955467939,0.011911804793463186,0.03269757966218703,0.04726611890851814,0.1739927567383543,-0.09682443398704914,-0.10582128344974262,-0.046603557418100613,-0.01622048953717795,0.045373479364471524,-0.036387085069107844,0.04520153800271814,0.07155684673905975,0.03458002182755452,-0.057173856489242725,-0.01072757649095004,0.020380665296764685,0.06686301248751392,-0.03394267207877029,-0.06369022405781803,-0.01897627369158296,-0.0922855981033874,-0.08913813449658751,0.013280002962287795,-0.012873144918597595,0.03731641610876289,-0.02479084426615438,0.09652218165586458,-0.00964315779863585,0.00021437718055216921,-0.02691502103041562,0.06406275031529536,0.02715587589471022,-0.050968399872062274,0.04868030958313504,-0.04874178307064642,0.04861301211638988,0.05096482036553076,-0.020745826865262173,0.007073798445637394,0.045166568799769886,0.044551407682942024,-0.009414996501678272,-0.038965497242618774,-0.05442323321411134,0.00952695235534813,-0.059309285374880595,-0.0238243036813506,0.07937462363060638,0.11559445353092512,0.04660324614328334,0.10534393826202473,0.07158453860375037,0.07722230082511373,0.02617600015973776,0.029100410735876603,-0.04538984698495717,0.07434692709652352,-0.05661313274202264,0.0685478907090015,0.06191530373576903,-0.08098484565945478,-0.03960733146478791,-0.043688538362760834,-0.004221190623066465,-0.011708612234826051,0.022161883141054432,-0.004293415640938797,-0.05518092117134942,0.00856795839178805,-0.03666589557727872,-0.05335905602590952,0.021853920399166504,0.08545490569413369,-0.06496171452713122,-0.0040137562666990294,0.11210578169044956,0.0034769159251993005,-0.12483609302717473,0.03620932389089025,0.011872920902294581,0.08347588313420329,0.07770355259741367,-0.11671480049915119,0.024817499669150787,-0.062074750825895676,-0.1651877884774455,0.01196700443446194,-0.034351444533453034,0.0007120101467029987,-0.09480655788474524,-0.1440042076271311,0.05069113706147893,-0.056578308158848456,-0.009306892151427321,-0.01609832814480267,0.008200185480001189,0.022264696960464674,-0.06223220113351113,-0.009416602572466654,-0.01897065659823983,0.08098425027597671,0.03344417047819122,-0.05265582596249508,0.06439225569323102,0.03648578382490238,-0.012221351897629218,-0.05564354463789568,-0.06683070266453911,0.016142348828254084,-0.011369317828848492,-0.007684465876386785,-0.059599578992136054,0.04205259219593334,-0.059222573677517314,-0.08149858382450086,-0.07377821144463152,-0.11153289617191357,-0.09274121304009157,-0.035805312573834666,-0.06988268976252238,-0.009940731379889772,-0.034661373768087964,0.01385167011888362,-0.029400128569593443,-0.020986887198841023,0.028677637247554937,0.03600665134224938,0.03704512784731025,-0.06553331497046662,-0.07327887856842298,-0.017835244014112232,0.06383133425083545,-0.05513591306640532,0.06153460784904889,0.0402378254952328,0.0024863302371063095,0.09381794006672059,0.05185441173240188,0.07148933343759391,0.0984879833906133,0.1169242387909087,0.04636578615032669,-0.013709171212227136,0.026687380451280048,-0.019815867294876745,0.04045447968992518,-0.06401252236077244,0.005349536122791865,0.08056667038141392,0.014254122200396315,0.021981484080284885,-0.059031507097828985,-0.049134455395306476,0.08244314827511358,-0.007481832424987166,0.06800167860171191,0.01684916836795627,-0.047988384001988016,-0.06771303539740704,0.03707995818879585,0.018657208637136873,-0.04647961319416705,0.03310508032155408,-0.04894102302710897,0.06760203643341489,0.06420537621140905,-0.018838692606754623,-0.057828479026972024,0.05741019932230417,-0.04733304843863271,-0.0005653490175320188,-0.039919109720797104,-0.0414184382485596,-0.05715411751808377,-0.08895527476998275,0.0721712278115372,0.07588431648140785,-0.06628992536924147,0.04192673403975655,0.056995372013891134,0.027373984901352635
0.02992254634539181,0.027393736960336364,-0.0055213419617577255,-0.0009267680687825937,0.014996594708194992,-0.013856001103281102,0.003805517203492985,-0.020608549070328917,0.0010531700487273583,-0.08325086262037093,0.08183785617986866,-0.01950557593888366,0.07855481090615782,-0.0008001077046173738,-0.0757206861307953,0.011900141760787639,0.005559630855721519,0.0657424156632401,0.08003118256735688,0.03728465513507283,0.0305042540879617,0.06314747899978423,0.0035559035621738747,-0.05067968698624377,-0.08359718890967477,0.006197187265629531,0.07612826384111095,0.0016680250023886297,0.01210381157966392,-0.006312952853390186,0.05447640888679726,-0.03295009966547773,-0.0004848035602702085,0.018696729405007884,-0.06616184648685916,0.02800559863974164,-0.01284695997314288,-0.06238279438295497,0.08386674115530382,0.033540433388871325,-0.0041841353642490964,-0.06331545484505831,-0.06667007365486788,0.021570842612456502,-0.015676373748569068,0.020022091028791725,-0.06361188440270758,-0.06789764706599266,-0.04398680975319892,0.0017531230232007424,-0.08256228142841207,-0.0592410396824774,0.02272413914405781,-0.07767263420537686,-0.06158799552038883,0.01930168048389416,0.0534577517256836,-0.04621156588561442,0.056184050945316207,-0.04352367275592967,-0.059492695343354725,0.0462494128604524,-0.022304855251646497,-0.0024265454774842848,0.05602599704618517,-0.04669809490360492,-0.02666044556204181,0.05155945412353857,-0.03543907176103599,-0.04866114009398201,0.051747267484421045,0.019952354896224194,0.01643013477036212,-0.00832552939157214,-0.015857765536686105,0.017912431827087866,0.06034308358383329,0.010637245177976793,-0.06276868432659446,-0.06132469097225179,0.051993951476633334,0.008752914428839987,-0.08117200139920137,-0.08156285197901303,0.03759233394497445,-0.018749526005726973,0.08181919707133777,-0.05748380853369023,0.04911103880702858,0.03569702703207629,0.05568879706557115,0.01651890206223477,-0.010723571206562253,0.043287504871461144,-0.03344562733580103,-0.011667027682255115,-0.03880997064233853,0.0030373588299776903,-0.05003518572834937,0.09374458106465265,-0.06069608317702442,0.09248739520755601,0.013785389558511569,0.033815828492139884,-0.03083933776118615,-0.03009972778536154,-0.08196597382127994,-0.013942816252132293,-0.03653289812908075,0.08367165314728445,0.05676807806739515,0.013640927031565312,0.03633555860237788,-0.056158419342958586,-0.017595535048148377,-0.03281353026709463,-0.012621601780299151,0.040256125055444014,0.025676603013553755,-0.0024304020341492203,-0.00908006275035244,-0.02072228420212429,-0.03376240210746361,-0.04919656003653824,0.026370122186860287,-0.015321325592179911,0.017991650614490255,0.04923125976862376,0.05760953074452659,-0.017581078396976826,-0.021142464587970325,0.01873042362953288,0.05454255879934796,-0.025166191868981367,0.025872935051587127,0.011994743795725602,-0.07869289191076807,-0.010815971253507169,0.02108738443741278,0.03724812386863894,-0.06857355291509269,0.06809507987553062,-0.03827111339466627,0.010308871335311788,-0.0012962047261118191,-0.05473590954934699,-0.05870755515794765,0.05707042439147766,0.025526603740016335,-0.046807017786701106,-0.03570701997124047,-0.03581713501540327,-0.008278653060671447,0.08200530358575786,0.04540233998756938,0.03803067838883688,-0.09325586189043912,0.07247502527864215,-0.05488746817098038,0.033878478335615574,-0.03236816881827599,0.015247779611831297,0.06663246643045151,0.00907150728269753,-0.039582628840175216,-0.028624958734355693,0.08293611932125126,0.07366774374375723,0.009162813007450239,0.03493285259279299,0.0165813172996901,-0.06989579982532441,-0.0905545023005662,-0.013080583063264208,-0.0457254010318394,0.03904767602790258,-0.007219839172215335,-0.05602944782149081,-0.026041936748544374,0.016251964710943607,0.10992690881978448,0.05464679052243647,0.04016016300505827,0.06021636260018751,0.10530664113120779,0.025742919261232393,0.05817637496370352,0.04123956810342775,-0.08844241444053148,-0.07069608752420709,0.03618079423688001,-0.08396005552567326,-0.050703096018357034,-0.05862630813290264,-0.0640873606622498,0.026239814890454807,-0.026251878000212055,0.05738656733765685,0.05245779343013709,0.07724494466759316,-0.048523943401433026,-0.03358071858282464,-0.024063170129661325,-0.0583905581762259,0.044379937295287886,0.031820834022765136,-0.06771031782011352,0.0942098045568743,0.11284180928629929,0.13057856490074096,0.08621535506174641,0.1684119894072288,0.06966614195803222,0.03376450044270389,0.08920162274787781,0.029828931517230102,-0.050754511116484595,-0.051581287404677656,0.05983281950602528,0.01790045529700946,-0.03059234433782752,0.07948212522249687,-0.07271883231063812,0.0071257518850679985,-0.003411818742956343,-0.04364710256196885,-0.0026506799320987606,-0.07762082358623174,0.05911866669029408,-0.0024196179693048154,0.06882019373831987,-0.030362893890458726,-0.08903751876275014,-0.04644497491651248,-0.010692898886045398,0.1327308550423432,0.050571739827136766,-0.011794957618974204,0.15402000522788656,0.08416865706602644,0.05399501535530189,0.039936842184997066,-0.04644272098421943,-0.05167307450874593,-0.02551734589899394,0.006430881141772902,-0.0892725090393363,-0.07224314677767087,0.07083812513138303,-0.00041618968342802974,0.039954402536908365,-0.06968103662352947,-0.015288536952450785,0.07783753383275417,-0.07288423465730265,0.07487097645137576,-0.01663972897820276,-0.038196386921500534,0.0470769103928806,-0.03249710793333998,0.08355760171068727,-0.06196548978185625,0.013254703012697634,0.03543539957895709,0.1718876029781516,0.116425778298675,0.14651678236916482,-0.03233373119661972,-0.07113638403690689,-0.056263000788243506,-0.12112229460493988,-0.08584756814189591,-0.04858536381690257,0.037073491685088215,0.004662842271092321,-0.067506158263316,0.026045270683778925,0.07179803521132838,0.002854031403824112,0.045297736099210166,0.05897475943493228,-0.028231310941312707,0.021895869539770168,-0.025012611876974455,0.0661510224518283,-0.04866046725600949,0.056327086602918144,0.06724219186471117,-0.011537779455972648,0.07921748074351759,0.02310001857349418,0.05044301043801664,-0.013566988947816116,0.01688023137451311,0.08740482305468819,-0.039532550358158135,-0.0008865529122980681,0.02706269533498605,-0.1406753496552122,-0.016748624647149345,-0.027250807775832477,-0.032608316812811074,0.03045790362152198,0.07944038394175992,0.10353552069959619,-0.005660247356379004,-0.018754756363198097,-0.07723267071112433,0.06333890715603663,0.06126017579471917,-0.02901788182149601,0.08879318213642268,-0.019792992243739236,-0.06740271773918283,0.0015174172607665848,0.01526148870541991,0.007043996885887215,-0.028889680541671535,-0.04044711924201761,0.032727852125056515,0.05829649343648431,0.06444511047368102,0.00602120457112736,0.010389251731805218,0.01194763634318141,0.015790809019345264,0.06906781581017879,-0.11847805317609297,-0.0683552953658637,0.02526711733830816,0.014386780553029905,-0.07084211195555051,-0.009160579187500734,0.036244494206535624,-0.07327765029730587,0.0016755269137023478,-0.015063081000184123,0.055196800455862755,0.012667267892725053,0.06296463973026746,0.053311905783423055,-0.012700600553979187,0.017096678158317277,0.04333758897170301,0.0011597986592879514,-0.043518719192336505,-0.06672102558388995,-0.12592514156925874,-0.050709495280390156,-0.01852488764869176,-0.016741917139263797,-0.042649154848709965,-0.1395528310662353,-0.0758153744938568,-0.029178390898588143,-0.017675635853741052,0.05584214297886777,-0.003884950382199812,-0.017037994549724676,0.013049881388751003,0.06038041499207584,0.04483112344613651,-0.06160806805212483,-0.034766435094306034,0.03146141458687796,-0.053778548992292806,-0.05415908996533115,0.07693024581885176,0.056196947810740375,-0.03081198166000483,-0.06109043355260262,0.08881188364132005,0.10950849019055992,0.04558265423224295,-0.13272788201960928,-0.0717130709641986,0.05017416808060451,-0.003039155359588856,-0.11116319022511977,-0.05792698139981076,0.016429900922247342,0.07391753820888503,-0.11842598891652496,0.010830001547388344,0.02709660219051089,0.07967281212761021,0.033727543794287926,-0.015209140160482934,-0.006759804103025878,-0.05835536413805332,-0.017717082782967266,0.05697491211338515,-0.08020455702208959,0.07855530854180065,0.02443276780388905,0.05359616367770422,-0.051449887742338545,-0.07958295392175656,0.03061838437445183,-0.03313926614708355,0.09713233564202926,-0.00041954012067305703,-0.02346802965915991,-0.07836262299449895,-0.04863340024335752,-0.046691110925210506,-0.013643907098365108,0.06616526364330821,0.0582746929651586,-0.01919059837626449,-0.08171345216761618,-0.010919080379563698,-0.045257925721810706,-0.09375667121816272,-0.028773783862084644,-0.08692101593654854,0.018493570596376956,-0.03954778981592761,0.06928142643402661,-0.08094469881307159,0.03461280232217445,0.008024489352754238,0.03086501951618051,0.06947266293105953,-0.00985184230525103,-0.07070824318315452,-0.04221977397322786,0.1130197258731392,0.06993103979106421,0.022411307020003816,-0.03641868218806318,0.1166207344235587,0.04754174039849756,0.06798884122692253,-0.07203601368253175,-0.009520176654497595,-0.04590770878467557,-0.0880891033804115,-0.1285399966326628,-0.0716455085131538,0.043450153308332184,-0.05618081539331823,-0.11806436344593765,-0.07294779344873366,0.03668763328932658,0.05929657396009742,0.042338256260796216,1.4162545309161149e-05,0.04301921682827454,0.047718371290259895,0.057716049713019545,0.04847263236683786,0.032982891417141134,-0.027426840435788268,0.01912858407604554,0.03222125471167966,0.06698110650959857,0.08447372841091817,-0.08029597906652923,-0.09408889461444012,-0.033163757974517566,-0.08754850449865997,-0.029906789277060183,-0.09663507467569937,-0.06635604794375075,0.05643809581910598,-0.06182725176295524,0.019070167168346593,0.0631957416330432,0.0035078446144624167,-0.08472635118310466,0.07644047870186733,0.05666829164280853,-0.04678404982064489,-0.07611948630731673,0.04854446731815985,0.009234765202869855,0.08168564387069244,0.04415486471787188,0.028446753856847015,-0.056379471984933746,-0.09574623279137542,0.018162722577008857,0.09829309610081341,0.06558842385370782,0.04948452207210348,0.05354347911768474,0.03044001586433348,0.005302967917863145,0.03022306647736913,-0.07561699179928665,-0.08305926243084928,0.029439122781663513,-0.046587994541038374,0.032313394947439324,-0.028098217819512685,0.11174036400405533,-0.0553352194150643,0.03962950779686202,-0.002249645395169517,0.028678317678149205,-0.022834663034750333,-0.06895602487796545,-0.03178386923653114,-0.022115289199386958,0.06067765709765409,0.027786484152274506,-0.046904270899935485,0.005832821769770962,0.02355057021223229,0.0212049178654754,-0.04338252520101577,-0.04754296694626747,-0.0017635809148435079,0.03032008443116649,0.0216236776363504,0.09616244878103933,-0.02761132004001728,0.0525574784977395,0.06198806775830346,0.055648967328795054,0.08447243393802106,0.08320998914033835,0.010591683161339696,-0.004886939974075381,0.015330171340820336,0.07137607080013238,-0.05501633146082423,0.08933995720436931,0.08312311834710934,-0.0075416115982257816,0.07861305117364112,-0.01969880271151971,0.023746052297470722,-0.03974504400601848,0.053217330950538544,0.0692180668183546,-0.001083441320338906,0.07962279524654221,0.06188380170156326,0.09569104948820263,0.062049866790412356,0.13527424755635914,0.12830837665045206,0.11798566010925048,0.026785499686248364,0.14323222648691125,0.021520121064950666,0.08941269840188126,0.06732803482547652,0.011566941570673039,0.01810211960335765,-0.06611748651864816,-0.05146827872590975,0.1281392956034103,0.1025498680142304,0.04461244097997377,0.05866714225405134,-0.0717834158837892,0.032701193905628125,0.03164079307974846,-0.015226799599640344,-0.07745172604961396,-0.06677738813756294,-0.05147607533925919,-0.01061961922358689,0.06216237754658203,0.0009002722618075355,-0.051167874165158764,0.007760870150203952,0.06331884433951686,0.07872401720486481,-0.007589145466392976,0.14218388936717657,0.032468108982743486,-0.023152635094371675,0.021139869853905244,-0.00432112868706279,0.03414683893225024,0.011813257493898858,-0.033040300917951675,0.004346734250462674,0.01786741355936926,0.019172428671617534,0.05483573835355035,0.0013471936198059318,-0.036669373015628684,-0.07385640559761106,0.009190236936385371,-0.05382901562819969,-0.08431119410030925,0.06313216617549443,-0.0731514907331579,-0.020176990738092798,-0.049658208566846516,0.025385645219187927,0.039050725934781184,-0.011112842557038448,0.12404237819000892,-0.03970562760474044,0.12359678941460386,0.19783761432201843,0.022397005647241747,0.029502536796884034,0.048458870679561304,0.009728643453061675,0.029488674639291876,-0.07021634584177977,0.0143614198401258,0.055383889527863835,0.1073808343356346,-0.03778104172230916,0.04680974548132612,0.03185125077575838,0.010247729539002678,-0.06913678088624817,-0.0663854424206902,-0.014913762680453026,0.023275956890653517,0.03469197965893848,-0.028923685118873877,-0.0605663216244912,0.043681200603158866,-0.058368136090547335,0.13512008530839814,0.1037562109938293,-0.002174415873590057,0.058652724897212974,0.13130341213716298,0.06450026631539577,0.06961922523920687,0.04498093797400172,0.03713830404936029,0.05071908043078799,-0.055340159566436106,0.06926191221728849,0.0423257027676184,-0.03338220262209035,0.06917307413463918,-0.06976468843451006,0.05857775754418315,0.059275702919516185,-0.04570732006108788,0.07910710729993504,-0.007910781379940373,-0.05768054071111598,-0.05082572889939612,-0.024683056362339473,-0.08208997110799592,-0.04205118268391657,0.0476537012694676,0.017197880617065838,0.11985722044663848,0.12346979772597491,0.06596334747778637,-0.0189194902102021,0.014022385009749788,0.09377515511994103,0.11555403714732516,-0.02488926485658821,-0.022966664600260412,0.12603073265155432,-0.04625907245840434,0.012646385698979426,-0.024621601456289874,0.06379153348624124,-0.049413911266084395,0.04092802852538143,-0.07391991992999515,-0.0076740742341637365,-0.04864182510540546,0.04265533019551008,-0.038021731418675805,0.008653547454788324,0.013438319356017013,-0.062444783369324484,0.010841762285407995,0.007079533123160173,-0.011872758730193996,-0.10304226714867164,-0.09636608896520502,-0.011064985161563208,0.053197992371742005,-0.062272076832276854,-0.026119704812576052,0.07969544287702618,0.04188602034812796,0.055336091175976106,0.12149251976616392,0.024605298041023717,0.12139222141486099,0.07687088512358049,0.09860035294891048,-0.04839262169994196,0.028278489809972815,0.018173855399544424,0.029980623873674637,0.04862286427518444,-0.03420458368498706,-0.04266775125057737,0.02903457286710818,-0.06967637569129767,-0.06286133139427125,-0.06142465851968151,-0.019684541291706,0.05503354446841517,-0.03807435604665729,0.006937545733355733,-0.03522897702728463,-0.05862516478431064,0.03812938308237138,0.04995901962308392,-0.045449121580040455,0.03923813126111164,-0.05351979719908483,0.09974686559125374,-0.007018817132722073,0.00850187891933992,-0.029936419257532865,0.08248360472043154,-0.021543052776407376,-0.07266679348747168,0.01784233515072404,0.05296761525583769,-0.002904298903164457,0.0037910138993338116,0.019827536252254207,0.07214257218564196,-0.03820956000244571,-0.0033788809651580944,0.03986798334500839,-0.011001814688624018,-0.030540738788963774,-0.03758834971447063,-0.01839209569019186,-0.04059992359928375,0.012961482723323757,-0.04975568105365856,0.07160011180723147,0.08077508937243283,-0.03914478007416761,0.0687327227087631,0.001085867024580058,-0.015686396677989375,0.04795734962311641,-0.005815761523510163,-0.06488332425085759,-0.06704255145910748,0.004896075747967157,-0.02673081343965228,-0.05933987298221774,-0.03754451232489122,0.039558701695711074,0.08614585247178488,-0.009483965287169462,-0.005199945238667586,-0.021459182332588724,0.04480061017897616,-0.08088827358755922,0.04535148655400594,-0.0341301281040774,0.049649553382459945,0.013260551225718398,-0.08316728044125907,-0.0710719059886165,0.001084666604672898,0.05756643695916663,0.00169798589600084,0.0763883475226721,-0.08069556648965483,0.05697206878126081,0.07130463257609539,-0.07571694502205573,-0.07012733549281792,-0.04096799812601098,0.0386468783492274,0.05624077145497467,-0.06599959763428127,0.0744780050422119,-0.04753860981119991,0.06508229540760324,-0.07415906460499269,-0.053786664842806337,-0.019311717716033457
