-0.013571750655558846,0.042504368371838276,0.0794938997118605,-0.04032622915093042,-0.06565815255824933,0.03253112394906073,-0.031852968969736814,0.06863050085889091,0.04767105145887579,0.08722389274432689,-0.056794369269728334,-0.03850845205746544,-0.00339512165848114,0.03654705711680082,-0.040697271909966144,0.03422429376703822,0.04338402020217363,-0.00794606864743498,0.024665019450829245,0.08172174367968704,0.003115714340244823,0.0931246261890473,0.0647509399000101,0.024593402677418778,-0.05040630275698387,0.05671661276140968,-0.021260107340302002,-0.05714692408459592,-0.03531279015698949,-0.010379788405736659,-0.04881308006226836,-0.08363125575639799,0.04905694489003293,0.05899859125734862,-0.08601219092604857,0.011576095491516138,0.009407067609292077,-0.0670681361778079,0.012866131557789788,-0.04572434789877163,0.047176405182955114,-0.003579274308373887,-0.048280437605299695,0.06722596183807432,-0.0618154749607444,0.08900706941042826,-0.03300391262464207,-0.00373558202739355,0.07983440853833892,-0.004776187052408433,0.009349630866024689,-0.07858454476527897,-0.03124183060783191,-0.0387113106941997,0.073135826736007,-0.03894347648044382,-0.0812628982456423,-0.09268287991558344,0.04798643101316916,-0.04134623572374559,0.05435892631433335,-0.029698334847418344,0.03222974093813793,0.044666816096804444,0.0077578779478222806,-0.009192823335695512,0.029316198093591716,0.06878234804669552,0.03015781618406778,0.0963296195086666,0.0032540061619747034,0.05505065349508249,0.09087492585553586,-0.046937439578078215,0.08485395090454065,-0.008752823737282646,-0.06994174029455742,-0.04515060593656963,0.0157092264817601,-0.06324136892314719,-0.029430078223138388,-0.08461647182418662,0.028317187542679256,0.05624885567366923,0.0855027538046934,-0.03896095073634336,-0.014409761255109935,-0.04203638887400652,-0.08288011152217747,-0.023957256264502257,0.0346395393224435,0.003213356522811067,0.02235483521929341,-0.05557566290929361,0.002749747300291367,0.07226524081899093,-0.01823759932765522,0.05914687931623153,0.03827839438899641,0.0005685608789870898,0.0534489832488696,0.09822132377277151,0.03285539261018728,0.024350611774663147,0.07321097499906615,0.0052997192978119926,0.07745363583833016,-0.00018167071197695955,-0.04499280842532492,0.0010464702968563172,0.05025164450145402,0.0024453903081561703,0.03752376375559512,-0.054595950316023246,-0.07434220045637842,0.012296950607646127,-0.036673199885623335,-0.05632918929356026,0.01668018875004765,-0.06896101028775907,-0.09331265278367706,0.04434916300229157,-0.06781601833184013,-0.06464371731117363,0.03925009022501532,0.10603830893816926,0.09607347169827245,-0.04450159762618771,-0.06392924344668752,-0.028056490096651815,0.02264599630318787,0.11448837726502602,0.01793051573493389,-0.01352362116068809,-0.021698229383304065,0.006615669671479797,-0.04588201102938957,-0.04121634421294508,-0.02033420753516005,0.04616142458108872,-0.05714898850097035,-0.07815242021605051,-0.04163654299327675,0.009837871044073817,0.047251547622767974,-0.0559305788586237,-0.016436567627849147,-0.07675713569051514,-0.050862548325108135,0.02182553444354892,0.060948624715945386,0.07519922892242047,0.12254972402427704,0.06463635987697942,-0.01792400755761437,-0.03341304707980859,0.021146597346125413,-0.12546527117044518,-0.058600576036872076,0.041888195416614274,0.06730005399155659,0.11866436613134995,0.10362780859860034,0.05993288538337853,0.05513099561438071,-0.04217624476640501,0.04061873070845238,-0.045458069417518725,0.08278524310519442,-0.07829533825530466,0.050903428401805687,0.06487367486820186,0.025427379482887973,-0.07601493697606296,-0.182725547617221,-0.08088418905563287,-0.09482591345147322,-0.058960738676943424,0.01908123095668333,0.1630233228462243,-0.035429158195563415,0.06883672193525357,0.017561603227970915,0.17039910204750283,0.15137999335042002,0.09891717064000058,0.0589752047267981,0.10449654066128572,0.16712333188485215,0.07070767401174598,-0.01379843326725002,0.0031543883900921952,0.09265925176523736,-0.017697646448776184,0.00016851157137640172,-0.0786590437778471,0.013416694607062928,0.04798227690563726,-0.0013686775600216454,0.015222867124331073,0.0190456701366854,-0.16114604124828502,-0.05467310048778258,-0.06214141241236506,0.08176042070934687,0.05502016309679382,-0.011586124419861944,-0.009434797495498946,-0.09042014007148205,0.056583107521224765,0.17229506091862726,0.22677522986692605,0.07605417002834003,-0.05835384657796757,-0.07833884799162735,0.03391756896175093,0.18322402319187217,0.06526850592291561,0.013050989553168442,0.049573290290814975,0.051587847167051705,-0.015833060148119676,0.06027277974226932,-0.04693583949371303,-0.029264112351311357,-0.08122748567848907,0.017935675666868035,0.013333286739486434,-0.11052428970872795,-0.05131994530643488,0.06989650985922456,-0.008387113624477912,0.04916484085684179,-0.04997042120026523,0.10284441854956239,-0.048756888973502784,-0.05506495443215147,-0.08925711952022299,0.01572976424981944,-0.06786287403561223,-0.0182530086559994,-0.12353050941126059,-0.1338424224561223,-0.09943833623445926,0.05705678782808089,-0.06292844429984445,-0.052758035008971235,0.03931937103235834,-0.15495259358166397,-0.12597377796411569,-0.1093395980186911,0.022794303526139478,-0.06833675614097622,-0.07087510322923965,-0.047992526442321964,-0.0798370161049144,-0.06633342587203786,-0.06411203490308696,0.0930602191530897,0.055994267504605996,-0.055506582880601216,-0.051244827451459266,0.06419432457938341,-0.00826823920171108,0.04325411424098703,0.0953313649037222,-0.09976762929042715,0.00524426822561882,0.05267739847560262,-0.00830358154961101,-0.03012737898731853,-0.04970392311774455,-0.12179585955462054,-0.029417950693647634,-0.1220710859906892,-0.10598423010497923,-0.08872653962567514,-0.05801569780985401,-0.05317905638564851,0.07103156704271087,0.015944609348256332,-0.0014080029294307125,0.00984612319148789,0.044637997210764745,-0.0720483184194548,0.040702733223247356,-0.15761203761225892,0.01715278646196433,0.0770791776830995,0.12567840366270638,0.06114488281546685,0.0008614141836500781,0.003578744861397028,-0.009721386973058934,-0.0669840666278872,-0.004876385201319174,0.07683964854683858,0.03058003444933357,-0.04918757167387358,-0.036622017726540855,-0.031897489659737654,-0.03293902170879017,-0.07910594963781137,-0.13295720176937043,-0.014604504565261538,-0.06638009221106,-0.07133760614406491,-0.05524257586198882,0.005177904901989946,-0.038929512754517004,0.04025897202599802,0.06642349177301753,0.11912036699831875,-0.008506716658265627,0.01694757295871873,0.03464417670911458,-0.006138145199769914,0.0616183145202205,-0.02509234615625275,-0.020904475160116516,-0.057359088738925784,-0.17542227398319482,-0.041221750047610556,-0.022880083244135357,0.17693321224516842,-0.012443362292481925,0.06436898064694253,0.15418329028570738,-0.02126117506144901,0.012694443919632297,-0.013569338096150518,0.010656643182755655,0.0019166385897214755,-0.10338626881305614,-0.012170191264129214,0.03085111636808433,-0.024297593926426147,-0.040152519735223595,-0.007288780227487922,-0.004951879547451312,-0.004217862416243841,0.028551447133074948,0.013440405600104857,-0.044671548192141995,0.10047690953909746,0.09929352025163572,0.016796014875568033,0.016283590539967013,0.06338456660895656,-0.16367302641377446,-0.0004909145573609188,0.13416713289878884,0.06508470851836412,0.008954128517445143,0.09670921665628589,0.13486296910416912,0.014572230745394847,0.05589266486228833,0.1283134935356464,-0.05538725540046951,-0.036398311412328146,-0.0889980860355405,-0.028871429346102425,0.002063845833424752,0.06888061254796679,0.05919849014716685,0.06532023709540853,-0.06653936453650854,-0.10009966845676349,0.025863547348302103,0.09738476868735677,0.17549812134904744,0.13516865976864556,0.021694790445991135,0.17053016433737997,0.15198731766270904,-0.017949736609593956,-0.15602467752483162,0.04561968769349859,0.06857333579270326,0.09194377316954072,0.060990389108069906,0.12087557165033765,0.08393873541661806,0.02034899632795897,0.051447795728967204,0.032801817753463164,0.07591789153133674,-0.07862586887269729,-0.061105381727837804,0.024701756868087114,0.012831945493840476,0.014327947235760594,0.029194531525827405,0.004395891242192279,0.03508653341593245,-0.01505840030376871,0.05859106984475091,0.0869160564402374,0.2885539841086904,0.10817771842472988,-0.01203847403920326,0.08295864684600071,-0.11444646399143316,-0.09579658800439804,-0.024914824037334443,0.25315370981122004,0.19017046165205412,0.07217749648456734,0.08021057440652522,0.16383006075838247,-0.09005653432731271,-0.066747651030157,-0.038131368084404385,0.06742919869667767,0.0042251925695093034,-0.03201320886121445,0.02655810148944377,0.06413691960643104,-0.06698131965640475,0.028514346176066397,-0.07257075282158772,-0.02853163694030682,-0.05539330083782392,0.026039468449943363,0.04995414993513277,0.21296729382244797,0.10668007806050342,0.09073692565556955,0.11625854772156649,0.07820410173935773,-0.011763281556097812,0.08643123737660362,0.07920074199637997,0.24730396776885372,-0.06257410579543968,0.057981344548159834,0.30075409691536137,-0.09071520332440156,-0.049345845772133815,0.04475588411878921,-0.018030167710496748,0.06080629088234064,-0.09076390370144855,0.019313071628256077,-0.0399739565442491,-0.08015049690461407,-0.0032101414946017932,-0.0021811250969664144,0.08093348549941182,0.024767723006532724,-0.0023808481178679577,0.02410753210293837,0.025843144613070225,0.22649754589242646,0.1661481429660478,0.1721419370615488,0.1271793552849915,0.1567286427516937,0.09574791598528372,0.16759023540911372,0.24387490735566195,0.20125247379476122,0.16118361559496205,0.10041974446759873,0.014407076141719589,0.029024699824458787,0.002363935018879634,0.01793047630517321,0.0031246371658542084,-0.14757746078765122,-0.023699691974887846,0.06265236798057006,0.017204978849975638,-0.08013821994768128,-0.04512005345996913,-0.02502654840662532,-0.05644923633022878,-0.06239215907220774,-0.10650805844812673,-0.05732002823138092,0.10722536348516887,0.02749819049015899,0.038539555000516944,0.11847108019465152,0.08988005090082458,0.10063001920251183,0.07602265502761577,0.1388740000192766,0.2730816742560875,0.09883459806934573,0.16678504626747612,0.15014203496672343,0.045540003520231444,-0.06473475741211906,-0.07859640112720863,0.019668674051184484,-0.020448595107644574,-0.12951919689983102,-0.013346360925194633,-0.09749924479979158,0.045251783083527494,0.011143819946321866,0.04881659439542224,-0.011047026876977105,0.04667695428555544,-0.05887950907808065,-0.0706794201341225,-0.046998293986630524,0.020037946730571677,-0.014519097327088708,-0.040690661993694976,0.030278109219479418,0.052294621479029704,0.09605401120080614,0.02079841624028058,0.1982863498891322,0.31840537208092917,0.353937742000718,0.16245300380392141,-0.043708922576311426,-0.10666863392222721,-0.09218295294033736,-0.009743561673475506,0.05672972282861469,0.0016969748535671794,-0.02891936265713011,-0.14028343413304303,-0.005661166640913556,-0.028390208316149617,-0.028209593104005084,-0.03624384929377711,-0.025993123897163146,-0.09123187480552916,0.02708926328829671,-0.0509940679382063,-0.052874222928184535,-0.041516929527552225,-0.0883924142686909,-0.08283576071936004,0.018154089207290263,-0.08081675193897238,-0.04307505028569315,0.07691346680081164,0.02366575128205422,0.18067544740453736,0.2609754900235619,0.0021812189099229763,-0.11436969311189246,-0.05048912365540822,-0.12271011215617796,-0.027688392067334068,-0.1272473838360961,0.017152363971442784,0.08541950896587443,-0.033534597508625245,-0.011802521602326794,0.08629691885701124,-0.027657693779315023,0.007685219688382936,-0.043393814162626415,-0.04835330204520075,-0.05611502554707889,-0.028445377645746384,-0.07286396333786964,-0.09088028634821227,-0.030847652812007388,-0.0473416359036869,-0.030468256163305472,-0.12653706737791953,-0.03594258960507017,0.03856874888436633,-0.03603952102560212,0.029894904967189443,0.04409913775343873,0.051323580456350534,0.007136149386710451,0.06861872657750383,0.09195076730318846,-0.016115363414501375,0.06428647972002247,0.026472712037782512,0.05657228391346383,-0.02368184939784939,-0.05647343403771237,0.03935837787982275,-0.001299495358005865,-0.07976992459206073,-0.05484553379543474,0.050136330209838334,0.031483183134579346,0.03191457682807166,0.014846044739640537,0.015886724122748913,-0.05696779347738914,-0.04328139832402505,0.06499996795626133,0.008866260980133142,0.17944822738349497,-0.041450349082866725,-0.1279229867646258,-0.005221187036910617,-0.06980382049808423,-0.0663831584932825,-0.009698336290279672,0.07192364054577882,0.03292102542621915,0.1303866990440955,0.07520120502150121,0.05463652949662345,-0.010710155742610977,-0.024498975763670095,0.011249832557745794,0.060628053716962185,0.02612444307824341,-0.017742400767444547,0.061175074796620495,-0.08256127412099755,0.05051642035483583,0.057139299636606716,-0.10645044368757084,-0.0468433669652362,-0.03706849675533758,-0.06351541251895544,-0.013347116445408648,0.013393579684002411,0.04849583067359051,-0.027893636888497886,-0.16642597077612528,-0.10475196347381162,0.042588107229132234,-0.023393989915135655,-0.01955375183096175,0.05481267274640385,0.17672375069382323,0.1306508339936811,0.020942393090738264,0.009144307129932576,0.06274211351278511,0.09749728232481673,0.06382796435819328,0.08102534591922946,0.05886958195411331,0.030317822303301607,-0.025162667094598714,-0.031202155603094077,-0.031340123033220056,0.08537219616651057,-0.046687620711249954,0.017031265847412182,-0.09128750791856631,-0.07356594981048378,-0.1472223513990732,-0.04672767522886245,0.07580553433237232,-0.048537495549353625,-0.09105847444836682,-0.11976085333666953,0.03216325169104402,0.1421237165380668,0.06545849584083072,-0.005381969617422563,0.0805094584774031,0.09377491348492643,0.10372477888745185,0.08862705014579296,0.09561970460453137,0.02319708488605746,0.027502468301250617,0.007062439401003911,0.04861972608901815,-0.07927894084337367,0.046821096863217386,0.03985522749900924,0.022853203897956215,-0.038145834475432364,0.072548457293058,-0.034990015891846825,0.001360248367672572,-0.012654146886763671,-0.06243424374785591,0.029580692696152818,0.017483575012134395,-0.04376101517546965,-0.0940571924793953,-0.08309086711917639,-0.2299462814879706,0.0041960919466521055,0.07584064388293536,0.06671290289433231,-0.010163492049744092,0.037964127200560326,0.18529394759480272,0.05985379788574193,0.020418068149438237,0.07513070449441714,-0.049933582778403984,-0.023316910538988996,0.07459606267945751,0.0010600907668953184,0.08374488809677409,-0.0584728663809049,0.023166031608555668,0.08311988412446256,-0.08313205265550909,0.02695389115023415,-0.07620615946039976,-0.11184019447857664,-0.12150400198517995,-0.11766586558815444,-0.04615325452257358,-0.09325281466455815,-0.1066519872592391,-0.06471164838268985,-0.053108105342438254,0.07185502455797443,0.08458909953767962,-0.04160267729822953,-0.0021501969555269233,0.021075668642087753,-0.006097693797094264,0.006665765171468454,-0.04943190731090889,0.04924915136250156,-0.0749430310761566,-0.030087515981176045,0.04800299383729111,-0.06983725872796896,-0.02794974568740028,-0.058504337796229676,0.03115034990247632,0.03341168122079716,0.06929066689668172,-0.03288283610656988,-0.0856700751237875,0.04878081052697327,0.027264349477384556,-0.05362013107119113,-0.06701453425342509,-0.12031124725132325,-0.04705992740681389,-0.10437473501961718,-0.08850314481007684,0.015637399919978222,-0.04372697143837429,-0.0055640734314186145,-0.10143961987642715,-0.08331526695864788,-0.020158281717231122,0.057678900587853396,-0.03016211922863514,-0.01786104139219965,-0.08305500833019874,0.007081814307913242,0.01878252858013171,-0.06717828711837279,-0.08232522010329231,-0.06591996322820111,0.06535333212148388,0.005078043073023612,0.0036288047809732373,0.06892887161643835,0.036973346848456434,0.006199058115431648,0.04423360105420731,0.07634368802728302,-0.0709700867433261,0.044030413707388305,0.0742227582873631,0.047989072159913236,0.07882371654299096,0.07913778686765587,-0.08006838910516406,-0.044139999872555506,0.009419247827097257,0.07790175252066886,-0.04776121602607604,0.01602021011211411,0.012592273787439125,0.07907538632839631,0.048960010852407566,0.04589198545036146,0.057451315353250335,0.053308528177932225
0.01875685312993069,0.007319086069510996,-0.08614742111885126,-0.05837868089580835,-0.0012905918865807795,-0.04186886308767749,0.006716973460054403,0.08172683167723944,-0.04394057126453931,0.021535766868131533,0.004341859659393697,-0.02257291725620917,-0.0013661280923122838,0.011603361434757554,-0.0042449900309402275,-0.0073335015836199615,-0.017566212480178457,-0.047909733829716396,0.06298189359652386,0.0022703087171631717,0.062393679745574984,0.06749931708266756,-0.03313425670478619,0.04954250811962389,0.04812598976779008,-0.012314416197853917,0.06931041840152476,0.0056381706445300375,-0.06487809599105594,-0.02263997316577969,0.05614929231128021,0.03168601957871011,-0.06626797004459793,-0.052898085710504264,0.07213238268020937,0.048188799665391926,-0.016366192580464053,0.06743702929304476,0.07695915981905682,-0.011784725049266786,-0.011758571981316667,0.08297188809990538,0.00912207634148715,0.07329070925055932,-0.006417784730609739,0.02860461728999077,0.056700193137976425,-0.03987034031919464,0.07823472394881738,-0.07564911922935949,-0.001017965237336206,-0.06439718159958235,-0.04533564033897826,0.04987099728758142,-0.011742121200155445,0.08349270392287184,-0.07264497176402143,0.07319082425160006,-0.04776584141943903,0.039310756923459526,-0.005570637070935995,0.037413329084229195,0.07186471319228156,-0.014740303156960352,-0.036727699448699434,0.004342460961020082,-0.026453143673329294,0.030726427929099326,-0.06150042279479225,-0.004829379788525718,0.03295895135363103,-0.05264267442425283,-0.06427173038150173,0.07914666583356651,0.06937113302089175,0.07113382258826245,0.06553682073048359,-0.027739169294536157,-0.030276257632886203,-0.04886572497193189,0.040522230508022464,-0.08307345272958562,-0.0408559797967944,0.04672927118887961,0.08060832573972988,-0.07916137286352931,0.06793185547709642,0.05151151337469481,0.05318910992956917,-0.06807408106681268,-0.0057964651104032245,-0.046458317071216296,-0.039993457424954075,0.12577241967100866,0.043398562035911255,0.15431904277509223,0.012415398330199135,0.09115112640330314,-9.124673747691454e-05,0.08462623590684974,0.09893401608739975,0.11577927583134626,0.07010912099001575,0.12243673656970847,0.0156389359101002,0.1113073917649673,0.0113286193397486,0.08159178129315756,0.03451397499033568,0.007187358891175265,0.020420730775362307,-0.017415438589969225,-0.021989907411883967,0.01715631804620088,-0.054502264513863426,-0.07255976499404038,0.07389352366690786,0.06157244474347967,0.058404940359386814,0.005169464527182454,0.06817768918691898,0.013378002407710362,0.1036494773228206,0.14333367063197486,-0.0894442898358023,-0.12256287744191721,-0.08405148949213997,0.06520470277596546,-0.018427978413247708,0.13799136986773952,0.15964225287294498,0.16516295612514753,0.14274667971574884,0.11047953555933511,0.021553374028845263,0.023293448956236456,-0.05808179146159544,0.04768297609288137,-0.02331202058453834,0.08412578241288508,0.02753196447347756,-0.07790305926852327,0.05745248533565926,0.048432987122916764,-0.010538937044364306,0.04659612806468298,-0.016267643701174516,-0.002711230062452098,0.055034334489305795,0.11275404270712197,0.027084606087763106,0.04724704037237087,-0.03342514528838888,-0.08050390944508087,-0.1024144253085145,0.02402610957331199,-0.12116292210017414,-0.05042982264659224,-0.06734740504080883,0.06291238423374375,0.09768161095875105,-0.00941033897147219,0.011459235031632594,-0.017611966942975493,-0.0638112852004934,0.05832619503680981,-0.012563177661344667,0.002859909691412597,0.002428189245368862,-0.0684536153460184,-0.07860315153001708,-0.02862806224496631,-0.0362774623427601,0.015957245837239505,0.07758467684827453,0.04241390801561507,0.09443449193592457,0.100199298696794,-0.015329256736358363,0.0014838874240757187,-0.10649739280552462,-0.06634439940050142,-0.07135278651970715,0.017718857678712004,-0.155430567050098,-0.008739766718736686,0.042056801739843636,0.06070318307743528,-0.0662275558362318,0.0467921856567852,-0.0015564821042285738,0.028475328417433356,0.012863353890351543,0.08856689917477431,-0.036601884915963126,-0.08107017269608757,-0.06355609034336526,-0.051320083458149625,0.010844522381365605,-0.010971280381990828,-0.05022082276994235,-0.08599067860039211,0.04889606101150299,0.14621533275776097,0.13904463039981246,0.17289198991109891,0.06722546366850728,0.040224697397889454,0.08509658571647602,-0.020013418180225815,0.0926895887154871,-0.002729167347240772,0.0893440887764048,0.0931832283724076,0.10123537455232695,-0.028240162435583395,0.010157439891564106,0.03686693061646923,0.0017228347070269876,-0.07178238456542514,-0.0315444220603057,-0.0636224687449679,0.044995272069837444,-0.03096462343093019,0.036258886120115394,-0.037041544330615066,-0.05705524788619947,-0.01779410463379532,0.0005182649322978358,-0.049863064207868284,-0.029720567760368737,0.022624442772423762,0.015875949001932156,0.22047160139923336,0.1993740424055596,0.23367681484628974,0.1583148362828986,0.19095112685582127,0.1381398742273454,0.09658077483878263,0.12777035819276916,0.012104876648639809,0.061410322995932666,-0.10475869002843839,-0.005781222820260763,0.0028987134047029775,-0.01880327599438175,0.06223735418991822,-0.023678391815878868,-0.04400617625648387,0.05827237419034794,-0.07228383127118951,-0.008075306766499866,-0.07142648685908155,-0.058187654350743356,-0.016466122606592803,0.0309753946475565,-0.01004789118942371,0.12200427021946056,0.1268338591722241,0.14369754079677705,0.11872361930149992,0.15280252400236746,0.13664561956030183,0.16284048527098632,0.23399131769251827,0.16884175242505264,0.22924336235432483,0.05524392419777629,-0.12729882015606556,-0.07012990863725771,-0.10073895953014744,-0.005830920645344276,-0.03587333484563356,-0.07197294124628963,-0.09148523912160553,0.07177124927766249,-0.02597646646269433,-0.01812307817031737,0.07031455016847492,-0.020941354009558735,0.03604080520818693,0.047539553702831805,-0.041196134879796065,0.06948815951009535,0.042534838425146076,0.012994513279917453,-0.016936631994871477,0.12816972550574074,0.18788638599352805,0.12430596458642874,0.15963907934027777,0.18076265238479594,0.21056854540458994,0.1329097418044479,0.04750631960835404,0.1267516964129706,-0.057896180257881256,0.01453598086211415,-0.0865213919714374,-0.024336691360353758,-0.03292338893345029,0.03857499110441752,0.09643235195739855,-0.0011416424601271308,0.07154183822690302,-0.07390323055417675,-0.05875364063445808,-0.007283265303217224,-0.03041893787959169,-0.0742883870052861,0.08289835761496364,0.0024520821073190143,-0.011555436681178782,-0.041503200406177644,0.035415103788526026,0.08153617781239947,0.12614614511962693,0.027965783087359464,0.07915233150613873,0.041389401645650435,0.11253589262524115,-0.04374755997752641,-0.07398337285729331,0.0728890381654848,0.024284830681138344,-0.047660491691976024,-0.15359832463630083,-0.19113174468143532,-0.07746485799968292,0.03554875507369774,0.13324949915142417,0.029826137413455505,0.05808732636489129,-0.04327195177480068,-0.02774311668966423,0.06528602552720143,-0.007077300239773518,0.09205831487678921,-0.03735971993341124,-0.04680737536922918,-0.07319798465124332,0.0068507326214769385,0.07268784142739486,0.0773740376855812,-0.051799455910447954,-0.03310588017063836,0.02120267002146,-0.1324819145656101,-0.19286074359810648,-0.1756291019593872,-0.2479596933960066,-0.011190885562895833,-0.09700461607738467,-0.0779972043213025,-0.08234593892242074,-0.14690270658056892,-0.0859193741351561,0.03240727028549857,-0.05885743410915693,0.10161814562436437,-0.05296881553302532,0.06654788611339096,-0.04452780731842567,0.0693619178025385,-0.049881147681708024,-0.04699504758837098,-0.0027741681943405025,-0.006542899750764115,0.06052456763655965,0.032787474120467244,0.024720185572363617,-0.04125310436079533,-0.09842551573795194,-0.20486623369214474,-0.1305717905841002,-0.19408053029318278,-0.21149858572679103,-0.28434952275998204,-0.020865818342268326,-0.013574367261678915,-0.04274023441979585,-0.012895688315469639,-0.07201230596063976,-0.17119943987376776,-0.10984230788786092,0.043059079591735654,-0.02525126725941711,0.07033922299414488,-0.03356118150629494,-0.024395512585908757,-0.0435257975282344,-0.0032116928605193896,-0.06332581829195161,-0.0019390412812330562,-0.0805649763443245,-0.0948851288745018,0.000384753248754039,-0.05934980548587453,-0.07144279290054335,-0.04537453821160602,-0.044698261486592804,-0.097705374442893,-0.11040122051645335,-0.14381023402423398,-0.053446434699531656,-0.07638190700105567,-0.07334335898254817,0.013776456023418156,-0.010763640490203844,0.013685394240270266,-0.057862486640468856,0.027306799327653446,-0.014472805584597369,0.10859770196140495,0.055544831828193544,-0.06586702433449303,-0.049942830420531804,0.06121651059976255,5.7542295340429825e-05,-0.03352389935610215,0.06090691950049951,0.08611885236518489,0.04709869031890617,-0.11560769691432554,-0.12246907377043907,0.010950011347146857,-0.02100727336881196,-0.06285987195400138,0.00465814043852977,0.09807700772021988,0.03274713144868229,-0.08645496509657039,-0.08642400850027125,0.01610259097821576,-0.026553283606007245,0.05676282337355021,-0.10945079152700649,-0.04900428853034464,0.025655845296881915,0.09906715307842066,0.01925920038950277,-0.029249052234771644,0.046419629565294496,-0.0012698503317188537,-0.0193123725564405,-0.05091639155442083,0.036288960348950614,0.07261119787828632,-0.06866669240479754,-0.05130918429138104,-0.05627692266776027,0.0658785850376285,-0.04324736321021119,0.011544606345108,-0.031597842481205916,-0.08966449894737415,0.08008898362849082,-0.009181224756190303,-0.14187130820055227,0.013313370755807288,-0.013266779684815152,0.012527235627480008,-0.017073662031804476,0.04573115003671106,-0.01406238412589437,0.031837248352754054,-0.04003986914045562,0.012864032001110803,0.004791526259024221,0.08492800022833746,0.07240490321420755,0.0015354657086745368,0.08893514582496116,-0.06597682030159042,-0.08470467417177718,-0.012559772320468503,0.027295235853291827,0.018142219020757962,0.06916116618381847,0.07369939443837878,-0.057402992579999416,-0.08867592619073747,0.0010150746158012875,0.010115475354856235,0.037536032969604255,-0.04038114462200129,-0.00012628557261774108,-0.013057420379601897,0.060186230272392144,-0.0001767591398571195,-0.13692370603744494,0.018494972014007082,-0.0509675455287209,0.04841240814122828,0.1029662776007042,-0.007242461481717272,0.055155522276328466,0.02645036349614679,-0.016642956353423374,0.04579712126685847,-0.06885148291355485,0.033951515534188736,0.047943121967718286,-0.05485558223674556,-0.03564196579590448,-0.033309831025550754,0.016825641189974525,-0.03258762757179354,-0.08490177432252577,-0.08874733062478368,-0.05778504116502665,-0.08527648873121488,-0.11638808101287391,-0.14410981294518455,0.10583304227096949,0.08770084081592608,0.10103084016798057,0.030401814009044296,-0.034449084002893586,-0.03505613043808741,0.07311513905056617,0.13643590964387728,-0.04512177659408611,0.013777291849191575,0.08757896369691225,0.1633856794151089,0.01680256087906349,-0.04668564430913463,0.0049925349039429846,-0.07254111722646826,-0.01604184414823417,0.07350641991230572,-0.07096694555145541,0.07884943813915939,-0.048904871302886496,-0.0012547500943722967,-0.006261484081433641,0.032150061818004984,-0.07078392016320033,-0.03596754268655848,0.11120231365284058,-0.07298553783300928,0.04051934141202475,0.004166062092006927,0.08584846519447933,0.05524531959659005,0.020595923670231817,0.012866080539293159,0.06318267704952145,0.04514871804105181,-0.07266186991628845,0.08474240532556856,0.07229314112041497,0.12069527645855282,-0.025257046773624836,-0.0276455097688741,0.04716051616720816,0.03749482359848009,-0.051498556620201294,-0.04111773318949409,-0.000973002227142517,-0.07054081911617231,-0.04020068424045067,-0.005413430941497435,0.005521199344514395,0.01660385372039093,-0.03784642463033886,0.03865055232305165,0.05585952669553154,-0.06973770257592016,0.030780781889651495,0.08284651481560647,0.0725349887728352,0.02296813006195761,0.16323479323055456,0.07470568805536022,0.017495864731457034,-0.01564164916285196,0.054271010758292965,0.03026764702247943,0.09296448270133872,0.012321772643847028,0.058112094868894876,0.04984057378310978,0.03434360908689612,-0.05961514407370239,-0.016318079311144526,-0.005229202125934092,0.025981531344334095,0.06249237838565192,-0.07324895335067796,-0.0994060987544082,-0.10352361678080553,-0.047257464371421726,-0.09993153432537151,-0.036809901536754584,0.109103479652476,0.0873847460585417,0.06196482796962984,0.007209286649627483,0.10913140447552384,0.12362746808397411,0.12121973365532687,0.05246742288796996,0.09332387382849114,0.014045520510661507,-0.08160988349687481,0.018140324821713388,0.15816805047090185,0.002882859723738218,0.027465738380396988,-0.0764157245270733,0.0006612408222224867,-0.02347051785481011,0.0710610426088485,0.02187777035302816,-0.05876050652584102,-0.037802594364938887,-0.04198046853961928,0.011422088138376162,0.022239659340297487,-0.042605571660248164,0.06251377826895332,0.022677132522252303,0.029371180328289885,0.09741703336802335,0.03755643087316788,0.0243881779866369,0.006030976025547152,0.1426801233326707,0.13999604784677755,0.029085481932177724,0.02786736645257868,0.09809522036571977,-0.11303255361018268,-0.02275721234575592,0.062186992473693095,-0.00782262960451267,-0.07836827108627549,-0.03402073972684125,0.013084504118614913,-0.07249811877956136,0.06622349743350758,0.07173329297828447,0.056136586781555975,-0.01048945740601035,0.014330461662008152,-0.04258457988654509,-0.012796024694382983,-0.009147614319603628,0.0012731963203545834,0.051504297993083856,0.040694341929011404,0.10222715492930984,-0.07668212093524208,0.040681876857701846,0.04853269895514546,-0.08213531763536487,-0.018470997880813852,-0.1274284618656134,0.09672625196160077,0.055917202981631185,0.012423750885777535,0.021820892334479477,0.010718236546251021,0.06315615962718288,-0.021089151615526627,-0.02810030116862935,-0.0808658844155309,-0.06257400030426104,0.05505628708314872,-0.043204257286774336,0.01647238604163617,0.06718855443783513,0.03431908607718768,-0.06720860971036645,-0.00627989831074192,-0.004425718382883986,0.11974779339496439,0.09191717630603885,-0.03383914898767521,0.025201389156819527,0.1355607603598386,0.12405378866693387,0.03892713877074256,-0.08386747171916706,-0.06866392391649193,0.003867196885425714,0.06226037108111997,-0.05651723778204446,-0.12347954966053085,0.028960260688490967,0.035476868009647,-0.024448639425462857,-0.09279514562324626,-0.046689989783585545,0.007681085037351714,-0.07778770465776334,-0.014616851630212674,0.06888560136255129,0.014776936993721793,0.024268427901043357,-0.05796448973354802,0.05081307538609493,0.06416041664893493,0.09075292160050444,0.04171026729304475,0.09504566642365968,0.12851781039213098,-0.00581569170916662,0.20911989323940589,0.15995140656685924,0.03185878252196218,0.06108872807050458,0.0327186646224521,0.04741029097269893,0.13525100738899634,0.08543785482373002,0.04378983773204117,-0.07030116827580364,-0.006873402958642327,0.007397649328229075,-0.06888805883453299,-0.08111256152775859,0.031060621893442095,-0.04005372750703727,-0.06940607714545652,-0.07417321594998616,-0.07427971925853612,-0.0649948306542428,-0.03671568866385379,-0.033258504635829356,0.040332973652777694,0.09016159354575118,0.05777083461722111,-0.05902656339354222,-0.04342053685347195,0.08248935478654756,0.01292962511148188,0.005880501472580974,-0.03768424796793711,0.06829812987927136,0.1805733080349383,0.11174423794375861,0.11953042528762164,0.11211784280343205,-0.035128026726019564,0.05572976078112742,-0.018409305755422392,-0.008886119751811559,-0.006317393797199372,0.06493782995033678,-0.008562982138893267,-0.04232680816320229,-0.05156486438860695,-0.062392960287815845,-0.0767422320008919,-0.01159056141828338,0.05654078537097512,-0.013588770197566515,-0.08036653884519189,-0.06049640540516919,-0.07277854063343629,-0.0767333536615706,-0.06787096909246396,0.034321908456284425,0.005103849777822881,-0.0773324648589712,-0.07737624038066948,-0.034869077039164295,0.07308810079380347,-0.060666982553843014,0.04348669056289848,-0.056964905272643175,0.018041607614019385,-0.0758037405942339,0.07652579730475059,-0.04470819760124819,-0.007272292787639688,0.008488883603897502,0.056221343561598504,0.029346512784287314,0.04567540776802735
0.057360857765602034,0.010628261430829908,-0.06888888541076463,-0.003033181317433301,-0.0340913757528347,0.05509253821614179,0.06101612644330999,0.051620136010451276,-0.0706234056170472,-0.00840109533407527,-0.06683658400018881,-0.008542816243633055,0.0326404506665081,-0.03802189819805861,0.04468577587520373,0.07375095174180529,0.0531416353675843,-0.0472278918394445,0.06420599365769737,0.04248129692910582,0.08157182154841365,-0.07131243891350816,-0.0423740718853239,-0.01849524125062705,-0.029721100487930897,-0.0764600700308618,0.010657763272778103,-0.03256130606304581,-0.08846585068277081,0.0344317133828686,0.052475090675514396,0.05538673440892705,-0.07581935649018319,-0.026549173663150086,0.02682395881235893,-0.04751971960329906,0.009782064399517157,0.07665463147414725,0.07693247650041489,-0.016995695905563345,0.05063618138469205,0.02378742877751053,0.0801084336877393,-0.05989603809361702,-0.023783036208718692,-0.07229579702972015,0.003982158254544483,-0.0724474265534612,0.057910558329100595,-0.08474930777193337,0.0010342961114980895,0.010168105882750012,0.041297907171774444,0.039000603393787484,0.026413037076187945,0.002165554173410973,-0.08419834032635083,-0.07771344149612135,-0.012133589224786976,0.0645382246426132,0.08064393103608787,0.013745271078003675,-0.08455618943336994,0.03188356787030939,-0.005191747865949809,0.08642767642022244,-0.028945201610385243,-0.02680889087603569,0.014884238610821863,0.07692583241521406,0.02894554695259042,0.027991145506577293,-0.04513653291242127,-0.045882465104471186,-0.015296329510250862,-0.06821668119552583,0.0006433797321578974,-0.022099117470909924,0.030053850627405943,0.08350561915097614,-0.04263898623913011,0.007911312010948962,-0.030040796878173733,-0.02298013805044622,-0.004758699966728132,0.025090157475285858,-0.00978083207224021,-0.03481439548474939,0.06379279660660686,-0.006302476829731631,-0.01897063560826085,-0.01606296538590649,-0.027256336508671288,-0.03810469045692587,0.09115422761244625,0.10515812540116809,-0.0464452536542708,-0.002842849933788323,0.07719423887341041,0.03574204013236382,0.011374389966618235,-0.010591464112836705,-0.010051159781815948,-0.08063881027605006,0.02250904346249656,-0.023564850010880316,-0.07406755773543756,0.07529940143386937,0.07747728092419101,0.05271961869303406,0.08467232431662161,0.006772664062917764,-0.03171216342171122,-0.010122459261888678,-0.03283872861231512,0.010427741986442198,-0.07884038185056444,-0.03337149885261258,-0.007442418603168107,0.0722753507236713,-0.08781899809789737,0.04007787746273453,-0.07025729543750445,-0.030661660397929915,-0.04689064708312702,0.10748172289075864,0.03709329384801158,0.117687229973184,-0.042428030775354064,0.0763451745087361,0.06252465769454127,0.06626093157951855,0.1256756368326818,0.03089006428199282,0.08477797557354476,-0.0205159934690141,-0.07986954322099739,0.06971324120999013,-0.060147365760135595,-0.0011879151218137259,-0.0003226094968778315,0.019106566773205894,-0.040720016073804044,-0.05943164735922805,0.024857910379602492,-0.041931847145644956,-0.06132666311273548,-0.09753628915942714,-0.0743279740514681,0.05464128151277685,-0.023638948654577375,0.15290131573273133,-0.025140049929800633,0.05998294729605411,-0.06457448940252375,0.1377988532862352,0.03891778215866696,0.1222689248373767,0.06446984454468932,0.09927171214551923,0.07329550415962079,0.08615119147518371,-0.013188978887216953,-0.07313535094719868,-0.01268267082846617,0.0412946299847339,-0.013954512163206059,0.045691154635594665,-0.03705612431884582,-0.03599336715623073,0.04619984794250479,-0.07961486810880765,-0.0422969831520716,-0.003987046496211545,-0.0833848446335521,-0.006122886125441632,0.13824078373803905,0.07512506915927146,0.10707625696689564,0.15713400535570884,0.07908808219740784,0.07243796795561491,-0.09026077563563899,-0.07615642523365687,0.0840150721220773,0.11934550919266423,-0.011566426096292513,-0.040407748136749695,0.008890506384404267,-0.018246835721995168,0.03420075384597853,0.09333327428633398,-0.03918790195586004,0.008796597253528703,-0.029537326700166053,0.016923323908151933,0.0071664212815548915,-0.03556047437213548,-0.003490873617570027,0.07842707374435286,-0.02862832427978074,-0.03138396412627556,-0.012544365043798791,0.02211031794678264,0.053829251610031714,0.0661297553575758,-0.004881866550257874,0.0056425226160578944,-0.038639945731619135,-0.06979257477762173,-0.09106030862796914,-0.05351132267466003,-0.09669104330123295,0.047964474942418005,-0.09954296617487869,-0.028647016540945577,0.01698522501150515,0.04031221051565118,0.12570051702428345,-0.013189550160198838,-0.06314115682345126,0.06216220762273104,-0.05920528207793543,-0.01326074525796103,0.04567417882713008,-0.03652531346168388,0.018895616637439484,-0.014495947809719153,-0.1046052278361661,-0.06096872878945456,0.02694592139820063,0.013119678663086682,0.029190878978002634,0.142335457039956,-0.007054871789118824,0.007934658681634992,0.06992182828590286,-0.09343914925462492,-0.14766462452618362,-0.052229377041473034,0.03129027121643807,-0.02362898209590702,-0.004056217502195535,0.08817453362945067,0.041802631961771246,-0.03921348967057486,-0.01675722861118981,-0.03494437709521739,-0.02760789609366901,0.058907394709683,-0.022049286510636645,0.03136093806192695,0.011578724770059322,-0.06844746539496653,-0.004087141645332779,0.030521823534971026,-0.07427626412092897,-0.07055380768910112,0.001737564843680327,0.0007247319783832657,0.11609916754698359,0.046333326089314605,-0.039273842654906105,0.019878112937851633,0.0805221140189162,0.025019905731651856,0.018858321971674887,0.050472357554127364,-0.11198330470009404,-0.044471536876940866,-0.06086105026798688,-0.12263088050727954,-0.03236520185889339,0.026891380957613325,0.025647406573049036,0.06771546270015492,0.053248752079330004,0.03106886430521936,-0.04128031007325569,-0.039328350612537866,-0.0542223432853091,-0.07648883491011234,0.0259377637152787,-0.07707886214553063,0.05740779344597864,0.01877166320329568,-0.026254622868725867,2.1204894236094257e-05,0.023779781365400317,-0.026479971012792865,0.18395586862578323,0.267002411127483,0.06629683505798802,0.09049678981232635,-0.07475318331480846,-0.15390149310738693,-0.01825749554829931,0.008592747203070728,-0.07088535528972993,-0.00960583662856011,0.053289772513465644,-0.006552120611545453,0.09189586413865244,-0.0615307343057768,-0.015194955995783457,0.054356565451483166,-0.03097749570986336,0.06505613530641877,-0.05326310808790028,0.041917266358711555,-0.023452713723867414,-0.0261546059272772,-0.0758844693314098,-0.03858362614322017,0.05894536552973726,0.0080808490518637,0.004220764022579942,0.044952238509494515,0.20555126565748721,0.08899252899898344,0.08073876275419684,0.01826657851931539,-0.17450016492065581,-0.23657603300203264,-0.03889147526154273,-0.005831822438010426,-0.06420527954670142,0.03364528027336697,-0.08132011047761498,0.007587465226914477,0.08500600475788053,-0.0003696636019862684,-0.07447338404483182,0.048056753279448514,-0.03288065121866966,-0.052170223400631176,-0.050339931545084066,0.03218119726460079,0.06596283450236919,-0.015602706349265846,-0.05418228334477673,-0.02110277762361964,-0.03501683437515802,0.0013283679669885253,0.03313887039850815,0.08256152730674207,0.0697092929919146,0.048801317368831185,0.039988283855279964,0.03373472024225909,-0.18057712524671624,-0.17365700219016839,-0.08594669360925984,-0.00644315387917405,0.007456885653892632,-0.025049284791084925,-0.09658240916840875,-0.02475816678279106,0.06045838563618196,0.1111817040076854,0.015145127720090447,0.011007760841147836,0.03306522795790268,0.035607734981614916,0.011484388083434173,0.003165980173731812,-0.02189887662302278,0.06492571881906589,0.03593122541592943,-0.04897246459687212,0.06036645636062044,0.051277961879075636,0.08319398136354525,-0.014271530414249112,0.15262046662851445,0.04696914283639798,0.06619630647714417,0.007294382649696956,-0.15303488531314896,-0.11807213742846442,-0.04548453649996414,-0.020993425502634607,0.03647685935506232,-0.07887181247603088,-0.10049842881326969,0.010222424027600907,0.12705412170567057,0.07198707711660365,0.06350634533371978,-0.06932777891362485,-0.015348507490588637,0.05831285532311773,-0.08801671931060788,-0.07945427581394775,0.014112642392632227,-0.020581932819388755,0.05517040784737092,0.007984632614940063,0.08119362097629254,0.045283833410714805,0.10084195332948531,0.1414226956579836,0.16501866528291076,0.20459097902459628,0.13096863685471835,0.05316168250589503,0.04525230190914815,-0.11520932278324489,0.061502273227582664,0.01009485093046546,-0.07901034503876829,-0.12279936439512584,0.025804948584602902,-0.016002268210336172,0.07973085518888315,0.023224212521301506,0.007404716882504429,-0.015884896777237728,-0.06273672482402201,0.026221144735526593,-0.016813714859469524,0.0420861103657255,-0.07536611903798239,-0.008221247957256268,0.08920301056462861,-0.006783182259501142,0.1332219230902135,0.12195382631894094,0.05865663950813541,0.1807630414444627,0.05137674021135382,0.1670910526944496,0.15439780128882472,0.025084869232365983,-0.035220095969327944,-0.009250258567186302,0.037239360787011115,-0.014631211915040387,-0.031632012305598235,-0.08629320897994945,-0.06016959221390095,-0.03693140645748914,0.07900967535883233,0.034125966609723134,0.13828402538919604,-0.040613510776773075,-0.07219019423205074,0.013762024109724644,-0.03547787808121028,0.005190656634250215,-0.033113331154735026,-0.03906453715393614,0.037801580511360885,0.005466340917615414,0.058925582247100816,0.10727232841947101,0.09592502803121264,0.1540549571509242,0.10545993737279194,-0.04786720824181296,0.06234081943791494,-0.10691502919084214,-0.05757432878553603,0.05009462886015976,-0.028155855820647613,-0.08403628123087983,-0.007558926316956346,0.06570142223456497,0.11237571444335594,-0.05876928097293725,0.007596346248107778,0.05207123662374285,0.052266094322380816,0.03925184332038772,-0.06959234335985187,0.040292295687497155,0.005265899256881163,-0.02997142019463833,-0.06314610496831179,-0.006963277346839908,-0.03366335680189621,-0.04763386955322409,0.02718998754178795,0.1733913049301953,0.06433796020990395,0.03560322668889988,0.04215862676192306,0.0067836836235614754,-0.0393350822393537,-0.02966366134020648,-0.037785526868534806,-0.014785238124199618,0.022891590461462292,0.027444451813592452,0.028001852607853792,-0.0200509737723331,0.0594466820163804,-0.11411034976484209,0.06620196019429947,0.026674415719932586,-0.011138229769557079,0.08100424023451316,-0.052933906269079345,0.02334120052871362,-0.04849764617717019,0.06054575950516303,-0.014387719094900251,-0.06519336871211093,0.053689879551967926,-0.003584265853671946,0.12116285791761944,0.029695782529707747,0.034601112816109995,0.06745917167602791,-0.00732029086062362,0.1639217891504134,0.03428154149260843,-0.04056636214251223,0.043974281523900885,0.09072379158578801,-0.07882796512960581,-0.009983329452221643,0.008106840475551273,0.040437835179946605,0.04451312932674284,0.09924530602664174,0.1497121917324759,0.04162819005050284,-0.03806614774050279,0.08649156009114524,0.07612817250978493,-0.068347855696564,0.02142498886445672,-0.02516107188581841,0.06415613447960228,-0.10644586796511642,-0.08213123577209497,0.04649426409907074,-0.010881779777886277,0.12178365124568111,0.01259905055738866,0.14231961201703092,0.19616133796552823,0.19242983787262866,0.10773007482355478,0.15764059633877878,0.09425899046183604,0.028458808036246428,0.03429581330460438,0.009844537901953318,0.018722403100627866,-0.07664162298962257,-0.058546702033594356,0.07609437380718698,0.07072820657678501,0.03603659279356271,-0.02556349374984682,0.019797700864291428,0.0753049584431272,-0.02466069916056458,-0.039504116411604735,0.05638692417327493,0.055782132198128706,0.05288869938071582,-0.006638590085532702,-0.03201634447039662,-0.06867464471780022,0.06884768517805379,0.035740010288995774,-0.03993507745006845,-0.022646399233812464,0.060960839577260416,0.16659014435758232,0.10752573456091684,0.05750883968235992,-0.05869473707217034,-0.005049178049690881,0.0839320020081691,0.09446606509267459,0.024083481703953226,-0.05354160611332488,-0.005020683686794433,0.008353564733245432,-0.048045856833732005,-0.02049224923225871,-0.08726507180642129,0.054043889237515665,-0.06155377229368996,0.07682155652643755,0.059264165073758215,-0.0024950535475995205,0.02456808631462959,-0.033573118328524526,-0.0382105842492842,0.01138994741254876,0.05994837068340777,0.10275807048347652,0.04929108178396209,0.08678905533285916,0.18709126695677708,0.13930916153787526,0.06441079639053428,0.06063612088845716,0.09857625862892432,0.06646475814007462,0.21019836327258784,0.025080474871659972,0.013491885895338429,0.012908741079825667,0.03218033963058274,0.09006485156548268,-0.051056378057749714,0.03827127542039657,-0.021830807869685213,-0.03306334156536051,-0.046177444959292165,0.042418054433104,0.07787896131254964,-0.04271251869402662,0.06227905270522855,-0.004476764957704573,-0.07680391012858893,0.02395900767123928,-0.027944417226626085,0.0039169594397130015,0.08469871868173685,0.021220175477864135,0.20938034402565658,0.06473300812249067,0.07958933543194778,-0.009188852445902163,0.09251582862885252,0.17814163095101077,0.10568612354644208,0.05312861042226154,0.07470419746528767,0.031581886957994194,-0.04559542715498071,-0.042422689996328616,-0.061391539215892216,0.006514636175864281,0.008088179944267216,0.08265037086529178,-0.07586138075785058,0.017358855462545075,0.016142643620731964,0.0314650583031175,0.0379051223784022,-0.03866621281113973,-0.07451097792882398,-0.059783561186039606,-0.10678050610396006,0.01786200099220443,-0.08059448590932337,0.14930658655615328,0.07091599291431083,0.07465955105873301,0.07430456817835741,0.1713933772669323,0.17242961648612018,0.13166624789421508,0.12393010588273756,0.08004580640727078,0.06269609259222843,0.07436362213168722,-0.07300937007688282,-0.01898036830212535,0.009485137881178574,-0.010167751432437932,0.03819020741848547,-0.016580084722485566,-0.06471513034356077,0.012047236684199521,0.04708401566360187,-0.0493579948000089,-0.03135502906228158,0.06694844325048703,-0.06829942423776517,-0.04246784507194265,-0.13838918009847212,-0.010729394991010627,-0.09354668777897772,0.07294453220600779,-0.01578536022678503,0.0032542361963941997,0.03221809014653412,0.12853298566841062,0.1560003380456008,0.11589984054184653,0.03994402652393546,0.019735729170698366,0.04891224119231291,0.019968384368745574,-0.07472059123422477,-0.06884153634197647,0.05080002651917425,0.03127907635543369,0.03340703058307759,0.009750131106818109,-0.06950475650960485,-0.01116836254704338,0.04432206034782956,-0.01468698146101892,-0.04294747834183239,-0.09164893933850002,0.008331474658289978,0.07202858020963251,-0.045683569631831504,-0.10853270461251023,0.042680804733599934,-0.0882500560515049,-0.07177933489807346,0.0037907780833703014,-0.06975356497276508,0.025699153382986218,0.055079584771291074,-0.0346314564336338,0.00029116263506661066,-0.07970034905705214,-0.11090998874347577,-0.03164122854231778,-0.05203623378113331,-0.07832881798251284,0.008980596867654851,0.034885042632801774,0.07862390294464744,0.05842750693764402,0.03066294854961385,-0.04569049514625552,0.005063668629489317,0.003635295899179079,-0.08268983611994603,0.05840243612421824,0.05650151558006789,-0.07826479669292233,-0.023593998920365518,-0.043848650090148024,-0.02016698643640325,0.036279841140426906,-0.0674576183563501,-0.009235856247757617,0.042353717693748044,-0.10414821452783636,-0.032282102005927876,-0.07384284909022426,-0.03601668978932494,-0.0804161297670437,-0.05451996254613266,-0.008163463139201315,-0.02834995174223657,-0.0025150078662779145,-0.04819989401796662,-0.0618351588950222,-0.054287456874466726,0.05799808187578823,0.014177536953888605,0.060470018478165466,-0.032716058617148824,0.022094098065044764,0.032423799911764216,-0.016886837397021646,-0.029821078731404667,-0.06496969450631042,0.002536246884885044,0.05816987613672908,-0.017264304493624046,-0.07662429198300341,-0.056227769562786065,0.04183264383104238,0.057197453974065095,-0.04635232387851533,-0.08275985823687369,-0.05977047664397552,0.0562045827790723,0.03867443629492032,0.009051047475230093,-0.013533126516461035,0.03877692801042974,0.046318157426752216,-0.05717060206739293,0.08587908358421664,0.07035846727974297,0.023228312478527528,0.0038571741469896384
0.03440141284016905,-0.041605010375822316,-0.04786441746329152,0.0072044591297520865,-0.05327494089964024,0.03512514002792057,0.0364670064607392,0.05370380654154459,-0.08688921388933374,-0.049410314690528465,0.02727604133695102,0.03306874118826025,-0.013386284675551283,-0.07486280477075265,-0.02511824586147667,-0.020877826706263425,0.0766932439017041,-0.03913294665126119,0.03660441435474688,0.05902917065414801,-0.04304927531887727,-0.06401336431693296,0.024435700609018493,0.0432599004933997,-0.020151434941883498,0.02131863096649672,0.0452024258190083,-0.06529951042649436,0.01556088013633529,-0.05497268377087805,-0.008262664181016687,-0.08103006934622937,-0.05045022853803703,-0.06365458755072632,-0.05280142747256963,-0.08572077052831134,-0.05747783927092345,-0.05656262051169188,-0.002149547108429505,-0.021979531716936746,-0.06670773812271438,-0.0032140310287594115,0.08064268018969263,0.06261855660517378,-0.015672817716805704,0.051757493684073466,-0.06950458851998295,-0.08014618456398485,-0.023510565443032594,-0.07719627494754103,-0.036885838951306614,-0.04556094665882509,0.04917505622570895,-0.02665327467518084,-0.005698355030150949,0.057906649795082164,-0.0024489271388679528,-0.00436873376460122,-0.028231042447614783,-0.04839644424954651,-0.04090489713765235,-0.04522868787319263,-0.07585215416852989,-0.0708673898349884,-0.003134203864305405,0.017727327634658938,-0.029791392051957792,0.07003950051288377,0.062170928754360824,0.01725452895053991,-0.03138024424331605,0.011708259264438215,0.08159485854533792,0.0010473996693781172,0.02482721220112438,0.0547172213710349,0.044657809572618126,0.05214503865272126,-0.03357980385221109,-0.071503336757706,-0.06460738281972139,0.0009350923188710085,-0.040812905585788616,-0.005466670364663604,0.05787828258981824,0.0051827152074631466,0.06104144174034916,0.003747074200672858,-0.062256148120874995,-0.0639228608140479,-0.03186311312447654,0.014118856530185133,0.07208680469393969,0.03958207474306902,-0.0998106617925478,-0.10310196353860897,0.014876504764618282,0.05014253182620836,-0.07509506145095314,-0.072685111423458,0.00827473950971747,0.048354034262632274,0.09289926036326465,0.01825480229950589,-0.10866415249082863,0.04651560922756693,-0.01982204875811561,0.08108547109261063,-0.019409696614158936,-0.06438670066055287,0.07169719575233353,-0.034647023385778866,0.01310408544071455,0.0015630557164439721,0.06241183864947047,0.058287566161013125,-0.048792267067337386,-0.030987009612682408,-0.051899633724722886,0.06883185919558857,0.07574489179300732,-0.036265360363707415,-0.07901526006155248,-0.10402955829105084,0.06565526991426415,0.10426685634407806,0.14146527786613589,0.04792345818144367,0.0017604937500585404,0.08480065495509627,0.07327819203997718,-0.08536731261617167,-0.08168262883651804,-0.01515565399489835,0.021724475102140782,0.0005609529129518136,0.010667460040633507,-0.07143396482367383,0.010463786462811382,-0.06524834786971014,0.08505787834329012,-0.03101374650317943,0.02660499220563212,0.034983824619850924,0.022702125940208446,0.016936378838452077,0.0595080560194502,0.004475029965025235,-0.06597913020463397,0.03896719485028193,0.017582327861361168,-0.013864888745990352,0.1305219403264832,0.09879419848707738,0.11536031545454307,0.06977925936177892,0.14114882301712814,0.05223142674053167,0.13575313870650715,-0.10412521185145183,0.060259393559999805,-0.005828995807550533,0.010347292809085943,0.07140715366459952,0.0842336713796945,0.03240435575751136,0.07621423353710048,0.0070107624299559496,0.027568914380031378,-0.0782016063982111,-0.07633526032183306,-0.07212403592007839,-0.07500776776169553,0.05285892612615305,-0.049800058219767476,-0.0019651448098667854,0.0008403216289626315,0.003966135629596765,-0.019696848716532166,0.02372471291871316,0.037298415149707435,0.03348209413311226,0.034355771080794115,-0.06830637210136915,0.04438922033220977,0.10048211479967077,0.07662152830383288,0.016735713720141453,0.009243866020690196,0.1252162390958107,0.011421043976532656,0.1436667821048745,0.059368733718762536,0.01828357942424047,-0.037465604540019536,0.06505723457388436,-0.005745660789778564,0.01590385224557056,-0.08140466116287996,0.033363573842733606,-0.08141879252449827,0.04167791677555141,-0.014165554402926866,-0.03797085544307917,0.06667478062123176,0.07103677222130506,-2.4921637136898397e-05,0.08150768300031337,0.02093115224018165,0.017155265137268394,-0.11882366969397438,-0.11174866560744479,-0.07700994157377662,-0.03964144800833883,0.07273883725946434,0.1535038996133948,0.13915580186317808,0.22590056991604412,0.05281180448679113,0.17166516221600361,0.11291597068888627,0.009783022324121671,0.04199074570214194,0.04881213196372778,0.07311129712349708,0.07333878482451159,0.07620754358309148,-0.038407228732651226,-0.038605633872612614,-0.05767361879037885,-0.019603820880057344,0.05416794980776463,0.055649016540240785,0.09865923468202227,0.028209215892513587,0.03830976071167863,0.06493278414939832,0.09231312798282716,-0.0900096062926837,-0.08659730805874302,-0.027111393813123545,-0.08524973830064166,0.05072713968965993,0.1400858163703808,0.025368910437295947,0.13245966101368847,0.14669366461285624,0.094552048652274,0.17425657612252224,0.0970563482777381,0.037766455331916284,-0.06723916287100552,0.04459197230350302,-0.08217225571882182,0.06793967582002615,-0.0716361473925294,-0.005687461094017957,0.01400871668801233,0.00981963849621427,0.08520538406542819,0.08474552698979136,0.05151879672671223,0.0479388601441086,0.10892693599021001,0.037290020614573566,-0.055435234657253314,-0.10631245480205122,-0.07852840991179391,-0.124221026558388,-0.030474773063202377,-0.08129873195648199,0.14174464337424936,0.10627928029163557,0.05516245275649514,0.09286418087009188,0.11409462470287281,0.156533334341295,0.13890775269644257,0.07517514110088709,-0.029057961951105143,0.014303907184179177,-0.001409117412618052,0.029702398994729828,-0.08602134837132765,-0.14082227254736562,-0.0880030178505149,0.08589638487178333,0.15488156719917848,-0.008546032916249025,0.04163479572323331,-0.02687363172880718,-0.10050089036765569,0.04155273248474657,-0.06964864166956813,0.04102348162907185,0.017844948701612007,0.012353877953365237,0.1290910142067065,0.05385468924169061,0.04169194344779197,-0.12090293664974375,-0.05924052281438241,0.02444645913575611,0.020761929527596056,0.07857097037624228,0.11745049381391388,0.04973618288765197,0.06230656454715863,0.07239662646747755,0.016867384818673156,0.027990521183557607,-0.06776672572296254,0.04719666166944386,0.06551502462767264,0.01311560512089264,0.10398107105652958,0.1710344951360992,0.05346056478834035,-0.06758895042083213,0.025485422385080198,-0.13076839416761832,0.1429178017039731,0.2659079068109637,0.05126515361451387,-0.04920213953312159,0.07013592512934587,0.05799621211344137,-0.048648499338390584,-0.15057013476864295,-0.002501887097973178,0.00377108305767337,-0.03499335846140688,-0.05772497025889184,-0.017390769268766475,0.08351429585063559,-0.06744626303256238,0.07583323929834995,-0.014838423052186824,0.07032687270142587,-0.0009468811538258157,-0.015105547043698651,0.03678670312372099,0.11447359768780684,0.09806445972693999,0.18921691085606246,0.11958543351501298,-0.029784005844410686,-0.060098461181697364,-0.05211650001920159,0.26660683274193225,0.3871456548720211,0.1168234784920584,-0.13802257244314153,0.026335258422472668,-0.1417528826293578,-0.07629052427291073,-0.10590947281641852,-0.11516284981133945,-0.019433320136864468,-0.10266088225237979,0.020945546796297065,0.0496777174390887,-0.06193763850587501,0.049717413175121745,0.03224804393002071,-0.0420832838034687,0.002609220413850819,-0.06006717524338731,-0.0066711543748078205,-0.01735652719476067,-0.06985137893948645,-0.0788752981949976,0.11748314319970037,0.15575398262959994,-0.010536061589189809,0.053474104868769606,0.04638766361499489,0.3038252676285033,0.3106330727996582,0.14306889579808985,0.016040677496918128,-0.04660547027736,-0.19150348170142056,-0.026708050568881498,-0.06914609943005583,-0.0923267307173891,-0.04108965825158049,-0.06829228581733233,-0.12113152186207664,0.041306173748236884,0.09101457628185178,0.05805287106156286,0.033174665261188264,-0.04317000955704351,-0.06555529785367155,-0.08037006748125465,0.038003546399731206,-0.08520156987908283,-0.031278972119531886,-0.07317197964656051,0.136081674803075,0.12500360629805204,0.02104688252462197,-0.014394535227215101,0.12060984172009348,0.24441549139394245,0.342215039228106,0.09804139395629916,-0.17413143454843324,-0.04180360267024585,-0.08057906535774427,-0.017600610352753704,-0.12599963681506168,-0.1708179618928792,-0.17851046268353785,-0.09204085851861836,-0.016222690146997752,-0.047922413537907826,0.042587355059522346,-0.0798443843320915,0.05337130962673191,-0.07616050537210439,-0.04594825862044911,0.07870431381594027,0.12434822182575717,-0.03830620847733035,0.004370995035898901,-0.0033742623461699307,0.02170831802723565,-0.08020667950801517,0.056454040282132405,0.07987859317862035,0.21004848421815925,0.23434070648554667,0.2681073368929055,0.2254432688680476,-0.0037736746405090268,-0.0325467787202311,0.06202473827218455,-0.1608248365732381,-0.19466484890634705,-0.09463155315226913,-0.060492140522652,0.0378012290015305,-0.03868614776368839,0.027124059025981872,-0.04871299713840205,-0.06984629598696313,-0.01471808649299034,-0.049859226218647724,-0.016513819291684384,0.006749406567564164,0.034808059782779066,0.01143860315046498,-0.06941878643285797,-0.06565621626194464,0.04008298883476927,-0.02025001141524429,-0.06999169690244522,-0.12382614424509279,0.10607225748956733,0.2580032949867896,0.17032478816501445,0.1839912231425677,0.0013593766917455953,0.05893605419543846,0.04580018036790211,0.08727367055912374,-0.16832175132423524,-0.11228850174752945,0.022869925485645447,-0.08048796908220102,-0.02522328131920821,-0.004251405131017051,-0.05303045446566623,-0.00823817433421694,0.06295300857470454,0.04167540803541296,-0.05614078022585441,0.031379058024404535,-0.025969132993980373,-0.04416847725572611,-0.0022394214790849615,-0.08376190184975313,-0.11898497614696187,-0.1224378609220671,-0.11338403898839268,-0.07745144313212571,0.02782549978865237,0.18309767323564477,0.31958529462879864,0.17069971615601415,0.021851855107777995,-0.09043498025062584,0.03763667970376809,-0.06714518573941011,-0.0013857335667690907,-0.10212859141613811,0.04526519421367469,0.021883265824226016,0.012236654658394672,-0.023229529693032536,-0.066681547411717,-0.03834569110406231,0.08914326444945703,0.06133789383147505,0.054907733007291105,0.028654530491920863,0.0023593182901226234,0.06806844540403813,0.057656124047763165,-0.004159192529919072,-0.14504175433947644,-0.1671318822115587,-0.13843976980196815,-0.08816514191822251,0.07894089670777993,0.2115908511582915,0.08875683327012088,0.16328630190956805,0.06956119270202044,0.00864950910516314,0.07479205525026575,-0.03008873154612935,0.014174154842182315,-0.03163795142989364,0.07129524952822414,0.02128355709658189,0.036174777120086,-0.03263724407950709,0.04540681429722555,0.022587577840020693,-0.01615053743872696,0.07562644953966227,-0.051352229952273995,0.09443310631122769,0.04381445564141822,-0.03142801518029716,0.09144345835590766,0.0436277678814075,-0.03495183145608788,-0.055254689061685215,-0.04349852342990692,0.054276027822190334,-0.033269027947400345,-0.06214795222780773,0.13281656038034903,0.045860207612423466,0.1266389177081579,0.11608183853945477,0.07709643655673677,0.1413329860759806,0.09079262636988418,-0.017751476813220847,0.03700658212885447,0.14177126112681063,0.10470571624462612,0.05869645166919833,0.06166646203279639,-0.0706954209361558,0.012211141917374371,0.05952331190958205,-0.006714467163304789,0.07231445460331573,0.09071628790626364,-0.0227580110196668,0.026355655991213322,0.1282166275900354,-0.017024529456995074,-0.005800807060362823,0.05896262156062965,-0.014478437055193112,0.04804301057140678,-0.10508301805152306,0.03559207943855502,0.08833060108149103,0.06654147867985577,0.01638987136978368,0.09666103906041712,0.1907493048066972,0.0094197607027812,0.10360397800836463,-0.06774798369569454,0.028087411022569994,-0.06393547389585601,-0.06283478276976545,-0.08927158950759351,-0.027776303173107822,0.0240915885007997,0.02977008234728779,0.025254930394700913,0.008921512134141052,0.11653751499951692,0.09786434331689217,0.10124727265153129,0.09089081435175701,0.03848913470921281,0.055595520944164076,-0.014813561847324576,-0.02597045789151066,-0.029823829059105602,-0.09682626815372515,0.03299180498322996,0.10024475015578557,0.15364480400510128,-0.06203542877127505,0.11757140816173271,0.1496479546842162,0.08587491061632818,0.029455849812529817,0.08109181611160915,0.0022670261134447663,0.06708810582294165,0.014684038432938765,-0.03512612952944353,0.02065835323481046,0.017733589050714413,-0.030943892675565552,-0.0579798496738952,0.010544829805307274,-0.024286639459041318,0.01687274789391942,-0.04840272685821567,0.10715945643542533,0.1281683543973829,-0.051867805657947984,-0.030729992393187255,0.10784647018154239,0.047213756275358974,0.08272692470608271,0.17439922268941,0.05377539457689979,0.08848319412809658,-0.007825944954918557,0.025185100065805825,0.11481599893050387,0.171021833441966,0.012787231563024411,0.019511010090736098,-0.07637881499716442,-0.03206853716488003,-0.03651768191192714,0.03166141503627266,-0.04053359947709415,0.020519890073831558,0.06468113520450537,0.0901919202356119,-0.062354097677043384,0.059069751349958476,0.05139598712561343,-0.0975015631188762,0.015639436278236274,0.06774927904524328,0.01230879886667473,0.055359537740484806,0.1002231882555874,0.13503555570875025,0.043350590600501546,0.09644460856968022,0.05705461634728326,0.12399345607625772,0.07471592340107154,0.03236277188926227,0.16244964314236843,0.015701097780973245,0.09212882771512983,0.05425117276344928,-0.0803524031688477,-0.03906958098835329,0.03669005882728064,-0.008638120961219992,-0.029499877469905955,-0.02458064968041486,0.0009236129643521931,0.06190042223885735,0.0609809784661825,0.05660744906025695,0.02638961928226628,-0.036400071196817124,0.04134115551653552,-0.030096542120046747,-0.00946439335453716,0.1375711040556056,-0.00845713942869409,-0.03754299928554707,0.024325692151581885,0.04502858335112982,0.09129386027465715,0.033648180803709925,-0.024552895307952936,0.09608921611178738,0.08898359454815863,0.02713227759072019,0.017751482128180177,0.008146308031237488,0.06954660236688463,-0.012099790247787042,-0.017289685816867687,-0.038316528056728937,-0.006612569867941738,-0.020224869693333567,-0.06114630761995751,-0.028715773114459275,-0.08340561554800391,0.0199725384446806,0.03818370964817106,0.035736166321494095,0.06723609423304822,0.029422547758889722,0.10541741009596431,0.08756440479649116,0.0135970703884905,0.004837603334223456,0.07033444089974177,0.04314806000809157,-0.13780367852337366,-0.12943743068971528,0.0064298366815935684,-0.016480763115278685,0.08917719768867337,-0.04946708955811948,0.0070679555266113326,0.019014318108502366,0.044361318539565195,-0.07466770282239758,0.08214955851780396,-0.07924792261086232,-0.0692224507718324,-0.0603547685294151,-0.016844541314598442,0.037411834644756996,-0.04091758533108423,0.06287185823611265,0.008220733289523175,-0.02340667646267871,0.02401779404250532,-0.04155851612243852,0.03832495288639242,-0.06201925917253098,-0.02643792380028912,-0.05974792672015346,-0.011983453950257504,-0.13969714836291494,-0.10356824778476625,0.019118182993040054,-0.09737259266710308,0.0035428977638486316,0.025663199762982383,-0.059883201371321464,-0.07975677422920517,-0.07122190077946476,0.07108275577579418,-0.04682641998387509,0.0505236194517237,0.014948356525374637,-0.030027565901200134,-0.011978448196292594,-0.05283340005819256,0.009132848674745191,-0.05875395813113795,0.0568537255341545,-0.0526824196904978,0.04408951870447145,-0.02607598558876772,-0.033335142747957645,0.020996142717712295,-0.04368912778253557,-0.06791402943360847,-0.07100140866944711,0.042113848356145345,-0.0461606282328793,-0.04716810913482422,0.0528480861958093,-0.053635542413427405,0.031387525587513926,-0.020189504612432487,0.06649883717873596,-0.05559005532936164,-0.03346450135231788,-0.002009234985660243,0.053611268586102996,-0.04633933094233367,-0.005515979557078329,0.08260824317832345
-0.037799117910861664,-0.04420364488088942,-0.026627259438282643,0.028302819039333,-0.03212907237494593,-0.00537193568947021,0.0823172007137689,-0.049937503556483305,-0.04654113657852088,0.06930395141966458,0.0556675982811471,-0.055904957310689694,0.05759238994415433,0.0307545725660066,0.02110986746194799,0.06536108277026904,0.038467244523164246,-0.04732839527682525,-0.027459332056252315,-0.06266258309305914,0.008794350983613454,0.011759399948119763,-0.06356156614599381,0.022594134693428143,0.05033894959831476,0.046802981889463205,-0.06802385290191813,-0.07049349096652582,0.0041236922614820365,-0.02932456405798601,0.018255569195967877,-0.029576944324166844,-0.05644367201774145,-0.038117515429107546,0.029487564850982622,0.07843355069719249,0.03536184936936586,0.07530552050569972,0.06721127039972025,-0.09503226764099881,0.045934474083287075,-0.07707256283787439,-0.0021219270389351385,-0.06983927748487363,0.05566455457531525,0.015652202809093182,0.0013768960910899115,-0.07771606853225939,0.03809091742127217,-0.008161273642175226,-0.05832622742265267,0.05955322800411351,0.01172072311265743,0.02070735021758735,-0.04771428358297122,0.06594595594043876,-0.07513318845923035,-0.03916327483017556,-0.028196607244735335,-0.01150813725656646,0.05827038293499751,0.0761978388832133,0.0814299916289038,0.025859409549091793,-0.038072100246389365,0.049403390028767896,0.04697453616363216,0.04307518367622145,-0.000931153989613881,-0.0778930518177405,-0.051554924152115114,0.04129412633147283,-0.01485044820750527,-0.03649028586813844,0.0038235268428860837,-0.04242202177479394,0.022676557862206414,-0.0526986458017926,0.06632315059291617,-0.020462965597984512,-0.03714227026242792,-0.054026106953600134,0.009773597193326966,-0.011782277290058164,-0.045605120753724776,0.029905694366050062,-0.019304415020976334,0.08423968783669371,0.035751238911926386,0.07293369564636651,0.07603585656021322,0.03238134900028718,0.05291855730010592,-0.08290589783739301,-0.02655858022170452,-0.0443238670061125,-0.017872816687961108,-0.09121250690609567,0.007782922746473431,-0.051875661588423314,-0.07437716572408144,-0.040671089699120956,-0.03603102566173865,-0.1388816108531111,0.031337305815525636,0.049069528182966476,0.059154626263950245,0.04162663990167509,0.03594148681492805,-0.07577596010624531,-0.045764352001041286,0.020884529200914395,0.0644442538807407,0.02712349059123351,0.05348262108318164,0.03762815441183543,0.08289531789567649,-0.0431663867889417,0.013325823101054735,-0.04355811213575657,-0.021314961415478888,-0.07974361177604566,-0.021832670365799965,-0.03826613345835995,0.07196381513179577,0.0768613109900483,-0.09778758334330953,-0.1434521304931751,-0.003368483565429082,-0.04038908795899763,-0.04218939625565718,-0.08602071416164658,-0.0351313375293883,0.09994468341364182,0.04847373796519143,0.05858092245610298,0.022666157567026855,0.025567446927636565,-0.0680227831256387,0.060405233090220854,0.03752914009340041,0.07175107482921023,0.029512534911307526,0.01915383053146498,0.0669987381114202,0.03129445603917189,0.08790027885002126,-0.06827857830167389,-0.022768335586576836,-0.12463759268004318,0.00011368480070778415,-0.04779671604611717,-0.06322164822193008,-0.09165186290978236,-0.0671410359611271,-0.04055104928645978,0.06630185549465727,-0.05956875046221628,0.09644688576176647,0.017250846831060904,0.05216776424038434,0.1426302440932489,0.07731903256209081,-0.029520530412460215,0.02947897494347827,-0.05726371869672499,-0.02796759053662815,-0.011566445748622865,-0.047271368971735846,0.004712319455471652,0.021430484358582212,-0.07366930849045564,0.09576163946866552,-0.025802706524864667,-0.028905819340190802,0.00852137561951025,-0.0313993645853725,-0.08167331708096452,-0.012878155860608323,-0.10958280379664806,-0.06638314389232036,-0.09466844036719008,-0.18726596117567,-0.14091535203569802,-0.06273923662042684,0.07237796001681851,0.1176854377504962,0.036220965202934635,-0.07682833607320012,0.18995728280396196,0.010352082243638202,0.07183227866040326,0.030465035906861823,0.01655726146892484,-0.014851366637457602,0.037083688713592175,-0.002219777443643647,-0.012691744497056822,0.06063389384067853,0.04918697968105768,-0.04271043268153724,0.04875793179713916,0.060250007405580244,0.06991586543244456,0.0064059907212671305,-0.0035018693943601642,0.039614311638183665,0.0403879191983585,-0.08692274901513311,-0.12734290250763056,-0.29649246098573145,-0.24697450566923967,-0.11971947219462813,-0.11993341962852289,0.117434707910714,0.0018616117913327285,0.09016480677508393,0.17475719841779902,0.10109119821761715,0.08358352104151737,-0.030029572052152544,0.03817421073920908,0.04140655357979256,0.00556999492162959,0.01452259093942085,0.06006493652546231,-0.052684868997872086,0.09426934485315516,-0.06134475180883659,0.0343374631553632,-0.006326252233320272,-0.01639454762468269,0.09611756160661077,0.09991545340227677,0.07167910476521694,0.06837105055145132,0.044698242326608545,-0.04789004216576666,-0.03652293210328771,-0.23035377601818238,0.010933191332192338,-0.027121864209820136,0.10380282423463218,-0.004302863054483083,0.037982654500200885,0.08488158534542639,0.03995657445203272,0.002120854351922822,-0.0763174704496691,0.029655779952151632,-0.03620137794559749,0.04639999660190994,-0.05184956048273145,0.042414240346630945,-0.023643919916930652,0.09348674545559216,-0.017037406006080114,0.010439732524138065,0.02493742353676001,0.09638710909218008,0.16858994406202674,0.09529341632291075,0.09183266373718765,0.07063469634599222,0.10036759333780654,0.07215063782027809,-0.10948615492194042,-0.06078098396191962,-0.00743571445717775,0.06617501809199514,0.16927185459600735,0.125061631776937,0.17712062733164463,0.08306344317783117,0.13123366646266868,0.00927113935409372,0.06395674922225993,0.045457510783878614,-0.08089047626166865,0.07239514435850801,0.0732373137170622,-0.06355848452067275,0.022958442923992163,-0.039478867669566965,-0.015135148548557898,-0.02659650479095986,0.0570483931669517,0.08253792091624236,0.053550987560758975,0.09510087965491648,0.15801624910359646,0.1738891351022668,0.12763999755046693,-0.04519995855226068,-0.10625653051625408,0.0931502993308107,0.11360420180606177,0.16852832251893904,0.24324893892088964,0.22710068176000595,0.13223238488111252,0.09459226246616098,0.1886211944386811,0.07259999855813153,0.05810454500521402,-0.054444328690180024,0.07582354832299155,-0.04716612358734425,0.08459779786905881,-0.053753028110701546,-0.000486049821729991,0.01791278442824998,0.035273045192829595,-0.04476304432642215,-0.004311903860844702,-0.029791213611588752,0.021692886926518124,0.009431302810588382,0.11733003025018199,0.13652885092984826,0.12742247662763043,-0.06501220502604776,-0.07316004601038158,0.019207265427948005,0.13129863351292792,0.11833222507851059,0.08478363943111111,0.15223280491275398,0.1390844184772175,0.10279318564821396,0.1317780710688769,0.07230872473689944,-0.006234552339727128,-0.07800546782060079,0.02370536546988753,-0.07409696065568018,-0.03389264408059709,0.009783216993609867,0.06166125151758584,-0.04766977696630403,-0.05807958833435101,0.0737685798311128,0.11104884123432696,-0.030696004676570743,0.05171244067061208,0.05468586094553088,0.13976540301252086,0.0840756175644528,-0.06659655290853234,-0.16505564257195374,-0.13553392471179135,-0.19618335779893883,0.17258843798008774,0.12682962625979435,0.12534322337302234,-0.02396577328559413,0.09509138107456094,-0.06010341904857137,0.06805252715230577,-0.01576111828762784,0.06859328403060334,-0.0811885234996036,-0.062512606866168,0.08151845376211596,0.05627394572824916,-0.08229127198705849,0.06652159753279101,0.003104515622351689,0.053687434978143364,0.14027612178516244,0.08063798016471664,0.06475681030690801,-0.04044763960765519,0.03318210620665558,0.1686942805171102,0.04774953128899031,-0.018560785238625036,-0.04239425179632227,-0.14346202682375206,-0.1872731776010522,0.0036297625565508067,0.03222059913413656,0.06966208325961513,0.11308681987945099,0.13531773870278963,-0.026257744191880077,0.014418926264975044,0.05871361877924181,0.06471034271840337,0.07353109027658158,0.03815185904590685,-0.0488191556638382,0.06089691987531599,0.06742440650336994,0.028087484144120836,-0.025337885538295694,-0.06920465156157879,0.02821601991221239,0.1873462626116971,0.029727572292558135,0.051709027651626153,0.08664761673716116,0.005094437153486648,0.05759699821054142,0.011925095101193384,-0.25939103571127575,-0.21883683840424262,-0.23313068439971613,0.03964111202378975,0.09544368779109186,0.10191718887457286,0.14147608033309145,-0.01069820918900418,0.07214443644339655,-0.038733737354569905,-0.06550212304001761,-0.033968257321230454,0.08483799504352028,0.013594664152994313,0.019123129654044297,0.04741771977778865,-0.04015957858282588,-0.05340675608205562,0.007563911406307957,0.050103293325287894,-0.039713077878922975,0.045422346416507525,0.00506607344446704,-0.013081013101804366,0.06614457963654169,-0.12992485347385438,-0.06512815079932256,-0.0807609630727146,-0.14934586042195686,-0.16481109814295047,-0.04398442261153047,0.18786781618609735,-0.028148447891056205,0.053807223580628956,0.06020773334987311,-0.030057796704006205,0.029074522998822287,-0.022277023835153873,0.001609109808319669,-0.041024465699620594,-0.056501977543661756,-0.061307467816634514,0.017929290100333832,-0.0019471000707470946,0.0842783524941741,-0.0551506161575096,0.06097618974222211,0.05486794862447973,-0.025022225717695797,0.10708238677035074,0.1114252774397499,0.06329780795219313,-0.02247530387499938,0.07479934232061608,-0.07052257229110773,-0.13176945212603505,-0.14990654171283513,-0.0879201853980299,0.12352831350456281,0.16311571516071652,0.12121098947410841,0.020036943132328094,0.12453729839491048,-0.039367960213091115,0.05049893459088133,0.06159165465632249,0.13276989926156538,0.10010780375454895,0.04288721960289223,0.04329696164391779,-0.028207927826470403,0.05988299706334726,-0.026829282984488417,0.05106900828493704,-0.08255662284278047,-0.01842278775444844,-0.00916581425709278,0.08258353875139164,0.04555739793454835,0.015841209734014844,-0.01960360069661954,0.04522081108521991,-0.13424695472596146,-0.21325296968959107,-0.14291650866793804,0.07787346750201296,-0.023050013794833926,0.12946362747959242,0.0888449506287762,0.13532005901935917,0.13422549144244272,0.019131720976896964,0.018053446100647397,-0.0681897550124742,0.008288296994567408,0.027070976413628652,0.03339173133949089,0.044953271506070626,0.06175648478056417,0.019496708978667267,-0.058241887270575214,-0.006712265392473456,-0.09081379143315262,-0.031632302913704224,0.05338990949280757,0.07663780640443775,-0.03211466363307109,-0.1271471687625022,-0.013340299227236577,0.06783526184059628,-0.13830277066513683,-0.08685962293640485,-0.13428082537533417,0.031218070116934084,-0.011254353832584012,-0.04750067284891069,0.06788163469344079,0.01207613447303429,-0.027580752389862972,0.03806483156101236,-0.08904910014828579,-0.027293708716197622,-0.061104380223242875,-0.03173025766555226,-0.0032580084821597194,0.04442744530980852,0.07898354597998336,-0.04936332958779694,0.027736294032037534,-0.02642931795999854,0.0642050139765214,-0.10815299017461785,-0.05319378920152141,-0.02762652654386028,0.012539166130202612,-0.03221681690346313,-0.09541342715471138,-0.041064408927087716,0.00950318633660131,-0.05823226278117034,-0.08671408960661083,0.055878533394554855,0.01595496187841662,-0.04021301978471095,-0.0390590920428492,0.014980100574189123,-0.033564498261783836,-0.13621535095709103,-0.03785665743464613,-0.08302060436172001,-0.06337099665939443,-0.027549674831150714,0.02523900223814943,0.0094682431825034,0.05311308860857145,-0.04833227539050149,-0.008695853919457448,0.005985079180074203,-0.051243691822956405,-0.009085587773312505,-0.006717556399880063,-0.09851309967867705,0.028512400309090427,0.0060989130372451775,0.02607504883827666,0.03577807997081536,-0.0010007531035532702,0.03598282708883825,0.037297894077207336,0.03538173885831029,0.01893401819154082,0.0580281746065354,-0.023696371245962425,0.022492863094819005,-0.009298498053036933,-0.13353053450573094,-0.1866930769004733,-0.13001331163390598,-0.040653080679558154,-0.042795142909776956,-0.05114850251736596,-0.023120804507642142,-0.044387524696081856,-0.005938047446712886,0.012732442190726716,-0.024013716368043513,0.028395828020523102,-0.02915274323824743,0.0628022680567009,-0.06276731059422569,-0.09211080979102254,-0.07793467227375185,-0.04621707754952633,0.048696135519469136,0.04664684887635089,-0.019338629992638662,0.07823684876199384,0.0915065035988008,0.011051229346091465,0.03205686554181367,0.047477289585638696,0.17350562365448213,-0.09718316723406392,-0.10636554299953555,-0.04710001064330158,-0.016858705557498337,0.04507521796244899,-0.03640710336452396,0.04518183216131117,0.07155007403643346,0.03457200380885824,-0.05710967198159421,-0.010852521730690613,0.020412202709638855,0.06713362706269156,-0.03348161764174707,-0.06406340913529338,-0.017865514443696225,-0.09179558652717398,-0.08902443420169401,0.015098042652608465,-0.008874142450276852,0.040475052470797294,-0.024471814503170188,0.09597491334446953,-0.011479752524069332,-0.0004947898110490427,-0.025743521984664283,0.06434574817604241,0.026445941142681412,-0.05185504765540457,0.04799277842219892,-0.0495216155565953,0.04813649186689478,0.0507419369160015,-0.020772557614246668,0.007038356369933682,0.04516270968719406,0.044535142443904906,-0.009435781164280716,-0.038934278095862834,-0.05439931623968815,0.009624327642673385,-0.058799628162665984,-0.024032324316045368,0.08127330310879716,0.1161249545392265,0.045800345815444274,0.10534565303429387,0.07527114402917465,0.0791817570358097,0.027170105874115346,0.02741113235978436,-0.048003495150420225,0.07372890307468394,-0.055672829755679464,0.06874155733714264,0.06117801279256993,-0.08232613646122273,-0.04005086759116598,-0.044507196696433694,-0.004315180492671849,-0.011729243498313313,0.02214665718319983,-0.0043094895166571725,-0.05518875828058696,0.008556123110326773,-0.03665606491194926,-0.053323437568003264,0.021810863726206352,0.08560246676067435,-0.06459524216684553,-0.0031581839657411188,0.11258216233992628,0.00267817143660287,-0.12754255917847415,0.03523534379972452,0.011387812955088157,0.08359727944338136,0.07661931532064832,-0.11888105214069371,0.023432755901472625,-0.06163763866150255,-0.16475195071094373,0.011906628434201873,-0.035108437537674904,-0.0005445088676355863,-0.09515073096152178,-0.1445844618851763,0.05060581915540169,-0.056646438238510885,-0.009306892151427321,-0.01609832814480267,0.008200185480001189,0.022264696960464674,-0.06221962716325588,-0.009396306475348634,-0.019028419863662677,0.08102665445143122,0.033491554798268555,-0.05222378681075698,0.06462126036803512,0.03676580254036926,-0.010951741366127895,-0.05522491815785742,-0.06700045714215176,0.015640582345677168,-0.012901767696823182,-0.009043183818339075,-0.06032813380099839,0.0431032501752615,-0.058944512201459465,-0.08234318635965096,-0.07414586735015663,-0.11190660612199341,-0.09343414499259846,-0.03633700704580561,-0.06989273725741002,-0.009883120450601645,-0.034661373768087964,0.01385167011888362,-0.029400128569593443,-0.020986887198841023,0.028655082158705544,0.03599434311647667,0.03702860961913764,-0.06551544899487761,-0.0732710823569472,-0.01794447590008495,0.06320727780096401,-0.05556913197383864,0.06165651552315749,0.04020728078111389,0.001948370775013985,0.09313583447593614,0.05097281158918541,0.0710135612102928,0.0986964437009955,0.11732486690607694,0.04646850707249483,-0.014166276583261833,0.026379398041793314,-0.020056600653284677,0.04022729372465363,-0.0640125304815266,0.005323185392268719,0.0805523004381839,0.014254122200396315,0.021981484080284885,-0.059031507097828985,-0.049134455395306476,0.08250287550794891,-0.007495246547497144,0.06795959991314442,0.01681199754324856,-0.048004189759363665,-0.06773116365892717,0.03702121367973851,0.018636459036506736,-0.046578519783668136,0.03318410940757788,-0.04887108801836866,0.0675530336824056,0.06418552240718275,-0.018908260882956173,-0.057689093534838067,0.05736631689563465,-0.04733828287414623,-0.0005255603168608803,-0.03985513459984296,-0.04144798864352587,-0.05718285855928485,-0.088938686396246,0.07219160630715846,0.07586211749524213,-0.06628992536924147,0.04192673403975655,0.056995372013891134,0.027373984901352635
0.029945967000975123,0.027393926371642403,-0.005547767520298451,-0.0009265771969174298,0.015009026619550087,-0.013851457483582186,0.0037959320410443143,-0.020615486564836197,0.0010379991691088159,-0.08316172440588156,0.08185046871342334,-0.019458429956710446,0.07848681574811207,-0.0008390567088189346,-0.07569733437866964,0.011852467883284536,0.005515500509042899,0.06573563514323218,0.08008276333078285,0.0372184057509582,0.03049445414710299,0.06309425786300916,0.0035170552847629327,-0.0506345262674743,-0.0835911264117136,0.006226566428837401,0.07608967872144033,0.0016573176415625019,0.012094631493724849,-0.006314154895979572,0.05448475433415605,-0.03298234310059329,-0.0005098751280117675,0.018689431058274055,-0.06617930382799736,0.02801180148964033,-0.012816467616512638,-0.062411549753900446,0.08385738437560344,0.03353862616896738,-0.0040342258437657584,-0.06308362134149559,-0.06652553701227823,0.02153671834929437,-0.015699618209450362,0.019994658594306502,-0.0636225550485474,-0.06790341359126026,-0.04405378022594743,0.001586395099323867,-0.08273599021913555,-0.05932387784902831,0.022660191395102804,-0.07771007195158075,-0.061608601342727845,0.019317565076144284,0.05340335354717493,-0.04621177656839102,0.05619208523426784,-0.04352792349509318,-0.05949755146988476,0.0462827185924997,-0.022287653152019138,-0.0024355293815317212,0.05601700666654857,-0.04664659865587171,-0.026569222231648964,0.05146998773988684,-0.035385848292089454,-0.04861550161420546,0.0518568848153807,0.02016466554329553,0.016427076957151638,-0.00827488190691689,-0.015809471955430865,0.01794817552729636,0.0603206938144565,0.01051494170603252,-0.06264751210768568,-0.061312767801959704,0.051993541546022065,0.008759694208962273,-0.08117171686281863,-0.08156148396447578,0.037617602557398155,-0.01875847887608173,0.0818255079077254,-0.057477449594571434,0.04910930954352475,0.035689924965020846,0.055681538938272004,0.01652472082085764,-0.010625712597180302,0.043366998203910295,-0.03327183030538136,-0.010880075027472859,-0.03821381706482417,0.0034094275538792875,-0.04968183008883506,0.0941790990175572,-0.0600723636389195,0.09337823247047539,0.014410587125961532,0.033459632074966224,-0.031163406660587582,-0.03033843296969909,-0.08228598561486465,-0.014003018456994904,-0.03655560946924413,0.08362869960587857,0.05680705520045651,0.013635291939967565,0.036349979937120094,-0.05618799021389888,-0.017606656842819795,-0.03282345253008748,-0.012613889032401333,0.04021691284421778,0.025725914013834037,-0.0023383333489616896,-0.009199700189813914,-0.0204581733725229,-0.0328559360388671,-0.04772813206060833,0.028068923683724677,-0.013461967274590765,0.019478757956013754,0.05042520073980291,0.059263525954299366,-0.01669886535396366,-0.020523303743259884,0.018718325002515926,0.05426938607087111,-0.025501942463606566,0.025919930173574596,0.012228229637344932,-0.0786404007506429,-0.01083160903919766,0.021103052757367097,0.03722775615433413,-0.0685817164087195,0.06806016256000325,-0.03827264956810565,0.010321244344534065,-0.001296263027574865,-0.0546177529006631,-0.0584665338465235,0.05731929294630641,0.02610097286294165,-0.04608340417830024,-0.03452131267614849,-0.033249005646773404,-0.005614990134739798,0.08384702205118738,0.04684030297549216,0.03917865119713491,-0.09353360415758238,0.07216390990115437,-0.05513335284541504,0.03330643610651734,-0.03247511199167889,0.015729748608177736,0.06746662901219477,0.009836503487684167,-0.03929208637869209,-0.02860932257611909,0.08291049543563717,0.07363354235726917,0.009148753127989412,0.034911113228031684,0.01659573982183502,-0.06989904776125799,-0.090605708057385,-0.012811314390774674,-0.0454481531663222,0.03929022553395689,-0.006864748642509332,-0.055464264406263654,-0.025438002291704967,0.018078432155475173,0.11111766736356195,0.05563918493281468,0.04122023119273449,0.060513348364430244,0.10401245308544967,0.024778501408274273,0.0574451359343399,0.04162667724270636,-0.08738796495965248,-0.06943238615906411,0.03725772434996666,-0.08355343146622084,-0.05082040950811003,-0.05885041761023806,-0.06415104372240715,0.02621197906226896,-0.026233482582186864,0.05737701507502961,0.05246404313542752,0.07723514022847239,-0.048746454897020876,-0.0334731163662692,-0.024029519835115608,-0.058281909808904166,0.04350612681529779,0.03170702296266734,-0.06779675495357662,0.09465457040709539,0.11375184677536924,0.13065250577664297,0.08616476680594307,0.16876205847349848,0.06922813269433302,0.03384383792147731,0.08826136740041944,0.02972553954896014,-0.04972296723642829,-0.0503153027478892,0.06051777702731156,0.0175936702282082,-0.031282247239549164,0.07922031244930536,-0.07265431283374729,0.007129830308094788,-0.0033536218226043017,-0.04366315526498008,-0.0027839379195086266,-0.0776370514743027,0.058644173522366956,-0.0026029044145690363,0.06884787204489312,-0.030553371423020198,-0.09044315940724246,-0.04710120761491562,-0.011634904997276813,0.13286432427179182,0.05184929508300295,-0.012688127721730913,0.1542020343386365,0.08606400116767236,0.05622283935952482,0.04026260942582364,-0.04759190173655236,-0.05133432217419041,-0.02565373575219278,0.006590472248622224,-0.09004040925031671,-0.07224696538583415,0.07119882150364776,-0.0005418842958532509,0.03998056078960767,-0.06970096541527755,-0.015333302886767035,0.07779180009531393,-0.0729217622654669,0.0750004709739305,-0.016826794861108687,-0.037947427584602886,0.047183230171901146,-0.03275361732716041,0.08222844523196998,-0.06127870697908905,0.014101735660111596,0.037342064519614505,0.17243130277392377,0.11536494019766082,0.14472453555990195,-0.03254918050146914,-0.06948122866509852,-0.05658358979406189,-0.12243318796802999,-0.08689739038272323,-0.04983849476941385,0.03604006589650687,0.0031972133142502625,-0.06749184708204929,0.026288609617276613,0.07180093563268379,0.002860310707846338,0.04524622791698809,0.05895905388295292,-0.028213962891014244,0.021772848108484226,-0.02504384126893295,0.06627959515021797,-0.048068600650916844,0.057300570688882946,0.06737902028132278,-0.010913820342119506,0.08104762381020617,0.02585685707245177,0.05173271664178898,-0.01220839789097454,0.016693324132303622,0.08554484405514157,-0.03995098992988464,-0.00023780872720912565,0.026413657349140914,-0.14169949820816413,-0.017954410110938665,-0.029265585106454214,-0.034284537074446966,0.029819862597188444,0.0797311934213518,0.10388872499748283,-0.00543865284035774,-0.018759012985265982,-0.07725976279123056,0.0633497716576756,0.06119903081760103,-0.029232379997398084,0.08885205764929746,-0.019516086349702737,-0.06665548964982013,0.0028074041205669547,0.015925133467015753,0.0065811913938643935,-0.027415701923561717,-0.038519861660187955,0.03312157249400353,0.05821734856285644,0.06388292288597262,0.004578846085916336,0.009117379931628864,0.010953998381902948,0.013343807453754276,0.06755598918669825,-0.11996848611841848,-0.070000679024989,0.023761704713882226,0.013970774842864197,-0.0709790334491174,-0.009009735395843507,0.03640528177721264,-0.07325968472558896,0.001671728869375528,-0.015057758334642667,0.05516147452057393,0.012626369432801883,0.06296802324797973,0.053598897892435396,-0.011905638585102222,0.017475302147812278,0.04263777716852042,7.854740582899525e-05,-0.043574984025855634,-0.06649566995859381,-0.12618117004558793,-0.05256543559952076,-0.0200467479120628,-0.017985049674213844,-0.044419576223803985,-0.1406026194434116,-0.07627576620901236,-0.030704365807158632,-0.019359370824822596,0.05442213964584869,-0.004125618877764607,-0.017294082075185437,0.013301901406155295,0.06042581720952571,0.04480367119638277,-0.06161103986882827,-0.034746164472123496,0.031387959777606896,-0.05375635169425293,-0.05423434169115095,0.0766202367261999,0.05568736228613288,-0.030638569790833813,-0.061428107951499465,0.08789319731894832,0.1073721706546896,0.04379849363470481,-0.13247441225598228,-0.07210098145124197,0.04975806847428805,-0.003267792120786572,-0.11128975068374522,-0.05856597927300249,0.016443554147587146,0.07423258932922003,-0.11880354004308226,0.009353166041412828,0.026438102695846784,0.07944289477468443,0.032899535192669256,-0.014912702673240628,-0.006552055400755965,-0.05836695340144629,-0.01770382663566503,0.05695924814864392,-0.0803010435466497,0.07853464481675723,0.024451557226664228,0.05314735033267679,-0.05162182082263678,-0.07916305777116146,0.030101487207879873,-0.03376730372945919,0.09600920168983558,0.000304576863001985,-0.02329662051210382,-0.07970204201890009,-0.047791422140172186,-0.04669900680580397,-0.013681117482165285,0.06700669089273399,0.058486676196470085,-0.018720593556115654,-0.0801992720185779,-0.011208393349670897,-0.045657490824617536,-0.09413864295871682,-0.029415861033294795,-0.08736619752288263,0.01868612925135005,-0.039597048185178764,0.06925963318864216,-0.08097759925349089,0.034539946897854126,0.00801645517881438,0.0308335409451148,0.06945782525656141,-0.009451997354394583,-0.07024077800205901,-0.0432522433185392,0.11176063521994234,0.06993925301246319,0.022472269395232454,-0.03651504364941655,0.11501070466060859,0.04689109852348883,0.06846193281871439,-0.06980889191005872,-0.008915031084967124,-0.04574407411326789,-0.0870238432573877,-0.1282054492914118,-0.07155776564691131,0.04186407304062193,-0.05720648744561541,-0.1191605465823039,-0.07406576438784769,0.03665323279720788,0.05923269041497513,0.042359454537335486,3.666012170211436e-05,0.04300419936049981,0.04770476267610092,0.0578244385973835,0.04847605645866693,0.0332938950139376,-0.02709963492416098,0.01847884677341392,0.03149414141662485,0.06650900564592177,0.08412214880916824,-0.08019368992299293,-0.09482583445365253,-0.03223615534438948,-0.08756210008989002,-0.02998260899682763,-0.096783391371483,-0.06577417579330443,0.05685010511856612,-0.061707989425068756,0.018124105482042917,0.06191279040510588,0.002193321600956778,-0.08581796615455464,0.07561350401012984,0.05676209821542203,-0.04685231155857835,-0.07614327327998426,0.04853518556792127,0.009167182893942171,0.08167937844633175,0.04419730884376258,0.028269955331815352,-0.05618394051366325,-0.09562146673305906,0.017506443930008907,0.09785371223539116,0.06600553322569579,0.04907209451815778,0.054606789755693774,0.030679008733730598,0.004198542028182714,0.028908473165219772,-0.07565976019116466,-0.08172117238055082,0.030817707770603785,-0.045554161447439255,0.03334052033673183,-0.027896723998264993,0.11147458267684816,-0.05525406971360105,0.039488199970555395,-0.0021949936616298556,0.02889616361439645,-0.02288477042892499,-0.06897517477013852,-0.03178666345241691,-0.022085173487335463,0.06073656569431392,0.02781654121704863,-0.04708005466351252,0.005928324997760739,0.023347461612370238,0.020592224621530472,-0.04280414694330081,-0.04572766006631533,-0.0011711565718849591,0.031054916959780222,0.02210633483707402,0.09539300038696756,-0.02774132985800181,0.05310636658447822,0.06262752030285108,0.05577222654074787,0.08637463074697904,0.08576791971947766,0.01032997272855535,-0.004556492524475891,0.016172350110069567,0.07157806901637286,-0.05481848789823866,0.089771795519314,0.08314743902060678,-0.0075567670814079895,0.07860131016569219,-0.019677497867853003,0.023702212873012312,-0.03973472139038077,0.0529495858175123,0.06916784543825245,-0.0015501357823921608,0.07904959512139996,0.06194346848737068,0.09617359228524554,0.06212077151264187,0.1363830387681952,0.12873032506248466,0.117059156286054,0.02592303136275488,0.14419214459829144,0.022000302616119693,0.0886132812035991,0.07061107803140733,0.014874950571798043,0.01771766303594704,-0.06586825202999277,-0.050482883349320024,0.12846506941847619,0.10268374917331932,0.044876650107421465,0.058656833276315865,-0.07178196753767149,0.03269945771856254,0.03164170763421584,-0.015234297979021016,-0.07747760901450897,-0.06692581879094935,-0.05169655205230474,-0.011145632159328199,0.06169824230173901,0.0004939801104166141,-0.05155074770766963,0.006538360177596039,0.06376247178572274,0.07883248170842366,-0.008091895468952155,0.142644607774231,0.03331391108451593,-0.022348779107991202,0.021848047734831903,-0.0010899450095692217,0.03619392049442489,0.012044826563645064,-0.03197702597687854,0.005415969403233502,0.018367331991172766,0.019500398106000506,0.054863926409209604,0.0013259449660268437,-0.03666424816142572,-0.07385796505130934,0.009183359999592165,-0.053738224053223926,-0.08433543699500719,0.06293388209048242,-0.07313698744946132,-0.02006417106698279,-0.049598630484403446,0.025425644342100373,0.03782178452252788,-0.011235899243957912,0.1250670064411211,-0.038134303783915045,0.12404584728993474,0.19779810743793125,0.022555389533936033,0.029873876321495223,0.05033059668600633,0.01294311043514588,0.03161216837360541,-0.069686282724499,0.015454334669480709,0.056100660420409794,0.10733385445716458,-0.037676028962880415,0.046811844319491286,0.03185375528232422,0.010250120372520884,-0.06915160760344441,-0.06645927446943327,-0.014842212127889028,0.02322153500412169,0.03450270330031441,-0.029472138082297258,-0.060444745902665756,0.04349845389615738,-0.05841200945653147,0.13486110181879268,0.10298878905401472,-0.0017934874206911116,0.059727410935670765,0.13239633221960337,0.06462872454514207,0.07096648783567128,0.04636296920093758,0.039466080146027066,0.05396952797977092,-0.05412710421418588,0.0696077090224417,0.04323527593069197,-0.032934002780918584,0.06867657164968227,-0.06982382756214375,0.05857843295367584,0.05929562551764073,-0.04571117173334264,0.07910087373400253,-0.007863322863391281,-0.05773137198274199,-0.0508057781053053,-0.024780693565789796,-0.08249431709006205,-0.042151027629203,0.04623369760047614,0.016559557291829376,0.12094096329683358,0.1236499686213013,0.0642907293743426,-0.019936527502515806,0.013577286346997225,0.09479504680565837,0.11746807957016939,-0.02362015462100284,-0.02121174808607652,0.1277496873281898,-0.044586512078996096,0.014724093314443118,-0.023628327837274404,0.06427839976538274,-0.049766018466133446,0.040656564413121474,-0.07392548228073749,-0.0076709271853830484,-0.048641740311329555,0.04265691617967709,-0.03802007678899209,0.008580570024613265,0.01346325308401428,-0.06259831579260959,0.01052645327987555,0.006404093049571116,-0.012585544105751923,-0.10318449988776297,-0.0944542045931091,-0.010090886827198421,0.0527999052061859,-0.06317144358579077,-0.025876172441436782,0.08049574099444103,0.04191138391796658,0.05509334563179404,0.1217209085479111,0.025014818440785815,0.12313147263135917,0.07845616090626524,0.09900260435458208,-0.04814114550735285,0.027929202923655805,0.018183850139494435,0.029980623873674637,0.04862286427518444,-0.03420458368498706,-0.04266775125057737,0.029036054250500574,-0.06971551941447912,-0.06282818399082402,-0.06148881249939992,-0.019756808976726287,0.054803037706869,-0.03816812777743859,0.007072598908345251,-0.03573932359560844,-0.05852953867656515,0.038126690050864144,0.04969864135598897,-0.045219439170304083,0.039409175686429286,-0.05341874896326451,0.0997147560212767,-0.006712407124568741,0.009361891841977981,-0.028704165037631218,0.08321907202176083,-0.021212410802352297,-0.07263994304678105,0.017597402593421258,0.052927523707231444,-0.002904298903164457,0.0037910138993338116,0.019827536252254207,0.07214257218564196,-0.038204382155210256,-0.003375138220112137,0.039873191988814,-0.01101779856761285,-0.030551944381334555,-0.037557378826839495,-0.01803767030940976,-0.04031117763669884,0.012949986220174679,-0.049732375953839586,0.0718596669047718,0.08105371998465856,-0.03887466553546186,0.06887243720324573,0.0009871754210620256,-0.015778693982983222,0.048000859226418634,-0.005547910145107784,-0.06474798545446026,-0.06711420863521401,0.00474286878205329,-0.026846694880371814,-0.05927818526766425,-0.037527907219814936,0.039558701695711074,0.08614585247178488,-0.009483965287169462,-0.005199945238667586,-0.021500569159428135,0.04481440841179601,-0.08089815823035242,0.045353665734172675,-0.03410682976547193,0.04968211588276461,0.013269007590869752,-0.08321122763823313,-0.07095997787418408,0.0008936907227615155,0.057460015130538,0.0017384917652706639,0.07635270749473254,-0.08075337011214527,0.05688332213105202,0.07129336697727255,-0.07572316434561416,-0.07012108819618199,-0.04098501787900392,0.038721953481017646,0.056205860323877324,-0.0660108805668653,0.0744779800783027,-0.04752671882616016,0.06508229540760324,-0.07415906460499269,-0.053786664842806337,-0.019311717716033457
