-0.011313157870765466,0.04026659228573331,0.07761370254412385,-0.03768135789472479,-0.06626433769661785,0.032506880615361416,-0.032462933112342274,0.06937656587546587,0.04544311292562882,0.08228866399839428,-0.05777950883591267,-0.03402883023183096,0.0008383876706201112,0.03150054904728702,-0.034924362766047164,0.03572802612861519,0.048811890997788446,-0.010078998883460661,0.0213607583110393,0.08494624571097761,0.007082865573912461,0.08783022783419886,0.05959762007720006,0.02301654096203616,-0.05033091188858101,0.057423988863307865,-0.021504488727509465,-0.05784721888403049,-0.035579493770721934,-0.011895750432012714,-0.04846921618851145,-0.08379555379815684,0.046094558770632565,0.06089644565499883,-0.08548399851285511,0.009319385216619272,0.009131640477532916,-0.05768724056867622,0.006059142709268834,-0.048380765431224625,0.04796286585945208,-3.733411560602044e-05,-0.061807503034640957,0.0652606838848625,-0.055515806802813684,0.08838331402634626,-0.034504341824408105,-0.00507770193715258,0.07852646651599303,-0.002079847693173249,0.008374988573472497,-0.0755348375648163,-0.032659021663583324,-0.040732323847820794,0.07215319525844002,-0.038742880890036205,-0.08293224553076181,-0.08826570194048564,0.04733468824653593,-0.043371173844481324,0.05389439826064644,-0.030004206214987117,0.03221172953213183,0.045066375517255126,0.012585101266167662,-0.02986053579478856,0.02056510038304404,0.0630923141506567,0.004899417122944786,0.07457621069594529,-0.0026737400743548825,0.07787315891333507,0.09837552176359829,-0.05236060804806752,0.08232268427345818,-0.022341369771623987,-0.07977380673984774,-0.05816722641105732,0.011158184507690034,-0.06294525340632012,-0.02855374593516381,-0.08547050132915153,0.028007391935765492,0.05681390684894988,0.08598396303031931,-0.0394595978014955,-0.016546586262632546,-0.039819992064844524,-0.08281536110457396,-0.023567405707367546,0.03540434220935294,0.007832679053318815,0.04290836360988691,-0.03763364485130675,0.005781159055993311,0.10136183380924593,-0.0066231462034277684,0.05695446316461073,0.049270045059717126,0.014194462838749365,0.07574984828887192,0.11068560065558651,0.07683487864001994,0.06797083791212559,0.08100982964675756,-0.010661543538665063,0.07577562288036307,0.005946942371532981,-0.04537108055263451,-0.0011803328473729482,0.05088877892693012,0.0031394932421765142,0.038333092488610145,-0.05474698179902656,-0.07448116946145951,0.007401229821117065,-0.04237399647010615,-0.0634100661978229,0.01951864611401295,-0.06956533486533967,-0.059662175893603224,0.06890505150461315,-0.0723078570302618,-0.05685712333157549,0.05695942393138806,0.1359897069051076,0.18872306929120394,0.08496741942957478,0.03082379011271873,0.029224645978608018,0.09266709963011936,0.09906408282873153,0.015726953946177135,-0.005689299130649203,-0.003406827320763852,0.024669729104128024,-0.03586989151926122,-0.038075214420673346,-0.021210638622269937,0.04589877873065503,-0.057151027530143866,-0.07734030717996598,-0.04284861586677892,0.005938947434743407,0.06242167653327899,-0.03679651849691345,0.014665553371481246,-0.05418119431840999,-0.048865415365603695,0.027183307775707276,0.03650624945307719,0.017824176967455113,0.05902988164464444,-0.022323188313294325,-0.03582043618966801,-0.036933901875466225,0.09989693781679186,-0.09434059393322435,-0.07265083760370142,-0.024340536393599437,0.01238496603129613,0.09982618059688213,0.06570796787446367,0.047384830891561404,0.059312683640475095,-0.041007527511173224,0.03993995270450406,-0.045758620122672504,0.08210845594917493,-0.07750316726549344,0.050910281532210395,0.06423186858067392,0.04977643785989872,-0.03551844822894819,-0.14051987553769452,-0.0586105892490803,-0.07772855562395485,-0.07003627153357757,0.018872879066784896,0.15224468655060724,-0.07185603369540272,0.049657798291629265,0.011228356780230164,0.111607334379162,0.09183673734497379,0.06143497089048132,0.06334791109748346,0.0830077277195603,0.05575764745606108,-0.0027567362042499504,-0.05438094957429748,-0.05027216823566802,0.06775300923591822,-0.016333744029105972,0.0010590196693631476,-0.07881260949474263,0.013867805406631727,0.04874654744656848,0.0012777079083497536,0.014203987613181581,0.040629556748906975,-0.11913303935305525,-0.045575876734358325,-0.0630070019794726,0.09806676684228878,0.0423624924311665,-0.06396764585675102,-0.062310349712673366,-0.10076790972150622,0.03820577002931156,0.08725955061874346,0.07692260625655455,-0.04414353042158441,0.018844058390569466,0.0329531549266852,0.061484209282755185,0.09229195458002093,0.0276950848206929,0.017258229394205994,0.011612466024781705,0.02684580116145778,-0.007875993166234774,0.06316043963733314,-0.048016611175251564,-0.024560814057801222,-0.07850411796569337,0.017206400690258913,0.013578972615363553,-0.09731114058565152,-0.061432436256027165,-0.004925051179048545,-0.06115989195073593,0.029468454748918533,-0.13882301858407786,-0.016845381765284082,-0.07849927577998046,0.004294969566860985,-0.10034694667708607,-0.08312309989043874,-0.13995315177194315,0.009817805986604951,0.0017562597529746653,-0.0029371385837698135,-0.013345362342692173,0.026387173846018453,-0.0027308938458743964,-0.01806548973488356,-0.00031688640733426067,-0.10503482228666837,-0.08605567214198286,-0.10153248987049811,0.02519239370334669,-0.07000989775127534,-0.07520826595121426,-0.047238424075221434,-0.08366516906662586,-0.07103952900191973,-0.11755319321353826,0.03057496344533551,0.024653291664993675,-0.06260951091946494,-0.13563553310214294,-0.0056714312339151045,0.025865576710867377,0.04108452816490387,0.12293639474171596,-0.04431706071931205,-0.03940815412651911,-0.0029133529328603637,0.02288128811049754,0.06950595597542682,0.05999267142694147,-0.05478522383078665,0.08701520034152065,-0.031436781510907806,-0.08250085938951,0.038682918527338246,0.047166488325696816,-0.032919169076341154,0.07260220437142416,0.01914015090802156,-0.016942357569384628,0.016823145591219772,0.02600901218617258,-0.07755672913612535,0.007758122820869674,-0.13519402730419305,0.006191803804947655,0.08154373244174194,0.10805406268760338,0.059346955111865614,-0.03595880825426259,0.05212854176270547,0.03908015106078462,0.029209679055252857,0.011743283554412372,0.10402529743621174,0.14058795173996963,0.032834227779975265,0.018364686224877216,0.018995524328483754,0.06317930138809195,-0.05352680252711862,-0.08903866868436634,0.07021707656609666,0.019182167155114657,-0.05945803456022013,-0.05390799042502867,0.008467574498658278,-0.05297113962769592,0.03285505520483638,0.04690818059432891,0.07658599399503312,-0.024842696102272962,0.03934390745943657,0.046430255432501226,0.035915149281670576,0.043730305610481995,0.00476349159878372,-0.020109556669389614,-0.106548624260503,-0.028287733178669443,0.060278678384939444,0.016037462171867706,0.20483081602343758,0.12176176236506579,0.10378874620500209,0.121753768283335,-0.06376127714545927,-0.019391490502925497,-0.03591375712635278,0.013518298073238656,0.04772997805890954,-0.05934174646183795,0.020448154528551764,0.03204911281175425,-0.02522203105636171,-0.05183946796833799,-0.017533883773266465,-0.014537880281559354,-0.04822203143362125,0.028797092509814316,0.027229496300119078,-0.005450003998566807,0.12682226241146877,0.043488291835184,0.05529599089732474,-0.08129225372112356,-0.007722230496192981,-0.05292540400148954,0.040931515554594185,0.12007794957659357,0.09295212800886014,0.09796058922865043,0.08023287414482524,0.05700240360009223,0.007446990173537493,0.012173509738794604,0.08775469815009028,-0.07190706443826603,-0.028159853812585667,-0.08240095040902434,-0.015228079871168235,0.00655029644265717,0.07307978926479039,0.06067910659139205,0.07339080948403957,-0.051475048457420264,-0.0734767662191893,0.07204376730940001,0.1353118498955963,0.15624353696536933,0.11259568451636827,0.06730764765942575,0.1188059582401946,0.038649264198970565,-0.07669767004121524,-0.04953983597571673,0.05690759899480049,8.276450663829057e-05,0.08817961200051647,0.04276068787987512,0.024510009161246085,0.031910920664658095,-0.010858039532106652,-0.03959601880267361,-0.008808723555446742,0.07197314459639265,-0.05605959272183893,-0.0656874845588956,0.032241777245604536,0.01400430039739527,0.015341511218647928,0.030915131713479226,0.02698335090214919,0.06190193336755645,0.00018248548862686886,0.07032525765523018,0.05905597898402071,0.25133696832584457,0.13417774320169457,0.00623446178867354,0.029985996613128372,-0.07590469309957046,-0.021390895738035123,0.14655291075200216,0.2583515461623231,0.13869929357032398,-0.00928033062153793,0.015820210207247967,0.14681861685778969,-0.09058514165991773,-0.03196338257833595,-0.03618375575330194,0.0777270014685888,0.04408416137625689,0.009388227512891522,0.02252668323177391,0.06484841077377809,-0.06338188834065586,0.03052171795311617,-0.07346992484641014,-0.013056698120956351,-0.0600440242290124,0.021968429674886054,0.02290131006773712,0.1300120042627275,0.053806535178474585,0.04749806253312482,0.03425720145270362,0.01915875875622612,-0.01691326018467081,0.12791114822965846,0.09285132705229147,0.172220627397981,-0.019044659254549106,0.20242769073469966,0.2262735411759097,-0.03896186943908873,-0.08541821558662473,0.015511724091124248,-0.03328280581970462,0.08914826142774722,-0.04269098281648062,0.040103293672238985,-0.054211221985216745,-0.07787821041496261,-0.002103570131479279,0.0006021943419195028,0.08233419235550254,0.04424139635909461,-0.002552248788653716,0.04368683943420821,-0.012627381152115738,0.18044546565336492,0.1698779017726485,0.22645680276184918,0.16039176993946686,0.1715731608253373,0.03601729559776083,0.21294337272765887,0.2119145812703892,0.13196195212471992,0.09017097891927359,0.1557649365645098,-0.013497485743407207,0.08354014972834901,0.06377476198929362,0.01410612909790372,0.010245367796060483,-0.06285515866054066,0.06350368595270649,0.09283167055819368,0.014224942208025112,-0.08189883160045536,-0.0460706045410718,-0.024965387402163152,-0.04731985354518995,-0.045570951377067924,-0.08345230725898203,-0.011161840672226241,0.1051333117654409,0.08350853480050249,0.08459981476644599,0.11751227133273244,0.11265779202940847,0.06760176243647531,0.08513948253907333,0.19213701021662108,0.22817315411426808,0.04866272827179289,0.09724535343995318,0.10012982941372707,0.07919250674857022,0.028908443151855326,-0.0758136641058682,0.023175747438349124,-0.011857273126174853,-0.09301715550541147,0.07730262307622028,-0.06492585653180583,0.04706016380307735,0.011413260702583115,0.04797361747239916,-0.013325150548546256,0.05526564767596109,-0.04421294724915609,-0.01736270757522881,0.006799658439411183,0.047741212063555576,0.06356954198763376,0.07230366434834808,0.0746871933485206,0.03450214493361467,0.08392497969207101,-0.004421667422821608,0.16376574445343076,0.2314932261026117,0.22073524449618215,0.08223665405395757,-0.09942139004791156,-0.014208057489755298,0.047623953344218505,0.023237650898673808,0.045803642774612546,0.00973185571713027,0.024330554863785058,-0.08614926841425377,0.003582735639720572,-0.03956541314242172,-0.029489600707259103,-0.03865303652962444,-0.022876292591929342,-0.08454809897897032,0.02579405428082633,0.012946936865287154,0.00680691695437272,-0.0002725708832047627,-0.04952376944650084,-0.008593139776907009,0.10567712505812148,4.6569512570387834e-05,-0.035851305133175373,0.09369208216024069,0.013822541045771521,0.14559700531751602,0.24603561662026455,0.025064526443137426,-0.059408897736541316,0.07441181748663192,-0.05466447066470896,-0.013069607551144486,-0.10900851412587752,0.03758118562913428,0.0839487157955137,-0.01827521092425717,-0.02191530134287098,0.06898099232774174,-0.027386664549693726,0.005652100588253299,-0.04310497900369011,-0.04328537770455984,-0.05128761336706849,0.0075587886370805865,-0.008524473676074234,-0.005511105967362528,-0.022405578525601412,-0.08604894501021357,-0.028412917013066585,-0.058632574028708896,-0.07340392607777362,0.036364845297821295,0.012483007931078831,0.07282931272220239,0.07101925264024811,0.12715750878417315,0.06209214399477616,0.06805311010586429,0.028150871608209328,-0.06545044258544448,0.04547963182641958,0.038844329781826246,0.055411899419734095,-0.021140067294144863,-0.05385276701633906,0.03200683764906326,-0.00015598950949907326,-0.0808726227263675,-0.04660865321975592,0.05176350253843332,0.03496308547399309,0.042572374130245595,0.03525353684793016,0.03772471670255156,-0.0716652731591632,-0.11618487396313538,0.025934866072701394,-0.026918598197762822,0.08979437771703568,-0.028183091131754368,-0.08579960481777726,-0.0235537946206733,-0.00037789534384989333,-0.010053756127918756,-0.024785847900657514,-0.019281759767355702,-0.06216095279894523,0.04420971554765295,0.03595726381086552,0.06430408196716554,0.015621567896607298,-0.021256910755703448,0.017415021346948088,0.06012553520480639,0.025669646395755773,-0.018682887678447724,0.06252134859934799,-0.07975388211707116,0.05071173120120856,0.06003963894057155,-0.08952552524812192,0.0066718035239327405,0.014269838535178667,-0.03823548305216313,0.004989705576677396,-0.03339508012807525,0.014773158334489033,0.011404674603944478,-0.11332847697028892,-0.03579169432373787,0.07100624948245865,0.0075466459529168976,-0.07295384700306848,-0.030850626109320486,0.07520970087303197,0.02496959855794366,-0.03511046206566244,-0.022931084124861792,0.057278848639558906,0.08336578785009588,0.06399451827796628,0.08110087700029527,0.05875679767166632,0.02950391225985272,-0.022384050705215687,-0.027441072190756147,-0.02903059658813287,0.08165275086777025,-0.040471890241379795,0.032284042769903765,-0.07045879684253216,-0.0735202631852304,-0.09803795937931223,-0.026612730005791348,0.027304397361515215,-0.10723805275319505,-0.08352339542915714,-0.1521641195098895,-0.055782016091115556,0.07173176721149221,-0.04754922997497515,-0.042534988149666546,-0.004362992883337133,-0.013900330702243271,-0.01762349418407645,0.026041845984399358,0.09521494587500032,0.023443693874746298,0.027943141716822596,0.006168403431468812,0.04863740472972114,-0.08052305531753154,0.046151149056124274,0.04039613585058081,0.02147244569724583,-0.03552871004160899,0.06938587048400799,-0.045178872019793995,0.007402593462172381,-0.032331866210694477,-0.10038229801553636,-0.007723821631008295,-0.02519517788442941,-0.0418002915924289,0.01850967952635208,-0.0017497395236399796,-0.17350444171785212,0.006946227095879368,0.04872220879723814,0.08135275679197664,0.011520767084428084,-0.013604508162148813,0.14374789391204598,0.03862982462087544,0.016333189707248338,0.0692720454546093,-0.049933582778403984,-0.023316910538988996,0.07459606267945751,0.0010600907668953184,0.08352266075438564,-0.05759106548448971,0.020603311225027007,0.0847201763754598,-0.08709001006094544,0.02030453207942547,-0.07015686596751748,-0.09929362399081418,-0.08686022117186269,-0.05739551558897662,-0.02383465083692611,-0.08902399679087297,-0.11821196742023483,-0.05079965938969891,-0.05089799677632088,0.06816107687728117,0.09567842725792063,0.01303925618401543,0.07956258230675059,0.08169754922991439,0.009626180530667978,-0.01732958319031236,-0.054250658549558295,0.04760023747159634,-0.0749430310761566,-0.030087515981176045,0.04800299383729111,-0.06983725872796896,-0.028655660547274486,-0.05895156292348136,0.030982373352163868,0.03323008410198852,0.0682701695407082,-0.03474920797266011,-0.08182783330088855,0.055646054868389576,0.04237159178729151,-0.043295844683204264,-0.07656923113254578,-0.12504681885568403,-0.042219980719799925,-0.09484147204775933,-0.07738072110536569,0.026130001479158685,-0.04460820959051632,0.023556298778908896,-0.06621710741416788,-0.06535306635740795,-0.012671284127436342,0.057234450709050304,-0.03256888761790765,-0.02206706281900746,-0.08305500833019874,0.007081814307913242,0.01878252858013171,-0.06717828711837279,-0.08440479815694438,-0.06627199968866357,0.06602708001471336,0.002500333672843623,0.003138291556460272,0.068920280407423,0.03594553055192381,0.0062644977319596335,0.04649845311963746,0.07456818445475476,-0.07260548972295923,0.04050770418741487,0.07919645140881276,0.05176605647561068,0.08541967190741219,0.07602105918141996,-0.08085996016198735,-0.045457988998571584,0.005132161761916368,0.07500997504991441,-0.05469617858341961,0.014575037247607076,0.0125739351591622,0.08109317801448336,0.048960010852407566,0.04589198545036146,0.057451315353250335,0.053308528177932225
0.016249061834297546,0.009463737746673556,-0.08505896890802621,-0.05949901541219847,-0.0007239933817625004,-0.04322761490614143,0.006845454262984251,0.08224166277568637,-0.04467172583271558,0.026327068539964374,0.0032119463451556157,-0.02833526268233054,-0.0006969492404102536,0.013260093203301177,-0.009399191824677602,-0.00513313065094341,-0.021977721043430907,-0.0455198485406575,0.06254965832948216,0.0038251537724608123,0.060822712851584845,0.06539034346768903,-0.031695447030957204,0.04298247138619589,0.0473483432951606,-0.012451059692634416,0.06916999128944702,0.0046176243969190504,-0.06353745690227063,-0.02143574365667076,0.05565060223453423,0.03189618570188417,-0.06748348001568315,-0.05507343722105987,0.07167369975560572,0.04858168398293441,-0.01973861588105048,0.059503970233059464,0.07560915780606686,-0.015928215262852957,-0.011193605356650089,0.08042408019550151,0.01406362932969026,0.06745234287168686,-0.014172092939103903,0.02251129577686955,0.051757176590995414,-0.04533426402432479,0.07627231185596982,-0.07323388156006506,-0.0008614977158087254,-0.060162149150608475,-0.04520054489615852,0.049452822896260545,-0.011703120088959608,0.08333604994223542,-0.07040335617307884,0.07056326795175749,-0.04774095751725828,0.03873550608227134,-0.0047996152220515335,0.03948334485639655,0.07151998116371201,-0.013972934518337102,-0.04429190069676037,-0.006396868186091237,-0.03150871750344239,0.015874177321970735,-0.038047512643756644,0.03064385005425483,0.02536350851845737,-0.06845258763341998,-0.07137810849924338,0.06952316775853164,0.06160630769539505,0.07906454987825132,0.0742209631176037,-0.02715599616839156,-0.03442722671501456,-0.050303195488708805,0.04017863275404044,-0.08415174707587605,-0.041713390190051394,0.046619094276788633,0.07937266473388536,-0.07992005643331906,0.07080038813593068,0.053020099695052045,0.05268933500384836,-0.06821861313423927,-0.007571162168433055,-0.04783139496702675,-0.055361306648442764,0.10563736488501596,-0.0009474100442998825,0.09009507587447944,-0.006478138752509127,0.09025812523583747,-0.022285813397155248,0.029288706206717616,0.022000498494087126,0.07508853053646775,0.04722280020745445,0.11106035503752251,0.009467750494966131,0.10173477489024402,0.005744131723126581,0.0758551930772658,0.034560494759920526,0.00735511954060275,0.01979741775351282,-0.01739043436065983,-0.02221869255717372,0.017975431903276655,-0.055652234102753106,-0.0735137027590029,0.07521174428324261,0.06159299787888838,0.05847423075758337,0.005789513502259623,0.05836558627983233,-0.03337139528901386,0.03224429013573647,0.04908010711349551,-0.09616410753129141,-0.1186360508171348,-0.11653939320214293,-0.020293978557515732,-0.0349720261317161,0.12965635499342806,0.158413098276195,0.15819494480806665,0.11439650171182761,0.0898034533083825,0.004929991895381063,0.010766909275279223,-0.06072751129232557,0.04756088954978158,-0.02243309533705627,0.0834850595825576,0.025320166480884327,-0.0777475138472484,0.057677803360577595,0.04980614494815059,-0.021051569804509812,0.019399754400691246,-0.035232562612766194,-0.005474318007883809,0.03375972054711265,0.052784014922047075,0.0039301120861496555,0.035531107763933985,0.024730467147560324,-0.018549103951370015,-0.06584260218190237,0.05593984667360371,-0.03579009327341152,0.03918592750429024,0.051373811340289524,0.13049047544973477,0.09502014102256949,-0.03180243795394982,-0.006148265952107815,-0.060165183292626635,-0.075388145171574,0.05682266535637382,-0.012159352772897607,0.0027127110635127324,0.0020603778686985614,-0.06761683898574165,-0.07974582177804826,-0.030613877843226264,-0.05134458904119883,-0.009330322898165478,0.05164759942048156,0.015402001746604601,0.07264705159116326,0.046742450416997254,-0.04908447297412062,-0.03351393895805793,-0.07513289298133796,-0.006685119022268256,-0.025809672256340073,0.03633231281093577,-0.029222206773103814,0.10243107058633395,0.1240749924761772,0.10477655881551094,-0.03548371134861113,0.04732912506944837,-0.027912963394577335,0.020922945418448972,0.007818677775795159,0.08386136887344531,-0.038231011887389116,-0.08130745482630412,-0.06352880802570578,-0.05099956444458625,0.008933819309367952,-0.009487677235045656,-0.03229279059017294,-0.062078494781622105,0.05539534504063363,0.09791650252281274,0.07408227725410475,0.13232990149371376,0.04819304982957266,0.019497522242504103,0.10337659046949234,0.008093804094940924,0.08534240462059656,-0.014440906493800426,0.11772652330998139,0.07894832512073575,0.10532415486779513,-0.038914049238064866,0.017763537414443666,0.014635447225557824,-0.01565190097356077,-0.04954113868989189,-0.03364547663942262,-0.06960996494881841,0.041079066896657,-0.03217812150189083,0.032873071109996696,-0.0410355760277122,-0.05711975304954336,-0.026615879913764465,0.023791733443468802,-0.03473236570715568,-0.013964709302769008,0.02511832451949529,-0.019749866579131227,0.202728235331547,0.14729043983219064,0.17069736020803247,0.07463841530904247,0.13771277028661044,0.09435938988674485,0.038807542341407555,0.08662545207517929,-0.028435293120858823,0.04580713867153233,-0.11637164589409676,-0.0005876185270892561,0.019607990017750033,0.024786102138820095,0.09790621035109724,-0.04316944068341413,-0.05489729746808548,0.05361690114849157,-0.07478440252010879,-0.010823116361290186,-0.07602995735772491,-0.06088391172292217,-0.03220791929438717,0.03472331095938294,-0.037995789268682405,0.10284087202983253,0.1340495983943373,0.12092573324306495,0.04970345538529606,0.08763186047894825,0.04045627142121988,0.09807790558696403,0.14277585940114973,0.05867475977621348,0.1636715277829225,0.06313506908747961,-0.099322536637921,-0.043735289225325165,-0.0867361285649565,-0.007849513910290332,-0.017640831177597086,-0.059700026927350686,-0.07095173601383903,0.03426391537477559,-0.06579743270630603,-0.03240724960422168,0.06847330267804484,-0.025129818837794023,0.03594628658038198,0.039260961798366245,-0.050193656100179056,0.03103499649061268,-0.00758356950784943,-0.013291161255843552,-0.020226236571531525,0.04308302106843492,0.13500282753890755,0.04105749565088569,0.07608383942569125,0.11156869945378628,0.13651029324578268,0.03800322061404224,-0.02659770410867419,0.09543049198229285,-0.08690281494875551,0.02286613931093243,-0.040248253576097154,0.039631124393639965,-0.004596119777819943,0.035296420957375924,0.09246221308231325,-0.015180405730374751,0.041392901041970825,-0.08020895321095622,-0.0612825783752815,-0.012756551577859621,-0.03395640522345262,-0.0831736151023806,0.07582814485987882,0.008416629704143027,-0.03368421978857043,-0.07657532794988184,-0.041413817430335856,0.028194354149776044,0.10054981559261336,-0.04914870900063485,-0.04441263877813833,0.01351882557792827,0.01361986706082056,-0.07754418670262922,-0.08676229354781613,0.07896603080159016,0.0011339677195317413,0.021326310967697017,-0.061004465076673835,-0.07915765569108807,-0.007305073723591227,0.0610355136747808,0.11147890655941411,-0.00378529078731219,0.018602139161264977,-0.07105265056240898,-0.029468663420903256,0.06382216808384095,-0.011232261803725972,0.08961875856670663,-0.03800213256040309,-0.055824047598333475,-0.0913913187850658,-0.030731195196901744,0.01602116897461505,0.045458231524215624,-0.02287566164099767,-0.11409864814332946,0.07707865661078833,-0.009388502515596019,-0.0866166312751139,-0.040049336384058914,-0.1646416486005786,0.06323494032639279,-0.0630519641930425,-0.02261798934832191,0.0036431777460769798,-0.08391138302068267,-0.03942542717561665,0.05793450118110094,-0.08983854836618543,0.06653165511511751,-0.07453125662515986,0.0588691869415147,-0.046438424126368796,0.06742653756028832,-0.05648959856126705,-0.05292898373077212,0.003355234977901579,-0.024270423092162402,0.040726253825291145,-0.03832877745235139,-0.046316069058684024,-0.061673483928368474,-0.0499046047681269,-0.08753578155412768,0.028627014009456265,-0.03920821718751942,-0.13801045779262774,-0.16298561038033332,0.04872883535891328,0.023967030480137923,-0.008295427185862498,0.039880749502294165,0.006835462796250115,-0.07600681110741637,-0.06351909696256094,0.08004841722760897,-0.07126970667931477,0.03673281739920607,-0.0313262861840341,-0.027977297919902444,-0.04516383651510411,-0.006255678283882812,-0.06791464665526216,-0.010627952407409082,-0.07676618087972385,-0.0873808243949221,0.0032680472563292083,-0.09550314009944097,-0.11300875864816068,-0.11257798516587983,-0.0236040992804434,-0.0049245173676034084,-0.024630065204195514,-0.043494153846834235,-0.07263774890167267,-0.09132382463212958,-0.09455751918446982,0.017466052814821643,-0.007056633708382822,0.02932521010351849,0.001827678264428134,0.07022494138893934,0.014878101706027208,0.11786003322039391,0.028613766898158807,-0.08369205481504004,-0.051916781918068165,0.05831351072456355,-0.0024119654290691373,-0.03792372071467094,0.05909577753759372,0.07076235761899491,0.05050692479550154,-0.11021380495088427,-0.11625161514074735,0.010500972754639475,-0.035876502109284475,-0.12972848588107266,-0.006689222464224728,0.09851176997058052,0.10309126070160436,-0.0723050982098576,-0.08277726956844662,0.06947350025164134,-0.05747568303097276,-0.01672400093898807,-0.11590899088021289,-0.04969061856896362,0.036988705777656575,0.08038145754039805,0.05210630965742327,-0.04328438628094883,0.04391620304544533,-0.014195075592655638,-0.018942796158940702,-0.05257246976221311,0.03563053737124141,0.07125774873055968,-0.07019231348827895,-0.06526769227636348,-0.06250508565850037,0.05160296143281317,-0.03345708170182796,0.0282240075147038,-0.03513612518262305,-0.12762466286249893,0.020608541721741345,0.016089421650446002,-0.11356856262747787,-0.013367461281595518,0.003585990553153753,0.11304751889356575,0.05483596480498664,0.07110250498926063,0.015601566897154516,0.06592352536510185,-0.02958629109053622,-0.029413711464315817,0.0005303564398571845,0.008598754820400074,0.008559137566139241,-0.01709309478503924,0.08552593307024593,-0.06593167852256612,-0.08512098895033811,-0.014614029221314889,0.023109210694770312,-0.002688623587227686,0.05670945091532052,0.05358723963472141,-0.051609744548738797,-0.10020876356876855,-0.012101474406375726,0.012074034195729274,0.028258425415360795,-0.03555980423952335,-0.04395154968057559,-0.09406806879511297,0.032033973210695156,0.018316679012547334,-0.06841833863389836,0.07107714038891352,-0.06704500957952869,0.009764867487986934,0.07928529732091612,-0.04135355679646758,0.018696499859165657,-0.03257815185202336,-0.06042574577268082,0.03702832321650247,-0.07220175520370532,0.032720014295556855,0.04777584003631518,-0.05367404867623781,-0.04216348151218774,-0.04715521116556747,0.0011623690333180511,-0.03573143725949321,-0.0882939068342916,-0.08767912589706262,-0.07252142522171498,-0.055635470939252765,-0.0668841200162163,-0.04808787621662004,0.1222437232257809,0.0666793482596836,0.07984879112139873,0.05911957676869722,-0.03794961615343403,-0.0057164614757222966,0.017494488995455373,0.03379521850661986,-0.030389031195845132,0.03458233484509966,0.03504603332691869,0.0902137056809487,-0.0066147067188276855,-0.05007476578465854,0.0028270144002552175,-0.07289457603965206,-0.015405324651696242,0.07032229184166013,-0.07582855591760497,0.07571307889427129,-0.06206123825319202,-0.008850333914312699,-0.00855140195287747,0.03213207283165091,-0.08346048227264084,-0.03833876711188448,0.12841874300133985,0.05496382246938294,0.1463509157895692,0.04007217407285567,0.05929280318133344,0.08985529991752327,0.05769250130753895,-0.026892988338068344,0.02753160975716303,0.042099197983227865,0.005929743619849549,0.09855977086929818,-0.02401607829382353,0.08424186779041805,-0.03325501484837064,-0.033693468236594526,0.0456389027768305,0.03709874054714805,-0.051017188866260714,-0.04247291901840545,-0.006767188383600335,-0.07552411184853106,-0.04505149523766981,-0.0021131999498787764,-0.018549840915297697,0.014819406688545811,-0.019978271577667947,0.016801673956151262,0.018293768736200703,-0.018494419817698567,0.11421060261332029,0.11315163711094096,0.0569516782204825,0.07522846926099637,0.15942730707481503,0.05775345949505926,0.04240946699659285,0.0676748643920262,0.11231146237892693,0.013351130757432062,-0.005821400669108873,-0.022450904730615718,0.04476034999996704,0.04312208508820591,0.03430582762197982,-0.05983918062149594,-0.016711984101852834,-0.007824315279227747,0.020424001746015205,0.062176860201845686,-0.07730121085275424,-0.0891498368904793,-0.09505662749734568,-0.05836526334344278,-0.10392977249559093,-0.07753819767682714,0.04336126505646949,0.07416258955069653,0.08180969312589145,0.003661581154124838,0.12193661485984734,0.09776190660576721,0.09017097451184303,0.0047242454109860535,0.06720255586248512,-0.045801859532734614,-0.058394730327085774,-0.01613337413261811,0.06091423430157788,-0.022545491435943265,0.02534616425768911,-0.07860218042535035,0.0006139490966118568,-0.024070140422587698,0.07085229429800147,0.022732133257513623,-0.06188258959845333,-0.037309783910034644,-0.04271370182135298,0.011478923381678337,0.009578681835360437,-0.0779176376584744,0.004776015021435611,-0.017127099968424403,-0.03240140558110749,0.06386324952525992,0.053597643176764166,0.006416914831895807,-0.006205664416847257,0.13291361127397133,0.0747703738947245,-0.06629267796629237,-0.07751181486723874,-0.0018009189780869368,-0.10203683108683337,-0.057752692674393896,0.0533001493492897,-0.013546542043225024,-0.07487977196404116,-0.03150452887444533,0.012681576635738835,-0.07308389929729904,0.06659982646394808,0.06677870385920875,0.05152278106118817,-0.01336311417251443,0.014846468937988713,-0.044475177093047644,-0.007740010629590917,-0.007550550430071739,0.013719981361206019,0.013044629825642326,0.044285133672158784,0.12694699747529622,-0.022951994053529663,0.04945487324684497,0.06243346777045534,-0.04327380135640195,0.025430709378739983,-0.1326667525428389,0.0011969577274477817,-0.0033390476269401716,0.029573011929155207,0.043747935258068034,0.02058025142871365,0.06620617176136094,-0.012353054517046972,-0.028492376138151587,-0.08105493073933712,-0.0623596796953816,0.05471567495141977,-0.04306009625480698,0.016556123860537543,0.0672081898322153,0.027902209823772034,-0.0770062355617412,-0.02083578491431775,-0.04110249602021731,0.1210866955220533,0.1080538941388192,-0.0012408357395881323,0.05349937994035239,0.09565544483169099,-0.01905318976917308,-0.03742182558082433,-0.10180920288321932,-0.04689233325566602,0.03967496761204491,0.026626789634656235,-0.10746195760052352,-0.09923511597098524,0.06453661380400702,0.06319576420095034,0.001574680172625566,-0.08300335800716671,-0.046689989783585545,0.007681085037351714,-0.07778770465776334,-0.014616851630212674,0.06821512807701846,0.013294347870962016,0.025144500658954873,-0.059892041248826335,0.04570309407712414,0.05223292402828075,0.04122883173659487,-0.029798370776616942,0.027119056405590678,0.05843685781710582,-0.03846538989906642,0.15561476238547658,0.10453634468775666,-0.006549891449320975,0.08453759166386518,0.04972328097473284,0.031898082635196695,0.08554104425719355,0.021335459145168927,0.028333977573215437,-0.06165486989051183,0.018807392308620937,0.021894029404810656,-0.07184129384601771,-0.08111256152775859,0.031060621893442095,-0.04005372750703727,-0.06940607714545652,-0.07369637384206437,-0.07481484264017649,-0.06481217943537468,-0.03785861594453636,-0.03428343538324145,0.04345235931135291,0.08314471389137011,0.041683006752173186,-0.08613208924405602,-0.06776762926783683,0.08646396354801464,0.002727000021619261,-0.02333004044778885,-0.07599785666334027,0.03595190733394524,0.15005263632930152,0.10120072420820837,0.08948135750779994,0.07875299620220098,-0.035225175544863416,0.066372219409216,-0.010274338547873983,-0.004139784546550524,-0.005958254028189758,0.06493782995033678,-0.008562982138893267,-0.04232680816320229,-0.05156486438860695,-0.06230954791704629,-0.07699912848446629,-0.010766681693868787,0.05786111291199514,-0.014179988926848809,-0.0824046141649738,-0.05973751543674514,-0.07229564644473875,-0.08116213533068128,-0.06811879065748702,0.03039880623296361,0.00421745330528192,-0.08247020272820413,-0.08524812260884486,-0.041673456394309534,0.06598691062719748,-0.06873564758607398,0.04142617829337336,-0.05692173170571939,0.01753290867874733,-0.07053950286548154,0.07595587452266067,-0.04505672864351658,-0.005972806182163682,0.008488883603897502,0.056221343561598504,0.029346512784287314,0.04567540776802735
0.05740743063800287,0.01008542240134835,-0.06843737097563159,-0.0014349901641900926,-0.033562427714461364,0.055376822796047234,0.06121243316149992,0.05460331558495194,-0.07023893679310278,-0.011407878599036234,-0.07242670819566008,-0.006500620646672358,0.029861807417224814,-0.03435081840958439,0.040110049924463834,0.07118475766925056,0.05143704219442448,-0.047661054498763,0.056301730623868604,0.045340971200548724,0.07938034572777114,-0.07277328497626892,-0.04408362255340709,-0.02334973366854091,-0.029366524524456653,-0.0765389856722693,0.010553348042670458,-0.03273428495351789,-0.08670496442428345,0.03824065347362598,0.05294046863283072,0.056119607424101624,-0.07845384162380553,-0.02568004089186797,0.02604665563650139,-0.04961427127336749,0.009211940896226312,0.07612513871813166,0.07748523636453383,-0.021950845286391196,0.04808521516670798,0.0203213219347858,0.07226207110972002,-0.06538925399961867,-0.02883320811437331,-0.07736962382961908,-0.000990271538046629,-0.07526660796092005,0.05542496489102442,-0.07854175148630127,0.0015802927619944372,0.016988155407796753,0.04149511007451894,0.03863407795085831,0.026484006541522206,0.0026054984175054936,-0.08329794365616808,-0.07587823072096599,-0.012306070518639783,0.06664105561309576,0.0850407013930507,0.016482389064987855,-0.08625892884709867,0.03511807360645983,-0.011286988825309213,0.07513322955352571,-0.036084542839348525,-0.03345801722205678,0.03535124185422913,0.1075242970184522,0.0256780451041522,0.018946068078284445,-0.0473017356997995,-0.0558318627963321,-0.020601858260798498,-0.07201662028685436,0.00025893622041758444,-0.020516322503682495,0.024529148632516918,0.08187905311393551,-0.042849836198653755,0.008254453430979086,-0.02944544116433023,-0.02269159588766101,-0.0038843109046874822,0.026304579578605995,-0.010115477059412839,-0.03458625500523426,0.06638276676934257,-0.006331815205787712,-0.01998615844378354,-0.012986761189291263,-0.03183672344134554,-0.03984188460965696,0.07551570693909666,0.10414337231676286,-0.014787104981095379,0.02158735429883114,0.057422294503288306,-0.0016624336406019455,-0.031916065945289,-0.030209253260523636,0.0015885674127765306,-0.06801520272872574,0.02519461656125504,-0.018656867182378994,-0.07011848113465484,0.07620958586402644,0.07706972907454092,0.0528111062402597,0.0842616501246826,0.006865619002921476,-0.03050154203459292,-0.007771755337464252,-0.03081063851622483,0.01052393557581433,-0.07580325109748558,-0.03551698254804394,-0.005152533827476189,0.08329751526480461,-0.04644913287733271,0.04819494396686141,-0.10030750605338404,-0.050733333087706715,0.0011266194047036683,0.09143435100062257,-0.006645299910284458,0.08366610587587775,-0.04350754468088682,0.04385212703919147,0.058512393831686896,0.031757670084316895,0.05716341139299278,-0.013347401922371493,0.07303997261504144,-0.032428734498649366,-0.07671127599883476,0.07118098835236353,-0.06036562917702878,-0.0018805310854054867,0.0012013016029419781,0.019550173232839113,-0.041374626509791776,-0.057892581749033195,0.055750297323847876,-0.008362749518526403,-0.02423323909441258,-0.07554686859392905,-0.08178201323598283,-0.012039957025499606,-0.06738978632401017,0.06495430357391366,-0.06910696077375092,0.050927466044567424,-0.0004898033436345497,0.1254688680996241,0.015683000096057595,0.10770304120949298,0.05520731268185115,0.0698665472473635,0.019191898373721965,0.03249082399283814,-0.024167547721960968,-0.06702222186076522,-0.015764278099634634,0.04140097282091456,-0.013213500098730053,0.045333304144098384,-0.037038329470552744,-0.032731086556794985,0.04495034533084149,-0.07731586355151378,-0.004288973156632805,0.05579986539625049,-0.03614763695812709,-0.024992678038449994,0.07037729591167279,0.017948841397322057,0.054267192773542645,0.042364653795121276,-0.06416570964528204,0.047675310671742924,-0.07458874735185299,-0.04964811778319586,0.07214439798804406,0.13926355016583897,0.08016799976777678,0.049886479566229214,0.024302573276884877,-0.02448971076868799,0.023281992696539598,0.07468514524880256,-0.04222734635234222,0.008235268356810103,-0.027916942153747397,0.016514015795327904,0.0062448770693938616,-0.033446994040024054,-0.0028845247765959857,0.08088373078223202,0.0009288803367978202,0.015594055462764876,0.008545178546463332,-0.009372292183289936,0.02918990483770036,0.033839750142009094,-0.02559100729658005,0.00852410601668992,-0.025754985400396613,-0.01511586357679198,-0.10457693270991568,-0.056721062341588684,-0.10964862584614402,0.04219972887605379,-0.04555973843198869,0.031219162172039558,0.04452992110855715,0.04440084403444987,0.09356723922882497,-0.01921569490927094,-0.05771857199175478,0.06143446161203724,-0.05855921301509168,-0.01385861227611873,0.04562287244487405,-0.03833275292564063,0.021612496717958805,-0.015342414167465276,-0.08104263216423421,-0.051932244101947196,0.030563030211978256,-0.053092984464241266,-0.041666370237414846,0.11167639246489434,0.03139078381876447,0.03648998093852668,0.06356844346710189,-0.04545789724061214,-0.09558905731238408,-0.02404863073574637,0.007644053639280493,-0.0234847475594036,0.010000532518809191,0.09660391726581716,0.07635518532050642,0.007653323865641145,0.012633510998550286,-0.036778000249927875,-0.02792085932458034,0.05889930965311374,-0.020261703951844217,0.030870515962515443,0.013697658990929193,-0.06908931979729255,-0.0027377007350083554,0.0335405080926788,-0.06046041246737458,-0.07658988480564557,-0.030574742285048646,-0.038428984773231284,0.05011235169881904,0.04464542274399883,0.006983809241636632,0.037072806257488454,0.03796469583307201,-0.009528493059411527,0.018051694766801435,0.04167740153467831,-0.10253662068015709,-0.05041505285763947,-0.03104818899177644,-0.06332388712862204,-0.03842667189654459,0.04508080676338833,0.056172676202726875,0.09710475351519754,0.06351479406232415,0.039343430935713755,-0.037081132051164076,-0.039457398399478545,-0.05035849164474845,-0.07592697835504626,0.028012609075233313,-0.07579818890014266,0.07717800516658246,0.021779232764323607,-0.0675929976283096,0.00350229507056118,0.006061486378152446,0.004463738675203473,0.20220203099996223,0.2505415664008635,0.045254274376664495,0.060234049408932296,-0.03983066691251214,-0.11273589153294324,-0.053243619659261686,-0.03465074971438628,-0.08868505724877156,-0.0034651442772578793,0.06702858965839945,0.03946626579917792,0.11843910619795534,-0.04031153521685997,-0.013343646555894045,0.05674178037675041,-0.031042326125876395,0.06476325993387362,-0.05226963677272406,0.04050390685571021,-0.019421015320349358,-0.017660041368029303,-0.053794916074861185,-0.03477303553535166,0.049403124391976826,0.04132480086149284,0.06793956533684113,0.07026014419741074,0.2168142775809818,0.0851199053951226,0.04885855523873072,-0.01479186437575744,-0.08083727463948014,-0.1465966713988838,-0.024299157373582982,0.0036100950163208737,-0.10227934305536196,0.03269140336820203,-0.05549063998898449,0.02348766375131885,0.09484862119284938,0.015057921704762476,-0.07037057830597954,0.052789651720824164,-0.03309758092094656,-0.05235214865926758,-0.04919172786397971,0.03239846880365923,0.06852509145451861,-0.0030999360827563887,-0.02884216284199401,-0.016312718675302606,-0.017762103460915942,0.03871348531382001,0.08026156123298098,0.1376634926579956,0.06971581872514603,0.011334167692356812,-0.039229226028880425,0.004310516993658104,-0.11232591044938012,-0.10338280029171228,-0.02424398309307743,-0.04925986321171043,-0.015786525291422156,-0.01863784881387473,-0.05428748296485233,-0.005679307275752811,0.07148396303068763,0.09773416443914415,-0.003961576837997746,0.0091706590837844,0.03257539922362244,0.03578832805300178,0.015574404653629165,0.0003733652448453198,-0.017993163407112392,0.08534136086334233,0.07786638639237574,-0.021704493650309773,0.07083150687448411,0.0327853425107612,0.07668853934142039,0.005055930384657251,0.13864533870376833,0.009783034129772713,0.03398171178408273,-0.0017706894837075417,-0.09360862975212939,-0.0008548821724300045,-0.03855034139499502,-0.09432740914573398,0.04428955466495188,-0.0665491891921604,-0.05542628431045571,0.0703844478744603,0.14455457933162422,0.03608256867822217,0.02299246624357256,-0.07406307418101306,-0.015457845539948865,0.05841070564978409,-0.08714192939267425,-0.08007083734736459,0.01797105428685408,0.003125110344561444,0.08230969796011903,0.029061775820690604,0.08288586181305899,0.008074386394677793,0.06166637685160431,0.04695180083588604,0.1426785474349683,0.17328309612641035,0.09117870858995167,0.004484366995023655,0.056003220855033085,-0.04974132210495111,-0.025509756282857773,-0.06428092314034425,-0.08581021274290064,-0.07566803014337148,0.06941091606058146,0.06587238908151029,0.1359978019532815,-0.02145978562576039,-0.03615707321607763,-0.01787493403539663,-0.06288928906678498,0.02617981564170711,-0.017543621424778864,0.038787252493136797,-0.07616555074594818,-0.005021909855729301,0.0896383300684155,-0.02803644121950089,0.10978660026604559,0.08203415150665525,-0.057685285657010615,0.062017350458234484,-0.08068327091678416,0.08548396450258877,0.09485958597525634,-0.01712737589233377,0.0010889997948054341,-0.015430679591616056,-0.06051741618424055,-0.039159433342299814,-0.03740117008151295,-0.04372713627600803,-0.010718461652709713,0.02249418963218933,0.06390133552614051,-0.017512520130291316,0.10221934954146895,-0.036268043582208295,-0.07380428922075359,0.014353304613194813,-0.033966011164631944,0.007706216689830834,-0.03378342453967718,-0.04560248443932837,0.02282237489172319,-0.025550271615393725,0.05800111210659359,0.08337304696965786,0.04858399725424915,0.08343823645599624,0.0445894014026572,-0.06743893912152686,0.04854407391597476,-0.07663866614996229,-0.035221636233541694,0.0406601470419999,-0.07048370842906938,-0.11984795416215206,0.018234507187322127,0.04936043966486208,0.09125729313373732,-0.014050595182508441,-0.01091062713123393,0.034085288917593985,0.021988651688431865,0.03620639303220476,-0.06904917402009128,0.04000883513600477,0.008292578010502946,-0.031109756150662523,-0.06865573576550152,-0.0065914603577428045,-0.042427219084407324,-0.0503594157060989,0.0028152532757588973,0.17254536977338067,0.07057744918325444,0.0696175934431977,0.03679905992372737,-0.006245225536569286,-0.033013817739537016,-0.03476541886782149,-0.06255647635134329,0.04713698674906611,0.08606076962567423,0.08800303793792948,0.06359756702703943,0.0080683929034006,0.08317708786786879,-0.0649426757728897,0.036470393984414026,0.006065455455462706,-0.0405554836408416,0.07681290199145722,-0.053628564033182995,0.022882499140759162,-0.047435907608653065,0.05883860562026967,-0.014864325708021752,-0.05192518253131654,0.0780761568955061,-0.005497952769127242,0.10539436182343978,0.03916463741574773,0.07787056053607871,0.09419168898394085,-0.024705604922576428,0.13274124905156662,-0.012018721193366342,-0.018529314891000542,0.03369232682138254,0.05951485048567668,0.028345850980483762,0.06246797679361171,0.03245240669243435,0.07155990269284866,0.06579405729917122,0.09336697019148736,0.08626096122839873,0.008194955972664363,-0.05428848529306736,0.08337905136299087,0.07549864262929085,-0.06863726980183614,0.02229103808140824,-0.022499184364416898,0.06383687796584205,-0.08192417262115759,-0.06001044744160642,0.04681996481117383,-0.031542704167323535,0.11078120180126873,0.04682134763237158,0.1422269078827647,0.17739181426766695,0.14696735394380417,0.052955058427218545,0.1582465175503195,0.12675230291912407,0.017374853822735334,0.056526263446793956,0.03460494096544124,0.03363566200780941,-0.028376533328606932,0.007618670099447508,0.07333914528736868,0.005369877734233546,0.020739630254300635,-0.030899674855246088,0.015644939164694876,0.07432699806863122,-0.025101838856771683,-0.03610069163037312,0.05693322253637122,0.05632175984602218,0.07622325515403845,0.04333940405027309,-0.028274961892156895,-0.0816919617625564,0.06924450187216237,0.00960586963506344,-0.029391947592734415,-0.022112732005127287,-0.002408891051135931,0.10408124392905906,0.06639668303863996,0.021398191491190505,-0.04936949209630126,0.00471987075865854,0.08524103660735308,0.1209174275458838,0.024401789285569426,-0.061628979760427104,-0.05352150579010607,-0.04220172116475963,-0.06869976534388678,-0.017551186326867987,-0.08913435684041497,0.05386658053318297,-0.06202741288470064,0.07860819742302659,0.06206952693834615,0.0010701026154922744,0.03846207864153047,0.0006162413311697084,-0.03493096369405629,-0.016456736402929138,0.0198647308960935,0.06387734944904017,0.04601144919647904,0.01175073003488005,0.07691486341963988,0.06449428819783329,-0.007825728748834722,0.01334650991079082,0.06362642338229701,-0.026503955235262024,0.16948052551525725,0.046106310637408984,-0.0127408729658434,-0.04332120214423159,-0.025025556540694972,0.06623373749012909,-0.05435940042749889,0.040480747656479105,-0.023838062158003187,-0.033493493380395076,-0.04674626130508219,0.044327950810014366,0.0776891914251405,-0.041670744132079295,0.06773243429720693,0.020653659916222217,-0.0859837406113475,0.024033864537282124,-0.028350633258593584,-0.0003862716643467698,0.07165570054086978,-0.06734326644681295,0.10050294595644427,0.050991660291594174,0.14847742068168868,-0.037528563249092345,-0.010545032443675852,0.05185246825866556,0.04036863334341395,-0.005171838617414457,-0.0022996523468520806,-0.07002435678989967,-0.05969916041944599,-0.03752643631549302,-0.05450713918894776,0.01042336392202419,0.007269776270496228,0.08197578754744532,-0.07635638470187092,0.018648044874510432,0.016090791688635562,0.031309745267773664,0.04077671114894646,-0.023326357839929875,-0.06652048975708708,-0.032028228706403254,-0.04137147440218978,0.06573354997569933,-0.07283963836570591,0.08243284629055546,-0.02011506654987728,0.027194578035191746,0.10888304030861834,0.12641199958468205,0.08399287950925427,0.04094157374424363,0.05955814314436871,-0.006238990984362032,-0.015178502053407617,0.017991282405161096,-0.07662872693706137,-0.00740717631391261,0.00696130180558176,-0.010045755389494442,0.0378513678657632,-0.016750535178751948,-0.06543102943059426,0.01424424172695894,0.04930039205935911,-0.04896016027131459,-0.029474708688955752,0.07406102906238772,-0.05909690828614768,-0.019549203267807555,-0.07610522054121419,0.06782118259779919,-0.07818786209856735,0.03287075031689662,-0.06533640315365159,-0.05293743218696382,-0.004880180182240426,0.0765134835595764,0.07878915391238273,0.05082129710295753,-0.030268938260956307,-0.056624945029285674,0.005948604931855933,0.01497690511053991,-0.08245837477119682,-0.06822589509270656,0.04858169800229215,0.03127907635543369,0.03340703058307759,0.009750131106818109,-0.06950475650960485,-0.01094488043795435,0.04459211786122921,-0.014306690762878469,-0.0416570324215526,-0.08276573175518066,0.01849057211380135,0.07697737632226598,-0.04727530638359165,-0.10058276368895483,0.049092183147673704,-0.06935811050742983,-0.0382401303201035,0.02444199073766603,-0.0662857545972601,0.003475207319803345,0.006457046046942304,-0.052720960775823514,-0.016074002891866123,-0.09154388144272287,-0.10419801216294365,-0.009710978340730836,-0.0312203827150959,-0.06809657889251697,0.007600226075057203,0.034885042632801774,0.07862390294464744,0.05842750693764402,0.03066294854961385,-0.04478934003326597,0.00708401274516288,0.004628570294816285,-0.08198559305973097,0.05774285180095792,0.05802183926895162,-0.06970229609171093,-0.016395086586370733,-0.035024597324904136,-0.009692569781658963,0.04991861436240911,-0.05705927868095745,0.0013703235777672792,0.05165930190574275,-0.09109298700871707,-0.026031157675148416,-0.06889646897055385,-0.03227868320461334,-0.08011137173073446,-0.05013561440993499,0.004161232360316172,-0.020248266919410576,-0.0010288933327410187,-0.047331418681880684,-0.0618351588950222,-0.054287456874466726,0.05799808187578823,0.014177536953888605,0.060340300865069536,-0.032012061912711054,0.024029411411067715,0.036390583292844156,-0.01654079454662595,-0.030572613609163808,-0.06325340842149565,0.004263459260286224,0.0617368278435747,-0.01778010754699214,-0.07003488216990669,-0.053323051064831616,0.044797342742568545,0.05748034344128324,-0.04358029553783648,-0.07950977729393383,-0.06128666311335562,0.05843438403243717,0.03837989481027758,0.00813125669063417,-0.00919389214541262,0.0369584732434504,0.04361967697195293,-0.05789680198605585,0.08587908358421664,0.07035846727974297,0.023228312478527528,0.0038571741469896384
0.03031925431811664,-0.03882076587978065,-0.04721826154879487,0.003711985200082748,-0.05341443492604499,0.036844594534182006,0.03706635751540088,0.05302548686727046,-0.08487270106720848,-0.052713451506192006,0.02371226126564668,0.03422359942271856,-0.019041254980810003,-0.06931394623328169,-0.032271298736120564,-0.0256562173960734,0.07018537760382004,-0.044877500245384554,0.033755596191196786,0.05995758486337702,-0.04383713424073882,-0.06434882001257179,0.016836809836858556,0.050243288427159166,-0.021942343105461566,0.019637482520565647,0.04350089935132793,-0.0662743894443726,0.016403689784788743,-0.05250779202894738,-0.008153521102983534,-0.08093887542171568,-0.04821954599750701,-0.0660735510605691,-0.0530248098737232,-0.08494881082512566,-0.05983981491013463,-0.05473819496001604,0.0025466897292863856,-0.021953707210975032,-0.06961575217676948,-0.00630372033518084,0.07885497431538431,0.06669901085416688,-0.014602527118983431,0.05382687896249069,-0.0739185759284023,-0.08274919082740352,-0.03056816896560989,-0.07616555199705087,-0.034612171882764844,-0.05643849741264903,0.04745538183404298,-0.02719641411452842,-0.007298731198983908,0.05642662712061206,-0.001959996242583336,-0.006891587984487502,-0.028841711551112717,-0.04537959559835198,-0.03838023709790389,-0.044883870355751476,-0.07480875365510292,-0.07060174081473249,-0.004301362323336393,0.02890205258386794,-0.023872101511425454,0.07512894993209929,0.028935759483303868,-0.0292313125961164,-0.03043542515082972,0.007803709366492944,0.07464357560098628,0.013527468420971557,0.03791988198488237,0.05705483449435971,0.04960095041395216,0.0540145998384195,-0.03794651433230978,-0.07636538776665001,-0.0665703585857445,-0.0014713369543866124,-0.04343591642533236,-0.007282115098516227,0.05964991222485473,0.0042914119969039875,0.06216736538512098,0.003385027950524019,-0.05963133789881168,-0.06487260772142321,-0.033191865227104496,0.010834288007828274,0.0701027234454613,0.03855767870423482,-0.07627116217192595,-0.07830933401222341,-0.03679395431352985,-0.002086380339853358,-0.08631405169383201,-0.02188816339137979,0.0541196681262531,0.00993715503775966,0.018542812083813295,-0.05167459439147648,-0.11557054175042202,0.03580572455185806,-0.019475894226789123,0.07308081425303144,-0.02084234335664289,-0.06528026944136701,0.07042911304085096,-0.036171260069729996,0.012698761461087338,0.00351729137973203,0.06646957690696062,0.059541755643828784,-0.05131592543811769,-0.027167989809004534,-0.05469708442592598,0.07164337873372471,0.06340091582652312,-0.017489786205065198,-0.03181465128521913,-0.08187773118953835,0.05567631855728014,0.0948280904981995,0.053123332345049484,-0.037811448939270464,-0.10141403611135001,0.031443399842988044,-0.01798587390814743,-0.11477297300441539,-0.06289784853693893,0.03942393471394348,0.050830002919115644,-0.015306253053673488,-0.008734182689996626,-0.07781708962742906,0.009244710911075057,-0.06623595698454304,0.0858552037797809,-0.030857220965853163,0.025555279622848842,0.03610241406899272,0.03079121148720118,0.03855572363259366,0.07046337274110151,0.006956381727076561,-0.0414495163983474,0.10042500306042301,0.09332298883274742,0.06650110556205789,0.13412896049995968,0.14270086528947817,0.1372384491135098,0.034544302267933265,0.060432306811462236,-0.01596926780986037,0.10422982831780268,-0.023711876876547747,0.08111876066502548,0.007569518598177345,0.031152085031530476,0.06069790333349076,0.05670682076861477,0.026913027077812728,0.07298495288994891,0.0062822285341606905,0.027712138578818178,-0.07788127177440304,-0.07921239079026796,-0.06863628238455474,-0.062315899516458266,0.07287549976194743,-0.02936193764563964,-0.0064185590827584215,0.01924375893961617,0.043049116066156995,-0.043328584548537205,0.03760701931284146,0.014509632984345164,0.009194548479981149,-0.012448440327326333,-0.050020668796423494,-0.009276642581595237,0.030487364492791484,0.0763000805359405,0.14255382928520877,0.10807915935916644,0.15268534150389967,-0.019656642623640978,0.10030721920506779,0.017311077468384214,-0.0016163885842892106,-0.0458126143403292,0.06339274005421308,-0.009119663878772489,0.017691129005381282,-0.08354963750133027,0.03485870878087098,-0.08846717150343297,0.025978278508755243,-0.0012032474170203156,-0.05690281192098814,0.0958624496551903,0.0932143210231472,0.005837167430383395,0.14375964665342847,-0.01990665026803353,0.024244042197444235,-0.1192294113636894,-0.017394344130088894,-0.06222060381859994,-0.059064996785855646,0.1232103831854378,0.2253973744829363,0.1676340149665433,0.21930302643161936,-0.005650349610432542,0.1023262362114689,0.04163267552135197,-0.010509808006178751,0.03591425013736047,0.04632247629896462,0.07300364085260527,0.07136896447165278,0.07608472834863611,-0.030325374545724513,-0.038287979116186026,-0.056253454167866916,0.005190291840636461,0.016281821727498428,0.02213495186233784,0.11533400571978875,0.057058918931963895,0.06382130188422282,-0.0555540004322958,0.048103818017391886,0.027050842370737516,0.05120210624960358,-0.024543694891807747,-0.05674764035497264,0.01524298827772774,0.06639369916554236,0.003996852498553559,0.08696571966331312,0.13426719186324304,0.02548990421666153,0.07790869670435023,0.060162863797064266,0.031663573410933656,-0.06935494006736438,0.04684559018934635,-0.0877625959952558,0.06511613943981712,-0.05208389439369012,0.02043701823035461,0.062378399127600105,0.035712570952158657,0.028423489014697392,0.031117225460971513,0.09645317468444939,0.07438737105902793,0.041568324580970054,-0.04626858112989029,-0.10020309754077435,-0.026968565330376598,0.01406550639749584,-0.07831473915144385,-0.008987716914016518,-0.13906600497243213,0.07949701463870876,0.09043769283025324,0.06379478217503756,0.08889312327474054,0.04771380195139502,0.05062040933371416,0.06191009177807543,0.06263831997151394,-0.03271274586367597,0.01412677348266389,-0.016320496470919148,0.033358138799696256,-0.06764388233205157,-0.08242718295108357,-0.05232345959240428,0.03764048864743829,0.08796217688847817,-0.03324676272987711,-0.02742148034218028,-0.07363168832485581,-0.08600378681942361,0.029363907241352294,5.0719874016225876e-05,0.032392986205948764,0.022129725528270566,-0.05440206028831749,0.049408605811820126,-0.010746013907878679,0.023240205418285975,-0.04708047039672757,-0.011490807113316652,0.0035171861402886057,-0.016078123948280423,0.01612916290324215,0.038392011418836414,0.03384433608005872,0.05921947795192529,0.07703994604908324,0.005296311884935237,0.027314554677057304,-0.05024994981631918,0.0763194579152491,0.057155662976383276,-0.04739627681555005,0.06684222493427926,0.09673640546162716,-0.01755544100348599,-0.006867409918432528,0.11301835012942062,-0.010947178712831462,0.18611326546072088,0.24843177425650304,0.059504201088358,-0.027154596893248326,-0.006637401439533052,-0.06436747797705379,-0.01913076403090959,-0.06080799265223322,0.11125930312029529,0.031272553255348404,-0.03882810779458083,-0.09388674679645247,-0.05589448201467924,0.04812304455831943,-0.07018289761333145,0.07782696243388133,-0.02416109923010367,0.06333635457991675,0.0006169260403979513,0.013827960972594429,0.04873208622940942,0.08670793089196405,0.042248925985192656,0.09004470257259024,0.0820328947801803,0.055241676146744884,0.0941463583799649,0.03077889440140061,0.29734617367569816,0.3449957941709303,0.06032121056845492,-0.16270680023590853,-0.021681782603998938,-0.1487973110315051,0.011447666514691814,-0.034575859154079416,-0.07421058637884824,-0.01861633988212465,-0.06812723192179847,0.05682527325905151,0.04972633475128022,-0.07664435454087036,0.043737358678290664,0.03676322518444844,-0.048255537493907014,0.03677145436350947,-0.033795092695680436,0.027596412295366073,-0.004624581354128194,-0.08499818106847482,-0.06164476869224746,0.13355281379573103,0.1260146462432614,0.049898489404776154,0.19344454920943902,0.1086312721730095,0.22291215436270995,0.22313612774712632,0.1497973184903717,-0.03876703052434746,-0.05529426260636632,-0.06163410658301325,0.03600802773825015,0.016358190576194375,-0.062135231897370094,-0.015573560636257654,0.023926421389306125,-0.047087790106185294,0.050490590121171915,0.08277188045550843,0.05590939774778109,0.03419157389341534,-0.04597677029428146,-0.015548879312824995,-0.0571093927798189,0.053559248288060204,-0.09464016574448604,-0.0366096715567705,-0.07023673706111033,0.13721946534936413,0.10093825532717932,0.018864135563735857,0.022221354783646535,0.0869959183901611,0.17951244004113423,0.21571420153910367,0.10036892883518476,-0.10614398085339277,-0.02463726962427672,-0.007747752987512991,0.09908899924274911,-0.06158936013291745,-0.12698948255586823,-0.15514817844109752,-0.044667125171415314,0.01589306209955935,-0.05314971067433621,0.040849288760072884,-0.08335793168376544,0.05618627743474115,-0.07601963454228039,-0.0602076919696175,0.07379459742339735,0.08847884869832988,-0.07180460279774376,-0.03407863798331424,-0.031238845986563606,0.036071172019919245,-0.08932774426555021,-0.030083075573357047,0.029714350284920258,0.12967836770437596,0.19594090729749802,0.184799933306438,0.1768704727385616,-0.058736156031058646,-0.01895652473321636,-0.004202356908465967,-0.04751292351715339,-0.09489165550935927,-0.07016879076219931,-0.12589464969918304,0.002950033747272812,-0.03831767352998126,0.008925686323431969,-0.05191630194131357,-0.07272211316297802,-0.01650896849936045,-0.05218040323911558,-0.04451039419388867,-0.0092864594281946,-0.007990348473150487,0.002937888826250777,-0.12303565572204801,-0.08285153436727709,0.017739843478668093,-0.027851553853660647,-0.10480182892654455,-0.053924094159310494,0.11558757193796951,0.1824184889612366,0.07136133204807141,0.19427307040173272,-0.041357675980041704,0.12052583063707586,0.012318930325948553,0.048194766645931066,-0.07967870145268913,-0.04091852502490085,-0.018482215825497094,-0.09353275994974757,-0.03593154566376083,0.0005298173041043063,-0.052122333389106885,-0.008076277285839815,0.06303741854904238,0.034894237528634194,-0.07996538675627311,0.0028608409401243468,-0.07522169575694744,-0.05355701663246668,-0.01780516777348035,-0.08750270611530277,-0.06680284733173623,-0.02512821971226952,0.03041987449591906,-0.0032070608819405252,0.05354851260623658,0.11770352205148284,0.2165178877090996,0.15862823827366382,0.07668735533594732,-0.027671818820067386,0.04017928963367836,-0.10064503702462041,-0.0011174275618307421,-0.03784012951079039,0.03940096732587002,-0.031990924086269135,-0.01933468662568813,-0.020853740949831907,-0.06553492413148054,-0.037928567482464155,0.08383806170905711,0.05887369951886257,0.028120207676309933,-0.016674086105417926,-0.05300990733012954,0.05841749757823023,0.05685681965228716,-0.01284760191999553,-0.0944011994839094,0.008163426954849347,-0.05699750115609953,-0.04785084972327876,0.10381208057300145,0.1821135284288939,0.012245529354239957,0.14662399822082145,0.0695752883545888,0.04000700403991556,0.016218098609576796,-0.10083738744678168,-0.06514882642157659,-0.01596412069413379,0.06345233864803841,-0.022710602071751195,-0.002818428702305719,-0.029015997987228363,0.0457199040071493,0.021039210521154657,-0.023387479781810765,0.07033404309710532,-0.05538545549233158,0.04897376412092215,-0.02056830751025107,-0.04603099536581232,0.05887115563745717,0.018295908792331714,-0.03116411742069948,0.027827912617349453,-0.05520689592477957,-0.008090068575378145,-0.028802908976934605,-0.015619200524502087,0.1609050945065243,0.021100674945936294,0.06630984943394488,0.038906865350046796,-0.01666133195652352,-0.009406554366422458,-0.03854209694397531,0.019714820624219236,0.01936583159962779,0.11160029349430867,0.08773746330073891,0.06782743012577326,0.06115303181962918,-0.07225931459669847,0.01164189507144162,0.049163798315157096,-0.011632838037516118,0.05117318555283933,0.0359759941836167,-0.05924677479774564,0.005792114619097158,0.12435674291316663,0.0106742273849178,0.04239216707845115,0.06488951083526957,-0.04069701272086087,0.07033172157847457,-0.009780556520445086,0.029661152441568736,0.014077218421995311,-0.053189760111558945,-0.0412053747568486,0.002940215902683115,-0.014277222495483678,-0.07793920288850972,0.08094821482810365,-0.06765576886272562,-0.0002550297689142817,-0.07529127977290656,-0.06264257165791903,-0.09142454917725316,-0.026730484921264484,0.015311363046444683,0.02107063072262969,0.02037458229074585,-0.007743988588034115,0.09244153987197702,0.07476824971825799,0.09979497318056697,0.08471143986547826,0.07515705286726512,0.08095387674633266,-0.0031343493012403684,-0.04608697552957153,-0.032742924446945446,-0.05189608495711402,0.007517791872945492,0.0002796503572004328,0.07955769464621984,-0.022926102751303433,0.14759769482069196,0.0422616945112124,-0.05249196543593521,0.001185747468122241,0.05971118589297758,-0.0012024854443941023,0.07548429721093514,0.014792230812766162,-0.03468794114860339,0.021969286223566985,0.015005061768161562,-0.03769784513180782,-0.0629273357559845,-0.00437997973792011,-0.040608997775758986,-0.012357297575956652,-0.049578752876344244,0.10757767951553619,0.12208650066470962,-0.010535293754308358,-0.06507932390845506,0.05360111401330012,0.010726167170082783,0.07819954947789169,0.1391345136113287,0.08131236470840987,0.1415509716693343,0.13574113544125654,0.06185127353312245,0.024813887589307686,0.10192595736026674,-0.011940840834306873,0.011287536033597872,-0.06240460771386523,-0.02621185580247157,-0.0375735273903538,0.03213198927049864,-0.040915169670800756,0.01458076197180906,0.06505401691834375,0.08570858629516301,-0.06591369423401267,0.06847858387355159,0.05936048813749199,-0.04080990858784058,0.09979608638702536,0.0840829335480736,-0.04435293490799855,-0.008098223527016592,0.054745143129574174,0.13890462079784308,0.1507775592769759,0.16006298278071043,0.08586156860716318,0.15961031587661575,0.1704936979489763,0.038318099515734984,0.11469034300349139,-0.007293095001127944,0.0776889735476246,0.04813880835611104,-0.07618002752352984,-0.038372240214964264,0.03703524569786344,-0.00791640084634008,-0.029377712699406436,-0.021436950223732553,0.0015953810326606158,0.061982560744653435,0.06741055970617416,0.06792971517609027,0.03905546150619079,-0.012096699206061523,0.07273014435869232,0.0005279866534142147,-0.06501576555351754,0.07057839345700617,-0.016867565369342006,-0.0411443659124315,0.02362505363953701,0.03407860998850349,0.056486430302675264,0.06269097517578687,-0.02262088715775103,0.07855082477770846,0.04291252624697624,0.0020232118952775006,0.007154330687897902,0.011486608238785648,0.07192267496378713,-0.012099790247787042,-0.017289685816867687,-0.038316528056728937,-0.006612569867941738,-0.019305478883845484,-0.06198760028937579,-0.029457492547634405,-0.07988138781493352,0.031492435787091884,0.0528668411736954,0.044950930724031196,0.0780633121635126,0.041534345912705536,0.10694338943438636,0.0985811325482278,0.060988666983759716,0.0443211424017955,0.08306174475784449,0.028902118925622177,-0.16999267057880982,-0.13835148910908263,-0.003660576025803741,-0.019406402297209826,0.06911066707081606,-0.05294701633003787,0.02687627994853672,0.02194816292908723,0.04755372798787514,-0.07466770282239758,0.08214955851780396,-0.07924792261086232,-0.0692224507718324,-0.059097273247735185,-0.014255963205506372,0.038047510468812815,-0.040329753956634316,0.06269350963580644,0.006926733859096892,-0.015494304328879953,0.037804411627725555,-0.025939644689929445,0.05809734552926187,-0.04732424432090978,-0.01032181407732277,-0.025932722677204104,0.02318971108737444,-0.1107439464838292,-0.09065357544111592,0.018578131240751933,-0.08620903613384027,0.0195831448629203,0.02043250994659117,-0.06462566463628806,-0.07876088541044118,-0.07431581361297443,0.07356615763885974,-0.04682641998387509,0.0505236194517237,0.014948356525374637,-0.030027565901200134,-0.01280108444053039,-0.05200716780857181,0.01052542251850559,-0.05585241359936536,0.0577567615168031,-0.052018030092901284,0.0439118461133019,-0.024268830199982667,-0.03138242410830968,0.01737306020732455,-0.041324722004821166,-0.06871330266432675,-0.07455561732399185,0.0430128533182041,-0.047325809925967646,-0.03244845965478365,0.059982377604771944,-0.04489910931812658,0.033421554211640704,-0.018892179189693502,0.06657536957060885,-0.05788641459071387,-0.033575472478049886,-0.002034129361655739,0.053611268586102996,-0.04633933094233367,-0.005515979557078329,0.08260824317832345
-0.0370026841552471,-0.045371641005439584,-0.026886701012229886,0.02821871630550404,-0.03181293408713865,-0.005830633686159062,0.08150536296207635,-0.04940938901399904,-0.04544228061501038,0.06560383596647719,0.05603453740929533,-0.05800287122843422,0.05173004148892598,0.029592224099323387,0.02129156945085685,0.06338133388679985,0.038951709845410444,-0.043222580958496015,-0.027326145232819184,-0.06208166569712852,0.009393301789903271,0.008902168181569478,-0.06166748293861888,0.01565045018737886,0.05047398257524099,0.047757076765014055,-0.06792604782598616,-0.07090945268696229,0.003405413000348322,-0.030114211787208946,0.018083059473988625,-0.03029974798938468,-0.056723963159955995,-0.0376843482681295,0.02895300348978792,0.07772292726596981,0.03108323232762577,0.07420561837607587,0.06252573506850032,-0.09003588246461043,0.04523263791897237,-0.08144746939741461,-0.00904640577849103,-0.07552587160877415,0.056508955420196225,0.01623098424386775,0.005623034885827861,-0.07966069029021189,0.03816172586146618,-0.012028390121018974,-0.05558773415989754,0.05940212346692006,0.01128131023948073,0.019310907860953536,-0.04813461338542746,0.06704272614533874,-0.07659738935943815,-0.03914020917416568,-0.028417896473811384,-0.01206721946003492,0.05726010413641909,0.07669578791995293,0.08184128566718375,0.02542863667139139,-0.03927243759670389,0.05552548461614865,0.05478100655822273,0.05622587140033375,0.004162741033995293,-0.08260830955909475,-0.048864265464696556,0.05190164866122207,-0.008708277567972355,-0.03969555629662923,0.0016276178217486245,-0.0462751130797712,0.01357124239927241,-0.059108306321532404,0.06609917703622581,-0.022741380908074673,-0.03622111178317262,-0.05331058295410142,0.010744148109795045,-0.010795027163657897,-0.04538745512870173,0.029444631655108612,-0.020251859319490577,0.08480435079771644,0.03467091606139559,0.07386675328981891,0.0783124278380058,0.03385490231648505,0.06017850383991007,-0.05676648861144702,0.005753941943393484,-0.004009841115376699,0.021013233590620052,-0.08172047852883159,0.005964934540165769,-0.06077018296428883,-0.062251319231304184,-0.025050573141274058,-0.016221101527979724,-0.11806613250920871,0.03619275946430956,0.060826969166735474,0.055761189320661375,0.03926305381334983,0.034850852617883975,-0.07670105812670028,-0.04499221722356858,0.020643446729212825,0.06410838787355697,0.027447593341741194,0.05186320367762598,0.03351911145072904,0.08021051137223373,-0.04575971757930508,0.013835782848942655,-0.0469838336817894,-0.013438304893680638,-0.06549943930000886,-0.002712983243670048,-0.020145098794418097,0.07673737579832986,0.06205481192298102,-0.06506630226589293,-0.09213193821496206,0.037766297630562544,-0.011510661609667999,-0.014613277335921864,-0.07794330162848583,-0.049701626780243806,0.06965801486083309,0.01869532234164067,0.05857198656850672,0.025798004076023,0.026516209581874235,-0.06822323099733907,0.06046224542692677,0.03693656241347913,0.07356605762175139,0.02973496007364851,0.016097708471267486,0.06313489861943662,0.03029272611297567,0.08473526689565156,-0.08116534428986634,0.007959519988342463,-0.12114266210422321,0.04652686612366954,0.0032073838737328455,-0.02538316366485777,-0.127400760179964,-0.018761833599529383,-0.01538277283258391,0.018269981700399517,-0.1253388578091016,-0.019688685266298286,-0.04800697941166525,0.022611050071975603,0.10152103476379377,0.018855814566937475,-0.03336835168416736,0.033897153237252314,-0.055322664651494595,-0.02731386640376292,-0.0125369698810471,-0.049128910303757434,0.005218261365239518,0.02102178273361738,-0.07354053795122699,0.09331952755455185,-0.02555559177481471,-0.04538156584465192,0.002049843643050485,0.018465919248119033,0.0025879549776596606,0.08953689227957055,-0.04398445531948091,-0.10137994196960733,-0.13510302772766145,-0.08832986842888699,-0.036995691842723805,-0.0480421120221465,0.08188731553014257,0.07922492796033523,-0.023030231006803452,-0.10876973607532267,0.14605041987878156,-0.03939408166623728,0.035151410596956416,0.02894502117836115,0.02308245791314565,-0.011852652400549859,0.036399831941903105,-0.0007524272873048138,-0.0123428818207463,0.05959589860203187,0.047983494783368684,-0.04168175480528322,0.04698174252884862,0.02760360218642757,0.06859941604065782,0.018930166792392622,0.02958147195311304,0.08756464682112869,0.05950052318252349,-0.08225736739963843,-0.11737556066505946,-0.22296181006794022,-0.1320566594435273,-0.012124168813583266,-0.03608470132703073,0.11476091635035492,-0.0663309783848284,0.02243384670866569,0.11497096057747955,0.03469031350340915,0.027775743068072862,-0.026836773648960817,0.04343452499808887,0.04406324174537326,0.0059924127795858515,0.01593684001603935,0.05766688552058556,-0.05266247925258625,0.09139488566599377,-0.05731916044922437,0.023143522205487124,-0.05230818215016685,-0.0382273435870726,0.05834324077242355,0.041704209246635024,0.05241119750482026,0.11137364853664519,0.05001909044724174,-0.021649753526018133,0.015372159819750403,-0.16221713241593025,0.07804930505752004,0.060323621523952924,0.10881917787829218,-0.023790178541594983,0.023116959593463198,0.135714945434605,-0.022640025611568436,-0.0396229399729896,-0.04824242674500999,0.037984291150426765,-0.03700700721807896,0.045273810603151526,-0.05260921078269023,0.03451578128656232,-0.026355006646983137,0.08986313845495113,-0.020146910680914468,-0.006990081953876671,-0.008157831606299149,0.08488233800330233,0.1368349863109063,0.05695224842245599,0.06545146551149983,0.09112137303243745,0.0867032112893694,0.07674714250149373,-0.00616773671973308,-0.008499880573666876,0.006372020623879462,0.01901439824443336,0.03945692656233509,0.04428661634616389,0.16444522726745436,0.10606640267699236,0.07348186540310978,-0.026098536895963118,0.08243885822422545,0.06437800636534578,-0.08202761912632311,0.07210314535603383,0.07352214299213404,-0.07167496338107197,0.013611206505340676,-0.042765336640321,-0.018380784641693064,-0.024472390726873784,0.03423928022050002,0.0673651963201516,-0.00030979019901510377,0.08550244981075444,0.15292753914419996,0.18562548435399373,0.11736145741495259,-0.10250827402949567,-0.06560991079576545,0.1640266966791016,0.15169643448416079,0.10956008392887535,0.07342821642057393,0.13153425486896772,0.05722666768267838,0.0986556848199237,0.1684278509497956,0.08945813735720257,0.08967831206249087,-0.018301906284997827,0.08232618408135785,-0.046527731781534645,0.0836235123845066,-0.06819805126297826,-0.01809754915820078,0.018751768860575013,0.043106624304534324,-0.02286484736272743,-0.030448697056302383,-0.04709016489114734,-0.023917522950579008,-0.03137555204545407,0.05077602027748448,0.13539668610532135,0.0640766631410344,-0.13199927178258294,-0.08547075058348685,-0.005965059767913758,0.0583575978936799,0.02166967024850854,-0.005936073715017757,0.08985345879665231,0.12843358141211716,0.06633640829698273,0.1462353161879247,0.0974425465939824,0.02128713821981133,-0.06072677997277453,0.03537344932452144,-0.07319311129525469,-0.03534818754990003,-0.006650472352149272,0.04759222470342897,-0.04567293390016346,-0.037606110317985074,0.0791363941405169,0.06648348736318564,-0.04974700753285895,0.03501637068815599,-0.015351708346676344,0.060623161939237634,-0.006564162032586384,-0.16483439531406888,-0.24202040890425766,-0.15334664095750325,-0.2257944804889749,0.06262757355639838,0.04773413499515377,0.04995327242450319,-0.03892636593568399,0.13184440976031195,-0.04266664642530637,0.08865578850485654,-0.004498274780698456,0.05930857998375295,-0.08174845976375777,-0.05711005018089673,0.08460608684775786,0.05412948354380541,-0.07992460470955302,0.0401317540600168,-0.0027286488063998256,0.04033202765477475,0.11263076439976863,0.011696327214430254,0.011016984999008796,-0.03414601986402489,0.0413142050992018,0.1308391061860053,-0.061214410022288786,-0.12150337316833108,-0.09871163733045951,-0.16631156023067473,-0.15052113849425566,0.010149401261465778,-0.02052580564371971,-0.003802926450947579,0.0869429889043426,0.07469649784681313,-0.01827939368414406,0.024212909294951047,0.08793778391746343,0.048389240307868814,0.06731215872083222,0.04004205794205889,-0.045787480045018994,0.05964722487603405,0.06554282922804115,0.0033372030896819324,-0.028861113705755764,-0.08412703762546875,-0.009749422625953403,0.12179406980913272,0.02897125124300953,0.10307378346550695,0.16169382350897146,0.1255416523702453,0.11535134687021302,0.04501504806653067,-0.22845563238010597,-0.18246209860415386,-0.14585006607335974,0.05672633412728874,0.035927750858765976,0.0008875201479873388,0.08844325597456563,-0.04172992978781498,0.07882457987355605,0.024884094007977427,-0.04772255919858392,-0.04959906102265133,0.07574779301440636,0.013468782178522078,0.019626244038003372,0.043252187542232604,-0.042651698485233557,-0.03345974283286556,0.010702361786475618,0.0678461037720837,-0.03462288123938163,0.008260130059368376,0.011542447545288359,0.06315089222565518,0.14200610929223148,-0.026835843761021362,0.025285468900026357,-0.06929210603698528,-0.15710291916638416,-0.10573843146014958,0.006753765938368758,0.18106119410633123,-0.08392574727981672,-0.02816359201723738,-0.038271382835540976,-0.06699120951243107,-0.004246755955232845,0.010098230342404806,-0.00827929887763173,-0.0676839387540401,-0.07722327563323214,-0.058692920907695366,0.01634179839291928,-0.0007739509892330028,0.081572431064245,-0.034125368721939886,0.06331569605971148,0.07696134680931348,-0.0009769032779121402,0.11899374224091229,0.137644584761558,0.1070402530663924,-0.01593154110929054,0.030097399145325124,-0.07984596905906546,-0.09786293266296363,-0.08599072805752406,-0.05676312364954644,0.09083918869459498,0.0857564046902311,0.002146399541803222,-0.06266372047105111,0.013796078524774312,-0.04289917105802405,0.05045390700010581,0.08464807769204186,0.10241518948992373,0.07697933746952607,0.03835866511447414,0.045613091353066695,-0.028034341106649242,0.05931674850901062,-0.029015376522948014,0.0704299039142203,-0.07120387345037414,0.004989346589237821,0.010981397984171594,0.07937405221678323,0.044884319849244604,0.04159234151668146,-0.04603519846419599,-0.027697507846654958,-0.1325769352223861,-0.14628269943084116,-0.10430430727619242,0.11577602766895784,-0.045079930749216776,0.11342649666777871,0.02657940761052328,0.11818037072885983,0.10931248198102644,0.08051139759111921,0.046738034929690336,-0.02552761266555064,0.016870208946201122,0.023952662194431273,0.03802085041795112,0.04657503425478826,0.06091746759742548,0.021795427572160023,-0.05597998562616685,0.015660546133416046,-0.06795867395266691,-0.001971320012547676,0.05316602325116155,0.05743796201516232,-0.030707629420984744,-0.0601165645975332,0.007551038587712881,0.006639017616649445,-0.12444535006788944,-0.08476244062316449,-0.09013235858632741,0.04481861027587571,-0.022384762298403256,0.017283545092078644,0.04234235303699315,0.019285236823612873,-0.03139826006476411,0.13370405832665389,-0.04951072029497388,0.00396847490403922,-0.055384542993063474,-0.025143597310618895,-0.000797009966971384,0.04372301634212438,0.07866899197747408,-0.04568903816367307,0.03293535898171779,-0.023746473139862286,0.08342581326593441,-0.06448056411521111,-0.0636841372672534,-0.05316491432385079,-0.016333977366034137,-0.017099304546160293,-0.09489158596266975,-0.01821436024341275,0.03941816851667495,-0.0997980483355972,-0.07324072919162392,0.030789912402611527,0.023747155757858258,-0.012606465770101764,-0.02980421144174197,0.0053368066355460155,-0.049251398643389066,-0.052977552801660936,0.0039321020851285785,-0.06082269207594422,-0.05086222262756295,-0.015701073519762465,0.025125918907091243,0.009293194272581615,0.05357016162321411,-0.04469478063877747,-0.007002652021483385,0.007562357998998656,-0.04849173786083325,0.011959131453438753,-0.009192741103641672,-0.11484633915415282,0.0410212249465019,0.010190233254249005,0.009285527746002166,0.034878317373641124,-0.029546171902794963,0.005839342347232721,0.043691970309518255,0.05177013187910787,-6.909444070047356e-05,0.09144518873645409,-0.0770889619912983,-0.06279783576912067,0.006874910963458397,-0.08377956852061773,-0.1407152877383124,-0.11349180830849216,-0.02066098230872417,-0.0241906485899182,-0.05054494694441692,-0.022057405699637996,-0.044207157219020514,-0.004261608731196817,0.01792386803689711,-0.02133926707830022,0.029915515815551574,-0.029034281478224615,0.05103921245235678,-0.0827460616350844,-0.07075171923123877,-0.07455867450469017,-0.03059427607962637,0.03227118524155595,0.026711518625957654,0.039930535346368576,0.07532738393308229,0.12019037002979442,0.09723294894293238,0.07088413623789132,-0.04240218971350383,0.10415984404597488,-0.11112289748538742,-0.07875569609593096,-0.020412301512649562,-0.0017574641571578948,0.07240639318726735,-0.0226516097257449,0.044258876157779146,0.07188165513930853,0.0337252525913971,-0.06058339710599834,-0.009585166251289808,0.02093068796952452,0.06714048576266994,-0.030781786069081732,-0.07635174386063846,-0.05819838972255478,-0.10638934015257626,-0.06171949674454717,0.043900753443343314,-0.07205630312777374,0.007625379922515775,-0.020055064550400244,0.083207312063,-0.005572505399455907,0.05603712348957595,0.024887201834694703,0.06110719838807258,0.017701565798425117,-0.07191661617407741,0.03445345747561543,-0.04852733688562193,0.05693321183542064,0.06396428323004083,-0.014177301087545731,0.00739784146820709,0.04552829859121775,0.04372878596660019,-0.007106359161382273,-0.03620442670901993,-0.05280722399332657,0.009787718463505447,-0.06583797992647569,-0.038281697162607056,0.009155204856538833,0.06728627097481293,0.06293335015425452,0.11537707870019988,-0.0015281061570720969,0.05480094439763757,0.004181118513607251,0.022694870371428384,-0.05659609313874139,0.11590329941955095,-0.021265802347130384,0.100170555298937,0.016205084976563765,-0.11023349473947018,-0.052791395254627685,-0.03337056849515892,-0.0050809651428538015,-0.0076503801970587895,0.02316720234652429,-0.004448964740437763,-0.0553195130724467,0.008459152409692165,-0.03639440443627466,-0.05446844941504131,0.02250792003640202,0.08456138407968594,-0.06681069933537968,-0.02051124958401979,0.08956745940214242,0.011933795117825465,-0.0798511767741925,0.07731494653620975,-0.0014090464638615073,0.05432287094825649,0.08944022987232782,-0.08882910909700228,0.03781335165658348,0.028662514403094176,-0.0913606937222138,0.09202966278279613,-0.028569768890827633,0.0006750547337983741,-0.05167172833870167,-0.09050206716805975,0.06953356087699636,-0.05154559305262769,-0.009306892151427321,-0.01609832814480267,0.008200185480001189,0.022264696960464674,-0.063151991722588,-0.00964665613007704,-0.017136953355737686,0.08043619974063883,0.033008698537564975,-0.05792331441775798,0.06690617525706484,0.03546699418319306,-0.026391788973859607,-0.04462321994260015,-0.05879242694361155,0.011785841778326157,0.014819679179090672,0.0665665548795528,-0.010874003618666802,0.07175888628849839,-0.029217990730240236,-0.037772579298588765,-0.06942219145384641,-0.06981854710592537,-0.029887627446558693,0.00656852989871931,-0.06006700618478439,-0.013636765279305105,-0.034661373768087964,0.01385167011888362,-0.029400128569593443,-0.020986887198841023,0.02885405598165711,0.035636942710754176,0.037153091075085354,-0.06599331622139505,-0.07259415824298235,-0.014685668822379698,0.0744888814644656,-0.052379545890585515,0.04851687494086114,0.033503412855085166,0.021935931924712142,0.11587823053245186,0.05785291821964677,0.07837153989222648,0.10201529542910012,0.1117065662684529,0.05330748907802165,-0.0182038957317849,0.008935951714744905,-0.012338610140476923,0.06597292791719195,-0.04996068537835628,0.012550445237748915,0.08256968781351577,0.014254122200396315,0.021981484080284885,-0.059031507097828985,-0.049134455395306476,0.08251243940109698,-0.00690461896591527,0.06814717342407732,0.017972709577284883,-0.04749577781671963,-0.06885685553352851,0.0374489870704221,0.01757410057845181,-0.040987831714486694,0.028742991765179332,-0.049495135290390575,0.07169696277249062,0.06678871379173147,-0.018363962808143376,-0.058219289258458436,0.053870371404039795,-0.053316751672997986,-0.0017626589756941096,-0.044183214945568705,-0.03964568394255016,-0.04850889121538253,-0.0861205444315681,0.07148466490392094,0.07711207568330347,-0.06628992536924147,0.04192673403975655,0.056995372013891134,0.027373984901352635
0.029302048945534648,0.02834895775257945,-0.004913168112860613,1.1220528361817884e-05,0.015543722734918766,-0.013257674658445358,0.004446322732824057,-0.01868375978224261,0.00014885245584598348,-0.08250619107363091,0.07976320294943058,-0.01716105053770261,0.07805249543255423,-0.001454842360008396,-0.07681964001948957,0.009409605931193393,0.002991127688798822,0.061543446900046844,0.07823528558891715,0.037970780243799115,0.027892873320490286,0.06252722621574577,0.0014695762541434552,-0.05079909329935252,-0.08353197221875179,0.005820443133024291,0.07643648256002186,0.0018276771855026217,0.013350345595685776,-0.0031904044698825434,0.05510338435690887,-0.031953098150803494,-0.0014319894850375334,0.01885698190623682,-0.06631668219874753,0.02749728933762274,-0.012808846288292174,-0.06548209601081716,0.08246826388337834,0.02817354208965155,-0.005483338223077531,-0.06696390194980027,-0.06895282012729663,0.020839734316168996,-0.019379325958274844,0.01866013032663396,-0.06931424121913836,-0.06962146880312432,-0.044678181517428896,0.004840924604871707,-0.08256112853292515,-0.05491714838121993,0.02369185380024633,-0.07687397769279367,-0.06096975825953549,0.019331323958758796,0.055252207484658665,-0.045647587606187603,0.056280531586023114,-0.04177676896310724,-0.05602815914566535,0.048192030479922404,-0.023349515729532776,4.04440106707483e-05,0.053269197027070656,-0.050942711593378924,-0.02869028173059942,0.04877209673280511,-0.03115722131870816,-0.034938383117862834,0.04958233802297272,0.007249101446181294,0.013487566237212914,-0.011742273429245328,-0.019143880085513054,0.018829288394485416,0.0676988184503688,0.017044854456553217,-0.06658182415586796,-0.0601200355002541,0.05156281902716309,0.008880450947778938,-0.08092547214592898,-0.08169626875124972,0.03821473226275785,-0.017930820205565797,0.08280786432569742,-0.05717243058688286,0.051563727468009225,0.03606061174551854,0.05501766831429477,0.018439309041283942,-0.014100517194792184,0.03864539028920419,-0.03401236284364925,-0.004905138408660723,-0.02436621434196713,0.007331515069957171,-0.07228236791987802,0.06899469865931608,-0.08451512370395065,0.07811691601422428,0.009623327393530516,0.0341043912940166,-0.031188859097485123,-0.02992555520675757,-0.07767232711898225,-0.014975907971494005,-0.036058162192669496,0.08451426431071254,0.05624482785429123,0.01362066086123683,0.037493423202560036,-0.05411174183773206,-0.015822036338262152,-0.03138670268901676,-0.009831513420504935,0.04087594630730249,0.026892902798297157,0.006780163776926298,0.016626954662288616,-0.005859333128970843,-0.027572968696478104,-0.04270508394194695,0.05481148173651396,-0.03811965096662516,-0.04068747222472921,0.009165075478679051,0.055773616576390524,-0.033885263505880635,-0.04317076414621398,0.005889038998450823,0.020070418562383962,-0.04525859559156234,0.020309954086952606,0.0007365593909661699,-0.07994653959258269,-0.010901106599901029,0.021499640472700105,0.037353293382002016,-0.06785126772414082,0.06840930996815932,-0.03872433760830832,0.012351119980505027,0.013349707424631402,-0.03858403608591772,-0.04020939230563728,0.07647053678433385,0.03287122443353742,-0.04208301689084421,-0.017472424702815473,-0.08054076438763288,-0.06400033312877315,0.03349370914386191,0.013329334840777413,0.01985879867519998,-0.08037999014442271,0.06575447477768694,-0.051282605806120894,0.032595598002745266,-0.05499306493265847,-0.017606270545814793,0.06333018506411364,0.010508920380094164,-0.04347049868402199,-0.029270496545137525,0.08351577921556362,0.07397700799264906,0.009606592473652243,0.0367199825683845,0.016139711335975,-0.0684137291716157,-0.07161167158602945,0.019791132251845978,-0.011058997121961149,0.04440912316178056,-0.025790958462605033,-0.07454600579096728,-0.06396314544954824,-0.07508733336356546,0.00602048335445275,0.0263676815131533,-0.021275883759888085,-0.0032192780209677305,0.06591041356404889,-0.021679122015320088,0.0642702874872672,0.08597509884440846,-0.07439643907023404,-0.07197358528787905,0.03837168435570072,-0.06590753901980263,-0.04141477804937544,-0.05685000929126873,-0.06336655960134467,0.02620784876372217,-0.026941897468657786,0.05863766199209117,0.05271020581427728,0.0794529656486188,-0.03391166019411387,-0.013122478542238195,0.0001653892227880665,-0.06562950003972172,0.05573660855174013,0.04438096671060244,-0.05144219368195729,0.0804431743434804,0.053135930140398226,0.09185123736050715,0.005571899618418016,0.06755639814089025,-0.005857301587630253,-0.06058544604811672,0.051479887783194525,0.06654012753656126,-0.01498058223808063,-0.021468411050121598,0.061405092395864176,0.03850786966345753,-0.016928137054877532,0.08010171299028497,-0.07324153009008717,0.0073449541207560075,-0.004638838851896355,-0.044038209619264315,-0.0007588226201193755,-0.07590372039207197,0.0706933116136529,0.003375953424043611,0.09082239367528341,-0.04380467230783576,-0.07609502168586942,0.005628133220592587,0.03996141149381652,0.09401464524089724,-0.017988590058209897,-0.055597127952534804,0.07855831233691798,0.0121981711834717,-0.017690209531758042,-0.058411252680161556,-0.05997895572948951,-0.028626869016827452,0.01217107191480076,0.0243014558659296,-0.06987854189881691,-0.06044929186943472,0.06368515261887851,-0.0023892882554815303,0.04037889012895594,-0.0689452307012173,-0.013635199042872243,0.08123479382112574,-0.07155765870449983,0.07422570635879853,-0.011293860852741956,-0.03341103177498967,0.05161628150636275,-0.043976321227292885,0.07350677114078792,-0.04231540484298668,0.039936049166315324,-0.002680704678316188,0.11598350681373053,0.04154007172294656,0.03865095336313345,-0.06274669949288045,-0.0800639296447289,-0.06859557538778559,-0.03402510559609294,0.0015703745534177704,-0.041936163542889926,0.05111756424173213,0.03416222460695005,-0.0592724840524856,0.010593795991596829,0.05964202374440289,0.004337938436549376,0.046392358411377246,0.059906360342039076,-0.02403345358732899,0.024327243746875223,-0.024361131432849126,0.07126687918083092,-0.05156222297192002,0.051287576561196827,0.0626824926839491,-0.011656580563175235,0.10163714827196514,0.02152506767953842,0.011324640135855681,-0.05854416509212907,-0.03777909057649069,0.026919000334504496,-0.07726223595609201,-0.04383315519502181,0.01524641503288979,-0.0564473618330628,0.055184913923158475,0.014017385384111609,0.017175124453394905,0.05311200811353762,0.06959762539799286,0.07717050774218885,-0.031026255533669573,-0.020644673476820224,-0.07730391095898659,0.06168077986862371,0.06639938040124217,-0.02093006495515773,0.09025545452808773,-0.012079771695602986,-0.08447914200902142,-0.00015551276908755076,0.00869061023538654,0.03977442840304202,0.01710159702775921,-0.011624714633722503,0.003185112670281205,0.06720621390762724,0.019453327378013755,0.015262472584415527,0.04021219547743148,0.01977126827503089,0.04944146184912807,0.11132897143257409,-0.07227346122269436,-0.03868719968095701,0.04908928715814075,0.017496206784676463,-0.07610844799314435,-0.022018344066944556,0.02660206415730366,-0.07984014615094967,0.0019626253830607294,-0.013311466139840699,0.06063987462235768,0.017316849291571252,0.06432043901550577,0.05333295313970454,-0.02969953680462869,0.022471417547049986,0.0420258614906106,0.025311131413120917,0.023737669468485864,-0.03806426012295766,-0.06979158115258338,0.003940330856902169,0.0008281126709791659,0.019523563116193028,-0.001576654712332137,-0.0942655568614074,-0.05909182092648209,-0.007314183851867209,-0.005747266130644789,0.06284026685313053,-0.018712791893162436,-0.03319832504823009,0.003108009206054478,0.052979776012562874,0.044812590296598474,-0.06380055933936461,-0.0351991597092582,0.03234868069405076,-0.055828091743641145,-0.0538154461981662,0.07386695059484814,0.06497842038471058,-0.03465017142792037,-0.05033719445164269,0.08475415863651432,0.11235290804427148,0.0693168518114161,-0.07489953148705415,0.045756485120616495,0.10120017254444566,0.02608052537805634,-0.056163606019179614,0.0005312146659407491,0.019758785900351558,0.07556431107370153,-0.06965030705076374,0.03970068106817541,0.06415348108600515,0.10209905397448645,0.04704444790453894,-0.02791925395451629,-0.018597770545767483,-0.05698043976552258,-0.01932483499942105,0.057110624443183766,-0.07918489464890735,0.07985572064912824,0.02119181904490237,0.0473844763730321,-0.04785093776461496,-0.07475144400399301,0.04908080295522262,-0.04071485624478187,0.03184035115198379,-0.04599760370868899,0.019327459843413906,-0.04020032823805971,-0.04035567363582617,-0.053072755891944066,-0.00622723631149449,0.08899688730122596,0.028727933805174105,-0.0062887911913195324,-0.009107650808386682,0.04494640009727436,-0.02136413969811436,-0.03425608820487825,0.02671720056211155,-0.07370925860739258,0.009452778515885054,-0.035229648061584636,0.06944093356518267,-0.0809233126536127,0.03544713496465294,0.007440368208031513,0.018760465864533726,0.06735923793472727,-0.018758282602608797,-0.08000086595594733,-0.01775772994292731,0.10557172928111035,-0.016479322245575998,-0.02619521806858314,-0.06446323394475645,0.0847668804185916,0.02864651895112782,0.09447978730031265,-0.039449825184371796,-0.017205956328002557,-0.05785619908192773,-0.04948032676375724,-0.09094253603374391,-0.014473163625670075,0.09284024899852314,0.042409002009678586,-0.05942321692747206,-0.04526067583511013,0.038776394597123995,0.07339667811984928,0.04152429418051672,0.0004167990177104883,0.04254696019771596,0.050277643718430354,0.04589112848156348,0.04586131985781832,0.014420529148575681,-0.04432256617554717,0.028511439375565818,0.010024845600985452,0.022271438468322545,0.05400044117879158,-0.05556824559965992,-0.06056827234975479,-0.03803489499375893,-0.07062757842063482,0.0166149924954796,-0.0440025494772503,-0.03658640964948753,0.05863044058281169,-0.05886563512728125,0.037431693258669574,0.09149213538980805,0.07084834267810004,-0.06727762468283546,0.0821793392766306,0.03867930868966457,-0.04762050530964242,-0.07739901852009297,0.04830980252678766,0.01059216541114513,0.0801405846204643,0.027422694708415626,0.022342742100630697,-0.06668917064951367,-0.09022946187640765,0.004909567337703983,0.07956774022109887,0.06288400330760803,0.056265862191991284,0.07929679591364129,0.04095541184924378,-0.006822353093199877,0.009869271208306652,-0.07925366855759106,-0.01768735015967966,0.06516158720180976,-0.022249628508764416,0.02143225680959847,-0.04220488611160698,0.09497906434884162,-0.038402132280654505,0.015945890074396913,-0.023407640711739904,0.0028819202451026184,-0.028671535067108816,-0.07053738107824445,-0.03177610025527193,-0.02157447019308617,0.056904840824691605,0.01551133252473297,-0.05177995086035502,0.013463344709525225,0.034120566344148395,0.012092978133202884,-0.053811534121869835,-0.05775584921707973,0.0002765009257340429,0.02079066404986777,-0.019272059453581045,0.07044013644900171,-0.06000702780284789,0.020965930686096906,0.03798216639657257,0.07478709167508402,0.07831820112089734,0.06090213650873657,0.005819897436150561,-0.03175974036045299,0.015569628541047844,0.02729262774604654,-0.08534490745761228,0.0746826235568469,0.08193820237312303,-0.007393513878996851,0.07839354777406193,-0.020074104171623,0.021526948964873577,-0.04160904586955185,0.05675861909365532,0.0638863469037741,-0.0020365179264743684,0.08508710539683371,0.07588597736457597,0.10879945059559445,0.035849554806579774,0.10799094504468663,0.10383563550318899,0.09091993241133338,-0.02727231813711539,0.12220376766580826,-0.019531217343062623,0.046950666192175465,0.04178221623883471,0.0025074453318040205,0.04302504288959197,-0.0614111061634646,-0.055449935001410225,0.08502989263239373,0.07944772306851378,0.035719933267322576,0.05800979129620141,-0.07234429115776546,0.03244489684060836,0.03261649601085985,-0.017044605575468712,-0.07766878291341654,-0.05666829036530784,-0.039451634783300306,-0.028761047609509507,0.059280222009138885,0.02339143559566341,-0.044560841494824255,-0.0023641051003193865,0.051492141129137095,0.09844779058990873,-0.0325229899009694,0.05973899176644458,-0.030409451010175198,-0.03391279132982286,-0.005915051146446376,-0.015085425740389891,0.05747149568915132,0.027067446174636325,-0.04195502227979898,-0.0425553113467597,-0.012997203575704629,-0.008306695929289275,0.04358788363636011,0.0005465725632383436,-0.037320195961328226,-0.07406829872830165,0.008058250057697246,-0.054582371536591484,-0.08335350584931578,0.06644270671095744,-0.05745366210119905,-0.03153290054589515,-0.07223679640457036,0.002157487053522687,0.006841478372803575,-0.050409209630966484,0.059259967662125046,-0.06739757252012561,0.062387911093345905,0.128725123882743,-0.007372874841171185,0.023917321317682844,0.008336447619496971,0.0012834757506936737,0.061582940784551246,-0.04673057864945973,0.0008923297762765145,0.002502361280351708,0.08492389983539328,-0.05262302132509042,0.03480546560337274,0.030940993518246633,0.009772910720981085,-0.06907061899262677,-0.06546483862551848,-0.016123806207921008,0.022187553661892182,0.034271679548427476,-0.01664405033475419,-0.06844897257534793,0.040688290496663775,-0.07961220137435364,0.09310169410088603,0.05319543279492006,-0.05988515852330975,0.023492339160272355,0.1196211067058999,0.0718620998767051,0.045115033471666184,0.018839398715419526,0.002463200418469035,0.03027563185059832,-0.0722190015563748,0.06245558831186398,0.006241137477698131,-0.04084661278613844,0.0757894908810391,-0.07400858181120873,0.05386779011567754,0.058818877084391805,-0.046395314085302446,0.07911556962155165,-0.008332165502088715,-0.058798624164332916,-0.051338716344497715,-0.023596334246509056,-0.071442646908679,-0.034724985480460456,0.07413128894883349,0.04172720042627284,0.09651264238243935,0.0875038151664195,0.04953082067871579,-0.03572680936488287,0.026224680980567315,0.11108569164686968,0.10611821053430645,-0.035454273400227415,-0.04470825520442526,0.06771663355795811,-0.08748243350152374,-0.018104440121341943,-0.04304954807490892,0.06401115244855515,-0.03933270686570506,0.0396782213621066,-0.07494180573126247,-0.007888139448960475,-0.04900032847124759,0.042290631404721425,-0.037481414947205506,0.010392832405456222,0.01299425044680992,-0.058488456716789906,0.01973435332587126,0.025536636712180823,0.022067883101351667,-0.06139616123118137,-0.07526563497288283,-0.025948297366182916,0.0340886138893175,-0.06825859459607975,-0.0751340292185967,0.05779157655010148,0.03438005093255354,-0.0009666709454392177,0.07108118106223132,-0.04860554039077855,0.061899194852360194,0.04253607425292258,0.06587667892813644,-0.07221298878205452,0.024511371456125242,0.016794193398877683,0.029980623873674637,0.04862286427518444,-0.03420458368498706,-0.04266775125057737,0.029297547956429866,-0.06846833219553126,-0.06350396060396113,-0.05970609175864044,-0.015473866296622736,0.060933793966193535,-0.03305298949576803,0.011275997765009736,-0.027433774774600145,-0.06340729908876491,0.05156384692200701,0.0750107890070962,-0.04819794758884992,0.015352949445407042,-0.07792558967111862,0.07247931986789315,-0.023017963411389446,-0.028107532421151403,-0.05738183136946315,0.05454082438534795,-0.04770250318903306,-0.08245765189161319,0.019086052484571518,0.05513464783117796,-0.002904298903164457,0.0037910138993338116,0.019827536252254207,0.07214257218564196,-0.03797663650391579,-0.002041069665459881,0.04030880073165571,-0.01052502624302088,-0.030575094180494894,-0.03760400891501917,-0.023243738454800048,-0.043825721215334304,0.016590454556193155,-0.04616442071601472,0.06777860277676122,0.07560604875618432,-0.03944027993890037,0.06493965941174439,-0.0006017337708177688,-0.012062236374700979,0.050267399241241364,-0.002712837752159338,-0.05912991842711275,-0.064459047633232,0.0040142089185607925,-0.028818224456521827,-0.06184633845225361,-0.039018399389327184,0.039558701695711074,0.08614585247178488,-0.009483965287169462,-0.005199945238667586,-0.020996496112109016,0.04502845977448767,-0.07982065796513355,0.04613164979483492,-0.03434404209321879,0.050272481565666265,0.014260821194413437,-0.08044971435814638,-0.07275803146230073,0.003649110605941465,0.05891718689324334,-0.0002762440745558872,0.07588991847746684,-0.0823071738726046,0.05667071929036517,0.07211448539373923,-0.0739423117089121,-0.06919783835203097,-0.03931730469679362,0.03809042504181142,0.054766287577438344,-0.06820044812438328,0.07429622172270825,-0.04822953666302252,0.06508229540760324,-0.07415906460499269,-0.053786664842806337,-0.019311717716033457
